,0,1,2,3,4,5,6,7,8,9,10,11,12,13,14,15,16,17,18,19,20,21,22,23,24,25,26,27,28,29,30,31,32,33,34,35,36,37,38,39,40,41,42,43,44,45,46,47,48,49,50,51,52,53,54,55,56,57,58,59,60,61,62,63,64,65,66,67,68,69,70,71,72,73,74,75,76,77,78,79,80,81,82,83,84,85,86,87,88,89,90,91,92,93,94,95,96,97,98,99,100,101,102,103,104,105,106,107,108,109,110,111,112,113,114,115,116,117,118,119,120,121,122,123,124,125,126,127,128,129,130,131,132,133,134,135,136,137,138,139,140,141,142,143,144,145,146,147,148,149,150,151,152,153,154,155,156,157,158,159,160,161,162,163,164,165,166,167,168,169,170,171,172,173,174,175,176,177,178,179,180,181,182,183,184,185,186,187,188,189,190,191,192,193,194,195,196,197,198,199,200,201,202,203,204,205,206,207,208,209,210,211,212,213,214,215,216,217,218,219,220,221,222,223,224,225,226,227,228,229,230,231,232,233,234,235,236,237,238,239,240,241,242,243,244,245,246,247,248,249,250,251,252,253,254,255,256,257,258,259,260,261,262,263,264,265,266,267,268,269,270,271,272,273,274,275,276,277,278,279,280,281,282,283,284,285,286,287,288,289,290,291,292,293,294,295,296,297,298,299,300,301,302,303,304,305,306,307,308,309,310,311,312,313,314,315,316,317,318,319,320,321,322,323,324,325,326,327,328,329,330,331,332,333,334,335,336,337,338,339,340,341,342,343,344,345,346,347,348,349,350,351,352,353,354,355,356,357,358,359,360,361,362,363,364,365,366,367,368,369,370,371,372,373,374,375,376,377,378,379,380,381,382,383,384,385,386,387,388,389,390,391,392,393,394,395,396,397,398,399,400,401,402,403,404,405,406,407,408,409,410,411,412,413,414,415,416,417,418,419,420,421,422,423,424,425,426,427,428,429,430,431,432,433,434,435,436,437,438,439,440,441,442,443,444,445,446,447,448,449,450,451,452,453,454,455,456,457,458,459,460,461,462,463,464,465,466,467,468,469,470,471,472,473,474,475,476,477,478,479,480,481,482,483,484,485,486,487,488,489,490,491,492,493,494,495,496,497,498,499,500,501,502,503,504,505,506,507,508,509,510,511
COc1cc(-c2ccc3ncnc(Nc4ccc5nc[nH]c5c4)c3c2)ccc1O,3.0818949,0.004071507,9.195292,2.9192014,3.3237839,4.89289,5.3004136,3.5900314,4.112044,-0.1842202,5.161587,3.1466365,3.787725,2.4717116,5.0087843,4.695622,5.0585213,5.332174,3.8274114,1.7543367,2.467826,3.1842728,4.7521057,0.5599213,3.9983125,3.9276397,5.3049994,1.9702355,2.9208407,5.1486797,2.7863297,3.1924276,5.3550625,4.921862,3.6751065,2.810997,1.5007403,3.5342298,-0.16688885,4.885998,1.6633239,5.489033,4.3317738,1.8100873,3.8319154,-0.12927526,3.5793853,2.7499251,3.7188697,2.517335,5.43486,3.802345,2.2582185,1.7377547,3.1674895,2.8345585,3.0688164,5.2068624,2.544644,3.9815733,5.450958,5.1301923,5.1784472,-0.08817212,3.9135153,3.2247827,-0.10197567,3.4329724,5.390579,5.219334,-0.1465116,2.7911189,1.8355457,3.8140118,2.927687,4.18979,3.1348205,3.2377324,0.8039838,2.8780406,2.3463836,3.051209,1.0088356,5.1372304,5.0304694,4.318963,4.479147,5.211072,5.0895634,3.9505486,4.986572,4.9751782,2.9927552,2.7766504,4.981462,5.3333983,3.2881951,1.2748942,4.9638877,4.2882137,5.2402515,-0.00027246427,5.9789352,3.2263224,2.4914184,1.1163262,4.3147764,5.221667,1.9613276,4.297305,1.8876885,4.1244097,-0.101970546,0.10196145,5.172673,2.7493472,5.437112,2.8484638,5.31398,-0.09632755,-0.09121942,4.7140393,4.420221,4.9424076,3.5895274,0.9291058,5.155979,1.4562488,5.4981422,0.82326865,4.8148565,2.8004398,4.4813824,3.9587917,5.5613213,3.333675,4.105895,2.3755221,5.311092,5.2195845,5.224581,1.6307962,4.9396043,3.933869,2.954484,5.0900626,4.997822,4.3572555,1.6970183,1.4613875,2.760616,2.4029381,3.3427675,5.2213383,-0.08879761,5.411998,-0.09664904,4.7450857,2.4782355,1.8371009,2.4931464,4.0679646,3.0288508,0.0018720136,5.0277867,1.382347,-0.12337479,2.5502315,3.0421636,4.983323,1.6414851,2.4108095,5.2788215,2.6112823,3.1089017,4.4262547,2.3846555,3.2496204,3.1090405,2.2706745,0.74828553,-0.12773347,2.1484947,1.6132327,5.210421,2.9642303,3.8862019,0.60684615,5.1489787,4.6814003,5.187093,3.1589549,5.9156523,4.1814895,5.0180697,0.0011808258,3.834016,4.2220087,4.8412614,4.8817344,2.9858992,4.0801234,0.2650644,5.9147263,4.233397,1.0320289,5.035728,2.5482266,1.8828399,4.9908032,5.2833557,2.224399,1.8937304,4.842379,2.2371652,4.9393373,3.8644416,5.11902,5.0333858,3.7119455,1.0257008,2.0784898,4.672024,3.4956322,3.1317356,5.491263,2.1523747,0.95262367,5.6727386,4.042541,1.3477092,-0.09620097,-0.09026826,0.79509485,4.918821,2.8591342,2.3306036,5.538502,1.763323,2.9877992,3.7322447,2.0220857,2.884261,4.999537,1.0697176,4.406439,3.9410615,3.2615852,4.4231915,3.8120613,4.670907,3.649537,2.7053576,4.8870735,4.042497,2.9168758,4.701719,-0.3100338,3.9731193,5.9957223,1.2082266,0.46384642,3.388431,1.3211095,5.3417797,4.4814334,-0.08650989,4.7980766,4.973168,3.110592,2.700673,2.7143939,3.9712586,1.9277109,2.786875,2.353349,2.893656,3.0230546,5.1194334,3.6287777,2.959647,3.509111,5.889851,5.566346,3.7458625,0.8268234,3.9516454,5.8961353,2.92982,4.7855754,4.886277,2.059939,4.508055,3.1648154,3.3084579,5.0611167,4.3055596,5.070901,4.9196506,3.089839,5.0167227,2.139708,-0.15435554,4.885054,3.1825283,1.9452626,2.853047,5.423985,2.7962463,5.098634,2.807905,5.0399,5.3723416,3.4285686,-0.08566289,2.8436012,1.0474464,2.3182783,3.0179017,5.092147,3.8200703,2.951324,2.8812726,2.0242686,5.2291346,4.558476,2.4977956,4.1770115,2.2972722,2.1459439,4.959012,4.83802,5.216709,4.963427,5.0018167,3.0836184,2.8005126,5.0182962,4.947596,3.3583496,2.162751,1.4116336,2.575025,2.931356,0.69844294,-0.08103948,3.796786,4.9110494,5.2355394,2.60275,5.022386,1.5296018,5.054889,4.379079,4.5680428,5.0565476,1.8612335,4.9118147,2.5427697,-0.17866972,3.145759,3.9845018,3.0986648,4.7132945,3.709713,0.0018538991,4.9581666,6.036383,3.2837694,2.3093019,5.3011036,3.756832,5.384487,4.885978,5.6852274,4.056222,3.961169,2.8784046,2.7507246,6.362002,2.9464242,5.7289906,4.2460327,1.4532642,2.5277066,0.36974663,5.016958,-0.11456999,0.5063263,4.953377,5.0170283,5.7912936,6.6039033,2.1389222,1.9570005,2.7785714,3.0158138,2.2737389,4.00868,2.762317,5.223835,2.5876455,3.2520394,4.8278093,4.7389345,1.9563438,3.300211,2.202581,4.9741797,2.493491,5.2096004,3.0363443,1.7424066,3.767394,1.8122337,3.3260512,2.985693,1.691631,5.372015,2.5620847,4.9675274,4.2691674,2.6214387,1.2499335,4.800031,4.1385736,1.1749833,2.1610317,5.64035,1.9846935,2.023904,4.043628,4.034876,5.445743,5.377027,5.812163,0.0035784135,1.6251467,4.8424516,2.0370846,5.315253,4.937986,-0.03858508,5.1808157,4.893763,5.0380898,2.0783732,2.3913631,5.194695,5.6486187,5.6135798,5.18333,2.7875187,1.6423413,2.8015206,-0.037286527,2.081823,6.4256854,-0.04908355,2.473564,-0.05057502,1.1372515,5.0700283,3.1522627,3.9280972,3.6985838,1.6370114,5.7841034,4.493638,1.6331143,5.501038,1.4799881,2.6896265,1.521619,5.0202246,2.2438374,2.6835024,3.7575438,5.1316543,3.8273737,4.1651506,2.2241163,4.259731,4.2570643,5.11411,4.3109307,3.313266,3.3426225,4.979729,0.96589386,3.1801667,3.1335714,5.7246504,-0.23140633,3.458743,3.7120607,5.7004466,3.6557748,4.8832364,3.226388,2.5712974,3.88604,4.5190735,-0.13241862,1.9504039,5.379382,4.1679187,3.2420619,1.0249257,6.0847626,2.9580786,3.2196727
COc1ccc(-c2ccc3ncnc(Nc4cccc(O)c4)c3c2)cc1,3.0320055,0.004071507,9.195292,2.9192014,3.3237839,4.89289,5.3004136,3.5900314,2.2005615,-0.1842202,5.161587,4.180514,3.4396932,12.205352,5.0203753,4.6881633,5.0576005,6.633875,2.8942022,-0.25297296,2.17102,3.2357507,4.744193,0.01791148,3.5763967,3.327007,5.073603,1.833234,2.9208407,5.1486797,2.5475936,3.6864288,5.3550625,4.928064,4.836566,2.810997,1.3641841,7.3536263,4.064699,4.9160094,1.8876206,5.489033,4.3317738,1.8100873,3.8113527,7.292916,3.3060787,2.6122084,3.7188697,2.788305,5.4462285,3.3141701,2.2582185,1.7311376,3.1581519,4.085198,3.0465581,5.2068624,1.6105353,3.940448,5.450958,5.1115875,5.1784472,12.014045,3.4941595,3.2247827,12.043519,3.4329724,5.359541,5.219334,-0.1465116,2.6661496,1.8355457,3.8140118,4.397182,4.2045283,3.1575396,3.2596767,0.99017435,3.3855019,2.073856,3.0701036,4.8825917,5.144352,5.0274777,4.318963,4.487919,5.211072,5.0895634,3.9505486,5.026279,4.8464637,3.1429765,2.9483035,4.981462,5.3333983,3.2881951,1.1919881,4.976249,4.2882137,5.1935506,-0.00027246427,4.4677453,3.2263224,2.4744623,0.58344674,4.2826486,5.168902,4.20285,3.8366606,1.1857834,4.1244097,14.227283,7.630148,5.172673,4.8633237,5.437112,2.5706048,5.333289,6.8256707,-0.09121942,4.7140393,4.496075,4.9424076,4.9587984,2.2193441,5.171744,1.3516257,5.4981422,2.3270357,4.8171887,6.149641,4.5047145,3.9814813,5.243285,3.2396924,3.4731736,2.4338737,5.311092,5.2195845,5.224581,1.4941244,5.0036,3.933869,3.028239,5.0795317,4.976255,4.3599067,1.8232462,0.8220014,2.3454142,2.4029381,3.3406332,5.2213383,-0.08879761,5.411998,11.983148,6.5222306,5.2844357,1.7179126,1.9632251,3.4276493,2.9143145,0.0018720136,5.0277867,0.8499715,11.25843,3.297799,2.5139942,4.9981403,4.851341,2.1407022,5.2788215,4.636884,2.898807,4.4262547,5.518497,3.2496204,3.2333136,2.3926885,0.6752152,-0.12773347,1.5304158,1.9342024,5.210421,3.0469246,2.4958153,-0.047554556,5.1489787,4.6814003,5.187093,3.144054,5.9156523,4.1807404,5.018913,0.0011808258,0.9273634,4.2220087,4.8587294,4.8817344,3.0571299,4.0801234,0.9638478,5.5325155,4.233397,2.5706227,5.050094,2.9317825,0.92247164,5.007932,5.2737865,1.9847145,-0.22930168,4.880597,2.0103662,4.9908633,0.11090129,5.11902,4.9832234,3.0178738,1.9824449,3.8488634,4.6791883,5.9002905,3.5669951,5.491263,3.981233,7.148574,5.6727386,4.042541,6.3442926,8.780274,-0.09026826,2.6338277,4.91321,2.6996293,2.3306036,5.538502,1.6613231,2.4138508,3.8266218,1.8045944,2.4054317,5.011152,0.5467303,4.406439,3.9410615,3.2615852,2.1950614,3.835963,4.670907,3.649537,2.9249556,4.89271,4.042497,0.9472433,4.7023706,-0.32525915,6.847558,5.429234,10.217647,5.7586427,2.6659107,0.80450445,5.3417797,4.4814334,9.800933,4.763974,4.981398,3.120246,2.1951015,2.7869048,3.9166064,1.9483922,2.786875,2.3544118,6.3248463,3.0609472,5.170566,1.9719918,2.7773478,7.4761405,3.3425295,5.566346,3.5569918,-0.2297162,3.9516454,4.3748465,2.555173,4.7824135,4.8902526,1.4041736,4.508055,3.1415014,3.2980814,5.042344,2.5740235,5.0883975,4.9196506,3.089839,5.00384,2.139708,-0.15435554,4.916805,2.5210958,1.8071047,3.2845345,5.423985,2.7614918,5.112047,2.215585,5.0322084,5.3723416,2.6076508,9.282354,3.0849307,0.49259338,2.135456,2.961354,5.1462297,4.3120236,2.951324,2.8812726,1.4875243,5.2291346,4.558476,4.485823,4.176897,2.4286847,1.5088986,4.98774,4.83802,5.212455,4.963427,5.003067,2.7639112,2.8005126,5.087193,4.96034,3.2337182,2.0473044,3.4939952,2.575025,2.931356,0.1427285,-0.08103948,3.5409865,4.9110494,5.2355394,2.340995,5.022386,1.312545,2.260308,4.379079,4.5916796,5.0327,3.6610959,4.9011497,2.4207618,-0.17866972,2.6172254,3.9845018,3.062678,4.6956844,3.3356302,0.0018538991,4.975919,5.490571,3.2837694,5.9341497,5.3011036,3.756832,5.384487,4.8956256,5.142597,2.32494,3.961169,2.048392,2.7507246,5.0916176,2.876347,6.0391097,4.2238193,1.5396225,2.5277066,-0.1043963,5.002789,6.852247,8.105157,4.9515944,4.9947896,5.1503305,4.0650935,1.3373871,1.9570005,2.6646008,3.0158138,2.3850691,4.4267874,2.2461493,5.223835,3.9844632,3.129203,4.855964,4.7389345,1.940743,7.064955,1.8510351,4.9741797,2.493491,5.2096004,2.7730107,1.452329,3.767394,1.8061554,0.7461879,3.0480382,1.6213765,3.5359607,2.8474252,4.9823694,5.003546,2.9617438,1.1370889,4.800031,4.1385736,8.280621,1.8936633,5.64035,1.2652545,1.7331849,4.90702,4.034876,5.445743,5.377027,5.4032645,0.0035784135,1.6251467,4.905182,1.9591924,5.315253,4.92981,-0.03858508,5.1808157,4.899169,5.0380898,2.2788534,2.3913631,5.18134,5.6486187,5.2363305,5.165834,2.7875187,1.5168164,2.8015206,-0.037286527,1.9765277,1.3496399,-0.15004073,5.591507,-0.05057502,4.2397103,5.0778112,0.7020246,3.48637,3.6985838,1.9354856,1.921243,4.493638,1.7191231,5.501038,6.3027525,2.9502337,7.4804688,5.008861,1.3772454,2.479388,7.2194896,5.065368,3.825096,4.1651506,2.2241163,4.259731,1.4026804,5.11411,-0.21593875,8.658808,4.486173,4.9677153,-0.16925228,3.099379,2.7402818,5.2493033,4.642923,4.0404344,3.7120607,5.2392573,3.3440983,4.9079986,4.0906076,2.5712974,0.51599187,4.5190735,-0.13241862,1.9504039,5.379382,4.1679187,3.3016875,1.4133935,5.4901857,2.8915164,3.1595838
CS(=O)(=O)Nc1ccc(-c2ccc3ncnc(Nc4cccc5[nH]ncc45)c3c2)cc1,3.7861063,0.004071507,9.195292,3.614493,3.3652437,4.89289,5.3004136,3.5900314,2.7171133,5.7426395,5.161587,6.6787615,3.4900293,-0.10558864,5.3606915,7.348594,5.3664517,0.5804236,2.8942022,5.14347,5.5762854,3.40348,5.010055,2.4593172,3.5763967,3.327007,5.073603,2.752143,2.97092,5.1486797,4.2709737,3.6974356,5.3550625,5.197413,4.5741196,3.489243,1.2481519,2.1891036,-0.21138054,5.257819,2.3703344,5.489033,4.34579,2.2226074,4.128499,-0.12927526,3.3060787,2.6122084,3.7334776,3.1121693,5.8137913,3.3141701,2.7275808,7.291995,3.5198855,3.5437882,3.6119442,5.2181096,2.3514943,3.940448,5.450958,5.2330027,5.1784472,-0.08817212,3.4947562,3.2819679,-0.10197567,3.4329724,5.539986,5.226523,6.063276,8.082671,1.8952688,3.8335178,6.4589906,4.2045283,3.747546,3.7868118,2.9220195,3.4581149,2.0910728,3.3617237,5.266197,5.4218116,5.3803287,4.3224964,4.8010764,5.2035866,5.098824,3.9505486,5.2866597,4.8464637,3.4184194,3.3630848,4.984324,5.3247423,3.2881951,3.9441035,5.316499,4.244372,5.45412,-0.00027246427,-0.19368942,3.2263224,2.4744623,4.2301316,8.353899,5.5311,3.0050786,3.8366606,1.2009103,4.1259093,-0.101970546,3.1522698,5.172673,3.7377753,5.445938,2.3742757,5.497266,-0.09632755,-0.09121942,4.7140393,5.112571,4.948154,4.5072155,5.515626,5.3889236,1.5154159,5.4940295,4.1954155,5.1064076,2.5416815,4.728471,4.172154,5.243285,3.6287477,3.4731736,2.4617207,5.282474,5.2195845,5.2147474,4.030412,5.2425895,3.9458969,3.650242,5.3801603,5.2494726,4.6935806,4.8196354,8.5680895,2.9272182,3.5829856,4.930304,5.241198,-0.08879761,5.411998,-0.09664904,2.248828,3.0665941,2.8094125,3.220058,3.4276493,3.4373574,0.0018720136,5.033184,6.131216,-0.12337479,5.5753202,4.9076724,5.3083625,4.4984026,2.1407022,5.277524,4.733774,3.4721751,4.4335876,2.7109334,3.2563682,3.5496354,2.4173257,7.3710465,8.540209,1.5403655,4.5104065,5.210421,3.4200907,4.560989,2.4365973,5.157478,4.695954,5.19149,4.036514,5.9372106,4.1807404,5.2692,0.0011808258,6.1070414,4.2220087,5.2874656,4.89194,3.4284835,4.0801234,9.758194,2.24067,4.246451,7.103331,5.306193,3.1752214,3.8357642,5.256986,5.581286,2.397225,2.7999763,5.140382,3.9071333,5.252707,0.34277374,5.1271114,5.320897,3.0741162,9.131964,3.349576,5.2108154,7.1654644,3.5599737,5.494614,4.0784817,6.5710835,5.653975,4.042541,5.917956,-0.09620097,-0.09026826,5.48413,5.1747603,3.2933207,5.2312875,5.538502,1.6613231,2.9194572,3.8850393,1.8045944,2.6690872,5.2626414,14.095023,4.406439,3.9665422,3.270813,4.76403,4.08726,4.670907,3.649537,3.163436,5.2485867,4.042497,1.9170551,5.0603046,4.768207,4.113351,5.429234,-0.17300057,10.613452,2.6659107,7.150158,5.3417797,4.4814334,-0.08650989,5.2027965,5.2919774,3.8262835,2.400635,4.8005543,3.9166064,2.621221,7.9440002,5.774956,5.6322627,3.4783564,5.4877977,2.2679625,2.7773478,0.11141482,1.0424933,5.557974,3.5569918,6.1186376,3.9516454,4.3748465,2.8321383,5.013771,5.17131,4.792481,4.522109,3.8753605,3.8010051,5.292706,2.8544104,5.3705173,4.9196506,6.4109173,5.3582206,7.225973,7.4006524,5.2489786,3.2899814,4.4203715,2.616917,5.423985,2.7614918,5.385294,2.2378626,5.305224,5.3723416,3.2028828,-0.08566289,3.7823806,14.546266,2.135456,3.0413818,5.390256,4.3043013,3.0045502,3.3984487,3.5338383,5.2111387,4.558476,6.0366073,4.4950533,2.7725623,1.804911,5.2869067,4.83802,5.50403,4.9789186,5.3060503,3.3253872,3.0349514,5.3878226,5.2840557,3.2337182,2.2742429,2.6326585,2.5896716,3.5409667,8.069457,-0.08103948,3.642028,4.9077325,5.2355394,1.813038,5.022386,2.0984464,4.2052646,4.377826,4.8825064,5.382543,3.364233,5.289718,3.325846,0.48889533,3.3868713,3.9868488,3.210842,4.844123,3.3356302,0.0018538991,5.3398623,5.490571,3.2837694,2.1546454,5.3011036,3.756832,5.384487,5.2853456,5.142597,3.4313676,3.961169,2.4179347,3.4767807,2.21423,3.1851978,-0.18632603,4.2238193,5.72616,2.5277066,20.30681,5.3983326,-0.11456999,1.7820983,5.306558,5.3110166,2.3767197,0.43557766,2.0369358,2.456202,3.9333472,3.1547992,2.8802476,4.0414023,5.2016134,5.2233977,3.2515447,3.685034,5.193105,4.7509046,2.1291485,0.21630247,1.8510351,4.9741797,4.2800426,5.191898,3.429928,1.452329,3.767394,2.1122456,1.3093975,3.4575527,3.6725302,2.7115278,-0.22027156,5.2818694,3.1380873,3.410952,1.1900575,4.8067703,4.1385736,1.2970035,2.2257574,5.64035,5.235772,4.6184673,11.393167,4.0410037,5.445743,5.370121,5.4032645,0.0035784135,1.6251467,5.2345743,1.9591924,5.3202214,5.309099,-0.03858508,5.1821747,5.326515,5.0266848,2.2796862,2.3913631,5.4875674,5.6486187,-0.19259469,5.4430013,3.177377,5.517371,2.8067882,-0.037286527,2.1242244,1.5708346,15.720936,5.182335,-0.05057502,4.401718,5.242275,0.65447825,3.48637,3.6994023,1.9605529,1.3705921,4.5103216,1.8457713,5.4954,4.9488287,5.2784157,2.8283546,5.3451433,1.4960474,4.735392,2.8235304,5.381917,4.617917,4.171356,9.013322,4.271865,1.6653271,5.105424,-0.21593875,2.2123072,4.05179,5.429815,2.6383367,3.5283215,2.7402818,5.2493033,3.011915,4.1065307,3.7120607,5.2392573,3.3440983,5.27114,3.6605785,3.7256205,1.4141146,4.5190735,14.134597,3.58497,5.353772,4.1679187,3.5532875,4.7091594,5.4901857,3.5346198,3.1595838
Clc1ccc(-c2ccc3ncnc(Nc4cccc5[nH]ncc45)c3c2)cc1,3.7861063,0.004071507,9.195292,3.614493,3.3652437,4.89289,5.3004136,3.5900314,2.6629126,10.37622,5.161587,6.6787615,3.4706347,-0.10558864,5.3606915,4.6881633,5.3664517,0.5804236,2.8942022,6.4784255,5.5762854,3.40348,5.010055,14.326833,3.5763967,3.327007,5.073603,2.0510397,2.97092,5.1486797,4.2709737,6.0960546,5.3550625,5.197413,4.5741196,3.489243,1.1775807,2.1891036,7.6089864,5.257819,2.3703344,5.489033,4.34579,2.2226074,4.128499,-0.12927526,3.3060787,2.6122084,3.7334776,2.3432941,5.8137913,3.3141701,2.7275808,6.3516374,3.5198855,3.5437882,3.6119442,5.2181096,1.6465895,3.940448,5.450958,5.2330027,5.1784472,-0.08817212,3.39263,3.2819679,-0.10197567,3.4329724,5.539986,5.226523,6.063276,7.3191338,1.8952688,3.8335178,6.4589906,4.2045283,3.747546,3.7868118,10.662502,3.4581149,2.0910728,3.3617237,4.5375595,5.4218116,5.3803287,4.3224964,4.8010764,5.2035866,5.098824,3.9505486,5.2866597,4.8464637,3.4184194,3.3630848,4.984324,5.3247423,3.2881951,2.4284565,5.316499,4.244372,5.45412,-0.00027246427,-0.19368942,3.2263224,2.4744623,1.3410666,4.5644183,5.5311,2.4919505,3.8366606,1.2009103,4.1259093,-0.101970546,3.1522698,5.172673,3.7377753,5.445938,1.6485847,5.497266,-0.09632755,10.48659,4.7140393,5.112571,4.948154,4.5072155,5.515626,5.3889236,1.5154159,5.4940295,4.1954155,5.1064076,1.2835361,4.728471,4.172154,5.243285,3.6287477,3.4731736,2.4617207,5.282474,5.2195845,5.2147474,2.6057742,5.2425895,3.9458969,3.650242,5.3801603,5.2494726,4.6935806,4.7284527,5.4395056,2.9272182,2.414406,3.471685,5.241198,-0.08879761,5.411998,-0.09664904,2.248828,3.0665941,2.1338205,1.929922,3.4276493,3.4373574,0.0018720136,5.033184,7.221883,-0.12337479,5.5753202,2.4827306,5.3083625,8.730115,2.1407022,5.277524,4.6036525,3.4721751,4.4335876,2.7109334,3.2563682,3.5496354,2.9828718,5.29102,8.540209,1.5403655,5.24575,5.210421,3.4200907,2.7115471,10.622872,5.157478,4.695954,5.19149,3.3919237,5.9372106,4.1807404,5.2692,0.0011808258,6.1070414,4.2220087,5.2874656,4.89194,3.4284835,4.0801234,3.2277684,2.24067,4.246451,5.916547,5.306193,2.489669,8.072963,5.256986,5.581286,2.397225,7.8315187,5.140382,2.0103662,5.252707,6.304261,5.1271114,5.320897,3.0178738,5.023597,3.1517353,5.2108154,3.718503,3.5599737,5.494614,4.0784817,3.1473255,5.653975,4.042541,5.917956,-0.09620097,16.87758,5.916519,5.1747603,3.2933207,3.0996184,5.538502,2.163939,1.7568346,3.79982,1.8045944,2.1032054,5.2626414,8.382128,4.406439,3.9665422,3.270813,1.6393248,4.08726,4.670907,3.649537,3.163436,5.2485867,4.042497,2.976449,5.0603046,7.226163,4.113351,5.429234,-0.17300057,6.74719,2.6659107,9.221395,5.3417797,4.4814334,-0.08650989,5.2027965,5.2919774,3.8262835,2.400635,2.773888,3.9166064,6.091216,9.082373,2.4937258,5.6322627,3.4783564,5.4877977,1.9645758,2.7773478,0.79275894,1.0424933,5.557974,3.5569918,7.103396,3.9516454,8.328719,2.8321383,5.013771,5.17131,1.4854013,4.522109,3.8753605,3.8010051,5.292706,2.8544104,5.3705173,4.9196506,5.157896,5.3582206,7.2648745,7.4006524,5.2489786,3.2899814,3.8902035,2.616917,5.423985,2.7614918,5.385294,2.215585,5.305224,5.3723416,3.2028828,-0.08566289,3.7823806,11.206261,2.135456,3.0413818,5.390256,4.3043013,3.0045502,3.3984487,3.1241698,5.2111387,4.558476,6.0366073,4.4950533,2.7725623,1.804911,5.2869067,4.83802,5.50403,4.9789186,5.3060503,3.3253872,3.0349514,5.3878226,5.2840557,3.2337182,2.2742429,6.9796424,2.5896716,3.5409667,3.229859,20.301027,3.6348414,4.9077325,5.2355394,1.813038,5.022386,2.7535105,4.2052646,4.377826,4.8825064,5.382543,3.364233,5.289718,3.325846,16.743624,3.3868713,3.9868488,3.210842,4.844123,3.3356302,0.0018538991,5.3398623,5.490571,3.2837694,2.1546454,5.3011036,3.756832,5.384487,5.2853456,5.142597,2.60947,3.961169,2.4179347,3.4767807,0.010677202,3.1851978,5.551549,4.2238193,7.0033746,2.5277066,6.436133,5.3983326,-0.11456999,1.7820983,5.306558,5.3110166,2.3767197,0.43557766,1.5097433,2.456202,2.597291,3.1547992,2.2936938,4.0414023,2.9453373,5.2233977,3.2515447,3.685034,5.193105,4.7509046,2.1291485,5.2095766,1.8510351,4.9741797,5.876139,5.191898,3.429928,1.452329,3.767394,2.1122456,7.0292606,3.4575527,5.4883037,2.7115278,10.745288,5.2818694,0.9307261,3.410952,1.0445942,4.8067703,4.1385736,1.6711576,2.2257574,5.64035,6.1194663,2.5326424,8.7854805,4.0410037,5.445743,5.370121,5.4032645,0.0035784135,1.6251467,5.2345743,6.2015696,5.3202214,5.309099,29.982084,5.1821747,5.326515,5.0266848,2.2796862,2.3913631,5.4875674,5.6486187,-0.19259469,5.4430013,3.177377,2.745623,2.8067882,-0.037286527,1.8179262,1.5708346,14.841872,5.182335,-0.05057502,4.1236243,5.242275,9.051475,3.48637,3.6994023,3.9129682,0.12186546,4.5103216,10.152254,5.4954,4.9488287,3.3225539,2.8283546,5.3451433,1.355105,2.7104735,2.8235304,5.381917,4.014409,4.171356,2.2241163,4.271865,1.4026804,5.105424,8.116383,2.2123072,4.05179,5.429815,12.05439,3.5283215,2.7402818,5.2493033,4.691078,4.082253,3.7120607,5.2392573,3.3440983,5.27114,3.6605785,3.7256205,5.911528,4.5190735,13.431534,1.9608073,5.353772,4.1679187,3.5532875,2.3869267,5.4901857,3.5346198,3.1595838
NC(=O)c1cccc(-c2ccc3ncnc(Nc4cccc5[nH]ncc45)c3c2)c1,3.7861063,0.004071507,9.195292,3.614493,3.3652437,4.89289,5.3004136,3.5900314,2.6629126,-0.1842202,5.161587,6.6787615,3.5913005,-0.10558864,5.3606915,4.6881633,5.3664517,6.2511115,3.4091976,5.14347,5.5762854,3.40348,5.010055,2.4593172,3.9675016,3.5190678,5.073603,2.0510397,2.97092,5.1486797,4.2709737,3.6974356,5.3550625,5.197413,4.5741196,3.489243,1.1885556,2.7780406,8.003764,5.257819,2.3703344,5.489033,4.34579,2.2226074,4.128499,-0.12927526,3.3060787,2.69979,3.7334776,2.3432941,5.8137913,3.516679,2.7275808,2.0620697,3.5198855,3.5437882,3.6119442,5.2181096,1.2977139,3.940448,5.450958,5.2330027,5.1784472,-0.08817212,3.8635795,3.2819679,-0.10197567,3.4329724,5.539986,5.226523,6.063276,2.6661496,1.8952688,3.8335178,6.4589906,4.1897902,3.747546,3.7868118,3.6393073,3.4581149,2.3799992,3.3617237,4.5375595,5.4218116,5.3803287,4.3224964,4.8010764,5.2035866,5.098824,3.9505486,5.2866597,4.8464637,3.4184194,3.3630848,4.984324,5.3247423,3.2881951,2.0137815,5.316499,4.244372,5.45412,-0.00027246427,-0.17552283,3.2263224,2.4914181,4.301289,4.5644183,5.5311,2.4919505,3.8366606,1.6983902,4.1259093,1.1495643,3.1522698,5.172673,3.7377753,5.445938,2.1648428,5.497266,-0.09632755,4.835863,4.7140393,5.112571,4.948154,4.5072155,5.515626,5.3889236,1.5154159,5.4940295,4.1954155,5.1064076,2.5038457,4.728471,4.172154,5.243285,3.6287477,4.0683312,2.4617207,5.282474,5.2195845,5.2147474,1.9307563,5.2425895,3.9458969,3.650242,5.3801603,5.2494726,4.6935806,3.3678327,1.3988894,2.9272182,2.414406,3.471685,5.241198,-0.08879761,5.411998,-0.09664904,2.248828,3.0665941,2.1338205,2.2271867,3.7451344,3.4373574,0.0018720136,5.033184,2.213684,7.521086,5.5753202,2.4827306,5.3083625,6.166269,2.3181381,5.277524,2.6107683,3.4721751,4.4335876,2.7109334,3.2563682,3.5496354,2.2465355,2.2042294,8.540209,1.6746259,2.649578,5.210421,3.4200907,2.7115471,2.9506757,5.157478,4.695954,5.19149,3.3919237,5.9372106,4.1807404,5.2692,0.0011808258,6.1070414,4.2220087,5.2874656,4.89194,3.4284835,4.0801234,1.9313482,6.1984153,4.246451,2.7184381,5.306193,2.489669,2.4743035,5.256986,5.581286,2.397225,4.54316,5.140382,2.6321754,5.252707,4.400623,5.1271114,5.320897,3.4201224,4.0752363,3.1517353,5.2108154,3.718503,3.5599737,5.494614,4.0784817,3.1473255,5.653975,4.042541,5.917956,-0.09620097,-0.09026826,2.397703,5.1747603,3.2933207,2.3306036,5.538502,1.9423776,3.7832718,3.71702,2.0678453,3.1521127,5.2626414,1.0004812,4.406439,3.9665422,3.270813,1.6393248,4.08726,4.670907,3.649537,3.163436,5.2485867,4.042497,1.9309032,5.0603046,4.768207,4.113351,5.429234,-0.17300057,6.8705845,3.536345,1.5885077,5.3417797,4.4814334,-0.08650989,5.2027965,5.2919774,3.8262835,2.691684,2.9746935,3.9166064,3.9310446,2.786875,2.3972487,5.6322627,3.4783564,5.4877977,4.262656,2.9060996,3.2901561,6.0043654,5.557974,3.7040706,6.1186376,3.9516454,4.3748465,2.8321383,5.013771,5.17131,2.1370084,4.522109,3.8753605,3.8010051,5.292706,3.158283,5.3705173,4.9196506,3.089839,5.3582206,2.139708,7.4006524,5.2489786,3.2899814,2.8046951,2.616917,5.423985,2.7614918,5.385294,2.4551396,5.305224,5.3723416,3.2028828,-0.08566289,3.7823806,0.6032316,2.135456,3.7531419,5.390256,4.3043013,3.0045502,3.3984487,2.4365084,5.2111387,4.558476,6.0366073,4.4950533,2.7725623,1.804911,5.2869067,4.83802,5.50403,4.9789186,5.3060503,3.3253872,3.0349514,5.3878226,5.2840557,3.2337182,2.2742429,4.283975,2.5896716,3.5409667,-0.21760839,-0.08103948,3.4846096,4.9077325,5.2355394,1.813038,5.022386,2.0984464,4.2052646,4.377826,4.8825064,5.382543,3.364233,5.289718,3.325846,3.5336723,3.3868713,3.9868488,3.210842,4.844123,3.3356302,0.0018538991,5.3398623,5.490571,3.2837694,3.6232178,5.3011036,3.756832,5.384487,5.2853456,5.142597,4.774812,3.961169,2.4179347,3.4767807,6.101226,3.1851978,-0.18632603,4.246032,3.4251883,2.5277066,-0.1043963,5.3983326,4.669651,1.7820983,5.306558,5.3110166,5.682396,6.5339894,1.1028457,2.456202,2.7089655,3.1547992,2.2936938,4.0414023,2.9453373,5.2233977,3.2515447,3.685034,5.193105,4.7509046,2.1291485,5.013707,3.4680977,4.9741797,2.5794368,5.191898,3.429928,1.822624,3.767394,2.425707,4.3757057,3.4575527,2.4476962,2.7115278,4.9650383,5.2818694,4.072827,3.410952,1.6666938,4.8067703,4.1385736,3.2254474,2.4159517,5.64035,1.7747583,2.1222446,1.0429837,4.0410037,5.445743,5.370121,5.4032645,0.0035784135,1.6251467,5.2345743,1.9980804,5.3202214,5.309099,-0.03858508,5.1821747,5.326515,5.0266848,2.2796862,2.3913631,5.4875674,5.6486187,0.41719693,5.4430013,3.177377,2.0883389,2.8067882,19.844353,2.0951092,4.565007,0.5627,5.182335,-0.05057502,3.2362213,5.242275,4.570482,3.7490451,3.6994023,2.816833,5.931476,4.5103216,3.1125371,5.4954,4.9488287,3.3225539,2.8283546,5.3451433,1.639079,2.7104735,2.8235304,5.381917,4.014409,4.171356,2.2241163,4.271865,4.6349573,5.105424,4.8099394,2.4129033,4.05179,5.429815,2.6383367,3.5283215,3.002545,5.2493033,6.725952,3.2697935,3.7120607,5.2392573,3.46198,5.27114,3.6605785,3.7256205,4.2075377,4.5190735,-0.13241862,1.9608073,5.353772,4.1679187,3.5532875,1.2039764,5.4901857,3.5346198,3.507423
COc1cc(-c2ccc3nccc(Nc4cccc5[nH]ncc45)c3c2)ccc1O,4.7793894,0.004071507,-0.16347788,4.728584,4.096878,0.033295702,2.4835496,3.1552582,4.112044,-0.1842202,5.4505086,6.6787615,3.787725,-0.10558864,5.9346476,0.58243006,6.4104624,5.332174,3.8274114,5.14347,5.5762854,4.4213343,5.3914967,2.4593172,4.0482616,3.9276397,5.2762027,2.6855502,4.27556,5.2343397,8.100636,3.6974356,5.15694,5.671197,4.5741196,4.4106097,1.5007403,4.1909103,-0.16688885,5.5441017,2.880678,2.2642958,4.3333507,2.5405686,4.522221,-0.12927526,2.9420304,2.7727437,3.8862772,3.4647381,6.046183,3.802345,4.404319,1.6488063,4.3489013,3.5437882,4.376999,4.9043584,2.544644,2.604478,2.7909482,5.4627023,5.2548804,-0.08817212,3.9478068,4.240523,-0.10197567,3.2619898,7.4146466,4.686938,6.063276,0.91510046,1.7366468,4.0532346,6.4589906,4.2717304,4.4296584,4.611926,2.9220195,3.4581149,2.3463836,4.155051,4.5375595,5.579624,5.6036234,4.2369556,5.275853,4.276354,4.7983937,3.7690709,5.448072,3.3448708,4.25709,4.10286,4.5380588,4.328713,2.0480838,1.2748942,5.9714556,1.5065477,7.1668887,-0.00027246427,5.9789352,2.8647244,2.566716,0.95119864,5.926676,7.2312,2.5028844,3.1678622,2.0325294,3.481855,-0.101970546,3.1522698,5.1409597,3.7377753,4.9526663,2.8484638,5.4767303,-0.09632755,-0.09121942,5.404123,7.690518,4.98017,4.5072155,5.515626,6.232048,2.456178,4.972484,4.1954155,5.5957894,3.2935772,4.841743,4.1885867,4.103241,4.2751637,4.1449575,2.9761786,4.8479824,5.1918697,4.784644,2.3829637,4.788177,4.014731,4.795276,5.64131,5.392496,4.9179826,2.4798245,1.399083,2.9272182,1.7412903,3.9011881,5.0926833,-0.08879761,1.4016851,-0.09664904,4.7450857,3.0889525,2.1338205,2.4931464,4.0679646,4.3773127,0.0018720136,4.882016,1.3492312,-0.12337479,5.5753202,3.0421636,5.496448,1.6414851,2.4108095,4.567891,2.6373901,4.1623497,4.4747334,2.7109334,3.4520607,4.335832,2.2706745,0.0323764,8.540209,2.2777643,1.5483413,5.3088355,3.9424264,3.8862019,2.4365973,4.8700266,1.559665,5.0265713,3.3919237,-0.1815399,3.6313653,5.9222198,0.0011808258,6.1070414,2.2139385,5.8530574,5.135233,4.7701106,2.4359744,1.9313482,5.9147263,4.596981,0.87651324,6.2585974,2.489669,1.4276938,5.2534256,5.977369,3.6300178,1.8937304,4.6996403,2.2371652,4.4737926,3.8644416,4.981401,5.417078,3.7119455,1.0257008,3.1517353,8.242977,3.718503,3.5599737,4.5332794,4.0784817,3.1237764,3.94059,2.3093545,5.917956,-0.09620097,-0.09026826,0.79509485,5.1821837,4.603266,0.7813597,2.0310495,1.8175243,2.9877992,3.764803,2.0220857,2.884261,5.4846606,1.0004812,4.6980796,2.4520926,4.3801875,4.4231915,4.62344,2.889366,3.3437934,3.874384,5.3895497,3.9214053,2.9168758,4.8896203,4.768207,5.9941525,4.764047,1.4062442,-0.18111369,3.388431,1.2110101,5.289222,2.342855,-0.08650989,6.620991,6.110351,4.8535514,3.7448049,3.4127133,3.0027683,1.9466467,0.62890345,2.979398,5.6322627,4.1391416,4.695605,3.6287777,2.959647,1.392868,5.889851,4.5043344,3.7458625,6.1186376,3.9601574,1.4066811,2.92982,4.427261,5.7066655,2.059939,4.3551774,5.0435514,5.0650396,6.065022,4.3055596,5.9302936,1.7821125,0.9711414,5.8030257,0.779467,7.4006524,5.105817,4.5246773,2.177393,2.616917,5.668092,1.4842932,5.8947535,2.807905,5.3858,5.095054,3.6592712,-0.08566289,4.18591,0.6032316,2.436452,4.2626033,4.1501603,8.091475,4.2460284,4.369601,2.0242686,5.20216,2.7414815,6.0366073,4.989685,3.1999593,1.815617,5.464118,2.6450725,5.8079257,4.9787526,6.3208966,4.190095,4.0829544,5.5463552,6.113645,2.5140386,2.9486496,1.4116336,2.9244747,4.823704,0.69844294,-0.08103948,3.796786,4.5955215,5.0255527,2.60275,5.658913,2.0984464,5.054889,3.7660415,5.150574,5.968394,3.364233,5.627838,5.191798,-0.17866972,4.808136,3.6766284,3.339475,5.354938,3.1419616,0.0018538991,5.6661634,3.7879348,2.394572,1.5757726,5.349647,3.185868,5.0965962,5.7328796,4.6546254,4.056222,2.8883893,3.178731,5.0776825,6.362002,3.8897994,5.7289906,5.130907,1.4532642,2.2642868,-0.1043963,6.5739913,-0.11456999,1.7820983,5.1009655,5.339162,5.7912936,6.6039033,2.1389222,2.4516327,2.8284953,4.931829,2.2936938,4.5622144,3.762293,5.0461354,3.2515447,4.748854,5.050542,4.448963,2.256345,5.020643,2.202581,2.5006514,0.6526585,5.110296,4.26077,1.7424066,3.6113417,3.678405,3.3260512,4.181545,1.691631,5.372015,2.5620847,5.3457103,4.2691674,3.410952,1.2499335,4.4387555,4.0015764,1.1749833,3.2789838,2.2017474,1.1069628,3.1311753,4.043628,3.8316662,3.0637596,4.9065547,3.0287201,0.0035784135,1.5771093,4.914714,2.0370846,4.8441854,5.7012887,-0.03858508,4.811339,6.3652596,5.3464055,2.654548,2.4534843,5.48765,1.737717,5.6135798,5.2041397,4.209817,1.6423413,2.816703,-0.037286527,2.081823,6.4256854,0.5627,5.182335,-0.05057502,7.98486,6.1835365,3.1522627,3.9280972,3.921375,1.5701628,5.7841034,4.6919227,1.8457713,4.6228056,4.9488287,3.5068078,2.8283546,6.4445624,2.2438374,2.7104735,4.1279774,6.8688126,4.255682,4.346116,2.1499672,4.0637884,4.2570643,4.8218284,4.3109307,2.2486253,4.05179,6.7212305,2.6383367,4.491778,3.1335714,2.8782449,3.1478226,3.458743,3.5865304,4.3393607,3.6557748,5.2725687,3.6605785,5.8956485,3.88604,2.409324,-0.13241862,1.7207774,4.7579226,4.0339184,3.653439,1.1960825,5.2808847,4.67232,3.2415812
Cc1ccc(F)cc1-c1ccc2ncnc(Nc3cccc4[nH]ncc34)c2c1,3.7861063,0.004071507,9.195292,3.614493,3.3652437,4.89289,5.3004136,3.5900314,2.6629126,3.4535637,5.161587,6.6787615,3.210245,-0.10558864,5.3606915,4.6881633,5.3664517,0.5804236,3.181985,5.14347,5.5762854,3.40348,5.010055,4.729669,3.662926,3.2543929,5.073603,2.4440584,2.97092,5.1486797,4.2709737,3.6974356,5.3550625,5.197413,4.5741196,3.489243,2.4189107,2.1891036,3.4221241,5.257819,2.3703344,5.489033,4.3343616,2.2226074,4.128499,-0.12927526,3.3060787,2.9845102,3.7334776,2.3432941,5.8137913,3.595608,2.7275808,3.3748062,3.5198855,3.5437882,3.6119442,5.2517114,1.345328,3.940448,5.450958,5.2330027,5.1784472,-0.08817212,3.5388298,3.2819679,-0.10197567,3.4329724,5.539986,5.23815,6.063276,3.000889,1.8952688,3.8293333,6.4589906,4.167269,3.747546,3.7868118,3.6694467,3.4581149,2.0910728,3.3617237,4.5375595,5.4218116,5.3803287,4.316941,4.8010764,5.2171745,5.1206775,3.9505486,5.2866597,4.8464637,3.4184194,3.3630848,5.0043454,5.3537817,3.2881951,1.4687002,5.316499,4.244372,5.45412,-0.00027246427,-0.19368942,3.2263224,2.4550052,1.1308448,4.5644183,5.5311,2.4919505,3.8366606,1.1858556,4.1223645,-0.101970546,3.1522698,5.172673,3.7377753,5.4559507,2.0726774,5.497266,-0.09632755,15.308097,4.7140393,5.112571,4.953753,4.5072155,5.515626,5.3889236,1.5154159,5.5162506,4.1954155,5.1064076,1.4635955,4.728471,4.172154,5.243285,3.6287477,3.785974,2.4617207,5.2867637,5.2195845,5.229445,2.8589144,5.2425895,3.931599,3.650242,5.3801603,5.2494726,4.6935806,2.4296393,1.957305,2.9272182,2.414406,3.471685,5.24964,-0.08879761,5.411998,-0.09664904,2.248828,3.0665941,2.1338205,1.9112362,3.3093462,3.4373574,0.0018720136,5.0692296,3.6311126,-0.12337479,5.5753202,2.4827306,5.3083625,3.359437,2.105711,5.3161983,2.0822377,3.4721751,4.4195337,2.7109334,3.2307568,3.5496354,2.2465355,3.8683763,8.540209,1.6640083,2.8339062,5.210421,3.4200907,2.7115471,5.0152707,5.1785197,4.748725,5.204025,3.3919237,5.9372106,4.1807404,5.2692,0.0011808258,6.1070414,4.2220087,5.2874656,4.9031854,3.4284835,4.0801234,2.6624584,2.24067,4.244705,3.5997303,5.306193,2.489669,3.1782131,5.256986,5.581286,2.397225,3.7187035,5.140382,2.7212944,5.252707,3.0842593,5.1490355,5.320897,2.8201482,2.378996,3.1517353,5.2108154,8.549542,3.5599737,5.523022,4.0784817,3.1473255,5.6823673,4.042541,5.917956,-0.09620097,-0.09026826,2.7976365,5.1747603,3.2933207,2.3306036,5.538502,2.3909402,4.102599,2.8784199,1.8324221,2.8673048,5.2626414,1.0004812,4.406439,3.9665422,3.265175,1.6619624,4.08726,4.670907,3.649537,3.163436,5.2485867,4.042497,5.0315785,5.0603046,4.768207,4.113351,5.429234,0.12223001,4.0381856,3.5470881,3.7590706,5.3417797,4.4814334,-0.08650989,5.2027965,5.2919774,3.8262835,2.400635,2.773888,3.9166064,2.9916377,3.7097208,2.3972487,5.6322627,3.4783564,5.4877977,3.6987162,2.5178733,0.24175248,2.3058014,5.5763974,2.9785063,6.1186376,3.9516454,4.3748465,2.8321383,5.013771,5.17131,1.4854013,4.515535,3.8753605,3.8010051,5.292706,2.8544104,5.3705173,4.9196506,3.089839,5.3582206,2.139708,7.4006524,5.2489786,3.2899814,2.177393,3.4128325,5.423985,2.7614918,5.385294,2.1570807,5.305224,5.3723416,3.2028828,-0.08566289,3.7823806,3.7313466,2.135456,3.0413818,5.390256,4.3043013,3.0045502,3.3984487,1.5729243,5.253945,4.558476,6.0366073,4.4950533,2.7725623,1.804911,5.2869067,4.83802,5.50403,4.9841714,5.3060503,3.3253872,3.0349514,5.3878226,5.2840557,3.2337182,2.2742429,1.8020546,2.5896716,3.5409667,4.6907063,11.822645,3.0995443,4.933524,5.2355394,2.8399403,5.022386,2.609549,4.2052646,4.3764997,4.8825064,5.382543,3.364233,5.289718,3.325846,3.2811687,3.3868713,3.9755359,3.210842,4.844123,3.3356302,0.0018538991,5.3398623,5.490571,3.2837694,2.1904917,5.3011036,3.756832,5.384487,5.2853456,5.142597,2.60947,3.961169,2.4179347,3.4767807,1.0949528,3.1851978,-0.18632603,4.1590753,2.8532863,2.5277066,-0.1043963,5.3983326,-0.11456999,1.7820983,5.306558,5.3110166,2.3767197,0.51575255,2.0859237,2.456202,3.9089305,3.1547992,2.817654,4.116808,2.9453373,5.2562394,3.2515447,3.685034,5.193105,4.749747,2.1291485,1.3605185,2.45056,4.9741797,2.493491,5.2167177,3.429928,1.8850721,3.767394,2.1122456,3.795731,3.4575527,2.8720038,2.7115278,4.5125217,5.2818694,0.9307261,3.410952,1.7495875,4.8014283,4.1385736,1.2223899,2.2257574,5.64035,1.9547515,1.7331849,2.3424547,4.015944,5.445743,5.400018,5.4032645,0.0035784135,1.7834753,5.2345743,3.5382066,5.3421144,5.309099,-0.03858508,5.2011786,5.326515,5.0547805,2.2796862,2.3913631,5.4875674,5.6486187,-0.19259469,5.4430013,3.177377,2.7623277,2.7856162,-0.037286527,1.8179262,1.5708346,0.5627,5.182335,-0.05057502,3.2362213,5.242275,4.059805,4.1473126,3.6963532,1.9571654,0.12186546,4.504138,3.213683,5.529035,4.9488287,3.3225539,2.8283546,5.3451433,2.1675203,2.7104735,2.8235304,5.381917,4.014409,4.166572,2.2241163,4.2678885,1.5686009,5.1141996,4.036322,2.2123072,4.05179,5.429815,5.674561,3.5283215,2.4753752,5.2493033,3.011915,3.173856,3.7120607,5.2392573,3.041355,5.27114,3.6605785,3.7256205,3.050678,4.5190735,0.61364025,1.9608073,5.362144,4.1679187,3.5532875,1.7507578,5.4901857,3.5346198,3.0549839
COc1cccc(-c2ccc3nccc(Nc4cccc5[nH]ncc45)c3c2)c1F,4.7793894,0.004071507,-0.16347788,4.728584,4.096878,2.2052913,2.4835496,3.1552582,3.1796253,8.474312,5.4505086,6.6787615,3.0174942,-0.10558864,5.9346476,0.6453556,6.4104624,2.731093,2.6209664,5.14347,5.5762854,4.4213343,5.3914967,2.4593172,3.6174545,3.005754,5.2762027,2.6855502,4.27556,5.2343397,8.100636,3.6974356,5.15694,5.671197,4.5741196,4.4106097,5.826961,4.1909103,1.5875968,5.5441017,2.880678,2.2642958,4.32374,2.5405686,4.522221,-0.12927526,2.9420304,2.3168092,3.8862772,3.4647381,6.046183,3.358703,4.404319,1.6488063,4.3489013,3.5437882,4.376999,4.933396,1.2553222,2.604478,2.7909482,5.4627023,5.2548804,-0.08817212,3.364597,4.240523,8.385758,3.2619898,7.4146466,4.6954427,6.063276,1.3574626,1.7366468,4.051306,6.4589906,4.2356753,4.4296584,4.611926,3.544171,3.4581149,1.169706,4.155051,4.5375595,5.579624,5.6036234,4.231391,5.275853,4.285728,4.816926,3.7690709,5.448072,3.3448708,4.25709,4.10286,4.55346,4.353766,2.0480838,5.901748,5.9714556,1.5065477,7.1668887,-0.00027246427,0.22274019,2.8647244,2.498448,6.3311353,5.926676,7.2312,2.9314568,3.1678622,2.0233126,3.4797893,3.1159904,3.1522698,5.1409597,3.7377753,4.9613442,2.8403683,5.4767303,0.8187294,0.28712133,5.404123,7.690518,4.98344,4.5072155,5.515626,6.232048,2.456178,4.9920425,4.1954155,5.5957894,3.7532475,4.841743,4.1885867,4.103241,4.2751637,3.5445364,2.9761786,4.850828,5.1918697,4.7967567,2.3547056,4.788177,4.000944,4.795276,5.64131,5.392496,4.9179826,2.4798245,1.399083,2.9272182,1.3291135,3.9011881,5.100501,-0.08879761,2.2664044,6.512255,6.380129,3.7681937,2.923793,1.6277676,3.3261538,4.3773127,0.0018720136,4.9137278,1.6313016,13.348109,5.5753202,2.7588823,5.496448,2.609345,2.1953297,4.59553,1.9525509,4.1623497,4.461587,2.7109334,3.428691,4.335832,4.5200405,0.9450306,8.540209,2.2777643,1.6654285,5.3088355,3.9424264,2.755243,2.4365973,4.889005,1.6029313,5.0387363,3.3919237,-0.1815399,3.6313653,5.9222198,0.0011808258,6.1070414,2.2139385,5.8530574,5.1428065,4.7701106,2.4359744,1.9313482,2.24067,4.594784,3.2769277,6.2585974,2.489669,1.602986,5.2534256,5.977369,3.6300178,8.733522,4.6996403,1.6698275,4.4737926,6.535234,4.9980035,5.417078,2.7327032,2.702635,3.1517353,8.242977,3.718503,3.5599737,4.557235,4.0784817,3.1237764,3.961579,2.3093545,5.917956,-0.09620097,-0.09026826,2.5598917,5.1821837,4.603266,0.6063059,2.0310495,1.5478406,1.5533123,2.794712,1.9024082,1.810911,5.4846606,1.0004812,4.6980796,2.4520926,4.377945,1.9579568,4.62344,2.889366,3.3437934,3.874384,5.3895497,3.9214053,2.6017368,4.8896203,4.768207,5.9941525,4.764047,3.4986925,-0.18111369,3.0790577,1.3089513,5.289222,2.342855,-0.08650989,6.620991,6.110351,4.8535514,3.7448049,3.4127133,3.0027683,5.707159,0.5638469,2.979398,5.6322627,4.1391416,4.695605,2.0536594,2.4938083,5.84395,1.3339101,4.521237,3.2184455,6.1186376,3.9601574,1.4066811,2.8321383,4.427261,5.7066655,1.6395148,4.349183,5.0435514,5.0650396,6.065022,3.2009249,5.9302936,1.7821125,1.217614,5.8030257,0.779467,7.4006524,5.105817,4.5246773,2.3607373,2.616917,5.668092,2.416684,5.8947535,2.1210372,5.3858,5.095054,3.6592712,-0.08566289,4.18591,0.6032316,2.436452,4.2626033,4.1501603,8.091475,4.2460284,4.369601,3.1393263,5.236902,2.7414815,6.0366073,4.989685,3.1999593,1.815617,5.464118,2.6450725,5.8079257,4.9795904,6.3208966,4.190095,4.0829544,5.5463552,6.113645,2.5140386,2.9486496,2.978798,2.9244747,4.823704,1.0328994,-0.08103948,2.8482075,4.618761,5.0255527,2.6055326,5.658913,2.0984464,4.2052646,3.763897,5.150574,5.968394,3.364233,5.627838,5.191798,1.7282567,4.808136,3.665965,3.339475,5.354938,3.1419616,0.0018538991,5.6661634,3.7879348,2.394572,2.5114584,5.349647,3.185868,5.0965962,5.7328796,4.6546254,3.769128,2.8883893,3.178731,5.0776825,1.3052796,3.8897994,5.794331,5.140949,1.647088,2.2642868,-0.1043963,6.5739913,5.631363,1.7820983,5.1009655,5.339162,2.3767197,1.0271825,1.1028457,2.4516327,2.1275368,4.931829,2.2936938,4.633561,3.762293,5.073774,3.3063312,4.748854,5.050542,4.4461603,2.256345,6.877799,2.439428,2.5006514,2.713538,5.131177,4.26077,1.6036141,3.6113417,3.678405,6.9880567,4.181545,4.9436235,2.7115278,9.114932,5.3457103,1.7756466,3.410952,1.4522673,4.4301057,4.0015764,3.4597917,3.2789838,2.2017474,1.3094503,3.1311753,4.311334,3.806951,3.0637596,4.934416,3.0287201,0.0035784135,3.5243409,4.914714,2.0386724,4.861836,5.7012887,-0.03858508,4.827597,6.3652596,5.378155,2.654548,2.4534843,5.48765,1.737717,1.3461211,5.2041397,4.209817,1.7490721,2.7980065,-0.037286527,1.8567002,3.5692444,0.5627,5.182335,-0.05057502,7.98486,6.1835365,8.037323,4.059108,3.9197974,2.8076744,3.1979725,4.6890097,2.9497988,4.6524725,4.9488287,3.5068078,2.8283546,6.4445624,1.1244762,2.7104735,4.1279774,6.8688126,4.255682,4.3421717,2.1499672,4.060477,2.9667284,4.8265047,7.4976287,4.8877254,4.05179,6.7212305,2.6383367,4.491778,2.404589,2.8782449,7.5445566,3.0276902,3.5865304,4.3393607,3.0010762,5.2725687,3.6605785,5.8956485,6.0814524,2.409324,-0.13241862,1.7207774,4.759236,4.0339184,3.653439,1.3025063,5.2808847,4.67232,2.9241848
COc1ccc(-c2ccc3nccc(Nc4cccc5[nH]ncc45)c3c2)cc1C=O,4.7793894,0.004071507,-0.16347788,4.728584,4.096878,-0.23201565,2.4835496,3.1552582,3.3987887,3.2851503,5.4505086,6.6787615,3.8529997,-0.10558864,5.9346476,0.63838154,6.4104624,5.237344,3.8697047,5.14347,5.5762854,4.4213343,5.3914967,2.4593172,4.065336,4.023855,5.2762027,2.6855502,4.27556,5.2343397,8.100636,3.6974356,5.15694,5.671197,4.5741196,4.4106097,2.1016428,4.1909103,6.0680747,5.5441017,2.880678,2.2642958,4.3333507,2.5405686,4.522221,-0.12927526,2.9420304,2.9583757,3.8862772,3.4647381,6.046183,3.9864922,4.404319,1.6647085,4.3489013,3.5437882,4.376999,4.9043584,3.2737224,2.604478,2.7909482,5.4627023,5.2548804,-0.08817212,3.97264,4.240523,-0.10197567,3.2619898,7.4146466,4.686938,6.063276,1.3872133,1.7366468,4.0532346,6.4589906,4.271731,4.4296584,4.611926,2.9220195,3.4581149,2.24642,4.155051,4.5375595,5.579624,5.6036234,4.2369556,5.275853,4.276354,4.7983937,3.7690709,5.448072,3.3448708,4.25709,4.10286,4.5380588,4.328713,2.0480838,2.9251835,5.9714556,1.5065477,7.1668887,-0.00027246427,5.053008,2.8647244,2.566716,4.326153,5.926676,7.2312,2.5028844,3.1678622,2.1965084,3.481855,-0.101970546,3.1522698,5.1409597,3.7377753,4.9526663,2.7841675,5.4767303,-0.09632755,-0.09121942,5.404123,7.690518,4.98017,4.5072155,5.515626,6.232048,2.456178,4.972484,4.1954155,5.5957894,3.2935772,4.841743,4.1885867,4.103241,4.2751637,4.166225,2.9761786,4.8479824,5.1918697,4.784644,2.3829637,4.788177,4.014731,4.795276,5.64131,5.392496,4.9179826,2.4798245,1.8211298,2.9272182,1.9560289,3.9011881,5.0926833,-0.08879761,1.4016851,-0.09664904,3.3620603,3.0889525,2.1338205,3.4692874,4.130592,4.3773127,0.0018720136,4.882016,1.9916006,-0.12337479,5.5753202,3.0022252,5.496448,3.8944747,2.774801,4.567891,2.65398,4.1623497,4.4747334,2.7109334,3.4520607,4.335832,3.9359028,1.0073757,8.540209,2.5089617,2.5142446,5.3088355,3.9424264,3.7502065,2.4365973,4.8700266,1.559665,5.0265713,3.3919237,-0.1815399,3.6313653,5.9222198,0.0011808258,6.1070414,2.2139385,5.8530574,5.135233,4.7701106,2.4359744,1.9313482,5.9465933,4.596981,2.4538524,6.2585974,2.489669,1.6547463,5.2534256,5.977369,3.6300178,6.5340066,4.6996403,2.5171335,4.4737926,6.314331,4.981401,5.417078,3.8480217,2.761563,3.1517353,8.242977,3.718503,3.5599737,4.5332794,4.0784817,3.1237764,3.94059,2.3093545,5.917956,-0.09620097,-0.09026826,2.6368995,5.1821837,4.603266,2.0252185,2.0310495,1.8884485,4.106643,3.772981,2.2575614,3.545201,5.4846606,1.0004812,4.6980796,2.4520926,4.3801875,5.2891903,4.62344,2.889366,3.3437934,3.874384,5.3895497,3.9214053,2.265499,4.8896203,4.768207,5.9941525,4.764047,1.4062442,0.8459705,3.7586782,1.2110101,5.289222,2.342855,-0.08650989,6.620991,6.110351,4.8535514,3.7448049,3.4127133,3.0027683,4.5544024,1.199704,2.979398,5.6322627,4.1391416,4.695605,4.338231,3.0119486,1.392868,6.164528,4.5043344,3.8184586,6.1186376,3.9601574,1.4066811,2.8321383,4.427261,5.7066655,1.9583869,4.3551774,5.0435514,5.0650396,6.065022,3.9807224,5.9302936,1.7821125,1.0526,5.8030257,1.3278455,7.4006524,5.105817,4.5246773,2.177393,2.616917,5.668092,1.4842932,5.8947535,3.2214918,5.3858,5.095054,3.6592712,-0.08566289,4.18591,0.6032316,2.436452,4.2626033,4.1501603,8.091475,4.2460284,4.369601,2.976016,5.20216,2.7414815,6.0366073,4.989685,3.1999593,1.815617,5.464118,2.6450725,5.8079257,4.9787526,6.3208966,4.190095,4.0829544,5.5463552,6.113645,2.5140386,2.9486496,3.2376246,2.9244747,4.823704,1.7545208,-0.08103948,3.861258,4.5955215,5.0255527,2.5431063,5.658913,2.0984464,4.2052646,3.7660415,5.150574,5.968394,3.364233,5.627838,5.191798,3.0581393,4.808136,3.6766284,3.339475,5.354938,3.1419616,0.0018538991,5.6661634,3.7879348,2.394572,1.5757726,5.349647,3.185868,5.0965962,5.7328796,4.6546254,4.2672744,2.8883893,3.178731,5.0776825,6.338946,3.8897994,5.542862,5.1309075,2.7388422,2.2642868,-0.1043963,6.5739913,5.4404645,1.7820983,5.1009655,5.339162,5.7962055,7.1897464,2.325453,2.4516327,2.839444,4.931829,2.2936938,4.5622144,3.762293,5.0461354,3.2515447,4.748854,5.050542,4.448963,2.256345,5.6642127,1.69798,2.5006514,2.3107123,5.110296,4.26077,1.9631028,3.6113417,3.678405,6.1595263,4.181545,3.0266976,5.426299,6.1010885,5.3457103,4.518261,3.410952,1.2940767,4.4387555,4.0015764,1.9653193,3.2789838,2.2017474,1.7846521,3.1311753,3.601443,3.8316662,3.0637596,4.9065547,3.0287201,0.0035784135,1.8461688,4.914714,2.281038,4.8441854,5.7012887,-0.03858508,4.811339,6.3652596,5.3464055,2.654548,2.4534843,5.48765,1.737717,5.540522,5.2041397,4.209817,1.371469,2.816703,-0.037286527,2.4795384,5.7961326,0.5627,5.182335,-0.05057502,7.98486,6.1835365,5.7459955,4.1684237,3.921375,1.5701628,6.993821,4.6919227,1.8457713,4.6228056,4.9488287,3.5068078,2.8283546,6.4445624,3.6932485,2.7104735,4.1279774,6.8688126,4.255682,4.346116,2.1499672,4.0637884,5.4808307,4.8218284,6.129437,2.2486253,4.05179,6.7212305,2.6383367,4.491778,3.2022443,2.8782449,3.1478226,3.442155,3.5865304,4.3393607,3.7618282,5.2725687,3.6605785,5.8956485,5.630356,2.409324,0.008761756,1.7207774,4.7579226,4.0339184,3.653439,1.3056523,5.2808847,4.67232,3.3342185
Fc1ccccc1-c1ccc2nccc(Nc3cccc4[nH]ncc34)c2c1,4.7793894,0.004071507,-0.16347788,4.728584,4.096878,-0.23201565,2.4835496,3.1552582,3.0621657,3.1799164,5.4505086,6.6787615,2.9129732,-0.10558864,5.9346476,4.500353,6.4104624,2.731093,2.624874,5.14347,5.5762854,4.4213343,5.3914967,9.371114,3.4059412,3.1114929,5.2762027,2.6855502,4.27556,5.2343397,8.100636,4.3056726,5.15694,5.671197,4.5741196,4.4106097,2.2158196,4.1909103,2.6680965,5.5441017,2.880678,2.2642958,4.32374,2.5405686,4.522221,-0.12927526,2.9858186,2.2305253,3.8862772,3.4647381,6.046183,3.3360405,4.404319,4.539239,4.3489013,3.5437882,4.376999,4.933396,1.2553222,2.604478,2.7909482,5.4627023,5.2548804,-0.08817212,3.1108212,4.240523,-0.10197567,3.2619898,7.4146466,4.6954427,6.063276,2.719669,1.7366468,4.051306,6.4589906,4.2326717,4.4296584,4.611926,10.170968,3.7742834,1.169706,4.155051,4.5375595,5.579624,5.6036234,4.231391,5.275853,4.285728,4.816926,3.7690709,5.448072,3.3448708,4.25709,4.10286,4.55346,4.353766,2.0480838,2.6907692,5.9714556,1.5065477,7.1668887,-0.00027246427,2.9352224,2.8647244,2.4908116,2.6859894,5.926676,7.2312,2.5028844,3.1678622,2.0233126,3.4797893,-0.101970546,5.3150363,5.1409597,3.7377753,4.9613442,2.6784685,5.4767303,-0.09632755,-0.09121942,5.404123,7.690518,4.98344,4.5072155,5.515626,6.232048,2.456178,4.9920425,4.1954155,5.5957894,3.2935772,4.841743,4.1885867,4.103241,4.2751637,3.2775767,2.9761786,4.850828,5.1918697,4.7967567,2.3547056,4.788177,4.000944,4.795276,5.64131,5.392496,4.9179826,2.4798245,4.227804,2.9272182,1.1172609,3.9011881,5.100501,-0.08879761,1.4016851,-0.09664904,0.9934975,3.0889525,2.1338205,1.6977816,3.5420349,4.3773127,0.0018720136,4.9137278,1.636151,-0.12337479,5.5753202,2.7588823,5.496448,1.3243964,2.1970577,4.59553,1.860462,4.1623497,4.461587,5.3908353,3.428691,4.335832,2.2465355,1.233294,8.540209,2.2777643,1.695106,5.3088355,3.9424264,2.755243,3.6445117,4.889005,1.6029313,5.0387363,3.3919237,-0.1815399,3.6313653,5.9222198,0.0011808258,6.1070414,2.2554858,5.8530574,5.1428065,4.7701106,2.4359744,2.5255573,2.24067,4.594784,1.2232949,6.2585974,2.5704904,5.2260013,5.2534256,5.977369,3.6300178,4.205329,4.6996403,1.4821547,4.4737926,4.197549,4.9980035,5.417078,2.7226784,0.8221251,3.1517353,8.242977,3.718503,3.5599737,4.557235,4.0784817,3.1237764,3.961579,2.3093545,5.917956,-0.09620097,9.369401,2.948855,5.1821837,4.603266,2.6354315,2.0310495,1.5526006,1.5421052,2.6707478,1.5742519,1.7963928,5.4846606,6.276786,4.6980796,2.4520926,4.377945,3.5536337,4.62344,2.889366,3.3437934,3.874384,5.3895497,3.9214053,5.106442,4.8896203,4.768207,5.9941525,4.764047,1.4062442,-0.18111369,3.277787,4.6301284,5.289222,2.342855,-0.08650989,6.620991,6.110351,4.8535514,3.7448049,3.4127133,3.0027683,2.2864177,2.3759556,2.979398,5.6322627,4.1391416,4.695605,2.038471,2.7107334,1.392868,1.3189539,4.521237,3.1084063,6.1186376,3.9601574,8.705902,2.8321383,4.427261,5.7066655,1.5472977,4.349183,5.0435514,5.0650396,6.065022,3.1200955,5.9302936,1.7821125,2.196621,5.8030257,4.0441585,7.4006524,5.105817,4.5246773,4.216204,2.616917,5.668092,1.5079482,5.8947535,2.1188905,5.3858,5.095054,3.6592712,-0.08566289,4.18591,5.569363,2.436452,4.2626033,4.1501603,8.091475,4.2460284,4.369601,1.8710477,5.236902,2.7414815,6.0366073,4.989685,3.1999593,1.815617,5.464118,2.6488638,5.8079257,4.9795904,6.3208966,4.190095,4.0829544,5.5463552,6.113645,2.5140386,2.9486496,3.093424,2.9244747,4.823704,5.2928224,-0.08103948,2.9202585,4.618761,5.0255527,2.0072348,5.658913,3.1058612,4.2052646,3.763897,5.150574,5.968394,3.364233,5.627838,5.191798,5.3088017,4.808136,3.665965,3.339475,5.354938,3.1419616,0.0018538991,5.6661634,3.7879348,2.394572,1.7898601,5.349647,3.185868,5.0965962,5.7328796,4.6546254,3.2165833,2.8883893,3.178731,5.0776825,1.3052796,3.8897994,-0.18632603,5.083207,1.5423838,2.2642868,5.1592507,6.5739913,3.433799,3.037802,5.1009655,5.339162,2.3767197,0.9969051,1.9112256,2.4516327,1.8587985,4.931829,2.2936938,4.633561,3.762293,5.073774,3.2515447,4.748854,5.050542,4.4461603,2.256345,5.020643,1.5484173,2.5006514,2.871261,5.131177,4.26077,1.4109359,3.6113417,3.678405,4.170872,4.181545,2.5026708,2.7115278,3.9294267,5.3457103,1.7756466,3.410952,1.1322716,4.4301057,4.0015764,2.4485838,3.2789838,2.2017474,4.2108145,3.1311753,1.8689965,3.806951,3.0637596,4.934416,3.0287201,0.0035784135,1.1737609,4.914714,1.5482438,4.861836,5.7012887,-0.03858508,4.827597,6.3652596,5.378155,2.654548,2.4534843,5.48765,1.737717,2.3915775,5.2041397,4.209817,1.2837607,2.7980065,-0.037286527,1.8567002,2.021968,7.124262,5.182335,-0.05057502,7.98486,6.1835365,3.8017387,3.9753952,3.9197974,3.2748752,2.9764602,4.6890097,9.537467,4.6524725,4.9488287,3.5068078,2.8283546,6.4445624,1.2122089,2.7104735,4.1279774,6.8688126,4.255682,4.3421717,2.1499672,4.060477,2.047201,4.8265047,4.010328,2.661978,4.05179,6.7212305,10.603928,4.491778,2.435432,2.9661367,8.8127775,3.054625,3.5865304,4.3393607,2.9775784,5.2725687,3.6605785,5.8956485,3.7720742,2.409324,6.8910446,1.7207774,4.759236,4.0339184,3.653439,1.4517833,5.2808847,4.67232,2.9569404
COc1cccc(-c2ccc3ncnc(Nc4cccc5[nH]ncc45)c3c2)c1,3.7861063,0.004071507,9.195292,3.614493,3.3652437,4.89289,5.3004136,3.5900314,2.6629126,-0.1842202,5.161587,6.6787615,3.539119,-0.10558864,5.3606915,4.6881633,5.3664517,4.401221,3.142836,5.14347,5.5762854,3.40348,5.010055,2.4593172,3.9481454,3.342911,5.073603,2.0510397,2.97092,5.1486797,4.2709737,3.6974356,5.3550625,5.197413,4.5741196,3.489243,1.1885556,2.801317,2.1992803,5.257819,2.3703344,5.489033,4.34579,2.2226074,4.128499,-0.12927526,3.3060787,2.6883428,3.7334776,2.832901,5.8137913,3.4963398,2.7275808,1.6488063,3.5198855,3.5437882,3.6119442,5.2181096,1.2977139,3.940448,5.450958,5.2330027,5.1784472,-0.08817212,3.8146956,3.2819679,-0.10197567,3.4329724,5.539986,5.226523,6.063276,2.6661496,1.8952688,3.8335178,6.4589906,4.1897902,3.747546,3.7868118,3.368082,3.4581149,2.0910728,3.3617237,4.5375595,5.4218116,5.3803287,4.3224964,4.8010764,5.2035866,5.098824,3.9505486,5.2866597,4.8464637,3.4184194,3.3630848,4.984324,5.3247423,3.2881951,1.1919881,5.316499,4.244372,5.45412,-0.00027246427,-0.19368942,3.2263224,2.4914181,0.95119864,4.5644183,5.5311,2.4919505,3.8366606,1.2009103,4.1259093,5.0850196,3.1522698,5.172673,3.7377753,5.445938,2.5565705,5.497266,-0.09632755,-0.09121942,4.7140393,5.112571,4.948154,4.5072155,5.515626,5.3889236,1.5154159,5.4940295,4.1954155,5.1064076,2.5874524,4.728471,4.172154,5.243285,3.6287477,4.045653,2.4617207,5.282474,5.2195845,5.2147474,1.5207893,5.2425895,3.9458969,3.650242,5.3801603,5.2494726,4.6935806,2.2378867,1.3988894,2.9272182,2.414406,3.471685,5.241198,-0.08879761,5.411998,-0.09664904,6.499741,3.0665941,2.1338205,1.9008347,3.5140219,3.4373574,0.0018720136,5.033184,1.4106284,2.7134335,5.5753202,2.4827306,5.3083625,4.2350426,2.139298,5.277524,2.6176944,3.4721751,4.4335876,2.7109334,3.2563682,3.5496354,2.2465355,0.0323764,8.540209,1.6350532,2.0793319,5.210421,3.4200907,2.7115471,2.4365973,5.157478,4.695954,5.19149,3.3919237,5.9372106,4.1807404,5.2692,0.0011808258,6.1070414,4.2220087,5.2874656,4.89194,3.4284835,4.0801234,1.9313482,4.6955056,4.246451,2.3557603,5.306193,2.489669,1.9259573,5.256986,5.581286,2.397225,-0.22930168,5.140382,2.1040013,5.252707,-0.23785701,5.1271114,5.320897,3.2123702,1.6527293,3.1517353,5.2108154,3.718503,3.5599737,5.494614,4.0784817,3.1473255,5.653975,4.042541,5.917956,-0.09620097,-0.09026826,1.294332,5.1747603,3.2933207,2.3306036,5.538502,1.6854995,1.6498427,3.7208948,1.8722913,2.116276,5.2626414,1.0004812,4.406439,3.9665422,3.270813,1.6393248,4.08726,4.670907,3.649537,3.163436,5.2485867,4.042497,0.6558484,5.0603046,4.768207,4.113351,5.429234,-0.17300057,1.0757449,3.6035538,1.6472069,5.3417797,4.4814334,-0.08650989,5.2027965,5.2919774,3.8262835,2.400635,2.773888,3.9166064,2.0475235,2.786875,2.4618227,5.6322627,3.4783564,5.4877977,2.6390202,2.7103307,3.2603579,4.3351665,5.557974,3.70828,6.1186376,3.9516454,4.3748465,2.8321383,5.013771,5.17131,1.4854013,4.522109,3.8753605,3.8010051,5.292706,2.8544104,5.3705173,4.9196506,3.089839,5.3582206,2.139708,7.4006524,5.2489786,3.2899814,2.6136155,2.616917,5.423985,2.7614918,5.385294,2.2321708,5.305224,5.3723416,3.2028828,-0.08566289,3.7823806,0.72504604,2.135456,3.0413818,5.390256,4.3043013,3.0045502,3.3984487,1.5945237,5.2111387,4.558476,6.0366073,4.4950533,2.7725623,1.804911,5.2869067,4.83802,5.50403,4.9789186,5.3060503,3.3253872,3.0349514,5.3878226,5.2840557,3.2337182,2.2742429,1.7399694,2.5896716,3.5409667,-0.21760839,-0.08103948,3.4123614,4.9077325,5.2355394,2.391408,5.022386,2.0984464,4.2052646,4.377826,4.8825064,5.382543,3.364233,5.289718,3.325846,-0.17866972,3.3868713,3.9868488,3.210842,4.844123,3.3356302,0.0018538991,5.3398623,5.490571,3.2837694,2.1546454,5.3011036,3.756832,5.384487,5.2853456,5.142597,2.60947,3.961169,2.4179347,3.4767807,4.653889,3.1851978,5.992113,4.246032,1.4850131,2.5277066,-0.1043963,5.3983326,-0.11456999,1.7820983,5.306558,5.3110166,3.9765615,4.137943,1.1028457,2.456202,2.6662877,3.1547992,2.2936938,4.0414023,2.9453373,5.2233977,3.2515447,3.685034,5.193105,4.7509046,2.1291485,2.6449628,2.228208,4.9741797,2.493491,5.191898,3.429928,1.5939115,3.767394,2.1122456,0.38247612,3.4575527,1.6509581,2.7115278,-0.22027156,5.2818694,3.145124,3.410952,1.3623729,4.8067703,4.1385736,1.0679747,2.2257574,5.64035,1.3620429,1.7331849,4.7678766,4.0410037,5.445743,5.370121,5.4032645,0.0035784135,1.6251467,5.2345743,1.9361442,5.3202214,5.309099,-0.03858508,5.1821747,5.326515,5.0266848,2.2796862,2.3913631,5.4875674,5.6486187,-0.19259469,5.4430013,3.177377,1.727249,2.8067882,-0.037286527,1.8179262,1.5708346,0.5627,5.182335,-0.05057502,3.2362213,5.242275,0.30526865,3.7252295,3.6994023,2.4106555,1.4040469,4.5103216,4.1852946,5.4954,4.9488287,3.3225539,2.8283546,5.3451433,1.4951284,2.7104735,2.8235304,5.381917,4.014409,4.171356,2.2241163,4.271865,1.8870256,5.105424,-0.21593875,2.3693852,4.05179,5.429815,2.6383367,3.5283215,2.687658,5.2493033,8.191691,3.272909,3.7120607,5.2392573,3.4557543,5.27114,3.6605785,3.7256205,0.60546094,4.5190735,-0.13241862,1.9608073,5.353772,4.1679187,3.5532875,1.2597902,5.4901857,3.5346198,3.2071958
COc1cc(-c2ccc3ncnc(Nc4cccc(O)c4)c3c2)ccc1O,3.0438383,0.004071507,9.195292,2.9192014,3.3237839,4.89289,5.3004136,3.5900314,4.112044,-0.1842202,5.161587,4.180514,3.787725,12.205352,5.0203753,4.6881633,5.0576005,6.633875,3.8274114,-0.25297296,2.17102,3.2357507,4.744193,-0.19771326,3.9983125,3.9276397,5.073603,1.9702355,2.9208407,5.1486797,2.5475936,3.6864288,5.3550625,4.928064,4.836566,2.810997,1.5007403,7.3536263,4.064699,4.9160094,1.8876206,5.489033,4.3317738,1.8100873,3.8113527,7.292916,3.3060787,2.7499251,3.7188697,2.4098303,5.4462285,3.802345,2.2582185,1.7311376,3.1581519,4.085198,3.0465581,5.2068624,2.544644,3.940448,5.450958,5.1115875,5.1784472,12.014045,3.9135153,3.2247827,12.043519,3.4329724,5.359541,5.219334,-0.1465116,2.6661496,1.8355457,3.8140118,4.397182,4.18979,3.1575396,3.2596767,0.9694824,3.3855019,2.3463836,3.0701036,4.8825917,5.144352,5.0274777,4.318963,4.487919,5.211072,5.0895634,3.9505486,5.026279,4.8464637,3.1429765,2.9483035,4.981462,5.3333983,3.2881951,1.2748942,4.976249,4.2882137,5.1935506,-0.00027246427,5.9789352,3.2263224,2.4914184,0.75778025,4.2826486,5.168902,4.20285,3.8366606,1.8876885,4.1244097,14.227283,7.630148,5.172673,4.8633237,5.437112,2.8484638,5.333289,6.8256707,-0.09121942,4.7140393,4.496075,4.9424076,4.9587984,2.2193441,5.171744,1.4562488,5.4981422,2.3270357,4.8171887,6.149641,4.5047145,3.9814813,5.243285,3.2396924,4.105895,2.4338737,5.311092,5.2195845,5.224581,1.6307962,5.0036,3.933869,3.028239,5.0795317,4.976255,4.3599067,1.6970183,0.65064925,2.3454142,2.4029381,3.3406332,5.2213383,-0.08879761,5.411998,11.983148,4.7450857,5.2844357,1.7179126,2.4931464,4.0679646,2.9143145,0.0018720136,5.0277867,1.2266659,11.25843,3.297799,3.0421636,4.9981403,1.6414851,2.4108095,5.2788215,2.6112823,3.1089017,4.4262547,5.518497,3.2496204,3.2333136,2.3926885,0.05410367,-0.12773347,2.1484947,1.9342024,5.210421,3.0469246,3.8862019,0.052859716,5.1489787,4.6814003,5.187093,3.1589549,5.9156523,4.1807404,5.018913,0.0011808258,3.834016,4.2220087,4.8587294,4.8817344,3.0571299,4.0801234,0.026861455,5.9147263,4.233397,2.4194374,5.050094,2.9317825,0.92247164,5.007932,5.2737865,1.9847145,1.8937304,4.880597,2.2371652,4.9908633,3.8644416,5.11902,4.9832234,3.7119455,1.0257008,3.8488634,4.6791883,2.088615,3.5669951,5.491263,3.981233,7.148574,5.6727386,4.042541,6.3442926,8.780274,-0.09026826,2.6338277,4.91321,2.8591342,2.3306036,5.538502,1.763323,2.9877992,3.7322447,2.0220857,2.884261,5.011152,0.20533821,4.406439,3.9410615,3.2615852,4.4231915,3.835963,4.670907,3.649537,2.9249556,4.89271,4.042497,2.9168758,4.7023706,-0.3100338,6.847558,5.429234,10.217647,5.7586427,3.388431,0.66115135,5.3417797,4.4814334,9.800933,4.763974,4.981398,3.120246,2.1951015,2.7869048,3.9166064,1.9483922,2.786875,2.3544118,6.3248463,3.0609472,5.170566,3.6287777,2.959647,7.4761405,5.889851,5.566346,3.7458625,-0.2297162,3.9516454,4.3748465,2.92982,4.7824135,4.8902526,2.059939,4.508055,3.1415014,3.2980814,5.042344,4.3055596,5.0883975,4.9196506,3.089839,5.00384,2.139708,-0.15435554,4.916805,3.1825283,1.8071047,3.2845345,5.423985,2.7614918,5.112047,2.807905,5.0322084,5.3723416,2.6076508,9.282354,3.0849307,0.49259338,2.135456,2.961354,5.1462297,4.3120236,2.951324,2.8812726,2.0242686,5.2291346,4.558476,4.485823,4.176897,2.4286847,1.5088986,4.98774,4.83802,5.212455,4.963427,5.003067,3.0836184,2.8005126,5.087193,4.96034,3.2337182,2.0473044,3.4939952,2.575025,2.931356,0.69844294,-0.08103948,3.796786,4.9110494,5.2355394,2.60275,5.022386,1.312545,5.054889,4.379079,4.5916796,5.0327,3.6610959,4.9011497,2.4207618,-0.17866972,3.145759,3.9845018,3.062678,4.6956844,3.3356302,0.0018538991,4.975919,5.490571,3.2837694,5.9341497,5.3011036,3.756832,5.384487,4.8956256,5.142597,4.056222,3.961169,2.048392,2.7507246,6.362002,2.9458604,5.7289906,4.2460327,1.4532642,2.5277066,-0.1043963,5.002789,6.852247,8.105157,4.9515944,4.9947896,5.7912936,6.6039033,2.1389222,1.9570005,2.7785714,3.0158138,1.6255362,4.4267874,2.762317,5.223835,3.9844632,3.129203,4.855964,4.7389345,1.940743,7.064955,2.202581,4.9741797,2.493491,5.2096004,3.0363443,1.7424066,3.767394,1.8068318,3.3260512,3.0480382,1.691631,5.372015,2.8474252,4.9823694,5.003546,2.9617438,1.2499335,4.800031,4.1385736,8.280621,1.9622043,5.64035,1.2652545,1.7331849,4.043628,4.034876,5.445743,5.377027,5.4032645,0.0035784135,1.6251467,4.905182,2.0370846,5.315253,4.92981,-0.03858508,5.1808157,4.899169,5.0380898,2.2788534,2.3913631,5.18134,5.6486187,5.6135798,5.165834,2.7875187,1.6423413,2.8015206,-0.037286527,2.081823,6.4256854,-0.15004073,5.591507,-0.05057502,0.27566037,5.0778112,3.1522627,3.9280972,3.6985838,1.6375,5.7841034,4.493638,1.7191231,5.501038,6.3027525,2.9502337,7.4804688,5.008861,2.2438374,2.6835024,7.2194896,5.065368,3.825096,4.1651506,2.2241163,4.259731,4.2570643,5.11411,4.3109307,8.658808,4.486173,4.9677153,-0.16925228,3.099379,3.1335714,5.2493033,4.642923,3.458743,3.7120607,5.2392573,3.6557748,4.9079986,4.0906076,2.5712974,3.88604,4.5190735,-0.13241862,1.9504039,5.379382,4.1679187,3.3016875,1.3125044,5.4901857,2.8915164,3.2196727
COc1cc(-c2ccc3ncnc(Nc4ccc(F)cc4)c3c2)ccc1O,3.0438383,0.004071507,9.195292,2.918271,3.321222,4.89289,5.3004136,3.5900314,4.112044,5.182237,5.161587,-0.20643677,3.787725,-0.10558864,4.869009,4.6881633,4.8959455,5.332174,3.8274114,0.9913777,0.7627601,3.0046015,4.4937496,9.50517,3.9983125,3.9276397,5.073603,1.9702355,2.9191368,5.1486797,3.7842062,2.7143648,5.3550625,4.8749537,3.4837074,2.809346,1.5007403,2.1898227,4.367241,4.730614,1.6425748,5.489033,4.3317738,1.8100873,3.6751533,-0.12927526,3.3060787,2.7499251,3.7180142,2.388279,5.2701626,3.802345,2.2928224,2.3360195,2.926221,3.0510325,2.8564143,5.2068624,2.544644,3.940448,5.450958,4.968782,5.1784472,-0.08817212,3.9135153,3.2153313,-0.10197567,3.4329724,5.251556,5.219334,-0.1465116,2.8829892,1.8243519,3.8140118,-0.17703184,4.18979,2.868492,3.0144699,7.663078,2.3562257,2.3463836,2.568505,2.6691608,5.1704483,4.966661,4.318963,4.377373,5.211072,5.0895634,3.9505486,4.8077316,4.8464637,2.811426,2.7766504,4.981462,5.3333983,3.2881951,1.9003406,4.950305,4.2882137,4.998271,-0.00027246427,5.9789352,3.2263224,2.4914184,1.4319068,4.034485,4.8895316,1.3757617,3.8366606,1.8876885,4.1244097,-0.101970546,2.8032835,5.172673,2.7493472,5.437112,2.8484638,5.330247,-0.09632755,0.42990297,4.7140393,4.280894,4.9424076,3.5895274,1.3850458,4.994271,1.4562488,5.4981422,1.096282,4.695176,2.2429507,4.3607626,3.950011,5.243285,2.9649818,4.105895,2.3458986,5.311092,5.2195845,5.224581,1.6307962,5.0679555,3.933869,2.7718205,4.9773526,4.9295344,4.2539067,2.5189002,3.0889904,2.3454142,2.4029381,3.1569521,5.2213383,-0.08879761,5.411998,-0.09664904,4.7450857,1.7846007,1.9233321,2.4931464,4.0679646,2.820766,0.0018720136,5.0277867,2.8499942,-0.12337479,1.104855,3.0421636,4.985951,4.2992306,2.4108095,5.2788215,3.1772869,3.1089017,4.4262547,1.6037418,3.2496204,2.3697114,2.2706745,2.0657675,-0.12773347,2.1484947,1.6132327,5.210421,2.944751,3.8862019,4.4464736,5.1489787,4.6814003,5.187093,3.1589549,5.9156523,4.1807404,5.1617575,0.0011808258,3.834016,4.2220087,4.5513515,4.8817344,2.4749112,4.0801234,4.2269907,5.9147263,4.233397,3.1101475,4.8682265,1.836,4.0110383,5.0173597,4.9432783,2.1049612,4.098247,5.0621457,2.2371652,5.091444,3.8644416,5.11902,5.1441903,3.7119455,2.3426125,2.8001904,4.2972393,5.4786572,2.3148541,5.491263,1.9956648,-0.22488227,5.6727386,4.042541,2.525988,-0.09620097,2.1023247,3.4954457,4.7451158,2.8591342,2.3306036,5.538502,1.763323,2.9877992,3.7322447,2.0220857,2.884261,4.934682,4.2154064,4.406439,3.9410615,3.2615852,4.4231915,3.6903024,4.670907,3.649537,2.6043377,4.8157744,4.042497,2.9168758,4.747881,3.351482,3.7338169,5.429234,0.84213644,1.4321669,3.388431,3.9982526,5.3417797,4.4814334,-0.08650989,4.6164646,4.781973,2.8955977,2.4468503,2.309901,3.9166064,3.074784,2.9022584,2.2195983,1.114267,2.6444275,4.904537,3.6287777,2.959647,0.907534,5.889851,5.566346,3.7458625,6.1622653,3.9516454,4.911097,2.92982,4.5766554,4.712157,2.059939,4.508055,2.7115421,3.2074065,4.8771667,4.3055596,5.000498,4.9196506,3.089839,4.84241,3.1435509,-0.15435554,4.8659596,3.1825283,1.8531488,3.2893713,5.423985,2.7614918,4.876856,2.807905,5.05685,5.3723416,2.0983272,-0.08566289,2.792717,4.0364933,2.135456,2.651822,4.987549,3.026978,2.9443605,2.8771558,2.0242686,5.2291346,4.558476,-0.19873273,4.052661,2.09126,1.5088986,4.8298216,4.83802,5.1688232,4.963427,4.8784695,3.0836184,2.793016,4.945188,5.0567994,3.2337182,2.0334828,2.7903957,2.5701125,2.9281785,4.5913763,2.4256577,3.796786,4.9110494,5.2355394,2.60275,5.022386,2.680408,5.054889,4.379079,4.5418887,4.8651834,1.8301059,4.9044113,2.414828,4.0285625,3.145759,3.9845018,2.8621175,4.643845,3.3356302,0.0018538991,4.7362022,5.490571,3.2837694,2.1546454,5.3011036,3.756832,5.384487,4.7811933,5.142597,4.056222,3.961169,1.8629678,2.7513692,6.362002,2.9458604,5.7289906,4.2460327,2.839794,2.5277066,0.50291455,4.7688217,-0.11456999,0.718453,4.829636,5.0460134,5.7912936,6.6039033,2.1389222,1.9570005,2.7785714,3.0047364,2.3169293,4.00868,2.762317,5.223835,1.4856693,2.8491066,4.7900214,4.7389345,1.8031088,2.7475154,2.202581,4.9741797,2.493491,5.2096004,3.0363443,1.7424066,3.767394,1.8068318,4.0021667,2.7992911,3.16377,5.372015,5.3670382,5.1606917,4.2691674,2.0589771,1.2499335,4.800031,4.1385736,1.6984253,1.9622043,5.64035,2.9043994,2.2468896,4.043628,4.034876,5.445743,5.377027,5.4032645,0.0035784135,1.6251467,4.7422514,2.7533512,5.315253,4.9085417,-0.03858508,5.1808157,4.740796,5.0380898,2.1124501,2.3913631,5.0307646,5.6486187,5.6135798,5.094772,2.783431,1.6423413,2.8015206,-0.037286527,2.081823,6.4256854,4.0920777,2.473564,-0.05057502,2.8019667,4.8033066,4.6900673,3.9280972,3.6985838,1.830383,5.7841034,4.493638,5.2348657,5.501038,-0.20203632,2.565721,1.4759756,4.874117,2.2438374,2.6835024,2.4561348,4.9638047,3.7232003,4.1651506,2.2241163,4.259731,4.2570643,5.11411,4.3109307,1.395539,2.947716,4.9361596,10.895493,2.8214185,3.1335714,5.2493033,2.807399,3.458743,3.7120607,5.2392573,3.6557748,4.90709,3.226388,2.560509,3.88604,4.5190735,5.4184546,1.9504039,5.379382,4.1679187,3.3445148,1.9169903,5.4901857,2.843165,3.2196727
COc1cc(-c2ccc3ncnc(Nc4ccc(S(N)(=O)=O)cc4)c3c2)ccc1O,3.0438383,0.004071507,9.195292,2.918271,3.321222,5.4197993,5.3004136,3.5900314,4.112044,8.524281,5.161587,-0.20643677,3.787725,-0.10558864,4.869009,4.6881633,4.8959455,5.332174,3.8274114,0.6238238,0.89574945,3.0046015,4.4937496,0.82048553,3.9983125,3.9276397,5.073603,1.9702355,2.9191368,5.1486797,4.0795846,2.7143648,5.3550625,4.8749537,3.4837074,2.809346,1.5007403,2.1898227,7.426714,4.730614,1.6425748,5.489033,4.3317738,1.8100873,3.6751533,10.317151,3.3060787,2.7499251,3.7180142,2.414769,5.2701626,3.802345,2.4092438,4.6024933,2.8889937,2.4562702,2.8564143,5.2068624,2.544644,3.940448,5.450958,4.968782,5.1784472,-0.08817212,3.9135153,3.2153313,-0.10197567,3.4329724,5.251556,5.219334,-0.1465116,2.6661496,1.8243519,3.8140118,-0.17703184,4.18979,2.868492,3.0144699,0.370528,2.3562257,2.3463836,2.568505,2.9969442,5.1704483,4.966661,4.318963,4.377373,5.211072,5.0895634,3.9505486,4.8077316,4.8464637,2.811426,2.7766504,4.981462,5.3333983,3.2881951,3.7992682,4.950305,5.914819,4.998271,-0.00027246427,5.9789352,3.2263224,2.4914184,7.638309,4.034485,4.8895316,1.3757617,3.8366606,1.8876885,4.1244097,-0.101970546,-0.0060075484,5.172673,2.7493472,5.437112,2.8484638,5.330247,-0.09632755,-0.09121942,4.7140393,4.280894,4.9424076,3.5895274,2.849077,4.994271,1.4562488,5.4981422,-0.24434069,4.695176,2.2429507,4.3607626,3.950011,5.243285,2.9649818,4.105895,2.3458986,5.311092,5.2195845,5.224581,2.1025536,5.0679555,3.933869,2.7718205,4.9773526,4.9295344,4.2539067,3.189801,3.6324935,2.3454142,2.4029381,3.1569521,5.2213383,-0.08879761,5.411998,-0.09664904,4.7450857,1.7846007,4.1005583,3.2530656,4.0679646,2.820766,0.0018720136,5.0277867,3.68186,-0.12337479,1.104855,3.0421636,4.985951,6.4261994,2.4108095,5.2788215,2.6112823,3.1089017,4.4262547,1.0122472,3.2496204,2.3697114,3.417664,7.1420455,-0.12773347,2.1484947,2.177773,5.210421,2.944751,3.8862019,1.0152159,5.1489787,4.6814003,5.187093,3.7955074,5.9156523,4.1807404,5.1617575,0.0011808258,3.834016,4.2220087,4.5513515,4.8817344,2.473379,4.0801234,6.813224,5.9147263,4.233397,3.539466,4.8682265,1.8891068,3.1297278,5.0173597,4.9432783,2.167613,7.3804746,5.0621457,3.2472286,5.091444,3.8644416,5.11902,5.1441903,3.7119455,5.528628,4.351183,4.2972393,4.981194,2.3148541,5.491263,1.3429184,4.002089,5.6727386,4.042541,1.2792355,-0.09620097,-0.09026826,5.288856,4.7451158,2.8591342,2.6293688,5.538502,1.763323,2.9877992,3.7322447,2.0220857,2.884261,4.934682,6.138345,4.406439,3.9410615,3.2615852,4.4231915,3.6903024,4.670907,3.649537,2.6043377,4.8157744,4.042497,2.9168758,4.747881,1.219487,3.7338169,5.429234,2.7974255,2.544648,3.388431,2.1149993,5.3417797,4.4814334,-0.08650989,4.6164646,4.781973,2.8955977,2.4880855,2.5870159,3.9166064,3.519394,2.786875,2.2621474,0.3559105,2.6444275,4.904537,3.6287777,2.959647,2.536864,5.889851,5.566346,3.7458625,-0.2297162,3.9516454,4.3748465,2.92982,4.5766554,4.712157,3.3062186,4.508055,2.7115421,3.2074065,4.8771667,4.3055596,5.000498,4.9196506,3.089839,4.84241,3.7807252,1.9846818,4.8659596,3.1825283,2.6829052,2.9242353,5.423985,2.7614918,4.876856,2.807905,5.05685,5.3723416,2.0983272,-0.08566289,2.792717,3.1311913,2.135456,2.651822,4.987549,3.026978,2.9443605,2.8771558,2.23784,5.2291346,4.558476,-0.19873273,4.052661,2.09126,1.5088986,4.8298216,4.83802,5.1688232,4.963427,4.8784695,3.0836184,2.793016,4.945188,5.0567994,3.2337182,2.0334828,5.8048205,2.5701125,2.9281785,5.9329,-0.08103948,3.796786,4.9110494,5.2355394,2.60275,5.022386,2.3282185,5.054889,4.379079,4.5418887,4.8651834,2.3615694,4.9044113,2.414828,4.042448,3.145759,3.9845018,2.8621175,4.643845,3.3356302,0.0018538991,4.7362022,5.490571,3.2837694,3.5296361,5.3011036,3.756832,5.384487,4.7811933,5.142597,4.431121,3.961169,1.8629678,2.755583,6.362002,2.9458604,5.7289906,4.2460327,4.3005033,2.5277066,3.551485,4.7688217,5.1572824,-0.15887256,4.829636,5.0460134,5.7912936,6.6039033,2.1389222,1.9570005,2.7785714,3.0047364,2.4479187,4.00868,2.762317,5.223835,1.4856693,2.8491066,4.7900214,4.7389345,1.8031088,2.7475154,2.739331,4.9741797,2.493491,5.2096004,3.0363443,1.7424066,3.767394,1.8068318,3.3260512,2.7992911,3.648696,5.372015,3.8117318,5.1606917,4.2691674,2.6266434,1.2499335,4.800031,4.1385736,1.812525,1.9622043,5.64035,3.6324344,2.7010577,4.7519298,4.034876,5.445743,5.377027,5.4032645,0.0035784135,1.6251467,4.7422514,2.0370846,5.315253,4.9085417,-0.03858508,5.1808157,4.740796,5.0380898,2.1124501,2.3913631,5.0307646,5.6486187,5.6135798,5.094772,2.783431,1.9271038,2.8015206,-0.037286527,2.081823,6.4256854,3.5490272,2.473564,-0.05057502,2.9253864,4.8033066,4.056626,3.9280972,3.6985838,2.291295,5.7841034,4.493638,1.1226256,5.501038,-0.20203632,2.565721,0.8578916,4.874117,2.2438374,2.9327939,2.4561348,4.9638047,3.7232003,4.1651506,2.2241163,4.259731,4.569365,5.11411,4.3109307,1.395539,2.947716,4.9361596,-0.16925228,2.8214185,3.1335714,5.2493033,-0.23140633,3.458743,3.7120607,5.2392573,3.6557748,4.90709,3.226388,2.560509,3.88604,4.5190735,4.250247,1.9504039,5.379382,4.1679187,3.3445148,2.030959,5.4901857,2.843165,4.0342827
c1cc(Nc2ncnc3ccc(-c4ccc5[nH]ncc5c4)cc23)c2cn[nH]c2c1,3.7861063,0.004071507,9.195292,3.614493,3.3652437,4.89289,5.3004136,3.5900314,2.6629126,-0.1842202,5.161587,6.6787615,3.8640325,-0.10558864,5.3606915,4.6881633,5.3664517,3.8265734,3.603304,5.3494754,5.5762854,3.40348,5.010055,2.4593172,4.337675,3.8793514,5.073603,2.0791798,2.97092,5.1486797,4.2709737,3.6974356,5.3550625,5.197413,4.5741196,3.489243,1.228023,2.1891036,-0.21138054,5.257819,2.3703344,5.489033,4.34579,2.2226074,4.128499,-0.12927526,3.3060787,3.0802462,3.7334776,2.3432941,5.8137913,4.070407,2.7275808,2.12405,3.5198855,3.5437882,3.6119442,5.2181096,3.0234413,3.940448,5.450958,5.2330027,5.1784472,-0.08817212,4.2313814,3.2819679,-0.10197567,3.4329724,5.539986,5.226523,6.3884897,2.6661496,1.8952688,3.8335178,6.4589906,4.1897902,3.747546,3.7868118,2.9220195,3.4581149,2.0910728,3.3617237,4.5375595,5.4218116,5.3803287,4.3224964,4.8010764,5.2035866,5.098824,3.9505486,5.2866597,4.8464637,3.4184194,3.3630848,4.984324,5.3247423,3.2881951,1.1919881,5.316499,4.244372,5.45412,-0.00027246427,-0.19368942,3.2263224,2.4914181,1.1894444,4.5644183,5.5311,2.4919505,3.8366606,1.3124734,4.1259093,-0.101970546,3.1522698,5.172673,3.7377753,5.445938,1.6485847,5.497266,-0.09632755,-0.09121942,4.7140393,5.112571,4.948154,4.5072155,5.5355334,5.3889236,1.5154159,5.4940295,4.1954155,5.1064076,1.2835361,4.728471,4.172154,5.243285,3.6287477,4.300755,2.4617207,5.282474,5.2195845,5.2147474,1.6148614,5.2425895,3.9458969,3.650242,5.3801603,5.2494726,4.6935806,1.8463923,1.5575534,2.9272182,2.414406,3.471685,5.241198,-0.08879761,5.411998,-0.09664904,2.248828,3.0665941,2.1338205,2.0793765,5.2511544,3.4373574,0.0018720136,5.033184,1.6246165,-0.12337479,5.5753202,2.4827306,5.3083625,-0.2837853,2.508622,5.277524,3.4581857,3.4721751,4.4335876,2.7109334,5.2006903,3.5496354,2.2465355,0.0323764,9.267296,1.8122662,1.8548731,5.210421,3.4200907,2.7115471,2.4365973,5.157478,4.695954,5.19149,3.3919237,5.9372106,4.1807404,5.2692,0.0011808258,6.1070414,4.2220087,5.2874656,4.89194,3.4284835,4.0801234,2.0983756,5.3556404,4.246451,0.87651324,5.306193,2.489669,1.4276938,5.256986,5.581286,2.397225,-0.22930168,5.140382,2.2515228,5.252707,1.6513959,5.1271114,5.320897,3.6596785,0.5825664,3.1517353,5.2108154,3.718503,3.5599737,5.494614,4.0784817,3.1473255,5.653975,4.042541,5.917956,-0.09620097,-0.09026826,0.49971426,5.1747603,3.2933207,2.3306036,5.538502,2.059967,4.8487463,4.191837,2.2655628,4.454096,5.2626414,1.0004812,4.406439,3.9665422,3.270813,1.6393248,4.08726,4.670907,3.649537,3.163436,5.2485867,4.042497,2.6453457,5.0603046,4.768207,4.113351,5.429234,-0.17300057,0.067326166,2.970027,1.5864642,5.3417797,4.4814334,-0.08650989,5.2027965,5.2919774,3.8262835,2.400635,2.773888,3.9166064,2.0475235,2.786875,2.3972487,5.6322627,3.4783564,5.4877977,4.853735,4.436707,0.11141482,5.813297,5.557974,4.0147085,6.1186376,3.9516454,4.3748465,3.0675087,5.013771,5.17131,1.4854013,4.522109,3.8753605,3.8010051,5.292706,2.8544104,5.3705173,4.9196506,3.089839,5.3582206,2.139708,7.4006524,5.2489786,3.2899814,2.177393,2.616917,5.423985,2.7614918,5.385294,3.7320242,5.305224,5.3723416,3.2028828,-0.08566289,3.7823806,0.6032316,2.135456,3.0413818,5.390256,4.3043013,3.0045502,3.3984487,1.3782439,5.2111387,4.558476,6.0366073,4.4950533,2.7725623,1.804911,5.2869067,4.83802,5.50403,4.9789186,5.3060503,3.3253872,3.0349514,5.3878226,5.2840557,3.2337182,2.2742429,1.0201153,2.5896716,3.5409667,-0.14711708,-0.08103948,3.889362,4.9077325,5.2355394,1.813038,5.022386,2.0984464,5.0634203,4.377826,4.8825064,5.382543,3.364233,5.289718,3.325846,-0.17866972,3.3868713,3.9868488,3.210842,4.844123,3.3356302,0.0018538991,5.3398623,5.490571,3.2837694,2.1546454,5.3011036,3.756832,5.384487,5.2853456,5.142597,2.60947,3.961169,2.4179347,3.4767807,5.1092153,3.1851978,-0.18632603,4.246032,1.4312031,2.5277066,-0.1043963,5.3983326,-0.11456999,1.7820983,5.306558,5.3110166,4.5734334,7.179431,2.329263,2.456202,2.8914196,3.1547992,2.2936938,4.0414023,2.9453373,5.2233977,3.2515447,3.685034,5.193105,4.7509046,2.1291485,-0.14737546,1.8510351,4.9741797,2.493491,5.191898,3.429928,2.2978573,3.767394,2.1122456,1.179523,3.4575527,0.81757164,2.7115278,-0.22027156,5.2818694,3.1206887,4.2864013,1.3110456,4.8067703,4.1385736,0.78993976,2.2257574,5.64035,1.2652545,1.7331849,-0.21787015,4.58221,5.445743,5.370121,5.4032645,0.0035784135,1.6251467,5.2345743,2.5415072,5.3202214,5.309099,-0.03858508,5.1821747,5.326515,5.0266848,2.2796862,2.3913631,5.4875674,5.6486187,-0.19259469,5.4430013,3.177377,1.2494199,2.8067882,-0.037286527,1.8179262,4.776625,0.5627,5.182335,28.99225,3.2362213,5.242275,0.30526865,4.2004375,3.6994023,1.5701628,3.084307,4.5103216,1.8457713,5.4954,4.9488287,3.3225539,2.8283546,5.3451433,2.8041146,2.8260863,2.8235304,5.381917,4.014409,4.171356,2.2241163,4.271865,2.355677,5.105424,0.69094,2.2123072,4.05179,5.429815,2.6383367,3.5283215,4.7318,5.2493033,3.011915,3.4124765,3.7120607,5.2392573,3.8697953,5.27114,3.6605785,3.7256205,0.26880923,4.5190735,-0.13241862,1.9608073,5.353772,4.1679187,3.5532875,1.5239017,5.4901857,3.5346198,3.5400496
COc1cc(-c2ccc3ncnc(Nc4ccc(F)c(O)c4)c3c2)ccc1O,3.1916509,0.004071507,9.195292,2.9192014,3.3237839,4.89289,5.3004136,3.5900314,4.112044,2.8670442,5.161587,4.750306,3.787725,13.575657,5.033419,4.6881633,5.09167,7.096619,3.8274114,-0.25297296,2.3484921,3.3553386,4.787703,-0.19771326,3.9983125,3.9276397,5.073603,1.9702355,2.9208407,5.1486797,2.5475936,2.7143648,5.3550625,4.9396405,3.4837074,2.8319242,1.8866749,7.289817,4.163414,4.9222865,1.71809,5.489033,4.3317738,1.8100873,3.847938,8.8546915,3.3060787,2.7499251,3.7188697,2.523707,5.4465446,3.802345,2.2582185,1.5830467,3.32074,3.9226854,3.2713645,5.2068624,2.544644,3.940448,5.450958,5.146963,5.1784472,12.402779,3.9135153,3.2247827,11.662579,3.4329724,5.3806624,5.219334,-0.1465116,2.6661496,1.8355457,3.8140118,6.070658,4.18979,3.2699127,3.4737704,-0.24197097,2.3562257,2.3463836,3.2745159,3.1686907,5.147803,5.0479527,4.318963,4.515703,5.211072,5.0895634,3.9505486,5.017258,4.8464637,3.2312315,3.0085714,4.981462,5.3333983,3.2881951,2.5993426,4.986968,4.2882137,5.2673798,-0.00027246427,5.9789352,3.2263224,2.4914184,2.4429011,4.3382306,5.2469864,4.208826,3.8366606,1.8876885,4.1244097,2.5245087,6.0717125,5.172673,6.3495297,5.437112,2.8484638,5.315679,11.621708,-0.09121942,4.7140393,4.4690824,4.9424076,3.5895274,2.2429156,5.184632,1.4562488,5.4981422,0.8722991,4.842577,6.0189414,4.5093718,3.9831338,5.243285,3.3798,4.105895,2.6370938,5.311092,5.2195845,5.224581,1.6307962,4.9677553,3.933869,3.1750479,5.1103406,5.011911,4.383246,1.6970183,0.50276655,2.3454142,2.4029381,3.3636482,5.2213383,-0.08879761,5.411998,11.986908,4.7450857,5.419128,2.5892067,2.4931464,4.0679646,3.075569,0.0018720136,5.0277867,1.2266659,6.015936,5.075049,3.0421636,5.007529,1.8529675,2.4108095,5.2788215,2.6112823,3.1089017,4.4262547,6.3396034,3.2496204,3.3287683,2.2706745,1.1415616,-0.12773347,2.1484947,2.0453858,5.210421,3.0988076,3.8862019,0.052859716,5.1489787,4.6814003,5.187093,3.1589549,5.9156523,4.1807404,5.0256596,0.0011808258,3.834016,4.2220087,4.886719,4.8817344,3.2443745,4.0801234,2.3800771,5.9147263,4.233397,1.8272707,5.062586,3.3269467,0.92247164,5.009455,5.314783,2.1926372,3.8399737,4.856299,2.2371652,4.949576,3.895068,5.11902,5.041825,3.7119455,1.0257008,3.192615,4.705019,7.497141,2.3148541,5.491263,2.152816,6.650233,5.6727386,4.042541,3.375583,10.109033,-0.09026826,3.6760132,4.946023,2.8591342,2.3306036,5.538502,1.763323,2.9877992,3.7322447,2.0220857,2.884261,5.0121717,-0.18985356,4.406439,3.9410615,3.2615852,4.4231915,3.8561234,4.670907,3.649537,3.0306437,4.906111,4.042497,4.298587,4.7272925,-0.3100338,6.782319,5.429234,10.062297,3.9255166,3.388431,0.536092,5.3417797,4.4814334,12.8624325,4.8216233,5.0014315,3.284251,2.6306036,2.8708837,3.9166064,1.9474592,2.786875,2.3824625,3.6602192,3.1472626,5.133984,3.6287777,2.959647,7.2815638,5.889851,5.566346,3.7458625,-0.2297162,3.9516454,4.3748465,2.92982,4.8093047,4.9114075,2.059939,4.508055,3.4952497,3.328995,5.0845513,4.3055596,5.092263,4.9196506,3.089839,5.0497866,2.139708,0.11838669,4.911077,3.1825283,0.94294137,4.5799446,5.423985,2.7614918,5.1227393,2.807905,5.0476346,5.3723416,2.0983272,12.22675,3.2523348,0.46774328,2.135456,3.0303826,5.105661,5.6663694,2.951324,2.8812726,2.0242686,5.2291346,4.558476,5.8794622,4.2161145,2.4429038,1.5088986,4.987446,4.83802,5.232993,4.963427,5.0231895,3.0836184,2.8005126,5.059532,4.9666133,3.2337182,2.1573253,4.6026864,2.575025,2.931356,5.171033,-0.08103948,3.796786,4.9110494,5.2355394,2.60275,5.022386,1.758947,5.054889,4.379079,4.602671,5.0875955,1.9255525,4.937414,2.5991306,-0.17866972,3.145759,3.9845018,3.1172726,4.7266665,3.3356302,0.0018538991,4.986589,5.490571,3.2837694,6.6227684,5.3011036,3.756832,5.384487,4.906352,5.142597,4.056222,3.961169,1.8629678,2.7507246,6.362002,2.990667,5.7289906,4.2460327,1.4532642,2.5277066,-0.1043963,5.0602036,10.907278,7.0637302,4.988934,5.027224,5.7912936,6.6039033,2.1389222,1.9570005,2.7785714,3.0158138,3.6921,4.4803944,2.762317,5.223835,5.7238865,3.3036888,4.858322,4.7389345,1.9764559,6.739868,2.202581,4.9741797,2.493491,5.2096004,3.0363443,1.7424066,3.767394,2.010529,4.007091,3.1128378,2.2747812,5.372015,3.5252452,4.9715805,4.9070296,3.9576724,1.2499335,4.800031,4.1385736,8.921527,1.9622043,5.64035,1.2652545,1.8951957,4.043628,4.034876,5.445743,5.377027,5.4032645,0.0035784135,1.6251467,4.887218,2.0370846,5.315253,4.9592724,-0.03858508,5.1808157,4.9177237,5.0380898,2.087221,2.3913631,5.22115,5.6486187,5.6135798,5.186355,2.7875187,1.6423413,2.8015206,-0.037286527,2.1079204,6.4256854,-0.15004073,2.473564,-0.05057502,1.0688547,5.101412,3.568988,3.9280972,3.6985838,1.7599857,5.7841034,4.493638,0.3744581,5.501038,7.2894516,2.9266343,7.1394606,5.041754,2.2438374,2.6835024,6.9774466,5.154731,3.8604205,4.1651506,2.2241163,4.259731,4.2570643,5.11411,4.3109307,8.676795,2.947716,5.0084696,-0.16925228,3.3420658,3.1335714,5.2493033,3.3268156,3.458743,3.7120607,5.2392573,3.6557748,4.905911,3.226388,2.5712974,3.88604,4.5190735,-0.13241862,1.9504039,5.379382,4.1679187,3.2717454,1.5773025,5.4901857,3.0791862,3.2196727
Oc1c(F)ccc(Nc2ncnc3ccc(-c4ccc(Cl)cc4)cc23)c1F,4.5650454,0.004071507,9.195292,4.1865797,3.368129,4.89289,5.3004136,3.5900314,3.2388506,10.37622,5.161587,4.701015,3.4706347,4.883776,5.2348895,4.6881633,5.3788404,3.9640574,2.8942022,6.4784255,2.2333527,4.118064,5.0475664,14.326833,3.5763967,3.327007,5.073603,2.2319021,2.966539,5.1486797,4.3017673,6.0960546,5.3550625,5.135264,3.4837074,3.9864368,6.3608594,5.7370086,7.643298,5.1845093,2.6280172,5.489033,4.34579,2.6496563,4.0918694,12.861544,3.3060787,2.6122084,3.7248929,3.200404,5.316283,3.3141701,3.4672143,6.3516374,4.3223867,3.4958737,4.229011,5.2181096,1.6465895,3.940448,5.450958,5.320623,5.1784472,14.552995,3.39263,3.2750685,13.812009,3.4329724,5.489289,5.226523,-0.1465116,7.3191338,1.9038304,3.8335178,5.378555,4.2045283,4.167251,4.2495384,10.662502,2.8283477,2.0910728,3.79904,3.377007,5.225715,5.2547793,4.3224964,4.7554355,5.2035866,5.098824,3.9505486,5.365068,4.8464637,4.040982,3.967301,4.984324,5.3247423,3.2881951,6.1899195,5.1411004,4.244372,5.434403,-0.00027246427,0.04217908,3.2263224,2.4744623,5.946949,4.8344617,5.698977,4.653183,3.8366606,1.2009103,4.1259093,-0.101970546,6.415754,5.172673,7.5108714,5.445938,1.6485847,5.281018,20.445408,10.48659,4.7140393,4.923662,4.948154,3.5895274,1.360913,5.4785557,1.6846255,5.4940295,3.3758378,5.1197906,6.191601,4.755996,4.206301,5.243285,4.0269227,3.4731736,2.76427,5.282474,5.2195845,5.2147474,2.6057742,5.056085,3.9458969,4.530213,5.3255186,5.181925,4.738078,4.7284527,5.4395056,2.3350658,2.414406,3.5624826,5.241198,6.3593388,5.411998,15.463857,5.6103816,5.934864,3.016556,1.929922,3.4276493,4.0110974,0.0018720136,5.033184,7.221883,20.575304,6.324076,3.2301853,5.203976,8.730115,2.1407022,5.277524,4.6036525,4.076481,4.4335876,7.8242545,3.2563682,4.1186447,4.498378,5.29102,-0.12773347,1.7696431,5.24575,5.210421,3.926508,3.0436666,10.622872,5.157478,4.695954,5.19149,0.46933472,5.9372106,4.1807404,5.0875964,0.0011808258,-0.13510993,4.2220087,5.328428,4.89194,4.2789254,4.0801234,3.2277684,-0.20577617,4.246451,5.916547,5.3137984,2.8560236,8.072963,5.076681,5.6708446,2.5311217,8.831745,4.8142524,2.0103662,5.0826,6.874701,5.1271114,5.1035156,3.0178738,5.023597,5.7242312,5.328534,7.1224365,2.3148541,5.494614,3.9859755,5.7266884,5.653975,4.042541,2.6434493,14.063264,16.87758,5.916519,5.154156,4.000901,3.0996184,5.538502,2.163939,1.9588213,3.79982,1.8045944,2.1032054,5.174487,8.382128,4.406439,3.9665422,3.270813,0.60538787,4.2957687,4.670907,3.649537,3.8167489,5.0839252,4.042497,5.21869,4.709934,7.226163,6.2198095,5.429234,12.588331,6.74719,2.6659107,9.221395,5.3417797,4.4814334,15.689487,5.1197276,5.245135,4.6522655,2.5762358,3.7584963,3.9166064,6.091216,9.082373,3.060688,3.5058224,4.2277737,5.446587,1.9645758,2.7773478,8.240162,1.0424933,5.557974,3.5569918,7.103396,3.9516454,8.328719,1.2092319,4.8390307,5.1507463,1.8323147,4.522109,4.1129446,3.7303047,5.292786,3.3598986,5.2019715,4.9196506,5.157896,5.2960696,7.2648745,-0.15435554,5.083228,4.079846,3.8902035,4.151409,5.423985,2.7614918,5.424963,2.215585,5.160567,5.3723416,2.0983272,15.380114,3.9664598,11.206261,2.135456,3.3344052,5.0903664,5.3891883,3.0093458,3.8106675,3.1241698,5.2111387,4.558476,5.8747745,4.445675,3.2113879,1.5168645,5.2716227,4.83802,5.4691935,4.9789186,5.2743344,3.9328353,3.6477695,5.3848915,5.1043277,3.2337182,2.7218087,6.9796424,2.605551,4.4020176,5.308484,20.301027,3.6348414,4.9077325,5.2355394,1.5841388,5.022386,2.7535105,-0.2727609,4.377826,4.883187,5.3344064,1.4500619,5.174519,4.1263404,16.743624,4.0341578,3.9868488,3.3815758,4.7998185,3.3356302,0.0018538991,5.285159,5.490571,3.2837694,8.193027,5.3011036,3.756832,5.384487,5.2360563,5.142597,3.3695154,3.961169,1.8629678,3.7183387,0.15327914,3.7442703,5.551549,4.2238193,7.0033746,2.5277066,6.436133,5.4166865,14.776861,14.032372,5.116346,5.184735,-0.26458406,0.43557766,1.5097433,1.9544703,2.597291,3.1486895,3.257835,5.6860514,3.4314954,5.2233977,7.6355295,4.3033757,5.1442885,4.7509046,2.3916159,8.041439,1.8510351,4.9741797,5.876139,5.191898,4.0795183,1.452329,3.767394,2.6793644,7.168739,4.083438,5.4883037,-0.018216437,10.745288,5.106732,0.99224234,4.091813,1.0445942,4.8067703,4.1385736,10.835534,2.6095703,5.64035,6.1194663,2.9573774,8.7854805,4.0410037,5.445743,5.370121,5.4032645,0.0035784135,3.2153182,5.0943255,6.2015696,5.3202214,5.252522,29.982084,5.1821747,5.3666472,5.0266848,2.209564,2.3913631,5.4373136,5.6486187,0.1990969,5.2570558,3.8687239,2.745623,2.8067882,-0.037286527,2.0418673,1.3541108,14.841872,0.12199452,-0.05057502,4.1236243,5.275307,9.051475,3.48637,3.6994023,3.9129682,0.055256564,4.5103216,10.152254,5.4954,6.809106,3.918544,7.023238,5.3037567,1.355105,1.9565701,5.9019465,5.334336,4.056163,4.171356,2.358439,4.271865,1.8458024,5.105424,8.280045,8.979663,2.947716,5.3438616,12.05439,4.230667,2.7402818,5.2493033,4.691078,4.082253,3.7120607,5.2392573,3.3440983,5.1669307,3.226388,3.8747,6.5984015,4.5190735,13.431534,1.9608073,5.353772,4.1679187,3.6211748,2.3869267,5.4901857,4.1448956,3.1595838
NC(=O)c1cccc(-c2ccc3nccc(Nc4cccc5[nH]ncc45)c3c2)c1,4.7793894,0.004071507,-0.16347788,4.728584,4.096878,2.0693343,2.4835496,3.1552582,3.0621657,-0.1842202,5.4505086,6.6787615,3.5913005,-0.10558864,5.9346476,0.6185102,6.4104624,6.2511115,3.4091976,5.14347,5.5762854,4.4213343,5.3914967,2.4593172,4.0154085,3.5190678,5.2762027,2.6855502,4.27556,5.2343397,8.100636,3.6974356,5.15694,5.671197,4.5741196,4.4106097,1.3564204,4.1909103,8.003764,5.5441017,2.880678,2.2642958,4.3333507,2.5405686,4.522221,-0.12927526,2.9420304,2.7446604,3.8862772,3.4647381,6.046183,3.5435066,4.404319,2.0620697,4.3489013,3.5437882,4.376999,4.9043584,1.2977139,2.604478,2.7909482,5.4627023,5.2548804,-0.08817212,3.8987195,4.240523,-0.10197567,3.2619898,7.4146466,4.686938,6.063276,1.6243933,1.7366468,4.0532346,6.4589906,4.271731,4.4296584,4.611926,3.6393073,3.4581149,2.3799992,4.155051,4.5375595,5.579624,5.6036234,4.2369556,5.275853,4.276354,4.7983937,3.7690709,5.448072,3.3448708,4.25709,4.10286,4.5380588,4.328713,2.7560349,2.0137815,5.9714556,3.8443823,7.1668887,-0.00027246427,-0.17552283,2.8647244,2.566716,4.301289,5.926676,7.2312,2.5028844,3.1678622,2.0325294,3.481855,1.1495643,3.1522698,5.1409597,3.7377753,4.9526663,2.1648428,5.4767303,-0.09632755,4.835863,5.404123,7.690518,4.98017,4.5072155,5.515626,6.232048,2.456178,4.972484,4.1954155,5.5957894,3.2935772,4.841743,4.1885867,4.103241,4.2751637,4.107774,2.9761786,4.8479824,5.1918697,4.784644,2.3829637,4.788177,4.014731,4.795276,5.64131,5.392496,4.9179826,3.3678327,1.399083,2.9272182,0.9879952,3.9011881,5.0926833,-0.08879761,2.300262,-0.09664904,1.0511059,3.0889525,2.1338205,2.2271867,3.7451344,4.3773127,0.0018720136,4.882016,2.213684,7.521086,5.5753202,2.7588823,5.496448,6.166269,2.3181381,4.567891,2.640039,4.1623497,4.4747334,2.7109334,3.4520607,4.335832,2.2465355,2.2042294,8.540209,2.2777643,2.649578,5.3088355,3.9424264,2.755243,2.9506757,4.8700266,1.559665,5.0265713,3.3919237,-0.1815399,3.6313653,5.9222198,0.0011808258,6.1070414,2.2139385,5.8530574,5.135233,4.7701106,2.4359744,1.9313482,6.1984153,4.596981,2.7184381,6.2585974,2.489669,2.4743035,5.2534256,5.977369,3.6300178,4.54316,4.6996403,2.6321754,4.4737926,4.400623,4.981401,5.417078,3.4201224,4.0752363,3.1517353,8.242977,3.718503,3.5599737,4.5332794,4.0784817,3.1237764,3.94059,2.3093545,5.917956,-0.09620097,-0.09026826,2.397703,5.1821837,4.603266,1.3835038,2.0310495,1.9423776,3.7832718,3.7506168,2.0678453,3.1521127,5.4846606,1.0004812,4.6980796,2.4520926,4.3801875,1.6393248,4.62344,2.889366,3.3437934,3.874384,5.3895497,3.9214053,1.9309032,4.8896203,4.768207,5.9941525,4.764047,1.4062442,6.8705845,3.536345,1.5885077,5.289222,2.342855,-0.08650989,6.620991,6.110351,4.8535514,3.7448049,3.4127133,3.0027683,3.9310446,1.9027002,2.979398,5.6322627,4.1391416,4.695605,4.262656,2.9060996,3.2901561,6.0043654,4.5043344,3.74331,6.1186376,3.9601574,1.4066811,2.8321383,4.427261,5.7066655,2.1370084,4.3551774,5.0435514,5.0650396,6.065022,3.158283,5.9302936,1.7821125,1.2491639,5.8030257,1.480988,7.4006524,5.105817,4.5246773,2.8046951,2.616917,5.668092,1.731215,5.8947535,2.4551396,5.3858,5.095054,3.6592712,-0.08566289,4.18591,0.6032316,2.436452,4.2626033,4.1501603,8.091475,4.2460284,4.369601,2.4365084,5.20216,2.7414815,6.0366073,4.989685,3.1999593,1.815617,5.464118,2.6450725,5.8079257,4.9787526,6.3208966,4.190095,4.0829544,5.5463552,6.113645,2.5140386,2.9486496,4.283975,2.9244747,4.823704,-0.21760839,-0.08103948,3.4846096,4.5955215,5.0255527,2.0072348,5.658913,2.0984464,4.2052646,3.7660415,5.150574,5.968394,3.364233,5.627838,5.191798,3.5336723,4.808136,3.6766284,3.339475,5.354938,3.1419616,0.0018538991,5.6661634,3.7879348,2.394572,3.6232178,5.349647,3.185868,5.0965962,5.7328796,4.6546254,4.774812,2.8883893,3.178731,5.0776825,6.101226,3.8897994,-0.18632603,5.1309075,3.4251883,2.2642868,-0.1043963,6.5739913,4.669651,1.7820983,5.1009655,5.339162,5.682396,6.5339894,1.1028457,2.4516327,2.7590902,4.931829,2.2936938,4.5622144,3.762293,5.0461354,3.2515447,4.748854,5.050542,4.448963,2.256345,5.020643,3.4680977,2.5006514,2.5794368,5.110296,4.26077,1.822624,3.6113417,3.678405,4.3757057,4.181545,2.4476962,2.7115278,4.9650383,5.3457103,4.072827,3.410952,1.6666938,4.4387555,4.0015764,3.2254474,3.2789838,2.2017474,1.7747583,3.1311753,1.0429837,3.8316662,3.0637596,4.9065547,3.0287201,0.0035784135,1.5742158,4.914714,1.9980804,4.8441854,5.7012887,-0.03858508,4.811339,6.3652596,5.3464055,2.654548,2.4534843,5.48765,1.737717,0.41719693,5.2041397,4.209817,2.0883389,2.816703,19.844353,2.0951092,4.565007,0.5627,5.182335,-0.05057502,7.98486,6.1835365,4.570482,3.812481,3.921375,2.816833,5.931476,4.6919227,3.1125371,4.6228056,4.9488287,3.5068078,2.8283546,6.4445624,1.639079,2.7104735,4.1279774,6.8688126,4.255682,4.346116,2.1499672,4.0637884,4.6349573,4.8218284,4.8099394,2.4129033,4.05179,6.7212305,2.6383367,4.491778,3.002545,2.8782449,6.725952,3.2710915,3.5865304,4.3393607,3.5047717,5.2725687,3.6605785,5.8956485,4.2075377,2.409324,-0.13241862,1.7497295,4.7579226,4.0339184,3.653439,1.2039764,5.2808847,4.67232,3.507423
COc1cc(-c2ccc3ncnc(Nc4cccc(N)c4)c3c2)ccc1O,3.057661,0.004071507,9.195292,2.9269035,3.3237839,4.89289,5.3004136,3.5900314,4.112044,-0.1842202,5.161587,-0.20643677,3.787725,-0.10558864,5.019507,4.6881633,5.047104,5.332174,3.8274114,0.6226786,0.32662642,3.143371,4.7198367,4.236508,3.9983125,3.9276397,5.073603,1.9702355,2.9208407,5.1486797,2.7917027,3.5696647,5.3550625,4.9318366,4.1179433,2.9142313,1.5007403,2.1898227,6.854079,4.912058,2.027388,5.489033,4.3317738,1.8100873,3.7986922,-0.12927526,3.3060787,2.7499251,3.7188697,2.5476196,5.4955816,3.802345,2.2582185,1.9542112,3.0354142,3.742209,2.885288,5.2068624,2.544644,3.940448,5.450958,5.123095,5.1784472,-0.08817212,3.9135153,3.2247827,-0.10197567,3.4329724,5.374881,5.219334,-0.1465116,2.6661496,1.8355457,3.8140118,-0.17703184,4.18979,3.126245,3.0597754,3.6634433,3.310341,2.3463836,2.9297764,4.131658,5.166194,5.031558,4.318963,4.4742317,5.211072,5.0895634,3.9505486,5.025021,4.8464637,2.990909,2.7770734,4.981462,5.3333983,3.2881951,1.2748942,4.9991016,4.2882137,5.185303,-0.00027246427,5.9789352,3.2263224,2.4914184,1.565615,4.252978,5.1461396,1.4740587,3.8366606,1.8876885,4.1244097,-0.101970546,2.005467,5.172673,2.7980206,5.437112,2.8484638,5.3699956,-0.09632755,6.850781,4.7140393,4.4937043,4.9424076,4.3711133,0.9291058,5.1688514,1.4562488,5.4981422,3.242146,4.8065987,2.2429507,4.4919777,3.978605,5.243285,3.2320282,4.105895,2.3458986,5.311092,5.2195845,5.224581,1.6307962,5.036789,3.933869,2.9789147,5.081341,4.984977,4.3471627,1.6970183,1.0997459,2.3454142,2.4029381,3.3150961,5.2213383,-0.08879761,5.411998,-0.09664904,4.7450857,1.8157178,1.4594452,2.4931464,4.0679646,2.989974,0.0018720136,5.0277867,2.2539291,-0.12337479,1.104855,3.0421636,5.0002503,5.2550063,2.4108095,5.2788215,2.6112823,3.1089017,4.4262547,1.7970686,3.2496204,3.0847814,2.2706745,2.528473,-0.12773347,2.1484947,2.2006338,5.210421,3.0261517,3.8862019,3.2612784,5.1489787,4.6814003,5.187093,3.1589549,5.9156523,4.1807404,5.0530276,0.0011808258,3.834016,4.2220087,4.838572,4.8817344,2.9583418,4.0801234,1.2092222,5.9147263,4.233397,3.3247116,5.043725,1.9144621,2.156436,5.03178,5.270934,2.022105,2.6602225,4.908888,2.2371652,5.0311766,3.9097874,5.11902,5.0039997,3.7119455,2.8560858,3.326908,4.6654334,2.088615,3.115622,5.491263,3.2175186,-0.22488227,5.6727386,4.042541,5.614152,-0.09620097,-0.09026826,1.2823125,4.9069166,2.8591342,2.3306036,5.538502,1.763323,2.9877992,3.7322447,2.0220857,2.884261,5.0167723,0.86222327,4.406439,3.9410615,3.2615852,4.4231915,3.8110712,4.670907,3.649537,2.6605651,4.900425,4.042497,2.9168758,4.714025,3.3653872,3.9310327,5.429234,-0.17300057,5.4360104,3.388431,1.6638113,5.3417797,4.4814334,-0.08650989,4.75794,4.976106,3.086231,2.3423438,2.67378,3.9166064,4.0216026,2.786875,2.4399583,5.0210853,2.965617,5.1921926,3.6287777,2.959647,3.5882447,5.889851,5.566346,3.7458625,2.886041,3.9516454,4.3748465,2.92982,4.794177,4.885737,2.059939,4.508055,3.0089,3.2770362,5.0416207,4.3055596,5.09418,4.9196506,3.089839,4.9958386,2.139708,-0.15435554,4.9379354,3.1825283,1.6465126,3.0852413,5.423985,2.7614918,5.1090803,2.807905,5.056371,5.3723416,2.0983272,-0.08566289,2.792717,0.769673,2.135456,2.9321167,5.1802897,3.719167,2.951324,2.8812726,2.114555,5.2291346,4.558476,-0.19873273,4.156594,2.2761214,1.5088986,4.991693,4.83802,5.224172,4.963427,4.9989624,3.0836184,2.8005126,5.084293,4.967208,3.2337182,2.0634894,1.4600115,2.575025,3.0063066,0.69844294,-0.08103948,3.796786,4.9110494,5.2355394,2.60275,5.022386,2.0690813,5.054889,4.379079,4.58177,5.025209,3.0651114,4.9185624,2.557935,3.5994155,3.145759,3.9845018,3.0425005,4.6990047,3.3356302,0.0018538991,4.970427,5.490571,3.2837694,2.1546454,5.3011036,3.756832,5.384487,4.8926115,5.142597,4.056222,3.961169,1.9704431,2.7507246,6.362002,2.9458604,5.7289906,4.2460327,1.7773885,2.5277066,-0.1043963,4.990346,-0.11456999,-0.15887256,4.9516745,5.008085,5.7912936,6.6039033,2.1389222,1.9570005,2.7785714,3.0158138,1.6255362,4.00868,2.762317,5.223835,1.4856693,3.2685637,4.861901,4.7389345,1.9192066,2.7475154,2.266589,4.9741797,2.493491,5.2096004,3.0363443,1.7424066,3.767394,1.8068318,3.6804342,3.0041442,2.335809,5.372015,4.0128913,5.014488,4.2691674,2.0589771,1.2499335,4.800031,4.1385736,1.1749833,2.077526,5.64035,1.3956022,1.9537486,4.043628,4.034876,5.445743,5.377027,5.4032645,0.0035784135,1.6251467,4.9094834,2.0370846,5.315253,4.9307394,-0.03858508,5.1808157,4.9048233,5.0380898,2.060963,2.3913631,5.1845284,5.6486187,5.6135798,5.1907067,2.835488,1.6423413,2.8015206,-0.037286527,2.081823,6.4256854,0.0836781,4.8711295,-0.05057502,1.750498,5.0721917,4.041203,3.9280972,3.6985838,1.4390323,5.7841034,4.493638,2.5935214,5.501038,-0.20203632,2.831484,0.8578916,4.9984193,2.2438374,2.6835024,2.4881363,5.0654864,3.8088078,4.1651506,2.2241163,4.259731,4.2570643,5.11411,5.4702806,2.3816307,3.8759305,4.9689217,4.566074,3.0638216,3.1335714,5.2493033,3.539572,3.458743,3.7120607,5.2392573,3.6557748,4.9186044,3.7021658,2.651111,3.9935164,4.5190735,-0.13241862,1.9504039,5.379382,4.1679187,3.2998853,1.5631285,5.4901857,2.8562067,3.2196727
