,0,1,2,3,4,5,6,7,8,9,10,11,12,13,14,15,16,17,18,19,20,21,22,23,24,25,26,27,28,29,30,31,32,33,34,35,36,37,38,39,40,41,42,43,44,45,46,47,48,49,50,51,52,53,54,55,56,57,58,59,60,61,62,63,64,65,66,67,68,69,70,71,72,73,74,75,76,77,78,79,80,81,82,83,84,85,86,87,88,89,90,91,92,93,94,95,96,97,98,99,100,101,102,103,104,105,106,107,108,109,110,111,112,113,114,115,116,117,118,119,120,121,122,123,124,125,126,127,128,129,130,131,132,133,134,135,136,137,138,139,140,141,142,143,144,145,146,147,148,149,150,151,152,153,154,155,156,157,158,159,160,161,162,163,164,165,166,167,168,169,170,171,172,173,174,175,176,177,178,179,180,181,182,183,184,185,186,187,188,189,190,191,192,193,194,195,196,197,198,199,200,201,202,203,204,205,206,207,208,209,210,211,212,213,214,215,216,217,218,219,220,221,222,223,224,225,226,227,228,229,230,231,232,233,234,235,236,237,238,239,240,241,242,243,244,245,246,247,248,249,250,251,252,253,254,255,256,257,258,259,260,261,262,263,264,265,266,267,268,269,270,271,272,273,274,275,276,277,278,279,280,281,282,283,284,285,286,287,288,289,290,291,292,293,294,295,296,297,298,299,300,301,302,303,304,305,306,307,308,309,310,311,312,313,314,315,316,317,318,319,320,321,322,323,324,325,326,327,328,329,330,331,332,333,334,335,336,337,338,339,340,341,342,343,344,345,346,347,348,349,350,351,352,353,354,355,356,357,358,359,360,361,362,363,364,365,366,367,368,369,370,371,372,373,374,375,376,377,378,379,380,381,382,383,384,385,386,387,388,389,390,391,392,393,394,395,396,397,398,399,400,401,402,403,404,405,406,407,408,409,410,411,412,413,414,415,416,417,418,419,420,421,422,423,424,425,426,427,428,429,430,431,432,433,434,435,436,437,438,439,440,441,442,443,444,445,446,447,448,449,450,451,452,453,454,455,456,457,458,459,460,461,462,463,464,465,466,467,468,469,470,471,472,473,474,475,476,477,478,479,480,481,482,483,484,485,486,487,488,489,490,491,492,493,494,495,496,497,498,499,500,501,502,503,504,505,506,507,508,509,510,511
COc1cc(-c2ccc3ncnc(Nc4ccc5nc[nH]c5c4)c3c2)ccc1O,3.0818944,0.004071507,9.195299,2.9192004,3.3237824,4.892891,5.3004136,3.5900326,4.112044,-0.1842202,5.1615896,3.146638,3.787724,2.4717076,5.008785,4.695623,5.058522,5.3321724,3.8274107,1.7543381,2.4678261,3.1842723,4.7521076,0.5599227,3.9983125,3.9276395,5.3050027,1.970234,2.9208407,5.1486773,2.786327,3.19243,5.3550625,4.9218616,3.6751072,2.8109965,1.5007403,3.5342271,-0.16688944,4.885998,1.663325,5.4890327,4.331774,1.8100873,3.8319163,-0.12927526,3.5793853,2.7499251,3.7188692,2.5173345,5.434858,3.802345,2.2582169,1.737753,3.1674895,2.8345575,3.0688164,5.2068596,2.5446432,3.9815733,5.450959,5.1301937,5.1784463,-0.08817212,3.9135163,3.2247815,-0.10197567,3.432972,5.39058,5.219338,-0.1465116,2.7911186,1.835546,3.8140106,2.9276857,4.1897874,3.1348212,3.2377317,0.8039844,2.8780415,2.3463848,3.0512094,1.0088367,5.1372313,5.0304694,4.3189635,4.4791465,5.2110705,5.0895634,3.9505503,4.986574,4.975179,2.992755,2.7766492,4.9814625,5.3333974,3.2881927,1.2748945,4.9638867,4.288213,5.2402515,-0.00027246427,5.978934,3.2263215,2.4914176,1.1163257,4.314775,5.2216663,1.9613254,4.297305,1.8876882,4.12441,-0.101970546,0.101963,5.1726727,2.7493474,5.4371123,2.848462,5.313982,-0.09632755,-0.09121942,4.714037,4.4202175,4.942408,3.5895274,0.92910564,5.155979,1.4562495,5.4981413,0.82326907,4.814857,2.8004382,4.481384,3.958793,5.5613217,3.333675,4.1058936,2.3755212,5.3110924,5.2195835,5.2245793,1.6307952,4.9396048,3.933869,2.9544833,5.0900617,4.997822,4.357255,1.6970178,1.4613864,2.7606173,2.4029381,3.3427675,5.22134,-0.08879761,5.412,-0.09664904,4.7450852,2.4782348,1.8371005,2.4931467,4.0679636,3.0288498,0.0018720136,5.0277896,1.3823477,-0.12337479,2.5502295,3.042163,4.9833245,1.6414851,2.4108093,5.2788224,2.611283,3.1089013,4.4262547,2.384657,3.24962,3.1090393,2.2706738,0.7482874,-0.12773347,2.1484942,1.6132315,5.21042,2.9642293,3.8862023,0.6068474,5.148979,4.6814027,5.1870937,3.1589549,5.9156528,4.181489,5.0180693,0.0011808258,3.834016,4.222009,4.8412595,4.8817344,2.9858997,4.0801234,0.2650656,5.914721,4.2333975,1.0320293,5.0357285,2.548226,1.8828403,4.9908075,5.283357,2.2243986,1.8937304,4.8423777,2.2371652,4.9393396,3.8644407,5.1190195,5.033387,3.711946,1.0257004,2.0784898,4.672023,3.495635,3.1317363,5.4912643,2.1523745,0.95262355,5.6727405,4.0425415,1.3477091,-0.09620097,-0.09026826,0.79509574,4.9188232,2.859135,2.3306026,5.538501,1.7633222,2.9877992,3.7322452,2.0220842,2.8842607,4.9995375,1.0697187,4.4064374,3.9410625,3.261586,4.4231915,3.81206,4.670906,3.649537,2.7053578,4.887072,4.0424957,2.9168758,4.7017217,-0.31003508,3.9731157,5.9957237,1.208225,0.46384868,3.3884318,1.3211105,5.3417783,4.4814343,-0.08650989,4.798077,4.9731693,3.1105914,2.7006702,2.7143924,3.971259,1.927714,2.7868745,2.353349,2.8936555,3.0230541,5.119434,3.6287782,2.959647,3.5091107,5.889849,5.566345,3.745861,0.82682407,3.951644,5.8961344,2.9298186,4.785578,4.886277,2.0599387,4.508055,3.1648154,3.3084574,5.0611153,4.3055596,5.0709014,4.919652,3.089839,5.0167217,2.1397078,-0.15435554,4.8850555,3.1825275,1.9452633,2.8530464,5.423984,2.7962475,5.098635,2.807906,5.0399,5.372344,3.4285686,-0.08566289,2.843602,1.0474484,2.3182795,3.0179014,5.09215,3.8200681,2.9513214,2.881272,2.0242686,5.2291365,4.558474,2.4977942,4.177012,2.2972708,2.1459448,4.959013,4.838018,5.2167096,4.9634256,5.001817,3.0836189,2.800512,5.018295,4.9475956,3.3583496,2.1627507,1.4116329,2.5750246,2.9313557,0.6984429,-0.08103948,3.7967865,4.911048,5.2355375,2.6027508,5.022386,1.5296032,5.0548882,4.379079,4.568043,5.056549,1.861234,4.9118166,2.5427685,-0.17866972,3.145759,3.9845018,3.0986648,4.7132955,3.7097151,0.0018538991,4.958169,6.0363846,3.2837694,2.3093014,5.3011045,3.756832,5.3844833,4.885977,5.685229,4.0562196,3.961169,2.8784049,2.7507238,6.362,2.9464235,5.7289915,4.2460356,1.4532644,2.5277054,0.36974794,5.0169597,-0.11456999,0.50632745,4.953382,5.0170302,5.791291,6.6039047,2.1389232,1.9569999,2.77857,3.0158136,2.2737367,4.008683,2.7623162,5.223834,2.5876434,3.2520385,4.8278093,4.7389364,1.9563438,3.3002095,2.2025802,4.9741797,2.4934897,5.2096004,3.0363443,1.742407,3.7673914,1.8122348,3.3260503,2.985693,1.6916317,5.3720117,2.562083,4.9675255,4.2691646,2.621438,1.2499336,4.8000317,4.138572,1.1749833,2.1610317,5.6403513,1.9846957,2.023904,4.043629,4.0348754,5.4457417,5.377026,5.8121653,0.0035784135,1.6251475,4.842452,2.0370846,5.3152533,4.9379873,-0.03858508,5.1808167,4.893764,5.038087,2.0783741,2.391363,5.1946945,5.648619,5.6135798,5.1833305,2.7875168,1.642342,2.8015196,-0.037286527,2.081821,6.4256854,-0.04908355,2.4735658,-0.05057502,1.1372508,5.0700326,3.1522608,3.928098,3.6985848,1.6370118,5.784101,4.4936385,1.6331158,5.501038,1.4799874,2.689626,1.5216178,5.0202246,2.243839,2.6835027,3.7575421,5.131654,3.8273745,4.1651506,2.224117,4.2597322,4.2570634,5.1141114,4.3109303,3.313267,3.3426213,4.9797297,0.96589196,3.1801665,3.1335716,5.724651,-0.23140633,3.4587436,3.7120602,5.700449,3.6557748,4.8832374,3.2263896,2.5712955,3.8860407,4.5190725,-0.13241862,1.9504029,5.3793826,4.167916,3.2420619,1.0249255,6.084766,2.9580781,3.2196746
COc1ccc(-c2ccc3ncnc(Nc4cccc(O)c4)c3c2)cc1,3.0320058,0.004071507,9.195299,2.9192004,3.3237824,4.892891,5.3004136,3.5900326,2.200562,-0.1842202,5.1615896,4.1805167,3.4396946,12.205351,5.020377,4.688163,5.0576015,6.6338735,2.8942022,-0.25297296,2.1710222,3.235751,4.7441945,0.017913904,3.5763965,3.3270063,5.073603,1.8332349,2.9208407,5.1486773,2.5475898,3.686426,5.3550625,4.9280643,4.836567,2.8109965,1.3641835,7.3536234,4.0646973,4.9160085,1.8876209,5.4890327,4.331774,1.8100873,3.8113532,7.292916,3.306079,2.6122086,3.7188692,2.788305,5.446231,3.3141713,2.2582169,1.7311366,3.1581519,4.085198,3.046559,5.2068596,1.6105357,3.940448,5.450959,5.1115875,5.1784463,12.014043,3.4941585,3.2247815,12.043512,3.432972,5.3595386,5.219338,-0.1465116,2.666151,1.835546,3.8140106,4.3971825,4.204527,3.1575396,3.2596762,0.9901748,3.3855016,2.0738566,3.0701027,4.8825917,5.144352,5.0274777,4.3189635,4.4879193,5.2110705,5.0895634,3.9505503,5.0262794,4.846465,3.1429763,2.9483035,4.9814625,5.3333974,3.2881927,1.1919892,4.9762487,4.288213,5.1935506,-0.00027246427,4.467745,3.2263215,2.474463,0.5834466,4.282649,5.168903,4.20285,3.8366601,1.1857837,4.12441,14.227283,7.630146,5.1726727,4.863322,5.4371123,2.5706038,5.333292,6.825674,-0.09121942,4.714037,4.4960747,4.942408,4.958798,2.2193446,5.1717434,1.3516247,5.4981413,2.3270352,4.8171887,6.149638,4.504716,3.9814801,5.2432857,3.2396922,3.4731736,2.4338727,5.3110924,5.2195835,5.2245793,1.4941255,5.0036025,3.933869,3.028239,5.079533,4.976256,4.359906,1.8232447,0.8220036,2.3454163,2.4029381,3.3406317,5.22134,-0.08879761,5.412,11.983145,6.522232,5.2844353,1.717912,1.9632249,3.4276495,2.9143152,0.0018720136,5.0277896,0.84997207,11.258426,3.2977998,2.5139947,4.9981394,4.851341,2.1407006,5.2788224,4.636885,2.8988078,4.4262547,5.5184965,3.24962,3.2333128,2.3926883,0.675216,-0.12773347,1.530415,1.9342017,5.21042,3.046925,2.4958158,-0.047554895,5.148979,4.6814027,5.1870937,3.1440537,5.9156528,4.180742,5.018913,0.0011808258,0.9273665,4.222009,4.85873,4.8817344,3.0571287,4.0801234,0.9638482,5.5325155,4.2333975,2.5706224,5.050094,2.931784,0.9224706,5.0079327,5.2737856,1.9847133,-0.22930168,4.8805976,2.0103657,4.9908648,0.11090206,5.1190195,4.9832234,3.0178738,1.9824444,3.8488622,4.679185,5.9002943,3.5669951,5.4912643,3.9812322,7.148571,5.6727405,4.0425415,6.3442926,8.780275,-0.09026826,2.6338274,4.913209,2.699628,2.3306026,5.538501,1.661322,2.41385,3.8266218,1.8045942,2.4054308,5.0111527,0.54673016,4.4064374,3.9410625,3.261586,2.19506,3.8359609,4.670906,3.649537,2.9249556,4.8927097,4.0424957,0.9472429,4.702373,-0.32525915,6.8475533,5.429234,10.217644,5.758641,2.6659107,0.8045035,5.3417783,4.4814343,9.800938,4.7639713,4.9813976,3.120245,2.195101,2.7869036,3.9166064,1.9483953,2.7868745,2.3544118,6.3248463,3.0609455,5.170568,1.971992,2.7773497,7.4761357,3.3425298,5.566345,3.5569937,-0.2297162,3.951644,4.374845,2.5551732,4.7824144,4.8902526,1.404173,4.508055,3.1415024,3.2980812,5.042344,2.5740232,5.088396,4.919652,3.089839,5.00384,2.1397078,-0.15435554,4.916807,2.521095,1.8071034,3.2845333,5.423984,2.7614913,5.112047,2.215584,5.0322084,5.372344,2.6076488,9.282358,3.0849319,0.49259296,2.135456,2.9613547,5.1462317,4.312021,2.9513214,2.881272,1.4875222,5.2291365,4.558474,4.4858236,4.176897,2.428685,1.5088989,4.9877377,4.838018,5.2124557,4.9634256,5.003065,2.7639112,2.800512,5.0871925,4.960339,3.2337177,2.0473044,3.4939961,2.5750246,2.9313557,0.14272954,-0.08103948,3.540987,4.911048,5.2355375,2.3409936,5.022386,1.3125441,2.2603073,4.379079,4.591679,5.032699,3.661097,4.9011483,2.4207597,-0.17866972,2.6172242,3.9845018,3.062678,4.695686,3.335629,0.0018538991,4.9759192,5.4905725,3.2837694,5.934147,5.3011045,3.756832,5.3844833,4.8956256,5.1425986,2.3249416,3.961169,2.048392,2.7507238,5.0916176,2.8763454,6.039109,4.2238183,1.5396227,2.5277054,-0.1043963,5.002788,6.8522496,8.105158,4.951597,4.99479,5.15033,4.0650907,1.3373858,1.9569999,2.664602,3.0158136,2.3850706,4.426784,2.2461474,5.223834,3.9844625,3.129204,4.8559647,4.7389364,1.9407438,7.064957,1.8510338,4.9741797,2.4934897,5.2096004,2.7730112,1.4523283,3.7673914,1.8061554,0.7461887,3.0480392,1.6213773,3.53596,2.8474247,4.9823713,5.003548,2.9617438,1.1370893,4.8000317,4.138572,8.280619,1.8936623,5.6403513,1.265253,1.7331842,4.907021,4.0348754,5.4457417,5.377026,5.403265,0.0035784135,1.6251475,4.9051847,1.9591928,5.3152533,4.9298077,-0.03858508,5.1808167,4.899167,5.038087,2.2788537,2.391363,5.181339,5.648619,5.236331,5.165834,2.7875168,1.5168153,2.8015196,-0.037286527,1.9765277,1.3496406,-0.15004073,5.591506,-0.05057502,4.2397075,5.0778117,0.70202476,3.4863706,3.6985848,1.9354856,1.9212445,4.4936385,1.71912,5.501038,6.30275,2.9502337,7.480468,5.008861,1.3772447,2.4793887,7.2194858,5.0653677,3.825096,4.1651506,2.224117,4.2597322,1.4026793,5.1141114,-0.21593875,8.658807,4.486172,4.9677143,-0.16925228,3.0993783,2.7402813,5.249302,4.6429195,4.0404344,3.7120602,5.239256,3.3440974,4.9079967,4.0906076,2.5712955,0.51599234,4.5190725,-0.13241862,1.9504029,5.3793826,4.167916,3.301686,1.4133949,5.490185,2.8915167,3.159584
CS(=O)(=O)Nc1ccc(-c2ccc3ncnc(Nc4cccc5[nH]ncc45)c3c2)cc1,3.7861052,0.004071507,9.195299,3.614493,3.365243,4.892891,5.3004136,3.5900326,2.7171123,5.7426405,5.1615896,6.6787634,3.4900284,-0.10558864,5.360694,7.348597,5.3664513,0.58042264,2.8942022,5.143469,5.5762835,3.403479,5.0100565,2.4593182,3.5763965,3.3270063,5.073603,2.7521396,2.9709196,5.1486773,4.2709723,3.6974359,5.3550625,5.197411,4.57412,3.489243,1.2481534,2.189104,-0.21138054,5.2578197,2.3703365,5.4890327,4.3457894,2.2226074,4.128497,-0.12927526,3.306079,2.6122086,3.733477,3.1121695,5.8137894,3.3141713,2.7275815,7.291989,3.5198855,3.5437884,3.6119442,5.218107,2.3514957,3.940448,5.450959,5.2330036,5.1784463,-0.08817212,3.4947565,3.2819676,-0.10197567,3.432972,5.539985,5.226524,6.06327,8.082668,1.8952688,3.8335183,6.458992,4.204527,3.7475467,3.7868123,2.9220178,3.4581146,2.0910723,3.3617232,5.2661963,5.4218106,5.3803267,4.3224964,4.8010764,5.2035866,5.098824,3.9505503,5.286658,4.846465,3.4184206,3.3630831,4.984324,5.3247423,3.2881927,3.944107,5.316499,4.244372,5.4541206,-0.00027246427,-0.19368942,3.2263215,2.474463,4.2301297,8.353894,5.531101,3.0050788,3.8366601,1.2009101,4.1259108,-0.101970546,3.1522698,5.1726727,3.7377748,5.445938,2.374274,5.497267,-0.09632755,-0.09121942,4.714037,5.1125684,4.9481535,4.5072165,5.515624,5.388921,1.515415,5.494031,4.195412,5.106407,2.5416825,4.72847,4.1721506,5.2432857,3.6287465,3.4731736,2.4617217,5.282474,5.2195835,5.214749,4.030412,5.242595,3.9458964,3.6502397,5.3801627,5.249473,4.693581,4.8196354,8.568086,2.9272182,3.5829856,4.9303036,5.241198,-0.08879761,5.412,-0.09664904,2.2488282,3.0665934,2.8094141,3.2200575,3.4276495,3.4373572,0.0018720136,5.033186,6.1312156,-0.12337479,5.575321,4.907672,5.308364,4.4984,2.1407006,5.2775245,4.7337737,3.472175,4.433586,2.7109334,3.2563686,3.5496364,2.417328,7.371044,8.540202,1.5403652,4.510406,5.21042,3.4200902,4.5609894,2.4365964,5.1574802,4.695957,5.19149,4.036512,5.9372115,4.180742,5.269201,0.0011808258,6.107038,4.222009,5.287465,4.8919415,3.4284825,4.0801234,9.758192,2.2406693,4.2464485,7.1033287,5.3061934,3.1752236,3.8357632,5.2569847,5.5812855,2.397225,2.7999775,5.1403837,3.907133,5.2527084,0.34277776,5.127112,5.320899,3.0741148,9.131965,3.349576,5.210813,7.1654663,3.559971,5.4946127,4.0784807,6.571082,5.6539745,4.0425415,5.917956,-0.09620097,-0.09026826,5.484129,5.1747594,3.2933211,5.2312865,5.538501,1.661322,2.9194577,3.8850398,1.8045942,2.6690855,5.2626424,14.095023,4.4064374,3.9665415,3.2708151,4.7640305,4.0872583,4.670906,3.649537,3.1634343,5.248587,4.0424957,1.9170551,5.0603085,4.7682066,4.1133504,5.429234,-0.17300057,10.613449,2.6659107,7.150157,5.3417783,4.4814343,-0.08650989,5.202796,5.2919784,3.8262851,2.400634,4.800553,3.9166064,2.6212184,7.943999,5.774953,5.6322627,3.4783545,5.4877996,2.2679608,2.7773497,0.11141324,1.0424922,5.5579734,3.5569937,6.1186376,3.951644,4.374845,2.8321369,5.0137753,5.1713114,4.79248,4.52211,3.8753586,3.801005,5.292706,2.854409,5.3705177,4.919652,6.4109178,5.358221,7.225974,7.4006495,5.2489796,3.2899811,4.420371,2.6169162,5.423984,2.7614913,5.3852944,2.237862,5.305224,5.372344,3.2028828,-0.08566289,3.7823806,14.546257,2.135456,3.0413804,5.3902564,4.3042984,3.0045495,3.3984473,3.53384,5.211139,4.558474,6.036608,4.495053,2.7725627,1.8049105,5.2869086,4.838018,5.5040298,4.978918,5.3060503,3.3253877,3.034951,5.387825,5.2840533,3.2337177,2.2742436,2.6326575,2.5896714,3.5409658,8.069453,-0.08103948,3.642028,4.907733,5.2355375,1.8130387,5.022386,2.0984464,4.205262,4.377827,4.882506,5.3825407,3.3642325,5.289718,3.325847,0.48889834,3.3868701,3.9868517,3.210844,4.844126,3.335629,0.0018538991,5.3398633,5.4905725,3.2837694,2.1546443,5.3011045,3.756832,5.3844833,5.2853456,5.1425986,3.4313676,3.961169,2.417934,3.4767811,2.21423,3.1851974,-0.18632603,4.2238183,5.7261596,2.5277054,20.306816,5.398333,-0.11456999,1.7820944,5.3065596,5.3110194,2.3767183,0.43557543,2.0369365,2.4562006,3.9333444,3.1547995,2.880247,4.041404,5.2016106,5.2233987,3.251546,3.685033,5.1931086,4.7509065,2.129149,0.216304,1.8510338,4.9741797,4.2800426,5.1918964,3.4299276,1.4523283,3.7673914,2.112247,1.3094007,3.457551,3.6725323,2.7115273,-0.22027156,5.281871,3.138086,3.4109519,1.1900556,4.8067713,4.138572,1.2970053,2.225757,5.6403513,5.235773,4.618469,11.3931675,4.0410028,5.4457417,5.370121,5.403265,0.0035784135,1.6251475,5.234578,1.9591928,5.320222,5.309099,-0.03858508,5.1821747,5.3265147,5.0266857,2.279686,2.391363,5.4875674,5.648619,-0.19259469,5.443002,3.1773765,5.517365,2.8067865,-0.037286527,2.124224,1.5708349,15.720936,5.182334,-0.05057502,4.401713,5.2422748,0.654483,3.4863706,3.699403,1.9605508,1.3705926,4.510322,1.8457718,5.4953995,4.94883,5.2784142,2.8283556,5.3451433,1.4960482,4.7353916,2.8235297,5.3819175,4.6179166,4.171358,9.013328,4.2718654,1.6653268,5.105424,-0.21593875,2.2123067,4.0517893,5.429812,2.638338,3.5283206,2.7402813,5.249302,3.0119152,4.106533,3.7120602,5.239256,3.3440974,5.2711387,3.6605785,3.7256186,1.4141153,4.5190725,14.134598,3.5849702,5.3537726,4.167916,3.5532868,4.7091584,5.490185,3.5346198,3.159584
Clc1ccc(-c2ccc3ncnc(Nc4cccc5[nH]ncc45)c3c2)cc1,3.7861052,0.004071507,9.195299,3.614493,3.365243,4.892891,5.3004136,3.5900326,2.662912,10.376216,5.1615896,6.6787634,3.4706357,-0.10558864,5.360694,4.688163,5.3664513,0.58042264,2.8942022,6.478422,5.5762835,3.403479,5.0100565,14.32683,3.5763965,3.3270063,5.073603,2.0510385,2.9709196,5.1486773,4.2709723,6.096053,5.3550625,5.197411,4.57412,3.489243,1.1775805,2.189104,7.6089854,5.2578197,2.3703365,5.4890327,4.3457894,2.2226074,4.128497,-0.12927526,3.306079,2.6122086,3.733477,2.343294,5.8137894,3.3141713,2.7275815,6.3516364,3.5198855,3.5437884,3.6119442,5.218107,1.6465899,3.940448,5.450959,5.2330036,5.1784463,-0.08817212,3.3926291,3.2819676,-0.10197567,3.432972,5.539985,5.226524,6.06327,7.319132,1.8952688,3.8335183,6.458992,4.204527,3.7475467,3.7868123,10.662504,3.4581146,2.0910723,3.3617232,4.5375586,5.4218106,5.3803267,4.3224964,4.8010764,5.2035866,5.098824,3.9505503,5.286658,4.846465,3.4184206,3.3630831,4.984324,5.3247423,3.2881927,2.428458,5.316499,4.244372,5.4541206,-0.00027246427,-0.19368942,3.2263215,2.474463,1.3410691,4.564419,5.531101,2.4919484,3.8366601,1.2009101,4.1259108,-0.101970546,3.1522698,5.1726727,3.7377748,5.445938,1.6485847,5.497267,-0.09632755,10.486596,4.714037,5.1125684,4.9481535,4.5072165,5.515624,5.388921,1.515415,5.494031,4.195412,5.106407,1.2835364,4.72847,4.1721506,5.2432857,3.6287465,3.4731736,2.4617217,5.282474,5.2195835,5.214749,2.6057742,5.242595,3.9458964,3.6502397,5.3801627,5.249473,4.693581,4.728452,5.4395056,2.9272182,2.4144056,3.471685,5.241198,-0.08879761,5.412,-0.09664904,2.2488282,3.0665934,2.1338222,1.9299216,3.4276495,3.4373572,0.0018720136,5.033186,7.2218857,-0.12337479,5.575321,2.4827302,5.308364,8.730116,2.1407006,5.2775245,4.6036525,3.472175,4.433586,2.7109334,3.2563686,3.5496364,2.9828718,5.291022,8.540202,1.5403652,5.2457514,5.21042,3.4200902,2.7115471,10.622875,5.1574802,4.695957,5.19149,3.3919256,5.9372115,4.180742,5.269201,0.0011808258,6.107038,4.222009,5.287465,4.8919415,3.4284825,4.0801234,3.2277668,2.2406693,4.2464485,5.9165483,5.3061934,2.48967,8.072958,5.2569847,5.5812855,2.397225,7.831519,5.1403837,2.0103657,5.2527084,6.3042626,5.127112,5.320899,3.0178738,5.0235977,3.1517367,5.210813,3.7184994,3.559971,5.4946127,4.0784807,3.1473258,5.6539745,4.0425415,5.917956,-0.09620097,16.877577,5.9165187,5.1747594,3.2933211,3.099618,5.538501,2.1639376,1.7568341,3.7998207,1.8045942,2.1032054,5.2626424,8.38212,4.4064374,3.9665415,3.2708151,1.6393244,4.0872583,4.670906,3.649537,3.1634343,5.248587,4.0424957,2.9764485,5.0603085,7.2261615,4.1133504,5.429234,-0.17300057,6.747187,2.6659107,9.221395,5.3417783,4.4814343,-0.08650989,5.202796,5.2919784,3.8262851,2.400634,2.7738879,3.9166064,6.0912166,9.082372,2.4937248,5.6322627,3.4783545,5.4877996,1.9645733,2.7773497,0.79275864,1.0424922,5.5579734,3.5569937,7.103393,3.951644,8.328722,2.8321369,5.0137753,5.1713114,1.4854019,4.52211,3.8753586,3.801005,5.292706,2.854409,5.3705177,4.919652,5.1578956,5.358221,7.2648764,7.4006495,5.2489796,3.2899811,3.890203,2.6169162,5.423984,2.7614913,5.3852944,2.215584,5.305224,5.372344,3.2028828,-0.08566289,3.7823806,11.20626,2.135456,3.0413804,5.3902564,4.3042984,3.0045495,3.3984473,3.124169,5.211139,4.558474,6.036608,4.495053,2.7725627,1.8049105,5.2869086,4.838018,5.5040298,4.978918,5.3060503,3.3253877,3.034951,5.387825,5.2840533,3.2337177,2.2742436,6.979644,2.5896714,3.5409658,3.229857,20.301027,3.634842,4.907733,5.2355375,1.8130387,5.022386,2.7535114,4.205262,4.377827,4.882506,5.3825407,3.3642325,5.289718,3.325847,16.74362,3.3868701,3.9868517,3.210844,4.844126,3.335629,0.0018538991,5.3398633,5.4905725,3.2837694,2.1546443,5.3011045,3.756832,5.3844833,5.2853456,5.1425986,2.60947,3.961169,2.417934,3.4767811,0.010674334,3.1851974,5.551549,4.2238183,7.003374,2.5277054,6.436131,5.398333,-0.11456999,1.7820944,5.3065596,5.3110194,2.3767183,0.43557543,1.5097423,2.4562006,2.59729,3.1547995,2.2936947,4.041404,2.945338,5.2233987,3.251546,3.685033,5.1931086,4.7509065,2.129149,5.2095733,1.8510338,4.9741797,5.8761377,5.1918964,3.4299276,1.4523283,3.7673914,2.112247,7.029258,3.457551,5.488305,2.7115273,10.74529,5.281871,0.9307252,3.4109519,1.0445936,4.8067713,4.138572,1.6711584,2.225757,5.6403513,6.119467,2.532643,8.785481,4.0410028,5.4457417,5.370121,5.403265,0.0035784135,1.6251475,5.234578,6.201573,5.320222,5.309099,29.982063,5.1821747,5.3265147,5.0266857,2.279686,2.391363,5.4875674,5.648619,-0.19259469,5.443002,3.1773765,2.7456224,2.8067865,-0.037286527,1.8179237,1.5708349,14.841868,5.182334,-0.05057502,4.123619,5.2422748,9.051474,3.4863706,3.699403,3.9129677,0.1218641,4.510322,10.152252,5.4953995,4.94883,3.3225539,2.8283556,5.3451433,1.3551039,2.7104735,2.8235297,5.3819175,4.0144105,4.171358,2.224117,4.2718654,1.4026793,5.105424,8.116383,2.2123067,4.0517893,5.429812,12.054393,3.5283206,2.7402813,5.249302,4.6910787,4.0822525,3.7120602,5.239256,3.3440974,5.2711387,3.6605785,3.7256186,5.9115286,4.5190725,13.431535,1.9608073,5.3537726,4.167916,3.5532868,2.3869276,5.490185,3.5346198,3.159584
NC(=O)c1cccc(-c2ccc3ncnc(Nc4cccc5[nH]ncc45)c3c2)c1,3.7861052,0.004071507,9.195299,3.614493,3.365243,4.892891,5.3004136,3.5900326,2.662912,-0.1842202,5.1615896,6.6787634,3.5913007,-0.10558864,5.360694,4.688163,5.3664513,6.2511067,3.4091973,5.143469,5.5762835,3.403479,5.0100565,2.4593182,3.9675014,3.5190654,5.073603,2.0510385,2.9709196,5.1486773,4.2709723,3.6974359,5.3550625,5.197411,4.57412,3.489243,1.1885558,2.7780378,8.003765,5.2578197,2.3703365,5.4890327,4.3457894,2.2226074,4.128497,-0.12927526,3.306079,2.69979,3.733477,2.343294,5.8137894,3.5166783,2.7275815,2.0620697,3.5198855,3.5437884,3.6119442,5.218107,1.297713,3.940448,5.450959,5.2330036,5.1784463,-0.08817212,3.8635776,3.2819676,-0.10197567,3.432972,5.539985,5.226524,6.06327,2.666151,1.8952688,3.8335183,6.458992,4.1897874,3.7475467,3.7868123,3.6393065,3.4581146,2.3799992,3.3617232,4.5375586,5.4218106,5.3803267,4.3224964,4.8010764,5.2035866,5.098824,3.9505503,5.286658,4.846465,3.4184206,3.3630831,4.984324,5.3247423,3.2881927,2.013782,5.316499,4.244372,5.4541206,-0.00027246427,-0.17552209,3.2263215,2.4914181,4.301287,4.564419,5.531101,2.4919484,3.8366601,1.6983881,4.1259108,1.1495631,3.1522698,5.1726727,3.7377748,5.445938,2.164841,5.497267,-0.09632755,4.8358626,4.714037,5.1125684,4.9481535,4.5072165,5.515624,5.388921,1.515415,5.494031,4.195412,5.106407,2.5038457,4.72847,4.1721506,5.2432857,3.6287465,4.0683303,2.4617217,5.282474,5.2195835,5.214749,1.9307563,5.242595,3.9458964,3.6502397,5.3801627,5.249473,4.693581,3.367832,1.3988887,2.9272182,2.4144056,3.471685,5.241198,-0.08879761,5.412,-0.09664904,2.2488282,3.0665934,2.1338222,2.227187,3.7451334,3.4373572,0.0018720136,5.033186,2.2136846,7.521089,5.575321,2.4827302,5.308364,6.166269,2.3181372,5.2775245,2.6107683,3.472175,4.433586,2.7109334,3.2563686,3.5496364,2.246535,2.204228,8.540202,1.6746241,2.6495786,5.21042,3.4200902,2.7115471,2.950674,5.1574802,4.695957,5.19149,3.3919256,5.9372115,4.180742,5.269201,0.0011808258,6.107038,4.222009,5.287465,4.8919415,3.4284825,4.0801234,1.9313505,6.198413,4.2464485,2.7184377,5.3061934,2.48967,2.4743035,5.2569847,5.5812855,2.397225,4.5431576,5.1403837,2.6321738,5.2527084,4.40062,5.127112,5.320899,3.4201221,4.075234,3.1517367,5.210813,3.7184994,3.559971,5.4946127,4.0784807,3.1473258,5.6539745,4.0425415,5.917956,-0.09620097,-0.09026826,2.3977027,5.1747594,3.2933211,2.3306026,5.538501,1.9423748,3.78327,3.7170193,2.067845,3.1521127,5.2626424,1.0004815,4.4064374,3.9665415,3.2708151,1.6393244,4.0872583,4.670906,3.649537,3.1634343,5.248587,4.0424957,1.9309044,5.0603085,4.7682066,4.1133504,5.429234,-0.17300057,6.8705826,3.5363448,1.5885063,5.3417783,4.4814343,-0.08650989,5.202796,5.2919784,3.8262851,2.6916833,2.9746954,3.9166064,3.9310431,2.7868745,2.397248,5.6322627,3.4783545,5.4877996,4.262654,2.9060996,3.2901587,6.004361,5.5579734,3.7040715,6.1186376,3.951644,4.374845,2.8321369,5.0137753,5.1713114,2.1370091,4.52211,3.8753586,3.801005,5.292706,3.1582832,5.3705177,4.919652,3.089839,5.358221,2.1397078,7.4006495,5.2489796,3.2899811,2.804693,2.6169162,5.423984,2.7614913,5.3852944,2.4551384,5.305224,5.372344,3.2028828,-0.08566289,3.7823806,0.60323083,2.135456,3.7531397,5.3902564,4.3042984,3.0045495,3.3984473,2.4365096,5.211139,4.558474,6.036608,4.495053,2.7725627,1.8049105,5.2869086,4.838018,5.5040298,4.978918,5.3060503,3.3253877,3.034951,5.387825,5.2840533,3.2337177,2.2742436,4.2839737,2.5896714,3.5409658,-0.21760839,-0.08103948,3.4846082,4.907733,5.2355375,1.8130387,5.022386,2.0984464,4.205262,4.377827,4.882506,5.3825407,3.3642325,5.289718,3.325847,3.5336685,3.3868701,3.9868517,3.210844,4.844126,3.335629,0.0018538991,5.3398633,5.4905725,3.2837694,3.6232185,5.3011045,3.756832,5.3844833,5.2853456,5.1425986,4.774812,3.961169,2.417934,3.4767811,6.1012235,3.1851974,-0.18632603,4.246035,3.4251904,2.5277054,-0.1043963,5.398333,4.669656,1.7820944,5.3065596,5.3110194,5.682394,6.5339847,1.1028445,2.4562006,2.7089648,3.1547995,2.2936947,4.041404,2.945338,5.2233987,3.251546,3.685033,5.1931086,4.7509065,2.129149,5.013707,3.4680967,4.9741797,2.5794356,5.1918964,3.4299276,1.8226233,3.7673914,2.4257045,4.3757043,3.457551,2.4476962,2.7115273,4.9650383,5.281871,4.072827,3.4109519,1.6666938,4.8067713,4.138572,3.2254457,2.415951,5.6403513,1.774757,2.1222458,1.0429833,4.0410028,5.4457417,5.370121,5.403265,0.0035784135,1.6251475,5.234578,1.99808,5.320222,5.309099,-0.03858508,5.1821747,5.3265147,5.0266857,2.279686,2.391363,5.4875674,5.648619,0.41719905,5.443002,3.1773765,2.0883372,2.8067865,19.844318,2.095109,4.565009,0.56269985,5.182334,-0.05057502,3.2362227,5.2422748,4.570482,3.7490456,3.699403,2.816832,5.931478,4.510322,3.112535,5.4953995,4.94883,3.3225539,2.8283556,5.3451433,1.6390797,2.7104735,2.8235297,5.3819175,4.0144105,4.171358,2.224117,4.2718654,4.6349583,5.105424,4.809942,2.4129033,4.0517893,5.429812,2.638338,3.5283206,3.0025456,5.249302,6.7259493,3.2697935,3.7120602,5.239256,3.4619799,5.2711387,3.6605785,3.7256186,4.207536,4.5190725,-0.13241862,1.9608073,5.3537726,4.167916,3.5532868,1.2039759,5.490185,3.5346198,3.5074236
COc1cc(-c2ccc3nccc(Nc4cccc5[nH]ncc45)c3c2)ccc1O,4.7793913,0.004071507,-0.16347788,4.7285843,4.0968804,0.033294402,2.4835494,3.1552572,4.112044,-0.1842202,5.450509,6.6787634,3.787724,-0.10558864,5.934647,0.58242965,6.410463,5.3321724,3.8274107,5.143469,5.5762835,4.421333,5.391498,2.4593182,4.048261,3.9276395,5.2762027,2.685548,4.2755566,5.234338,8.100635,3.6974359,5.156939,5.671195,4.57412,4.4106107,1.5007403,4.1909103,-0.16688944,5.5441027,2.8806803,2.264296,4.3333526,2.5405676,4.5222206,-0.12927526,2.9420288,2.7727454,3.886277,3.4647381,6.046181,3.802345,4.4043207,1.6488049,4.348901,3.5437884,4.377001,4.9043603,2.5446432,2.6044776,2.7909482,5.4627037,5.2548776,-0.08817212,3.9478068,4.240522,-0.10197567,3.261989,7.414645,4.6869397,6.06327,0.915101,1.7366487,4.0532365,6.458992,4.27173,4.429659,4.6119266,2.9220178,3.4581146,2.3463848,4.155051,4.5375586,5.5796247,5.6036205,4.2369566,5.2758536,4.2763543,4.7983966,3.769068,5.448072,3.34487,4.2570915,4.102859,4.5380588,4.3287134,2.0480826,1.2748945,5.971457,1.506547,7.166888,-0.00027246427,5.978934,2.8647237,2.5667155,0.9512003,5.9266744,7.231201,2.502883,3.1678617,2.032528,3.481858,-0.101970546,3.1522698,5.14096,3.7377748,4.952666,2.848462,5.476733,-0.09632755,-0.09121942,5.404123,7.690516,4.9801693,4.5072165,5.515624,6.2320466,2.456178,4.972483,4.195412,5.5957904,3.2935772,4.841742,4.1885867,4.10324,4.275164,4.1449566,2.97618,4.8479834,5.1918707,4.7846465,2.3829648,4.788179,4.014732,4.7952733,5.6413097,5.3924975,4.917983,2.4798257,1.3990823,2.9272182,1.7412915,3.901189,5.0926843,-0.08879761,1.401687,-0.09664904,4.7450852,3.0889518,2.1338222,2.4931467,4.0679636,4.3773136,0.0018720136,4.8820148,1.3492322,-0.12337479,5.575321,3.042163,5.496448,1.6414851,2.4108093,4.5678916,2.6373894,4.1623507,4.4747357,2.7109334,3.4520602,4.3358307,2.2706738,0.032378178,8.540202,2.2777624,1.5483406,5.308834,3.9424264,3.8862023,2.4365964,4.870027,1.5596681,5.0265718,3.3919256,-0.1815399,3.6313648,5.92222,0.0011808258,6.107038,2.2139387,5.8530602,5.135235,4.770109,2.4359744,1.9313505,5.914721,4.596982,0.8765146,6.2585974,2.48967,1.4276946,5.253427,5.97737,3.6300201,1.8937304,4.6996403,2.2371652,4.4737964,3.8644407,4.9814024,5.417077,3.711946,1.0257004,3.1517367,8.242977,3.7184994,3.559971,4.5332804,4.0784807,3.123777,3.9405909,2.309355,5.917956,-0.09620097,-0.09026826,0.79509574,5.182182,4.603266,0.7813592,2.0310493,1.8175222,2.9877992,3.7648017,2.0220842,2.8842607,5.484661,1.0004815,4.6980805,2.4520926,4.3801904,4.4231915,4.62344,2.8893661,3.3437939,3.8743856,5.3895483,3.921403,2.9168758,4.889621,4.7682066,5.994153,4.7640467,1.406244,-0.18111369,3.3884318,1.2110091,5.289217,2.342855,-0.08650989,6.6209927,6.110351,4.853552,3.7448056,3.4127157,3.0027678,1.9466467,0.628903,2.9793975,5.6322627,4.139142,4.695603,3.6287782,2.959647,1.3928679,5.889849,4.504336,3.745861,6.1186376,3.9601557,1.4066799,2.9298186,4.4272585,5.706666,2.0599387,4.3551774,5.043552,5.0650377,6.065024,4.3055596,5.9302936,1.782113,0.97114056,5.8030243,0.7794677,7.4006495,5.1058164,4.5246787,2.1773927,2.6169162,5.668089,1.4842912,5.8947563,2.807906,5.385801,5.0950556,3.6592712,-0.08566289,4.1859117,0.60323083,2.4364517,4.262604,4.150162,8.091476,4.2460265,4.3696003,2.0242686,5.2021613,2.7414808,6.036608,4.9896865,3.1999586,1.8156174,5.464121,2.645072,5.807929,4.9787507,6.3208995,4.1900945,4.082954,5.546357,6.113644,2.514039,2.9486501,1.4116329,2.924474,4.823703,0.6984429,-0.08103948,3.7967865,4.595522,5.025549,2.6027508,5.658908,2.0984464,5.0548882,3.7660434,5.1505756,5.968397,3.3642325,5.6278386,5.1918,-0.17866972,4.808136,3.6766284,3.339476,5.354938,3.1419613,0.0018538991,5.666164,3.7879355,2.3945708,1.5757734,5.349645,3.185868,5.096594,5.732879,4.6546264,4.0562196,2.8883886,3.1787298,5.077682,6.362,3.889799,5.7289915,5.130908,1.4532644,2.2642868,-0.1043963,6.573994,-0.11456999,1.7820944,5.10097,5.3391614,5.791291,6.6039047,2.1389232,2.4516313,2.828495,4.9318304,2.2936947,4.5622168,3.7622914,5.046137,3.251546,4.748851,5.050541,4.4489636,2.2563448,5.020643,2.2025802,2.5006523,0.65265757,5.110298,4.260769,1.742407,3.6113403,3.6784024,3.3260503,4.1815453,1.6916317,5.3720117,2.562083,5.3457108,4.2691646,3.4109519,1.2499336,4.438756,4.0015764,1.1749833,3.2789838,2.2017493,1.1069624,3.1311748,4.043629,3.831665,3.0637596,4.906556,3.028721,0.0035784135,1.5771093,4.9147143,2.0370846,4.8441844,5.701289,-0.03858508,4.81134,6.365259,5.346406,2.6545475,2.453485,5.4876494,1.7377188,5.6135798,5.20414,4.209817,1.642342,2.8167033,-0.037286527,2.081821,6.4256854,0.56269985,5.182334,-0.05057502,7.98486,6.1835337,3.1522608,3.928098,3.921376,1.5701635,5.784101,4.6919246,1.8457718,4.622807,4.94883,3.5068066,2.8283556,6.444563,2.243839,2.7104735,4.1279774,6.868811,4.2556796,4.3461165,2.149967,4.0637884,4.2570634,4.82183,4.3109303,2.2486253,4.0517893,6.721226,2.638338,4.4917793,3.1335716,2.8782449,3.1478229,3.4587436,3.5865302,4.3393583,3.6557748,5.27257,3.6605785,5.89565,3.8860407,2.409323,-0.13241862,1.7207774,4.757922,4.033917,3.65344,1.1960834,5.2808805,4.672321,3.2415807
Cc1ccc(F)cc1-c1ccc2ncnc(Nc3cccc4[nH]ncc34)c2c1,3.7861052,0.004071507,9.195299,3.614493,3.365243,4.892891,5.3004136,3.5900326,2.662912,3.4535656,5.1615896,6.6787634,3.2102456,-0.10558864,5.360694,4.688163,5.3664513,0.58042264,3.181983,5.143469,5.5762835,3.403479,5.0100565,4.729673,3.6629274,3.2543924,5.073603,2.4440572,2.9709196,5.1486773,4.2709723,3.6974359,5.3550625,5.197411,4.57412,3.489243,2.4189095,2.189104,3.4221241,5.2578197,2.3703365,5.4890327,4.3343616,2.2226074,4.128497,-0.12927526,3.306079,2.9845102,3.733477,2.343294,5.8137894,3.595607,2.7275815,3.3748052,3.5198855,3.5437884,3.6119442,5.251713,1.3453286,3.940448,5.450959,5.2330036,5.1784463,-0.08817212,3.538831,3.2819676,-0.10197567,3.432972,5.539985,5.238153,6.06327,3.000889,1.8952688,3.829332,6.458992,4.16727,3.7475467,3.7868123,3.6694465,3.4581146,2.0910723,3.3617232,4.5375586,5.4218106,5.3803267,4.3169403,4.8010764,5.217173,5.1206794,3.9505503,5.286658,4.846465,3.4184206,3.3630831,5.004348,5.353783,3.2881927,1.4687014,5.316499,4.244372,5.4541206,-0.00027246427,-0.19368942,3.2263215,2.4550035,1.130846,4.564419,5.531101,2.4919484,3.8366601,1.1858553,4.1223655,-0.101970546,3.1522698,5.1726727,3.7377748,5.4559503,2.0726755,5.497267,-0.09632755,15.3081,4.714037,5.1125684,4.953753,4.5072165,5.515624,5.388921,1.515415,5.516253,4.195412,5.106407,1.4635963,4.72847,4.1721506,5.2432857,3.6287465,3.785974,2.4617217,5.286765,5.2195835,5.2294464,2.8589141,5.242595,3.9315968,3.6502397,5.3801627,5.249473,4.693581,2.4296389,1.9573041,2.9272182,2.4144056,3.471685,5.24964,-0.08879761,5.412,-0.09664904,2.2488282,3.0665934,2.1338222,1.9112359,3.309348,3.4373572,0.0018720136,5.06923,3.6311111,-0.12337479,5.575321,2.4827302,5.308364,3.3594377,2.1057103,5.3161964,2.0822375,3.472175,4.4195337,2.7109334,3.2307563,3.5496364,2.246535,3.868376,8.540202,1.664008,2.8339062,5.21042,3.4200902,2.7115471,5.015274,5.178521,4.748729,5.2040224,3.3919256,5.9372115,4.180742,5.269201,0.0011808258,6.107038,4.222009,5.287465,4.903186,3.4284825,4.0801234,2.6624591,2.2406693,4.244709,3.5997293,5.3061934,2.48967,3.178214,5.2569847,5.5812855,2.397225,3.7187028,5.1403837,2.7212956,5.2527084,3.084258,5.149036,5.320899,2.820148,2.3789985,3.1517367,5.210813,8.549545,3.559971,5.523021,4.0784807,3.1473258,5.6823683,4.0425415,5.917956,-0.09620097,-0.09026826,2.7976375,5.1747594,3.2933211,2.3306026,5.538501,2.3909404,4.1026006,2.8784218,1.8324205,2.8673034,5.2626424,1.0004815,4.4064374,3.9665415,3.2651744,1.6619636,4.0872583,4.670906,3.649537,3.1634343,5.248587,4.0424957,5.0315814,5.0603085,4.7682066,4.1133504,5.429234,0.122230455,4.0381875,3.547087,3.759073,5.3417783,4.4814343,-0.08650989,5.202796,5.2919784,3.8262851,2.400634,2.7738879,3.9166064,2.9916377,3.7097197,2.397248,5.6322627,3.4783545,5.4877996,3.698715,2.517874,0.24175316,2.3058019,5.5763984,2.9785056,6.1186376,3.951644,4.374845,2.8321369,5.0137753,5.1713114,1.4854019,4.5155354,3.8753586,3.801005,5.292706,2.854409,5.3705177,4.919652,3.089839,5.358221,2.1397078,7.4006495,5.2489796,3.2899811,2.1773927,3.4128327,5.423984,2.7614913,5.3852944,2.1570814,5.305224,5.372344,3.2028828,-0.08566289,3.7823806,3.7313461,2.135456,3.0413804,5.3902564,4.3042984,3.0045495,3.3984473,1.5729243,5.2539454,4.558474,6.036608,4.495053,2.7725627,1.8049105,5.2869086,4.838018,5.5040298,4.984173,5.3060503,3.3253877,3.034951,5.387825,5.2840533,3.2337177,2.2742436,1.8020551,2.5896714,3.5409658,4.6907024,11.822645,3.0995452,4.9335275,5.2355375,2.8399398,5.022386,2.60955,4.205262,4.3764987,4.882506,5.3825407,3.3642325,5.289718,3.325847,3.2811666,3.3868701,3.9755368,3.210844,4.844126,3.335629,0.0018538991,5.3398633,5.4905725,3.2837694,2.190493,5.3011045,3.756832,5.3844833,5.2853456,5.1425986,2.60947,3.961169,2.417934,3.4767811,1.0949523,3.1851974,-0.18632603,4.159077,2.8532877,2.5277054,-0.1043963,5.398333,-0.11456999,1.7820944,5.3065596,5.3110194,2.3767183,0.5157514,2.085923,2.4562006,3.9089286,3.1547995,2.8176525,4.116811,2.945338,5.25624,3.251546,3.685033,5.1931086,4.749746,2.129149,1.360518,2.4505584,4.9741797,2.4934897,5.2167163,3.4299276,1.8850714,3.7673914,2.112247,3.7957315,3.457551,2.8720033,2.7115273,4.512522,5.281871,0.9307252,3.4109519,1.7495879,4.8014264,4.138572,1.2223915,2.225757,5.6403513,1.9547526,1.7331842,2.3424554,4.015945,5.4457417,5.4000187,5.403265,0.0035784135,1.7834752,5.234578,3.5382051,5.3421154,5.309099,-0.03858508,5.2011795,5.3265147,5.05478,2.279686,2.391363,5.4875674,5.648619,-0.19259469,5.443002,3.1773765,2.7623262,2.7856157,-0.037286527,1.8179237,1.5708349,0.56269985,5.182334,-0.05057502,3.2362227,5.2422748,4.059807,4.1473165,3.6963537,1.9571657,0.1218641,4.5041375,3.2136838,5.529037,4.94883,3.3225539,2.8283556,5.3451433,2.1675196,2.7104735,2.8235297,5.3819175,4.0144105,4.1665735,2.224117,4.267889,1.5686014,5.1141977,4.0363226,2.2123067,4.0517893,5.429812,5.674567,3.5283206,2.4753726,5.249302,3.0119152,3.1738567,3.7120602,5.239256,3.0413556,5.2711387,3.6605785,3.7256186,3.0506766,4.5190725,0.61364293,1.9608073,5.362144,4.167916,3.5532868,1.7507578,5.490185,3.5346198,3.054982
COc1cccc(-c2ccc3nccc(Nc4cccc5[nH]ncc45)c3c2)c1F,4.7793913,0.004071507,-0.16347788,4.7285843,4.0968804,2.205293,2.4835494,3.1552572,3.1796227,8.47431,5.450509,6.6787634,3.0174928,-0.10558864,5.934647,0.64535534,6.410463,2.7310922,2.620967,5.143469,5.5762835,4.421333,5.391498,2.4593182,3.6174543,3.0057554,5.2762027,2.685548,4.2755566,5.234338,8.100635,3.6974359,5.156939,5.671195,4.57412,4.4106107,5.8269615,4.1909103,1.5875953,5.5441027,2.8806803,2.264296,4.3237414,2.5405676,4.5222206,-0.12927526,2.9420288,2.3168092,3.886277,3.4647381,6.046181,3.3587058,4.4043207,1.6488049,4.348901,3.5437884,4.377001,4.933396,1.255322,2.6044776,2.7909482,5.4627037,5.2548776,-0.08817212,3.364596,4.240522,8.385756,3.261989,7.414645,4.6954417,6.06327,1.3574624,1.7366487,4.0513053,6.458992,4.235677,4.429659,4.6119266,3.5441692,3.4581146,1.1697049,4.155051,4.5375586,5.5796247,5.6036205,4.2313924,5.2758536,4.285728,4.8169265,3.769068,5.448072,3.34487,4.2570915,4.102859,4.55346,4.3537664,2.0480826,5.901747,5.971457,1.506547,7.166888,-0.00027246427,0.22274156,2.8647237,2.4984465,6.331133,5.9266744,7.231201,2.931457,3.1678617,2.0233133,3.4797919,3.1159923,3.1522698,5.14096,3.7377748,4.961344,2.8403695,5.476733,0.8187325,0.2871204,5.404123,7.690516,4.9834394,4.5072165,5.515624,6.2320466,2.456178,4.992042,4.195412,5.5957904,3.7532442,4.841742,4.1885867,4.10324,4.275164,3.5445352,2.97618,4.8508296,5.1918707,4.7967567,2.3547068,4.788179,4.000943,4.7952733,5.6413097,5.3924975,4.917983,2.4798257,1.3990823,2.9272182,1.329112,3.901189,5.1005006,-0.08879761,2.2664056,6.512258,6.38013,3.7681944,2.923793,1.6277668,3.326155,4.3773136,0.0018720136,4.91373,1.6313022,13.34811,5.575321,2.7588813,5.496448,2.609345,2.195329,4.5955305,1.9525509,4.1623507,4.461586,2.7109334,3.4286904,4.3358307,4.5200415,0.9450293,8.540202,2.2777624,1.665426,5.308834,3.9424264,2.755243,2.4365964,4.8890033,1.6029319,5.0387383,3.3919256,-0.1815399,3.6313648,5.92222,0.0011808258,6.107038,2.2139387,5.8530602,5.1428084,4.770109,2.4359744,1.9313505,2.2406693,4.594784,3.2769277,6.2585974,2.48967,1.6029851,5.253427,5.97737,3.6300201,8.7335205,4.6996403,1.6698282,4.4737964,6.5352325,4.9980054,5.417077,2.7327034,2.7026339,3.1517367,8.242977,3.7184994,3.559971,4.557234,4.0784807,3.123777,3.9615786,2.309355,5.917956,-0.09620097,-0.09026826,2.5598936,5.182182,4.603266,0.60630685,2.0310493,1.5478393,1.5533111,2.7947116,1.9024086,1.8109114,5.484661,1.0004815,4.6980805,2.4520926,4.377948,1.9579573,4.62344,2.8893661,3.3437939,3.8743856,5.3895483,3.921403,2.6017356,4.889621,4.7682066,5.994153,4.7640467,3.4986954,-0.18111369,3.0790577,1.3089509,5.289217,2.342855,-0.08650989,6.6209927,6.110351,4.853552,3.7448056,3.4127157,3.0027678,5.707157,0.56384474,2.9793975,5.6322627,4.139142,4.695603,2.0536582,2.4938102,5.843949,1.3339081,4.5212398,3.218448,6.1186376,3.9601557,1.4066799,2.8321369,4.4272585,5.706666,1.6395162,4.349184,5.043552,5.0650377,6.065024,3.2009242,5.9302936,1.782113,1.2176132,5.8030243,0.7794677,7.4006495,5.1058164,4.5246787,2.3607373,2.6169162,5.668089,2.4166822,5.8947563,2.1210375,5.385801,5.0950556,3.6592712,-0.08566289,4.1859117,0.60323083,2.4364517,4.262604,4.150162,8.091476,4.2460265,4.3696003,3.139326,5.236905,2.7414808,6.036608,4.9896865,3.1999586,1.8156174,5.464121,2.645072,5.807929,4.979593,6.3208995,4.1900945,4.082954,5.546357,6.113644,2.514039,2.9486501,2.9787984,2.924474,4.823703,1.0329,-0.08103948,2.8482072,4.6187615,5.025549,2.6055326,5.658908,2.0984464,4.205262,3.763898,5.1505756,5.968397,3.3642325,5.6278386,5.1918,1.7282515,4.808136,3.6659646,3.339476,5.354938,3.1419613,0.0018538991,5.666164,3.7879355,2.3945708,2.5114586,5.349645,3.185868,5.096594,5.732879,4.6546264,3.7691274,2.8883886,3.1787298,5.077682,1.3052791,3.889799,5.794331,5.140948,1.6470875,2.2642868,-0.1043963,6.573994,5.6313624,1.7820944,5.10097,5.3391614,2.3767183,1.0271791,1.1028445,2.4516313,2.1275353,4.9318304,2.2936947,4.633563,3.7622914,5.0737753,3.3063314,4.748851,5.050541,4.446162,2.2563448,6.8778005,2.4394279,2.5006523,2.7135377,5.131177,4.260769,1.6036149,3.6113403,3.6784024,6.9880567,4.1815453,4.9436207,2.7115273,9.11493,5.3457108,1.7756463,3.4109519,1.4522673,4.4301066,4.0015764,3.4597933,3.2789838,2.2017493,1.3094503,3.1311748,4.3113346,3.8069513,3.0637596,4.9344177,3.028721,0.0035784135,3.5243385,4.9147143,2.0386727,4.8618364,5.701289,-0.03858508,4.827598,6.365259,5.3781567,2.6545475,2.453485,5.4876494,1.7377188,1.3461201,5.20414,4.209817,1.749073,2.7980075,-0.037286527,1.8566988,3.5692444,0.56269985,5.182334,-0.05057502,7.98486,6.1835337,8.03732,4.059108,3.9197974,2.8076737,3.1979723,4.6890116,2.9497986,4.652474,4.94883,3.5068066,2.8283556,6.444563,1.1244766,2.7104735,4.1279774,6.868811,4.2556796,4.342172,2.149967,4.060478,2.9667273,4.8265066,7.4976315,4.887726,4.0517893,6.721226,2.638338,4.4917793,2.4045908,2.8782449,7.544555,3.02769,3.5865302,4.3393583,3.0010767,5.27257,3.6605785,5.89565,6.0814548,2.409323,-0.13241862,1.7207774,4.759236,4.033917,3.65344,1.3025054,5.2808805,4.672321,2.9241858
COc1ccc(-c2ccc3nccc(Nc4cccc5[nH]ncc45)c3c2)cc1C=O,4.7793913,0.004071507,-0.16347788,4.7285843,4.0968804,-0.23201565,2.4835494,3.1552572,3.3987894,3.2851493,5.450509,6.6787634,3.8529983,-0.10558864,5.934647,0.63838106,6.410463,5.237342,3.8697052,5.143469,5.5762835,4.421333,5.391498,2.4593182,4.0653358,4.023856,5.2762027,2.685548,4.2755566,5.234338,8.100635,3.6974359,5.156939,5.671195,4.57412,4.4106107,2.1016448,4.1909103,6.0680723,5.5441027,2.8806803,2.264296,4.3333526,2.5405676,4.5222206,-0.12927526,2.9420288,2.9583755,3.886277,3.4647381,6.046181,3.9864912,4.4043207,1.6647089,4.348901,3.5437884,4.377001,4.9043603,3.2737224,2.6044776,2.7909482,5.4627037,5.2548776,-0.08817212,3.972641,4.240522,-0.10197567,3.261989,7.414645,4.6869397,6.06327,1.387214,1.7366487,4.0532365,6.458992,4.2717304,4.429659,4.6119266,2.9220178,3.4581146,2.2464192,4.155051,4.5375586,5.5796247,5.6036205,4.2369566,5.2758536,4.2763543,4.7983966,3.769068,5.448072,3.34487,4.2570915,4.102859,4.5380588,4.3287134,2.0480826,2.9251835,5.971457,1.506547,7.166888,-0.00027246427,5.0530076,2.8647237,2.566716,4.326155,5.9266744,7.231201,2.502883,3.1678617,2.1965077,3.481858,-0.101970546,3.1522698,5.14096,3.7377748,4.952666,2.784166,5.476733,-0.09632755,-0.09121942,5.404123,7.690516,4.9801693,4.5072165,5.515624,6.2320466,2.456178,4.972483,4.195412,5.5957904,3.2935772,4.841742,4.1885867,4.10324,4.275164,4.1662226,2.97618,4.8479834,5.1918707,4.7846465,2.3829648,4.788179,4.014732,4.7952733,5.6413097,5.3924975,4.917983,2.4798257,1.8211302,2.9272182,1.9560285,3.901189,5.0926843,-0.08879761,1.401687,-0.09664904,3.362062,3.0889518,2.1338222,3.4692886,4.130594,4.3773136,0.0018720136,4.8820148,1.9916,-0.12337479,5.575321,3.0022254,5.496448,3.8944738,2.7748027,4.5678916,2.6539788,4.1623507,4.4747357,2.7109334,3.4520602,4.3358307,3.9359033,1.0073768,8.540202,2.5089612,2.514244,5.308834,3.9424264,3.750206,2.4365964,4.870027,1.5596681,5.0265718,3.3919256,-0.1815399,3.6313648,5.92222,0.0011808258,6.107038,2.2139387,5.8530602,5.135235,4.770109,2.4359744,1.9313505,5.946591,4.596982,2.4538522,6.2585974,2.48967,1.6547452,5.253427,5.97737,3.6300201,6.5340056,4.6996403,2.5171347,4.4737964,6.314331,4.9814024,5.417077,3.8480225,2.7615607,3.1517367,8.242977,3.7184994,3.559971,4.5332804,4.0784807,3.123777,3.9405909,2.309355,5.917956,-0.09620097,-0.09026826,2.6368992,5.182182,4.603266,2.0252192,2.0310493,1.888449,4.1066446,3.7729802,2.2575629,3.5452032,5.484661,1.0004815,4.6980805,2.4520926,4.3801904,5.2891903,4.62344,2.8893661,3.3437939,3.8743856,5.3895483,3.921403,2.2654986,4.889621,4.7682066,5.994153,4.7640467,1.406244,0.84596866,3.75868,1.2110091,5.289217,2.342855,-0.08650989,6.6209927,6.110351,4.853552,3.7448056,3.4127157,3.0027678,4.554401,1.199704,2.9793975,5.6322627,4.139142,4.695603,4.338229,3.0119498,1.3928679,6.164529,4.504336,3.8184583,6.1186376,3.9601557,1.4066799,2.8321369,4.4272585,5.706666,1.9583862,4.3551774,5.043552,5.0650377,6.065024,3.9807224,5.9302936,1.782113,1.0525994,5.8030243,1.3278459,7.4006495,5.1058164,4.5246787,2.1773927,2.6169162,5.668089,1.4842912,5.8947563,3.2214935,5.385801,5.0950556,3.6592712,-0.08566289,4.1859117,0.60323083,2.4364517,4.262604,4.150162,8.091476,4.2460265,4.3696003,2.9760156,5.2021613,2.7414808,6.036608,4.9896865,3.1999586,1.8156174,5.464121,2.645072,5.807929,4.9787507,6.3208995,4.1900945,4.082954,5.546357,6.113644,2.514039,2.9486501,3.2376235,2.924474,4.823703,1.7545213,-0.08103948,3.861258,4.595522,5.025549,2.5431058,5.658908,2.0984464,4.205262,3.7660434,5.1505756,5.968397,3.3642325,5.6278386,5.1918,3.0581355,4.808136,3.6766284,3.339476,5.354938,3.1419613,0.0018538991,5.666164,3.7879355,2.3945708,1.5757734,5.349645,3.185868,5.096594,5.732879,4.6546264,4.267275,2.8883886,3.1787298,5.077682,6.338946,3.889799,5.542864,5.130907,2.7388418,2.2642868,-0.1043963,6.573994,5.440465,1.7820944,5.10097,5.3391614,5.796206,7.189747,2.3254528,2.4516313,2.8394437,4.9318304,2.2936947,4.5622168,3.7622914,5.046137,3.251546,4.748851,5.050541,4.4489636,2.2563448,5.6642103,1.6979815,2.5006523,2.3107128,5.110298,4.260769,1.9631028,3.6113403,3.6784024,6.1595287,4.1815453,3.0266976,5.4262986,6.1010895,5.3457108,4.518261,3.4109519,1.2940767,4.438756,4.0015764,1.9653176,3.2789838,2.2017493,1.7846531,3.1311748,3.601443,3.831665,3.0637596,4.906556,3.028721,0.0035784135,1.8461691,4.9147143,2.281037,4.8441844,5.701289,-0.03858508,4.81134,6.365259,5.346406,2.6545475,2.453485,5.4876494,1.7377188,5.5405216,5.20414,4.209817,1.3714678,2.8167033,-0.037286527,2.4795384,5.7961326,0.56269985,5.182334,-0.05057502,7.98486,6.1835337,5.7459955,4.168423,3.921376,1.5701635,6.99382,4.6919246,1.8457718,4.622807,4.94883,3.5068066,2.8283556,6.444563,3.693249,2.7104735,4.1279774,6.868811,4.2556796,4.3461165,2.149967,4.0637884,5.480831,4.82183,6.129438,2.2486253,4.0517893,6.721226,2.638338,4.4917793,3.2022462,2.8782449,3.1478229,3.442156,3.5865302,4.3393583,3.7618284,5.27257,3.6605785,5.89565,5.630356,2.409323,0.008758752,1.7207774,4.757922,4.033917,3.65344,1.3056523,5.2808805,4.672321,3.334218
Fc1ccccc1-c1ccc2nccc(Nc3cccc4[nH]ncc34)c2c1,4.7793913,0.004071507,-0.16347788,4.7285843,4.0968804,-0.23201565,2.4835494,3.1552572,3.0621667,3.1799164,5.450509,6.6787634,2.912974,-0.10558864,5.934647,4.50035,6.410463,2.7310922,2.6248748,5.143469,5.5762835,4.421333,5.391498,9.371109,3.4059412,3.1114922,5.2762027,2.685548,4.2755566,5.234338,8.100635,4.3056703,5.156939,5.671195,4.57412,4.4106107,2.2158206,4.1909103,2.6680932,5.5441027,2.8806803,2.264296,4.3237414,2.5405676,4.5222206,-0.12927526,2.9858193,2.2305255,3.886277,3.4647381,6.046181,3.3360417,4.4043207,4.539237,4.348901,3.5437884,4.377001,4.933396,1.255322,2.6044776,2.7909482,5.4627037,5.2548776,-0.08817212,3.1108196,4.240522,-0.10197567,3.261989,7.414645,4.6954417,6.06327,2.7196658,1.7366487,4.0513053,6.458992,4.2326717,4.429659,4.6119266,10.170962,3.7742825,1.1697049,4.155051,4.5375586,5.5796247,5.6036205,4.2313924,5.2758536,4.285728,4.8169265,3.769068,5.448072,3.34487,4.2570915,4.102859,4.55346,4.3537664,2.0480826,2.6907692,5.971457,1.506547,7.166888,-0.00027246427,2.9352188,2.8647237,2.4908104,2.6859891,5.9266744,7.231201,2.502883,3.1678617,2.0233133,3.4797919,-0.101970546,5.315035,5.14096,3.7377748,4.961344,2.6784668,5.476733,-0.09632755,-0.09121942,5.404123,7.690516,4.9834394,4.5072165,5.515624,6.2320466,2.456178,4.992042,4.195412,5.5957904,3.2935772,4.841742,4.1885867,4.10324,4.275164,3.2775764,2.97618,4.8508296,5.1918707,4.7967567,2.3547068,4.788179,4.000943,4.7952733,5.6413097,5.3924975,4.917983,2.4798257,4.227803,2.9272182,1.1172612,3.901189,5.1005006,-0.08879761,1.401687,-0.09664904,0.9934971,3.0889518,2.1338222,1.69778,3.5420372,4.3773136,0.0018720136,4.91373,1.6361521,-0.12337479,5.575321,2.7588813,5.496448,1.3243967,2.1970563,4.5955305,1.8604624,4.1623507,4.461586,5.390835,3.4286904,4.3358307,2.246535,1.2332927,8.540202,2.2777624,1.6951035,5.308834,3.9424264,2.755243,3.6445096,4.8890033,1.6029319,5.0387383,3.3919256,-0.1815399,3.6313648,5.92222,0.0011808258,6.107038,2.255486,5.8530602,5.1428084,4.770109,2.4359744,2.525558,2.2406693,4.594784,1.2232932,6.2585974,2.570492,5.2260003,5.253427,5.97737,3.6300201,4.20533,4.6996403,1.4821543,4.4737964,4.19755,4.9980054,5.417077,2.722676,0.8221247,3.1517367,8.242977,3.7184994,3.559971,4.557234,4.0784807,3.123777,3.9615786,2.309355,5.917956,-0.09620097,9.369395,2.9488535,5.182182,4.603266,2.6354296,2.0310493,1.5526006,1.5421038,2.670748,1.5742526,1.796392,5.484661,6.2767844,4.6980805,2.4520926,4.377948,3.5536325,4.62344,2.8893661,3.3437939,3.8743856,5.3895483,3.921403,5.106442,4.889621,4.7682066,5.994153,4.7640467,1.406244,-0.18111369,3.277788,4.6301265,5.289217,2.342855,-0.08650989,6.6209927,6.110351,4.853552,3.7448056,3.4127157,3.0027678,2.2864184,2.3759542,2.9793975,5.6322627,4.139142,4.695603,2.038469,2.7107332,1.3928679,1.3189514,4.5212398,3.1084073,6.1186376,3.9601557,8.705899,2.8321369,4.4272585,5.706666,1.5472978,4.349184,5.043552,5.0650377,6.065024,3.120095,5.9302936,1.782113,2.19662,5.8030243,4.044158,7.4006495,5.1058164,4.5246787,4.2162046,2.6169162,5.668089,1.5079478,5.8947563,2.1188898,5.385801,5.0950556,3.6592712,-0.08566289,4.1859117,5.569362,2.4364517,4.262604,4.150162,8.091476,4.2460265,4.3696003,1.8710489,5.236905,2.7414808,6.036608,4.9896865,3.1999586,1.8156174,5.464121,2.6488643,5.807929,4.979593,6.3208995,4.1900945,4.082954,5.546357,6.113644,2.514039,2.9486501,3.0934227,2.924474,4.823703,5.2928224,-0.08103948,2.9202585,4.6187615,5.025549,2.0072322,5.658908,3.10586,4.205262,3.763898,5.1505756,5.968397,3.3642325,5.6278386,5.1918,5.3087983,4.808136,3.6659646,3.339476,5.354938,3.1419613,0.0018538991,5.666164,3.7879355,2.3945708,1.7898593,5.349645,3.185868,5.096594,5.732879,4.6546264,3.216585,2.8883886,3.1787298,5.077682,1.3052791,3.889799,-0.18632603,5.083209,1.5423809,2.2642868,5.1592507,6.573994,3.4337978,3.0378058,5.10097,5.3391614,2.3767183,0.9969014,1.9112263,2.4516313,1.8587981,4.9318304,2.2936947,4.633563,3.7622914,5.0737753,3.251546,4.748851,5.050541,4.446162,2.2563448,5.020643,1.5484164,2.5006523,2.8712602,5.131177,4.260769,1.410935,3.6113403,3.6784024,4.170872,4.1815453,2.5026703,2.7115273,3.929428,5.3457108,1.7756463,3.4109519,1.1322709,4.4301066,4.0015764,2.448584,3.2789838,2.2017493,4.2108135,3.1311748,1.8689944,3.8069513,3.0637596,4.9344177,3.028721,0.0035784135,1.1737609,4.9147143,1.5482432,4.8618364,5.701289,-0.03858508,4.827598,6.365259,5.3781567,2.6545475,2.453485,5.4876494,1.7377188,2.3915744,5.20414,4.209817,1.2837586,2.7980075,-0.037286527,1.8566988,2.0219665,7.1242604,5.182334,-0.05057502,7.98486,6.1835337,3.8017387,3.9753947,3.9197974,3.274872,2.9764595,4.6890116,9.537467,4.652474,4.94883,3.5068066,2.8283556,6.444563,1.212209,2.7104735,4.1279774,6.868811,4.2556796,4.342172,2.149967,4.060478,2.0472012,4.8265066,4.010329,2.6619766,4.0517893,6.721226,10.603924,4.4917793,2.4354334,2.966134,8.812776,3.054625,3.5865302,4.3393583,2.9775777,5.27257,3.6605785,5.89565,3.7720728,2.409323,6.891043,1.7207774,4.759236,4.033917,3.65344,1.4517833,5.2808805,4.672321,2.9569387
COc1cccc(-c2ccc3ncnc(Nc4cccc5[nH]ncc45)c3c2)c1,3.7861052,0.004071507,9.195299,3.614493,3.365243,4.892891,5.3004136,3.5900326,2.662912,-0.1842202,5.1615896,6.6787634,3.5391207,-0.10558864,5.360694,4.688163,5.3664513,4.4012184,3.1428347,5.143469,5.5762835,3.403479,5.0100565,2.4593182,3.9481454,3.3429108,5.073603,2.0510385,2.9709196,5.1486773,4.2709723,3.6974359,5.3550625,5.197411,4.57412,3.489243,1.1885558,2.8013158,2.1992786,5.2578197,2.3703365,5.4890327,4.3457894,2.2226074,4.128497,-0.12927526,3.306079,2.6883428,3.733477,2.8329017,5.8137894,3.4963384,2.7275815,1.6488049,3.5198855,3.5437884,3.6119442,5.218107,1.297713,3.940448,5.450959,5.2330036,5.1784463,-0.08817212,3.8146956,3.2819676,-0.10197567,3.432972,5.539985,5.226524,6.06327,2.666151,1.8952688,3.8335183,6.458992,4.1897874,3.7475467,3.7868123,3.3680792,3.4581146,2.0910723,3.3617232,4.5375586,5.4218106,5.3803267,4.3224964,4.8010764,5.2035866,5.098824,3.9505503,5.286658,4.846465,3.4184206,3.3630831,4.984324,5.3247423,3.2881927,1.1919892,5.316499,4.244372,5.4541206,-0.00027246427,-0.19368942,3.2263215,2.4914181,0.9512003,4.564419,5.531101,2.4919484,3.8366601,1.2009101,4.1259108,5.085016,3.1522698,5.1726727,3.7377748,5.445938,2.5565712,5.497267,-0.09632755,-0.09121942,4.714037,5.1125684,4.9481535,4.5072165,5.515624,5.388921,1.515415,5.494031,4.195412,5.106407,2.5874524,4.72847,4.1721506,5.2432857,3.6287465,4.0456524,2.4617217,5.282474,5.2195835,5.214749,1.5207889,5.242595,3.9458964,3.6502397,5.3801627,5.249473,4.693581,2.2378871,1.3988887,2.9272182,2.4144056,3.471685,5.241198,-0.08879761,5.412,-0.09664904,6.4997396,3.0665934,2.1338222,1.9008331,3.5140219,3.4373572,0.0018720136,5.033186,1.4106293,2.713428,5.575321,2.4827302,5.308364,4.23504,2.139296,5.2775245,2.617695,3.472175,4.433586,2.7109334,3.2563686,3.5496364,2.246535,0.032378178,8.540202,1.6350518,2.0793312,5.21042,3.4200902,2.7115471,2.4365964,5.1574802,4.695957,5.19149,3.3919256,5.9372115,4.180742,5.269201,0.0011808258,6.107038,4.222009,5.287465,4.8919415,3.4284825,4.0801234,1.9313505,4.695505,4.2464485,2.3557599,5.3061934,2.48967,1.9259565,5.2569847,5.5812855,2.397225,-0.22930168,5.1403837,2.1040015,5.2527084,-0.23785701,5.127112,5.320899,3.2123702,1.6527284,3.1517367,5.210813,3.7184994,3.559971,5.4946127,4.0784807,3.1473258,5.6539745,4.0425415,5.917956,-0.09620097,-0.09026826,1.2943339,5.1747594,3.2933211,2.3306026,5.538501,1.6854981,1.6498446,3.7208948,1.8722904,2.116277,5.2626424,1.0004815,4.4064374,3.9665415,3.2708151,1.6393244,4.0872583,4.670906,3.649537,3.1634343,5.248587,4.0424957,0.6558474,5.0603085,4.7682066,4.1133504,5.429234,-0.17300057,1.0757428,3.6035538,1.6472063,5.3417783,4.4814343,-0.08650989,5.202796,5.2919784,3.8262851,2.400634,2.7738879,3.9166064,2.0475242,2.7868745,2.4618227,5.6322627,3.4783545,5.4877996,2.6390188,2.7103312,3.2603557,4.3351665,5.5579734,3.708279,6.1186376,3.951644,4.374845,2.8321369,5.0137753,5.1713114,1.4854019,4.52211,3.8753586,3.801005,5.292706,2.854409,5.3705177,4.919652,3.089839,5.358221,2.1397078,7.4006495,5.2489796,3.2899811,2.6136155,2.6169162,5.423984,2.7614913,5.3852944,2.2321706,5.305224,5.372344,3.2028828,-0.08566289,3.7823806,0.72504497,2.135456,3.0413804,5.3902564,4.3042984,3.0045495,3.3984473,1.5945225,5.211139,4.558474,6.036608,4.495053,2.7725627,1.8049105,5.2869086,4.838018,5.5040298,4.978918,5.3060503,3.3253877,3.034951,5.387825,5.2840533,3.2337177,2.2742436,1.7399703,2.5896714,3.5409658,-0.21760839,-0.08103948,3.412362,4.907733,5.2355375,2.391409,5.022386,2.0984464,4.205262,4.377827,4.882506,5.3825407,3.3642325,5.289718,3.325847,-0.17866972,3.3868701,3.9868517,3.210844,4.844126,3.335629,0.0018538991,5.3398633,5.4905725,3.2837694,2.1546443,5.3011045,3.756832,5.3844833,5.2853456,5.1425986,2.60947,3.961169,2.417934,3.4767811,4.6538873,3.1851974,5.9921093,4.246035,1.4850128,2.5277054,-0.1043963,5.398333,-0.11456999,1.7820944,5.3065596,5.3110194,3.9765604,4.137943,1.1028445,2.4562006,2.666287,3.1547995,2.2936947,4.041404,2.945338,5.2233987,3.251546,3.685033,5.1931086,4.7509065,2.129149,2.6449625,2.2282088,4.9741797,2.4934897,5.1918964,3.4299276,1.5939119,3.7673914,2.112247,0.38247585,3.457551,1.6509588,2.7115273,-0.22027156,5.281871,3.1451228,3.4109519,1.3623741,4.8067713,4.138572,1.0679737,2.225757,5.6403513,1.3620431,1.7331842,4.7678795,4.0410028,5.4457417,5.370121,5.403265,0.0035784135,1.6251475,5.234578,1.9361429,5.320222,5.309099,-0.03858508,5.1821747,5.3265147,5.0266857,2.279686,2.391363,5.4875674,5.648619,-0.19259469,5.443002,3.1773765,1.727249,2.8067865,-0.037286527,1.8179237,1.5708349,0.56269985,5.182334,-0.05057502,3.2362227,5.2422748,0.30526862,3.72523,3.699403,2.4106545,1.4040452,4.510322,4.185296,5.4953995,4.94883,3.3225539,2.8283556,5.3451433,1.4951273,2.7104735,2.8235297,5.3819175,4.0144105,4.171358,2.224117,4.2718654,1.8870248,5.105424,-0.21593875,2.3693848,4.0517893,5.429812,2.638338,3.5283206,2.6876585,5.249302,8.19169,3.2729094,3.7120602,5.239256,3.4557536,5.2711387,3.6605785,3.7256186,0.6054618,4.5190725,-0.13241862,1.9608073,5.3537726,4.167916,3.5532868,1.2597907,5.490185,3.5346198,3.2071965
COc1cc(-c2ccc3ncnc(Nc4cccc(O)c4)c3c2)ccc1O,3.0438383,0.004071507,9.195299,2.9192004,3.3237824,4.892891,5.3004136,3.5900326,4.112044,-0.1842202,5.1615896,4.1805167,3.787724,12.205351,5.020377,4.688163,5.0576015,6.6338735,3.8274107,-0.25297296,2.1710222,3.235751,4.7441945,-0.19771326,3.9983125,3.9276395,5.073603,1.970234,2.9208407,5.1486773,2.5475898,3.686426,5.3550625,4.9280643,4.836567,2.8109965,1.5007403,7.3536234,4.0646973,4.9160085,1.8876209,5.4890327,4.331774,1.8100873,3.8113532,7.292916,3.306079,2.7499251,3.7188692,2.4098308,5.446231,3.802345,2.2582169,1.7311366,3.1581519,4.085198,3.046559,5.2068596,2.5446432,3.940448,5.450959,5.1115875,5.1784463,12.014043,3.9135163,3.2247815,12.043512,3.432972,5.3595386,5.219338,-0.1465116,2.666151,1.835546,3.8140106,4.3971825,4.1897874,3.1575396,3.2596762,0.96948117,3.3855016,2.3463848,3.0701027,4.8825917,5.144352,5.0274777,4.3189635,4.4879193,5.2110705,5.0895634,3.9505503,5.0262794,4.846465,3.1429763,2.9483035,4.9814625,5.3333974,3.2881927,1.2748945,4.9762487,4.288213,5.1935506,-0.00027246427,5.978934,3.2263215,2.4914176,0.75777924,4.282649,5.168903,4.20285,3.8366601,1.8876882,4.12441,14.227283,7.630146,5.1726727,4.863322,5.4371123,2.848462,5.333292,6.825674,-0.09121942,4.714037,4.4960747,4.942408,4.958798,2.2193446,5.1717434,1.4562495,5.4981413,2.3270352,4.8171887,6.149638,4.504716,3.9814801,5.2432857,3.2396922,4.1058936,2.4338727,5.3110924,5.2195835,5.2245793,1.6307952,5.0036025,3.933869,3.028239,5.079533,4.976256,4.359906,1.6970178,0.6506481,2.3454163,2.4029381,3.3406317,5.22134,-0.08879761,5.412,11.983145,4.7450852,5.2844353,1.717912,2.4931467,4.0679636,2.9143152,0.0018720136,5.0277896,1.2266663,11.258426,3.2977998,3.042163,4.9981394,1.6414851,2.4108093,5.2788224,2.611283,3.1089013,4.4262547,5.5184965,3.24962,3.2333128,2.3926883,0.05410195,-0.12773347,2.1484942,1.9342017,5.21042,3.046925,3.8862023,0.052859828,5.148979,4.6814027,5.1870937,3.1589549,5.9156528,4.180742,5.018913,0.0011808258,3.834016,4.222009,4.85873,4.8817344,3.0571287,4.0801234,0.026861502,5.914721,4.2333975,2.4194365,5.050094,2.931784,0.9224706,5.0079327,5.2737856,1.9847133,1.8937304,4.8805976,2.2371652,4.9908648,3.8644407,5.1190195,4.9832234,3.711946,1.0257004,3.8488622,4.679185,2.0886168,3.5669951,5.4912643,3.9812322,7.148571,5.6727405,4.0425415,6.3442926,8.780275,-0.09026826,2.6338274,4.913209,2.859135,2.3306026,5.538501,1.7633222,2.9877992,3.7322452,2.0220842,2.8842607,5.0111527,0.20533676,4.4064374,3.9410625,3.261586,4.4231915,3.8359609,4.670906,3.649537,2.9249556,4.8927097,4.0424957,2.9168758,4.702373,-0.31003508,6.8475533,5.429234,10.217644,5.758641,3.3884318,0.6611502,5.3417783,4.4814343,9.800938,4.7639713,4.9813976,3.120245,2.195101,2.7869036,3.9166064,1.9483953,2.7868745,2.3544118,6.3248463,3.0609455,5.170568,3.6287782,2.959647,7.4761357,5.889849,5.566345,3.745861,-0.2297162,3.951644,4.374845,2.9298186,4.7824144,4.8902526,2.0599387,4.508055,3.1415024,3.2980812,5.042344,4.3055596,5.088396,4.919652,3.089839,5.00384,2.1397078,-0.15435554,4.916807,3.1825275,1.8071034,3.2845333,5.423984,2.7614913,5.112047,2.807906,5.0322084,5.372344,2.6076488,9.282358,3.0849319,0.49259296,2.135456,2.9613547,5.1462317,4.312021,2.9513214,2.881272,2.0242686,5.2291365,4.558474,4.4858236,4.176897,2.428685,1.5088989,4.9877377,4.838018,5.2124557,4.9634256,5.003065,3.0836189,2.800512,5.0871925,4.960339,3.2337177,2.0473044,3.4939961,2.5750246,2.9313557,0.6984429,-0.08103948,3.7967865,4.911048,5.2355375,2.6027508,5.022386,1.3125441,5.0548882,4.379079,4.591679,5.032699,3.661097,4.9011483,2.4207597,-0.17866972,3.145759,3.9845018,3.062678,4.695686,3.335629,0.0018538991,4.9759192,5.4905725,3.2837694,5.934147,5.3011045,3.756832,5.3844833,4.8956256,5.1425986,4.0562196,3.961169,2.048392,2.7507238,6.362,2.9458604,5.7289915,4.2460356,1.4532644,2.5277054,-0.1043963,5.002788,6.8522496,8.105158,4.951597,4.99479,5.791291,6.6039047,2.1389232,1.9569999,2.77857,3.0158136,1.6255373,4.426784,2.7623162,5.223834,3.9844625,3.129204,4.8559647,4.7389364,1.9407438,7.064957,2.2025802,4.9741797,2.4934897,5.2096004,3.0363443,1.742407,3.7673914,1.8068305,3.3260503,3.0480392,1.6916317,5.3720117,2.8474247,4.9823713,5.003548,2.9617438,1.2499336,4.8000317,4.138572,8.280619,1.9622041,5.6403513,1.265253,1.7331842,4.043629,4.0348754,5.4457417,5.377026,5.403265,0.0035784135,1.6251475,4.9051847,2.0370846,5.3152533,4.9298077,-0.03858508,5.1808167,4.899167,5.038087,2.2788537,2.391363,5.181339,5.648619,5.6135798,5.165834,2.7875168,1.642342,2.8015196,-0.037286527,2.081821,6.4256854,-0.15004073,5.591506,-0.05057502,0.27566218,5.0778117,3.1522608,3.928098,3.6985848,1.6374997,5.784101,4.4936385,1.71912,5.501038,6.30275,2.9502337,7.480468,5.008861,2.243839,2.6835027,7.2194858,5.0653677,3.825096,4.1651506,2.224117,4.2597322,4.2570634,5.1141114,4.3109303,8.658807,4.486172,4.9677143,-0.16925228,3.0993783,3.1335716,5.249302,4.6429195,3.4587436,3.7120602,5.239256,3.6557748,4.9079967,4.0906076,2.5712955,3.8860407,4.5190725,-0.13241862,1.9504029,5.3793826,4.167916,3.301686,1.3125042,5.490185,2.8915167,3.2196746
COc1cc(-c2ccc3ncnc(Nc4ccc(F)cc4)c3c2)ccc1O,3.0438383,0.004071507,9.195299,2.9182696,3.3212228,4.892891,5.3004136,3.5900326,4.112044,5.182232,5.1615896,-0.20643677,3.787724,-0.10558864,4.8690076,4.688163,4.8959455,5.3321724,3.8274107,0.9913772,0.76276106,3.0046008,4.4937496,9.505167,3.9983125,3.9276395,5.073603,1.970234,2.9191353,5.1486773,3.7842088,2.7143655,5.3550625,4.8749533,3.4837077,2.809345,1.5007403,2.1898215,4.367241,4.7306166,1.6425755,5.4890327,4.331774,1.8100873,3.6751523,-0.12927526,3.306079,2.7499251,3.7180133,2.3882775,5.270164,3.802345,2.2928226,2.336018,2.9262228,3.0510306,2.8564146,5.2068596,2.5446432,3.940448,5.450959,4.9687824,5.1784463,-0.08817212,3.9135163,3.21533,-0.10197567,3.432972,5.2515574,5.219338,-0.1465116,2.8829875,1.8243521,3.8140106,-0.17703184,4.1897874,2.868492,3.01447,7.6630726,2.3562253,2.3463848,2.5685046,2.6691608,5.1704493,4.9666624,4.3189635,4.3773723,5.2110705,5.0895634,3.9505503,4.8077326,4.846465,2.8114247,2.7766492,4.9814625,5.3333974,3.2881927,1.9003394,4.9503045,4.288213,4.998272,-0.00027246427,5.978934,3.2263215,2.4914176,1.4319078,4.034484,4.8895335,1.3757617,3.8366601,1.8876882,4.12441,-0.101970546,2.8032825,5.1726727,2.7493474,5.4371123,2.848462,5.3302493,-0.09632755,0.42989823,4.714037,4.28089,4.942408,3.5895274,1.3850459,4.9942727,1.4562495,5.4981413,1.0962832,4.6951766,2.2429507,4.3607626,3.9500134,5.2432857,2.9649813,4.1058936,2.3458962,5.3110924,5.2195835,5.2245793,1.6307952,5.0679555,3.933869,2.7718189,4.9773555,4.9295344,4.2539077,2.5188992,3.088989,2.3454163,2.4029381,3.156953,5.22134,-0.08879761,5.412,-0.09664904,4.7450852,1.7845997,1.9233321,2.4931467,4.0679636,2.8207664,0.0018720136,5.0277896,2.8499925,-0.12337479,1.1048557,3.042163,4.98595,4.29923,2.4108093,5.2788224,3.1772866,3.1089013,4.4262547,1.6037401,3.24962,2.3697124,2.2706738,2.0657659,-0.12773347,2.1484942,1.6132315,5.21042,2.944751,3.8862023,4.4464736,5.148979,4.6814027,5.1870937,3.1589549,5.9156528,4.180742,5.161758,0.0011808258,3.834016,4.222009,4.55135,4.8817344,2.4749122,4.0801234,4.2269883,5.914721,4.2333975,3.1101465,4.8682265,1.836,4.011036,5.0173597,4.943279,2.1049612,4.098246,5.062149,2.2371652,5.091445,3.8644407,5.1190195,5.144192,3.711946,2.342611,2.800192,4.2972417,5.4786587,2.3148549,5.4912643,1.9956644,-0.22488227,5.6727405,4.0425415,2.5259886,-0.09620097,2.1023197,3.495445,4.745118,2.859135,2.3306026,5.538501,1.7633222,2.9877992,3.7322452,2.0220842,2.8842607,4.9346843,4.2154045,4.4064374,3.9410625,3.261586,4.4231915,3.6903017,4.670906,3.649537,2.6043358,4.8157754,4.0424957,2.9168758,4.747885,3.3514795,3.7338147,5.429234,0.8421386,1.4321665,3.3884318,3.998252,5.3417783,4.4814343,-0.08650989,4.6164656,4.781972,2.895597,2.4468503,2.3099015,3.9166064,3.0747836,2.9022567,2.2195983,1.1142678,2.644426,4.904539,3.6287782,2.959647,0.90753394,5.889849,5.566345,3.745861,6.1622634,3.951644,4.911096,2.9298186,4.5766582,4.712157,2.0599387,4.508055,2.7115412,3.2074058,4.877169,4.3055596,5.000498,4.919652,3.089839,4.8424115,3.1435497,-0.15435554,4.8659616,3.1825275,1.8531486,3.2893713,5.423984,2.7614913,4.876857,2.807906,5.0568523,5.372344,2.0983267,-0.08566289,2.7927165,4.0364923,2.135456,2.651822,4.9875507,3.0269775,2.9443588,2.8771544,2.0242686,5.2291365,4.558474,-0.19873273,4.0526595,2.0912604,1.5088989,4.8298225,4.838018,5.1688247,4.9634256,4.8784695,3.0836189,2.7930167,4.945189,5.0567994,3.2337177,2.033482,2.7903945,2.5701108,2.9281764,4.5913763,2.4256516,3.7967865,4.911048,5.2355375,2.6027508,5.022386,2.680407,5.0548882,4.379079,4.5418906,4.8651814,1.8301055,4.9044104,2.4148262,4.0285587,3.145759,3.9845018,2.862117,4.643845,3.335629,0.0018538991,4.7362037,5.4905725,3.2837694,2.1546443,5.3011045,3.756832,5.3844833,4.781194,5.1425986,4.0562196,3.961169,1.8629663,2.7513695,6.362,2.9458604,5.7289915,4.2460356,2.8397927,2.5277054,0.502914,4.7688212,-0.11456999,0.71845543,4.8296366,5.046015,5.791291,6.6039047,2.1389232,1.9569999,2.77857,3.0047355,2.3169284,4.008683,2.7623162,5.223834,1.4856704,2.8491066,4.790021,4.7389364,1.803108,2.747513,2.2025802,4.9741797,2.4934897,5.2096004,3.0363443,1.742407,3.7673914,1.8068305,4.0021667,2.7992911,3.163768,5.3720117,5.367037,5.1606913,4.2691646,2.0589764,1.2499336,4.8000317,4.138572,1.6984247,1.9622041,5.6403513,2.9043977,2.2468894,4.043629,4.0348754,5.4457417,5.377026,5.403265,0.0035784135,1.6251475,4.7422523,2.7533498,5.3152533,4.9085436,-0.03858508,5.1808167,4.7407966,5.038087,2.11245,2.391363,5.0307636,5.648619,5.6135798,5.0947733,2.7834322,1.642342,2.8015196,-0.037286527,2.081821,6.4256854,4.0920744,2.4735658,-0.05057502,2.801964,4.803309,4.690068,3.928098,3.6985848,1.8303833,5.784101,4.4936385,5.234864,5.501038,-0.20203632,2.5657203,1.4759747,4.874116,2.243839,2.6835027,2.4561331,4.963805,3.7232013,4.1651506,2.224117,4.2597322,4.2570634,5.1141114,4.3109303,1.395539,2.9477172,4.9361596,10.895489,2.8214166,3.1335716,5.249302,2.8073974,3.4587436,3.7120602,5.239256,3.6557748,4.9070907,3.2263896,2.5605063,3.8860407,4.5190725,5.4184494,1.9504029,5.3793826,4.167916,3.3445141,1.9169903,5.490185,2.8431654,3.2196746
COc1cc(-c2ccc3ncnc(Nc4ccc(S(N)(=O)=O)cc4)c3c2)ccc1O,3.0438383,0.004071507,9.195299,2.9182696,3.3212228,5.419799,5.3004136,3.5900326,4.112044,8.524281,5.1615896,-0.20643677,3.787724,-0.10558864,4.8690076,4.688163,4.8959455,5.3321724,3.8274107,0.62382543,0.89574736,3.0046008,4.4937496,0.8204834,3.9983125,3.9276395,5.073603,1.970234,2.9191353,5.1486773,4.0795846,2.7143655,5.3550625,4.8749533,3.4837077,2.809345,1.5007403,2.1898215,7.426714,4.7306166,1.6425755,5.4890327,4.331774,1.8100873,3.6751523,10.317152,3.306079,2.7499251,3.7180133,2.414769,5.270164,3.802345,2.4092438,4.602491,2.8889937,2.4562707,2.8564146,5.2068596,2.5446432,3.940448,5.450959,4.9687824,5.1784463,-0.08817212,3.9135163,3.21533,-0.10197567,3.432972,5.2515574,5.219338,-0.1465116,2.666151,1.8243521,3.8140106,-0.17703184,4.1897874,2.868492,3.01447,0.37052864,2.3562253,2.3463848,2.5685046,2.9969451,5.1704493,4.9666624,4.3189635,4.3773723,5.2110705,5.0895634,3.9505503,4.8077326,4.846465,2.8114247,2.7766492,4.9814625,5.3333974,3.2881927,3.7992692,4.9503045,5.91482,4.998272,-0.00027246427,5.978934,3.2263215,2.4914176,7.638303,4.034484,4.8895335,1.3757617,3.8366601,1.8876882,4.12441,-0.101970546,-0.006006675,5.1726727,2.7493474,5.4371123,2.848462,5.3302493,-0.09632755,-0.09121942,4.714037,4.28089,4.942408,3.5895274,2.8490782,4.9942727,1.4562495,5.4981413,-0.2443398,4.6951766,2.2429507,4.3607626,3.9500134,5.2432857,2.9649813,4.1058936,2.3458962,5.3110924,5.2195835,5.2245793,2.1025517,5.0679555,3.933869,2.7718189,4.9773555,4.9295344,4.2539077,3.189801,3.6324916,2.3454163,2.4029381,3.156953,5.22134,-0.08879761,5.412,-0.09664904,4.7450852,1.7845997,4.100558,3.2530649,4.0679636,2.8207664,0.0018720136,5.0277896,3.6818585,-0.12337479,1.1048557,3.042163,4.98595,6.426196,2.4108093,5.2788224,2.611283,3.1089013,4.4262547,1.0122455,3.24962,2.3697124,3.4176648,7.142042,-0.12773347,2.1484942,2.1777732,5.21042,2.944751,3.8862023,1.0152158,5.148979,4.6814027,5.1870937,3.795506,5.9156528,4.180742,5.161758,0.0011808258,3.834016,4.222009,4.55135,4.8817344,2.4733784,4.0801234,6.8132224,5.914721,4.2333975,3.5394642,4.8682265,1.8891056,3.1297266,5.0173597,4.943279,2.1676126,7.380478,5.062149,3.2472286,5.091445,3.8644407,5.1190195,5.144192,3.711946,5.528626,4.351183,4.2972417,4.9811983,2.3148549,5.4912643,1.3429178,4.0020843,5.6727405,4.0425415,1.2792343,-0.09620097,-0.09026826,5.288857,4.745118,2.859135,2.6293645,5.538501,1.7633222,2.9877992,3.7322452,2.0220842,2.8842607,4.9346843,6.138337,4.4064374,3.9410625,3.261586,4.4231915,3.6903017,4.670906,3.649537,2.6043358,4.8157754,4.0424957,2.9168758,4.747885,1.2194881,3.7338147,5.429234,2.797426,2.5446424,3.3884318,2.1149983,5.3417783,4.4814343,-0.08650989,4.6164656,4.781972,2.895597,2.4880848,2.5870156,3.9166064,3.5193925,2.7868745,2.2621462,0.35591087,2.644426,4.904539,3.6287782,2.959647,2.536867,5.889849,5.566345,3.745861,-0.2297162,3.951644,4.374845,2.9298186,4.5766582,4.712157,3.3062196,4.508055,2.7115412,3.2074058,4.877169,4.3055596,5.000498,4.919652,3.089839,4.8424115,3.7807224,1.9846824,4.8659616,3.1825275,2.6829062,2.9242332,5.423984,2.7614913,4.876857,2.807906,5.0568523,5.372344,2.0983267,-0.08566289,2.7927165,3.1311896,2.135456,2.651822,4.9875507,3.0269775,2.9443588,2.8771544,2.23784,5.2291365,4.558474,-0.19873273,4.0526595,2.0912604,1.5088989,4.8298225,4.838018,5.1688247,4.9634256,4.8784695,3.0836189,2.7930167,4.945189,5.0567994,3.2337177,2.033482,5.8048205,2.5701108,2.9281764,5.932897,-0.08103948,3.7967865,4.911048,5.2355375,2.6027508,5.022386,2.3282173,5.0548882,4.379079,4.5418906,4.8651814,2.3615692,4.9044104,2.4148262,4.042443,3.145759,3.9845018,2.862117,4.643845,3.335629,0.0018538991,4.7362037,5.4905725,3.2837694,3.5296366,5.3011045,3.756832,5.3844833,4.781194,5.1425986,4.43112,3.961169,1.8629663,2.7555838,6.362,2.9458604,5.7289915,4.2460356,4.300503,2.5277054,3.5514767,4.7688212,5.1572886,-0.15887256,4.8296366,5.046015,5.791291,6.6039047,2.1389232,1.9569999,2.77857,3.0047355,2.4479182,4.008683,2.7623162,5.223834,1.4856704,2.8491066,4.790021,4.7389364,1.803108,2.747513,2.739331,4.9741797,2.4934897,5.2096004,3.0363443,1.742407,3.7673914,1.8068305,3.3260503,2.7992911,3.6486945,5.3720117,3.8117344,5.1606913,4.2691646,2.6266427,1.2499336,4.8000317,4.138572,1.8125277,1.9622041,5.6403513,3.6324346,2.7010553,4.751926,4.0348754,5.4457417,5.377026,5.403265,0.0035784135,1.6251475,4.7422523,2.0370846,5.3152533,4.9085436,-0.03858508,5.1808167,4.7407966,5.038087,2.11245,2.391363,5.0307636,5.648619,5.6135798,5.0947733,2.7834322,1.9271004,2.8015196,-0.037286527,2.081821,6.4256854,3.5490258,2.4735658,-0.05057502,2.9253871,4.803309,4.056627,3.928098,3.6985848,2.291295,5.784101,4.4936385,1.1226261,5.501038,-0.20203632,2.5657203,0.8578927,4.874116,2.243839,2.932792,2.4561331,4.963805,3.7232013,4.1651506,2.224117,4.2597322,4.569363,5.1141114,4.3109303,1.395539,2.9477172,4.9361596,-0.16925228,2.8214166,3.1335716,5.249302,-0.23140633,3.4587436,3.7120602,5.239256,3.6557748,4.9070907,3.2263896,2.5605063,3.8860407,4.5190725,4.2502465,1.9504029,5.3793826,4.167916,3.3445141,2.030958,5.490185,2.8431654,4.0342836
c1cc(Nc2ncnc3ccc(-c4ccc5[nH]ncc5c4)cc23)c2cn[nH]c2c1,3.7861052,0.004071507,9.195299,3.614493,3.365243,4.892891,5.3004136,3.5900326,2.662912,-0.1842202,5.1615896,6.6787634,3.8640325,-0.10558864,5.360694,4.688163,5.3664513,3.8265703,3.6033025,5.349478,5.5762835,3.403479,5.0100565,2.4593182,4.3376746,3.879352,5.073603,2.0791783,2.9709196,5.1486773,4.2709723,3.6974359,5.3550625,5.197411,4.57412,3.489243,1.2280238,2.189104,-0.21138054,5.2578197,2.3703365,5.4890327,4.3457894,2.2226074,4.128497,-0.12927526,3.306079,3.0802476,3.733477,2.343294,5.8137894,4.070406,2.7275815,2.124053,3.5198855,3.5437884,3.6119442,5.218107,3.023442,3.940448,5.450959,5.2330036,5.1784463,-0.08817212,4.231382,3.2819676,-0.10197567,3.432972,5.539985,5.226524,6.3884826,2.666151,1.8952688,3.8335183,6.458992,4.1897874,3.7475467,3.7868123,2.9220178,3.4581146,2.0910723,3.3617232,4.5375586,5.4218106,5.3803267,4.3224964,4.8010764,5.2035866,5.098824,3.9505503,5.286658,4.846465,3.4184206,3.3630831,4.984324,5.3247423,3.2881927,1.1919892,5.316499,4.244372,5.4541206,-0.00027246427,-0.19368942,3.2263215,2.4914181,1.1894436,4.564419,5.531101,2.4919484,3.8366601,1.3124727,4.1259108,-0.101970546,3.1522698,5.1726727,3.7377748,5.445938,1.6485847,5.497267,-0.09632755,-0.09121942,4.714037,5.1125684,4.9481535,4.5072165,5.535531,5.388921,1.515415,5.494031,4.195412,5.106407,1.2835364,4.72847,4.1721506,5.2432857,3.6287465,4.300755,2.4617217,5.282474,5.2195835,5.214749,1.61486,5.242595,3.9458964,3.6502397,5.3801627,5.249473,4.693581,1.8463928,1.5575548,2.9272182,2.4144056,3.471685,5.241198,-0.08879761,5.412,-0.09664904,2.2488282,3.0665934,2.1338222,2.0793762,5.2511554,3.4373572,0.0018720136,5.033186,1.6246175,-0.12337479,5.575321,2.4827302,5.308364,-0.2837853,2.50862,5.2775245,3.4581883,3.472175,4.433586,2.7109334,5.2006927,3.5496364,2.246535,0.032378178,9.267296,1.8122653,1.8548727,5.21042,3.4200902,2.7115471,2.4365964,5.1574802,4.695957,5.19149,3.3919256,5.9372115,4.180742,5.269201,0.0011808258,6.107038,4.222009,5.287465,4.8919415,3.4284825,4.0801234,2.098377,5.3556395,4.2464485,0.8765146,5.3061934,2.48967,1.4276946,5.2569847,5.5812855,2.397225,-0.22930168,5.1403837,2.2515223,5.2527084,1.6513965,5.127112,5.320899,3.6596785,0.5825664,3.1517367,5.210813,3.7184994,3.559971,5.4946127,4.0784807,3.1473258,5.6539745,4.0425415,5.917956,-0.09620097,-0.09026826,0.4997153,5.1747594,3.2933211,2.3306026,5.538501,2.059967,4.8487463,4.191838,2.265562,4.4540944,5.2626424,1.0004815,4.4064374,3.9665415,3.2708151,1.6393244,4.0872583,4.670906,3.649537,3.1634343,5.248587,4.0424957,2.6453457,5.0603085,4.7682066,4.1133504,5.429234,-0.17300057,0.067325585,2.970029,1.5864648,5.3417783,4.4814343,-0.08650989,5.202796,5.2919784,3.8262851,2.400634,2.7738879,3.9166064,2.0475242,2.7868745,2.397248,5.6322627,3.4783545,5.4877996,4.853736,4.4367075,0.11141324,5.813296,5.5579734,4.014711,6.1186376,3.951644,4.374845,3.067508,5.0137753,5.1713114,1.4854019,4.52211,3.8753586,3.801005,5.292706,2.854409,5.3705177,4.919652,3.089839,5.358221,2.1397078,7.4006495,5.2489796,3.2899811,2.1773927,2.6169162,5.423984,2.7614913,5.3852944,3.7320228,5.305224,5.372344,3.2028828,-0.08566289,3.7823806,0.60323083,2.135456,3.0413804,5.3902564,4.3042984,3.0045495,3.3984473,1.3782423,5.211139,4.558474,6.036608,4.495053,2.7725627,1.8049105,5.2869086,4.838018,5.5040298,4.978918,5.3060503,3.3253877,3.034951,5.387825,5.2840533,3.2337177,2.2742436,1.0201163,2.5896714,3.5409658,-0.14711674,-0.08103948,3.8893604,4.907733,5.2355375,1.8130387,5.022386,2.0984464,5.0634203,4.377827,4.882506,5.3825407,3.3642325,5.289718,3.325847,-0.17866972,3.3868701,3.9868517,3.210844,4.844126,3.335629,0.0018538991,5.3398633,5.4905725,3.2837694,2.1546443,5.3011045,3.756832,5.3844833,5.2853456,5.1425986,2.60947,3.961169,2.417934,3.4767811,5.109213,3.1851974,-0.18632603,4.246035,1.4312027,2.5277054,-0.1043963,5.398333,-0.11456999,1.7820944,5.3065596,5.3110194,4.5734315,7.179427,2.3292627,2.4562006,2.891419,3.1547995,2.2936947,4.041404,2.945338,5.2233987,3.251546,3.685033,5.1931086,4.7509065,2.129149,-0.14737676,1.8510338,4.9741797,2.4934897,5.1918964,3.4299276,2.297858,3.7673914,2.112247,1.1795232,3.457551,0.817571,2.7115273,-0.22027156,5.281871,3.1206887,4.286404,1.3110464,4.8067713,4.138572,0.78994054,2.225757,5.6403513,1.265253,1.7331842,-0.21787015,4.58221,5.4457417,5.370121,5.403265,0.0035784135,1.6251475,5.234578,2.5415053,5.320222,5.309099,-0.03858508,5.1821747,5.3265147,5.0266857,2.279686,2.391363,5.4875674,5.648619,-0.19259469,5.443002,3.1773765,1.2494203,2.8067865,-0.037286527,1.8179237,4.776625,0.56269985,5.182334,28.992252,3.2362227,5.2422748,0.30526862,4.2004366,3.699403,1.5701635,3.084309,4.510322,1.8457718,5.4953995,4.94883,3.3225539,2.8283556,5.3451433,2.8041162,2.8260858,2.8235297,5.3819175,4.0144105,4.171358,2.224117,4.2718654,2.3556774,5.105424,0.69094026,2.2123067,4.0517893,5.429812,2.638338,3.5283206,4.7317986,5.249302,3.0119152,3.4124777,3.7120602,5.239256,3.8697946,5.2711387,3.6605785,3.7256186,0.2688094,4.5190725,-0.13241862,1.9608073,5.3537726,4.167916,3.5532868,1.5239029,5.490185,3.5346198,3.5400496
COc1cc(-c2ccc3ncnc(Nc4ccc(F)c(O)c4)c3c2)ccc1O,3.1916516,0.004071507,9.195299,2.9192004,3.3237824,4.892891,5.3004136,3.5900326,4.112044,2.8670444,5.1615896,4.7503066,3.787724,13.575662,5.0334206,4.688163,5.091668,7.096616,3.8274107,-0.25297296,2.3484914,3.3553393,4.787703,-0.19771326,3.9983125,3.9276395,5.073603,1.970234,2.9208407,5.1486773,2.5475898,2.7143655,5.3550625,4.93964,3.4837077,2.8319247,1.8866756,7.289816,4.1634116,4.9222865,1.7180904,5.4890327,4.331774,1.8100873,3.8479364,8.85469,3.306079,2.7499251,3.7188692,2.5237088,5.4465427,3.802345,2.2582169,1.5830443,3.320741,3.9226863,3.2713623,5.2068596,2.5446432,3.940448,5.450959,5.1469636,5.1784463,12.402782,3.9135163,3.2247815,11.6625805,3.432972,5.3806624,5.219338,-0.1465116,2.666151,1.835546,3.8140106,6.0706587,4.1897874,3.269912,3.4737704,-0.24197097,2.3562253,2.3463848,3.274515,3.168691,5.1478043,5.047954,4.3189635,4.515702,5.2110705,5.0895634,3.9505503,5.017258,4.846465,3.2312305,3.0085711,4.9814625,5.3333974,3.2881927,2.5993438,4.986966,4.288213,5.2673793,-0.00027246427,5.978934,3.2263215,2.4914176,2.4429011,4.338231,5.2469883,4.2088256,3.8366601,1.8876882,4.12441,2.5245068,6.0717125,5.1726727,6.349527,5.4371123,2.848462,5.315681,11.621707,-0.09121942,4.714037,4.4690814,4.942408,3.5895274,2.2429147,5.1846304,1.4562495,5.4981413,0.8722981,4.8425756,6.018941,4.509373,3.9831328,5.2432857,3.3797996,4.1058936,2.6370938,5.3110924,5.2195835,5.2245793,1.6307952,4.9677563,3.933869,3.1750474,5.1103396,5.011912,4.383246,1.6970178,0.50276583,2.3454163,2.4029381,3.3636477,5.22134,-0.08879761,5.412,11.986909,4.7450852,5.4191265,2.5892072,2.4931467,4.0679636,3.075569,0.0018720136,5.0277896,1.2266663,6.01593,5.0750465,3.042163,5.0075283,1.8529665,2.4108093,5.2788224,2.611283,3.1089013,4.4262547,6.339601,3.24962,3.328768,2.2706738,1.1415627,-0.12773347,2.1484942,2.0453856,5.21042,3.0988076,3.8862023,0.052859828,5.148979,4.6814027,5.1870937,3.1589549,5.9156528,4.180742,5.0256596,0.0011808258,3.834016,4.222009,4.88672,4.8817344,3.2443755,4.0801234,2.380075,5.914721,4.2333975,1.8272711,5.062587,3.3269467,0.9224706,5.009457,5.3147826,2.1926372,3.839976,4.8563013,2.2371652,4.9495792,3.895069,5.1190195,5.0418262,3.711946,1.0257004,3.1926143,4.7050166,7.49714,2.3148549,5.4912643,2.1528163,6.6502347,5.6727405,4.0425415,3.3755825,10.1090355,-0.09026826,3.6760128,4.9460263,2.859135,2.3306026,5.538501,1.7633222,2.9877992,3.7322452,2.0220842,2.8842607,5.0121737,-0.18985356,4.4064374,3.9410625,3.261586,4.4231915,3.856124,4.670906,3.649537,3.0306423,4.9061117,4.0424957,4.2985854,4.727295,-0.31003508,6.7823176,5.429234,10.062295,3.9255202,3.3884318,0.5360909,5.3417783,4.4814343,12.8624325,4.8216233,5.001432,3.2842484,2.6306024,2.8708816,3.9166064,1.9474603,2.7868745,2.3824625,3.660219,3.1472623,5.133985,3.6287782,2.959647,7.2815614,5.889849,5.566345,3.745861,-0.2297162,3.951644,4.374845,2.9298186,4.8093057,4.911409,2.0599387,4.508055,3.495249,3.3289948,5.084553,4.3055596,5.092265,4.919652,3.089839,5.0497875,2.1397078,0.11838757,4.91108,3.1825275,0.94294244,4.579945,5.423984,2.7614913,5.122741,2.807906,5.0476365,5.372344,2.0983267,12.226748,3.252335,0.46774313,2.135456,3.0303826,5.1056643,5.6663713,2.9513214,2.881272,2.0242686,5.2291365,4.558474,5.8794627,4.216116,2.4429038,1.5088989,4.9874444,4.838018,5.232995,4.9634256,5.02319,3.0836189,2.800512,5.0595326,4.9666142,3.2337177,2.1573246,4.602687,2.5750246,2.9313557,5.171034,-0.08103948,3.7967865,4.911048,5.2355375,2.6027508,5.022386,1.7589462,5.0548882,4.379079,4.6026707,5.087596,1.925552,4.937416,2.5991294,-0.17866972,3.145759,3.9845018,3.1172755,4.726669,3.335629,0.0018538991,4.986593,5.4905725,3.2837694,6.622768,5.3011045,3.756832,5.3844833,4.906352,5.1425986,4.0562196,3.961169,1.8629663,2.7507238,6.362,2.9906666,5.7289915,4.2460356,1.4532644,2.5277054,-0.1043963,5.060203,10.907271,7.063729,4.9889355,5.027225,5.791291,6.6039047,2.1389232,1.9569999,2.77857,3.0158136,3.6920993,4.480394,2.7623162,5.223834,5.7238846,3.3036873,4.858324,4.7389364,1.9764549,6.739867,2.2025802,4.9741797,2.4934897,5.2096004,3.0363443,1.742407,3.7673914,2.0105278,4.007091,3.1128378,2.2747815,5.3720117,3.5252461,4.971581,4.9070296,3.9576719,1.2499336,4.8000317,4.138572,8.921529,1.9622041,5.6403513,1.265253,1.8951937,4.043629,4.0348754,5.4457417,5.377026,5.403265,0.0035784135,1.6251475,4.8872194,2.0370846,5.3152533,4.959271,-0.03858508,5.1808167,4.9177227,5.038087,2.0872219,2.391363,5.2211494,5.648619,5.6135798,5.186355,2.7875168,1.642342,2.8015196,-0.037286527,2.1079214,6.4256854,-0.15004073,2.4735658,-0.05057502,1.0688514,5.1014132,3.5689895,3.928098,3.6985848,1.7599846,5.784101,4.4936385,0.3744572,5.501038,7.2894487,2.9266353,7.139462,5.0417547,2.243839,2.6835027,6.977445,5.1547327,3.8604195,4.1651506,2.224117,4.2597322,4.2570634,5.1141114,4.3109303,8.676796,2.9477172,5.008468,-0.16925228,3.3420646,3.1335716,5.249302,3.3268163,3.4587436,3.7120602,5.239256,3.6557748,4.905909,3.2263896,2.5712955,3.8860407,4.5190725,-0.13241862,1.9504029,5.3793826,4.167916,3.2717445,1.5773022,5.490185,3.079186,3.2196746
Oc1c(F)ccc(Nc2ncnc3ccc(-c4ccc(Cl)cc4)cc23)c1F,4.565045,0.004071507,9.195299,4.186581,3.3681295,4.892891,5.3004136,3.5900326,3.2388504,10.376216,5.1615896,4.701018,3.4706357,4.883771,5.23489,4.688163,5.378841,3.9640567,2.8942022,6.478422,2.233355,4.118063,5.0475674,14.32683,3.5763965,3.3270063,5.073603,2.2319026,2.9665375,5.1486773,4.3017673,6.096053,5.3550625,5.135264,3.4837077,3.9864361,6.360857,5.737008,7.643298,5.18451,2.6280165,5.4890327,4.3457894,2.6496572,4.0918694,12.861541,3.306079,2.6122086,3.724893,3.2004032,5.316287,3.3141713,3.4672139,6.3516364,4.3223867,3.4958742,4.2290096,5.218107,1.6465899,3.940448,5.450959,5.320624,5.1784463,14.552992,3.3926291,3.2750688,13.812007,3.432972,5.4892898,5.226524,-0.1465116,7.319132,1.9038316,3.8335183,5.3785563,4.204527,4.1672516,4.2495403,10.662504,2.8283472,2.0910723,3.79904,3.377007,5.2257156,5.2547793,4.3224964,4.755435,5.2035866,5.098824,3.9505503,5.3650684,4.846465,4.040983,3.9673014,4.984324,5.3247423,3.2881927,6.189922,5.1411037,4.244372,5.434403,-0.00027246427,0.04217698,3.2263215,2.474463,5.9469504,4.834461,5.6989784,4.6531787,3.8366601,1.2009101,4.1259108,-0.101970546,6.4157515,5.1726727,7.5108685,5.445938,1.6485847,5.2810187,20.445408,10.486596,4.714037,4.9236603,4.9481535,3.5895274,1.3609134,5.4785585,1.684625,5.494031,3.3758361,5.119791,6.1915984,4.7559953,4.206303,5.2432857,4.0269227,3.4731736,2.76427,5.282474,5.2195835,5.214749,2.6057742,5.056086,3.9458964,4.530213,5.3255215,5.181925,4.73808,4.728452,5.4395056,2.3350666,2.4144056,3.5624835,5.241198,6.3593383,5.412,15.463856,5.6103787,5.934863,3.0165544,1.9299216,3.4276495,4.0110946,0.0018720136,5.033186,7.2218857,20.575312,6.3240786,3.230185,5.203976,8.730116,2.1407006,5.2775245,4.6036525,4.076481,4.433586,7.824255,3.2563686,4.118644,4.498379,5.291022,-0.12773347,1.7696431,5.2457514,5.21042,3.9265077,3.0436676,10.622875,5.1574802,4.695957,5.19149,0.46933538,5.9372115,4.180742,5.087599,0.0011808258,-0.13510604,4.222009,5.3284273,4.8919415,4.2789254,4.0801234,3.2277668,-0.20577566,4.2464485,5.9165483,5.3138003,2.8560238,8.072958,5.076681,5.6708436,2.531121,8.831745,4.814254,2.0103657,5.082602,6.874702,5.127112,5.103514,3.0178738,5.0235977,5.7242317,5.328531,7.122437,2.3148549,5.4946127,3.9859748,5.726687,5.6539745,4.0425415,2.643451,14.063257,16.877577,5.9165187,5.154156,4.0009027,3.099618,5.538501,2.1639376,1.9588206,3.7998207,1.8045942,2.1032054,5.174487,8.38212,4.4064374,3.9665415,3.2708151,0.6053874,4.29577,4.670906,3.649537,3.8167484,5.0839233,4.0424957,5.218688,4.709938,7.2261615,6.219808,5.429234,12.588334,6.747187,2.6659107,9.221395,5.3417783,4.4814343,15.689485,5.1197267,5.2451377,4.652265,2.576235,3.7584949,3.9166064,6.0912166,9.082372,3.060688,3.5058231,4.227774,5.4465895,1.9645733,2.7773497,8.240164,1.0424922,5.5579734,3.5569937,7.103393,3.951644,8.328722,1.2092316,4.8390326,5.1507487,1.8323158,4.52211,4.112943,3.7303054,5.2927866,3.359899,5.20197,4.919652,5.1578956,5.2960706,7.2648764,-0.15435554,5.0832267,4.0798445,3.890203,4.151408,5.423984,2.7614913,5.424963,2.215584,5.1605673,5.372344,2.0983267,15.380111,3.9664583,11.20626,2.135456,3.3344038,5.0903673,5.389184,3.009345,3.8106694,3.124169,5.211139,4.558474,5.8747745,4.445675,3.2113862,1.5168656,5.271624,4.838018,5.469192,4.978918,5.2743335,3.9328358,3.647768,5.3848944,5.1043267,3.2337177,2.721808,6.979644,2.6055515,4.4020176,5.308482,20.301027,3.634842,4.907733,5.2355375,1.5841374,5.022386,2.7535114,-0.2727609,4.377827,4.883189,5.334408,1.4500622,5.174518,4.12634,16.74362,4.034156,3.9868517,3.381577,4.7998176,3.335629,0.0018538991,5.285159,5.4905725,3.2837694,8.193024,5.3011045,3.756832,5.3844833,5.236057,5.1425986,3.3695157,3.961169,1.8629663,3.7183387,0.15327874,3.7442675,5.551549,4.2238183,7.003374,2.5277054,6.436131,5.416685,14.776861,14.032375,5.1163473,5.184733,-0.26458406,0.43557543,1.5097423,1.9544703,2.59729,3.14869,3.2578347,5.6860523,3.4314954,5.2233987,7.6355305,4.3033743,5.1442895,4.7509065,2.3916152,8.041437,1.8510338,4.9741797,5.8761377,5.1918964,4.079518,1.4523283,3.7673914,2.6793625,7.168739,4.083438,5.488305,-0.018218782,10.74529,5.106732,0.99224263,4.0918126,1.0445936,4.8067713,4.138572,10.835531,2.6095698,5.6403513,6.119467,2.957375,8.785481,4.0410028,5.4457417,5.370121,5.403265,0.0035784135,3.215319,5.094328,6.201573,5.320222,5.252522,29.982063,5.1821747,5.366647,5.0266857,2.2095633,2.391363,5.437313,5.648619,0.19909629,5.2570553,3.8687246,2.7456224,2.8067865,-0.037286527,2.0418656,1.3541119,14.841868,0.12199748,-0.05057502,4.123619,5.275306,9.051474,3.4863706,3.699403,3.9129677,0.0552552,4.510322,10.152252,5.4953995,6.809108,3.918544,7.023236,5.3037543,1.3551039,1.9565713,5.9019456,5.334333,4.056165,4.171358,2.3584397,4.2718654,1.8458016,5.105424,8.280045,8.97966,2.9477172,5.3438606,12.054393,4.230668,2.7402813,5.249302,4.6910787,4.0822525,3.7120602,5.239256,3.3440974,5.1669316,3.2263896,3.8746986,6.598404,4.5190725,13.431535,1.9608073,5.3537726,4.167916,3.6211755,2.3869276,5.490185,4.1448936,3.159584
NC(=O)c1cccc(-c2ccc3nccc(Nc4cccc5[nH]ncc45)c3c2)c1,4.7793913,0.004071507,-0.16347788,4.7285843,4.0968804,2.0693364,2.4835494,3.1552572,3.0621667,-0.1842202,5.450509,6.6787634,3.5913007,-0.10558864,5.934647,0.6185102,6.410463,6.2511067,3.4091973,5.143469,5.5762835,4.421333,5.391498,2.4593182,4.0154076,3.5190654,5.2762027,2.685548,4.2755566,5.234338,8.100635,3.6974359,5.156939,5.671195,4.57412,4.4106107,1.3564206,4.1909103,8.003765,5.5441027,2.8806803,2.264296,4.3333526,2.5405676,4.5222206,-0.12927526,2.9420288,2.7446597,3.886277,3.4647381,6.046181,3.5435057,4.4043207,2.0620697,4.348901,3.5437884,4.377001,4.9043603,1.297713,2.6044776,2.7909482,5.4627037,5.2548776,-0.08817212,3.8987184,4.240522,-0.10197567,3.261989,7.414645,4.6869397,6.06327,1.6243958,1.7366487,4.0532365,6.458992,4.2717304,4.429659,4.6119266,3.6393065,3.4581146,2.3799992,4.155051,4.5375586,5.5796247,5.6036205,4.2369566,5.2758536,4.2763543,4.7983966,3.769068,5.448072,3.34487,4.2570915,4.102859,4.5380588,4.3287134,2.7560365,2.013782,5.971457,3.8443825,7.166888,-0.00027246427,-0.17552209,2.8647237,2.566716,4.301287,5.9266744,7.231201,2.502883,3.1678617,2.032528,3.481858,1.1495631,3.1522698,5.14096,3.7377748,4.952666,2.164841,5.476733,-0.09632755,4.8358626,5.404123,7.690516,4.9801693,4.5072165,5.515624,6.2320466,2.456178,4.972483,4.195412,5.5957904,3.2935772,4.841742,4.1885867,4.10324,4.275164,4.1077724,2.97618,4.8479834,5.1918707,4.7846465,2.3829648,4.788179,4.014732,4.7952733,5.6413097,5.3924975,4.917983,3.367832,1.3990823,2.9272182,0.9879945,3.901189,5.0926843,-0.08879761,2.300262,-0.09664904,1.0511055,3.0889518,2.1338222,2.227187,3.7451334,4.3773136,0.0018720136,4.8820148,2.2136846,7.521089,5.575321,2.7588813,5.496448,6.166269,2.3181372,4.5678916,2.640039,4.1623507,4.4747357,2.7109334,3.4520602,4.3358307,2.246535,2.204228,8.540202,2.2777624,2.6495786,5.308834,3.9424264,2.755243,2.950674,4.870027,1.5596681,5.0265718,3.3919256,-0.1815399,3.6313648,5.92222,0.0011808258,6.107038,2.2139387,5.8530602,5.135235,4.770109,2.4359744,1.9313505,6.198413,4.596982,2.7184377,6.2585974,2.48967,2.4743035,5.253427,5.97737,3.6300201,4.5431576,4.6996403,2.6321738,4.4737964,4.40062,4.9814024,5.417077,3.4201221,4.075234,3.1517367,8.242977,3.7184994,3.559971,4.5332804,4.0784807,3.123777,3.9405909,2.309355,5.917956,-0.09620097,-0.09026826,2.3977027,5.182182,4.603266,1.3835038,2.0310493,1.9423748,3.78327,3.7506158,2.067845,3.1521127,5.484661,1.0004815,4.6980805,2.4520926,4.3801904,1.6393244,4.62344,2.8893661,3.3437939,3.8743856,5.3895483,3.921403,1.9309044,4.889621,4.7682066,5.994153,4.7640467,1.406244,6.8705826,3.5363448,1.5885063,5.289217,2.342855,-0.08650989,6.6209927,6.110351,4.853552,3.7448056,3.4127157,3.0027678,3.9310431,1.9026989,2.9793975,5.6322627,4.139142,4.695603,4.262654,2.9060996,3.2901587,6.004361,4.504336,3.7433083,6.1186376,3.9601557,1.4066799,2.8321369,4.4272585,5.706666,2.1370091,4.3551774,5.043552,5.0650377,6.065024,3.1582832,5.9302936,1.782113,1.2491633,5.8030243,1.4809875,7.4006495,5.1058164,4.5246787,2.804693,2.6169162,5.668089,1.7312136,5.8947563,2.4551384,5.385801,5.0950556,3.6592712,-0.08566289,4.1859117,0.60323083,2.4364517,4.262604,4.150162,8.091476,4.2460265,4.3696003,2.4365096,5.2021613,2.7414808,6.036608,4.9896865,3.1999586,1.8156174,5.464121,2.645072,5.807929,4.9787507,6.3208995,4.1900945,4.082954,5.546357,6.113644,2.514039,2.9486501,4.2839737,2.924474,4.823703,-0.21760839,-0.08103948,3.4846082,4.595522,5.025549,2.0072322,5.658908,2.0984464,4.205262,3.7660434,5.1505756,5.968397,3.3642325,5.6278386,5.1918,3.5336685,4.808136,3.6766284,3.339476,5.354938,3.1419613,0.0018538991,5.666164,3.7879355,2.3945708,3.6232185,5.349645,3.185868,5.096594,5.732879,4.6546264,4.774812,2.8883886,3.1787298,5.077682,6.1012235,3.889799,-0.18632603,5.130907,3.4251904,2.2642868,-0.1043963,6.573994,4.669656,1.7820944,5.10097,5.3391614,5.682394,6.5339847,1.1028445,2.4516313,2.7590885,4.9318304,2.2936947,4.5622168,3.7622914,5.046137,3.251546,4.748851,5.050541,4.4489636,2.2563448,5.020643,3.4680967,2.5006523,2.5794356,5.110298,4.260769,1.8226233,3.6113403,3.6784024,4.3757043,4.1815453,2.4476962,2.7115273,4.9650383,5.3457108,4.072827,3.4109519,1.6666938,4.438756,4.0015764,3.2254457,3.2789838,2.2017493,1.774757,3.1311748,1.0429833,3.831665,3.0637596,4.906556,3.028721,0.0035784135,1.5742164,4.9147143,1.99808,4.8441844,5.701289,-0.03858508,4.81134,6.365259,5.346406,2.6545475,2.453485,5.4876494,1.7377188,0.41719905,5.20414,4.209817,2.0883372,2.8167033,19.844318,2.095109,4.565009,0.56269985,5.182334,-0.05057502,7.98486,6.1835337,4.570482,3.8124804,3.921376,2.816832,5.931478,4.6919246,3.112535,4.622807,4.94883,3.5068066,2.8283556,6.444563,1.6390797,2.7104735,4.1279774,6.868811,4.2556796,4.3461165,2.149967,4.0637884,4.6349583,4.82183,4.809942,2.4129033,4.0517893,6.721226,2.638338,4.4917793,3.0025456,2.8782449,6.7259493,3.271092,3.5865302,4.3393583,3.5047698,5.27257,3.6605785,5.89565,4.207536,2.409323,-0.13241862,1.7497299,4.757922,4.033917,3.65344,1.2039759,5.2808805,4.672321,3.5074236
COc1cc(-c2ccc3ncnc(Nc4cccc(N)c4)c3c2)ccc1O,3.0576603,0.004071507,9.195299,2.9269023,3.3237824,4.892891,5.3004136,3.5900326,4.112044,-0.1842202,5.1615896,-0.20643677,3.787724,-0.10558864,5.0195065,4.688163,5.047106,5.3321724,3.8274107,0.6226793,0.32662654,3.1433694,4.7198396,4.236507,3.9983125,3.9276395,5.073603,1.970234,2.9208407,5.1486773,2.7917001,3.569664,5.3550625,4.9318366,4.117942,2.9142296,1.5007403,2.1898215,6.854078,4.9120603,2.0273886,5.4890327,4.331774,1.8100873,3.7986927,-0.12927526,3.306079,2.7499251,3.7188692,2.5476174,5.495583,3.802345,2.2582169,1.95421,3.035414,3.7422092,2.8852875,5.2068596,2.5446432,3.940448,5.450959,5.1230965,5.1784463,-0.08817212,3.9135163,3.2247815,-0.10197567,3.432972,5.374883,5.219338,-0.1465116,2.666151,1.835546,3.8140106,-0.17703184,4.1897874,3.1262453,3.059775,3.6634405,3.3103395,2.3463848,2.9297764,4.1316566,5.1661935,5.031559,4.3189635,4.474232,5.2110705,5.0895634,3.9505503,5.0250225,4.846465,2.990908,2.7770724,4.9814625,5.3333974,3.2881927,1.2748945,4.9991016,4.288213,5.1853027,-0.00027246427,5.978934,3.2263215,2.4914176,1.5656163,4.252979,5.146138,1.4740589,3.8366601,1.8876882,4.12441,-0.101970546,2.005467,5.1726727,2.7980213,5.4371123,2.848462,5.369996,-0.09632755,6.850775,4.714037,4.493703,4.942408,4.3711123,0.92910564,5.168851,1.4562495,5.4981413,3.2421465,4.8065987,2.2429507,4.491977,3.9786053,5.2432857,3.2320275,4.1058936,2.3458962,5.3110924,5.2195835,5.2245793,1.6307952,5.0367913,3.933869,2.978914,5.0813413,4.9849777,4.3471622,1.6970178,1.0997436,2.3454163,2.4029381,3.3150961,5.22134,-0.08879761,5.412,-0.09664904,4.7450852,1.815719,1.4594445,2.4931467,4.0679636,2.989975,0.0018720136,5.0277896,2.2539284,-0.12337479,1.1048557,3.042163,5.0002494,5.2550054,2.4108093,5.2788224,2.611283,3.1089013,4.4262547,1.7970676,3.24962,3.0847807,2.2706738,2.5284722,-0.12773347,2.1484942,2.2006335,5.21042,3.02615,3.8862023,3.2612765,5.148979,4.6814027,5.1870937,3.1589549,5.9156528,4.180742,5.0530276,0.0011808258,3.834016,4.222009,4.8385715,4.8817344,2.958343,4.0801234,1.209223,5.914721,4.2333975,3.3247116,5.0437245,1.914463,2.156436,5.031781,5.270934,2.0221038,2.6602232,4.9088907,2.2371652,5.0311766,3.90979,5.1190195,5.003998,3.711946,2.856086,3.326908,4.665431,2.0886168,3.1156218,5.4912643,3.2175195,-0.22488227,5.6727405,4.0425415,5.6141496,-0.09620097,-0.09026826,1.2823125,4.9069176,2.859135,2.3306026,5.538501,1.7633222,2.9877992,3.7322452,2.0220842,2.8842607,5.0167747,0.8622209,4.4064374,3.9410625,3.261586,4.4231915,3.8110693,4.670906,3.649537,2.6605644,4.900423,4.0424957,2.9168758,4.714029,3.3653867,3.9310308,5.429234,-0.17300057,5.4360094,3.3884318,1.6638085,5.3417783,4.4814343,-0.08650989,4.7579393,4.976107,3.0862308,2.3423429,2.6737792,3.9166064,4.021602,2.7868745,2.4399579,5.021085,2.9656172,5.1921926,3.6287782,2.959647,3.5882452,5.889849,5.566345,3.745861,2.8860407,3.951644,4.374845,2.9298186,4.794179,4.885737,2.0599387,4.508055,3.0088997,3.277033,5.0416203,4.3055596,5.09418,4.919652,3.089839,4.99584,2.1397078,-0.15435554,4.9379373,3.1825275,1.646512,3.0852404,5.423984,2.7614913,5.109079,2.807906,5.0563726,5.372344,2.0983267,-0.08566289,2.7927165,0.769669,2.135456,2.9321165,5.18029,3.719166,2.9513214,2.881272,2.114555,5.2291365,4.558474,-0.19873273,4.156597,2.2761214,1.5088989,4.9916935,4.838018,5.2241716,4.9634256,4.9989605,3.0836189,2.800512,5.084294,4.9672065,3.2337177,2.0634906,1.46001,2.5750246,3.0063064,0.6984429,-0.08103948,3.7967865,4.911048,5.2355375,2.6027508,5.022386,2.0690796,5.0548882,4.379079,4.581769,5.025207,3.0651104,4.9185643,2.5579338,3.599414,3.145759,3.9845018,3.0425014,4.6990066,3.335629,0.0018538991,4.970426,5.4905725,3.2837694,2.1546443,5.3011045,3.756832,5.3844833,4.892611,5.1425986,4.0562196,3.961169,1.9704417,2.7507238,6.362,2.9458604,5.7289915,4.2460356,1.7773879,2.5277054,-0.1043963,4.9903464,-0.11456999,-0.15887256,4.9516783,5.008086,5.791291,6.6039047,2.1389232,1.9569999,2.77857,3.0158136,1.6255373,4.008683,2.7623162,5.223834,1.4856704,3.2685623,4.861902,4.7389364,1.9192072,2.747513,2.2665875,4.9741797,2.4934897,5.2096004,3.0363443,1.742407,3.7673914,1.8068305,3.6804333,3.0041437,2.3358083,5.3720117,4.0128922,5.014489,4.2691646,2.0589764,1.2499336,4.8000317,4.138572,1.1749833,2.0775254,5.6403513,1.3956013,1.9537481,4.043629,4.0348754,5.4457417,5.377026,5.403265,0.0035784135,1.6251475,4.9094834,2.0370846,5.3152533,4.930739,-0.03858508,5.1808167,4.9048243,5.038087,2.0609627,2.391363,5.184528,5.648619,5.6135798,5.1907067,2.835488,1.642342,2.8015196,-0.037286527,2.081821,6.4256854,0.08367798,4.8711324,-0.05057502,1.7504966,5.072192,4.0412,3.928098,3.6985848,1.4390316,5.784101,4.4936385,2.5935183,5.501038,-0.20203632,2.831484,0.8578927,4.998418,2.243839,2.6835027,2.488134,5.0654874,3.8088074,4.1651506,2.224117,4.2597322,4.2570634,5.1141114,5.4702797,2.3816316,3.8759298,4.968922,4.5660706,3.063822,3.1335716,5.249302,3.5395722,3.4587436,3.7120602,5.239256,3.6557748,4.918605,3.7021658,2.6511104,3.993517,4.5190725,-0.13241862,1.9504029,5.3793826,4.167916,3.2998838,1.5631273,5.490185,2.8562064,3.2196746
