,0,1,2,3,4,5,6,7,8,9,10,11,12,13,14,15,16,17,18,19,20,21,22,23,24,25,26,27,28,29,30,31,32,33,34,35,36,37,38,39,40,41,42,43,44,45,46,47,48,49,50,51,52,53,54,55,56,57,58,59,60,61,62,63,64,65,66,67,68,69,70,71,72,73,74,75,76,77,78,79,80,81,82,83,84,85,86,87,88,89,90,91,92,93,94,95,96,97,98,99,100,101,102,103,104,105,106,107,108,109,110,111,112,113,114,115,116,117,118,119,120,121,122,123,124,125,126,127,128,129,130,131,132,133,134,135,136,137,138,139,140,141,142,143,144,145,146,147,148,149,150,151,152,153,154,155,156,157,158,159,160,161,162,163,164,165,166,167,168,169,170,171,172,173,174,175,176,177,178,179,180,181,182,183,184,185,186,187,188,189,190,191,192,193,194,195,196,197,198,199,200,201,202,203,204,205,206,207,208,209,210,211,212,213,214,215,216,217,218,219,220,221,222,223,224,225,226,227,228,229,230,231,232,233,234,235,236,237,238,239,240,241,242,243,244,245,246,247,248,249,250,251,252,253,254,255,256,257,258,259,260,261,262,263,264,265,266,267,268,269,270,271,272,273,274,275,276,277,278,279,280,281,282,283,284,285,286,287,288,289,290,291,292,293,294,295,296,297,298,299,300,301,302,303,304,305,306,307,308,309,310,311,312,313,314,315,316,317,318,319,320,321,322,323,324,325,326,327,328,329,330,331,332,333,334,335,336,337,338,339,340,341,342,343,344,345,346,347,348,349,350,351,352,353,354,355,356,357,358,359,360,361,362,363,364,365,366,367,368,369,370,371,372,373,374,375,376,377,378,379,380,381,382,383,384,385,386,387,388,389,390,391,392,393,394,395,396,397,398,399,400,401,402,403,404,405,406,407,408,409,410,411,412,413,414,415,416,417,418,419,420,421,422,423,424,425,426,427,428,429,430,431,432,433,434,435,436,437,438,439,440,441,442,443,444,445,446,447,448,449,450,451,452,453,454,455,456,457,458,459,460,461,462,463,464,465,466,467,468,469,470,471,472,473,474,475,476,477,478,479,480,481,482,483,484,485,486,487,488,489,490,491,492,493,494,495,496,497,498,499,500,501,502,503,504,505,506,507,508,509,510,511
COc1cc(-c2ccc3ncnc(Nc4ccc5nc[nH]c5c4)c3c2)ccc1O,4.059096,3.529202,3.0202262,3.565719,2.5248795,2.5280993,1.7843916,3.5699558,2.6951168,3.2681744,3.2277622,3.7529075,3.6811957,1.8274224,4.6677246,2.721178,2.5503533,3.8482575,4.3914137,2.6483498,3.5234792,3.3989618,2.2845824,1.4608557,2.5595691,4.2955737,3.94146,2.269548,3.1355336,1.9922078,1.8893791,1.5199702,4.106407,2.4930406,3.5490732,3.4180973,5.573499,3.931256,2.8731873,4.8361764,2.322606,2.0479434,3.8009324,2.39104,3.1531398,2.0746956,3.1856322,3.027365,1.6509411,2.2439556,1.6516736,3.4495637,3.6193967,2.0668004,1.6472838,4.102951,1.9284767,4.163237,4.5374823,2.9718146,2.9610074,4.4034643,4.28466,2.4509342,4.0780296,3.8974802,1.4592274,3.8929596,2.928696,3.756378,2.6071706,1.9499325,1.9503553,2.5215354,2.1189423,4.329556,2.8004014,2.7436397,2.0311716,2.134803,2.3386471,4.335658,3.1020052,4.3491673,2.2793157,4.287866,2.485067,2.6773334,2.4823158,3.7943537,3.324818,5.261464,2.9256036,2.7949204,2.4268188,3.9301891,3.535749,2.0197937,4.633278,2.07732,2.0944004,3.2246966,1.7486955,2.568267,2.777828,2.5962577,4.1685166,2.8397639,1.3814828,2.4740484,1.9810486,4.60189,1.9181516,3.7995083,2.6443608,3.6080139,5.2932305,2.8156154,4.591483,2.111365,2.5148385,2.7955337,2.785977,2.6866481,3.0402486,2.7742462,2.7928889,2.818736,3.035911,2.7758982,4.5663104,2.4373708,2.7773054,2.5988696,2.8344045,5.34412,2.9742799,3.833041,4.627219,2.8500805,3.6240964,3.3162646,4.56802,3.2155383,3.2421534,2.0986967,3.0034406,2.1612513,2.8367233,1.7912813,2.6417615,2.5300558,2.9447234,3.2265007,2.2247908,1.8288959,2.6476145,1.9621778,3.1402185,2.1879506,2.4145427,2.3306758,2.6830473,4.599971,2.3092234,2.882064,4.4042745,1.5496587,3.188793,3.3728082,1.0601356,1.9420072,4.291405,2.4312365,3.979959,4.347305,2.6389222,3.951822,3.3916426,2.0887387,2.5063314,1.5803735,3.2292066,2.975794,4.6346393,2.945466,3.4722562,4.593006,3.8779328,3.6126802,3.7192929,3.067834,2.5033786,5.6084824,2.3195896,2.4941876,2.8314774,2.27675,1.6823138,3.9047308,1.4499873,4.092041,2.5023346,2.3493967,3.320062,4.968454,4.0465927,2.4539084,3.4489179,3.3682468,3.2799683,3.6653514,3.8003051,2.6707215,3.0137773,1.7937632,4.820495,4.3861575,3.2546315,2.425863,2.189947,2.804414,2.6926296,2.7420902,2.7629504,2.881969,3.3131738,2.5062206,4.628446,2.209402,3.3114626,2.164277,5.6693482,3.186671,4.4318423,3.3378775,2.488894,3.1081898,3.3619072,3.067233,5.1631107,2.6407511,2.266331,4.1056504,1.9751267,3.1562748,3.0105832,3.5359638,2.8618176,2.806313,3.8651109,3.2398264,5.009209,4.1944146,4.5467067,2.0311356,3.5737317,2.354847,2.021206,3.091412,2.3142676,4.0909953,1.7610409,2.3653665,3.691635,2.9500718,3.3083236,2.942592,2.93582,3.502014,2.1244671,2.1551685,3.9751594,2.536937,2.4452076,3.4716833,3.4407732,2.4748335,2.7021084,3.5989275,2.542665,2.6561975,4.5565696,4.3162503,3.7045863,2.4583702,3.768059,2.3983788,2.9676447,3.446826,3.1877499,3.0746968,3.137302,1.774725,2.6474676,3.3975923,4.181731,4.2884808,4.1565185,3.1883311,1.9153136,2.5074472,1.9382272,2.059884,3.0272124,3.3632915,4.0424438,2.5414655,3.3259754,4.4192305,3.6537294,4.6819587,4.9187064,3.0187633,2.843195,2.7856154,2.2664971,3.7173176,2.4148216,2.3551595,2.753004,3.2981195,3.5185637,3.6000116,3.656943,4.103509,2.8769531,1.9187227,2.153624,1.496952,4.7399063,3.4089117,4.384715,3.528855,2.8124158,2.0943835,2.3382065,3.8508353,1.4789299,4.5106177,2.841136,5.13998,5.318043,3.0913372,4.2583127,3.063997,4.1988387,3.8190625,2.608423,3.8067436,2.9479,2.6442802,2.985322,3.6205246,2.7437432,3.2155905,3.2009692,1.945327,2.8581445,2.5904706,3.6321921,3.5294175,2.9251244,3.6396394,2.4620318,3.292697,3.744683,6.0930233,3.9078202,2.0549052,4.9127607,4.2965198,3.8866742,1.3630278,2.139415,2.910216,3.0929496,2.5153089,3.6929276,3.9213104,2.700211,2.4445508,3.9134521,3.4181538,1.7644786,1.5387715,4.4650407,2.6685917,1.7507861,5.295467,3.487237,3.302676,2.6186483,2.120618,2.550542,2.7458112,4.1003532,2.9523094,2.9718707,3.5141172,4.364621,4.4170794,3.7776082,3.7500086,2.1290412,1.7689904,2.6149943,2.1796649,3.398072,1.922315,5.0413327,2.0952058,2.2378109,3.9587715,2.4043338,2.1707067,4.1029396,3.4855294,2.1114085,3.2755265,3.058918,2.9577348,2.1976547,3.1736696,2.281906,3.1343532,3.1814253,2.9364202,4.356274,2.8760626,2.5082455,3.0746593,3.8086162,2.382556,3.6603782,3.627491,2.72931,2.5166092,2.5652032,2.369416,6.21804,3.320224,2.849806,2.648418,3.021283,4.8005495,2.2299294,2.1568959,4.0870795,2.5506911,2.5008469,2.026755,3.301164,2.6595476,2.784632,2.3666296,4.736705,1.7409743,1.0622543,3.698567,2.5368385,2.8816903,3.405574,3.1116557,2.0747385,2.7464433,2.0632899,3.415641,4.6033006,2.892217,5.065503,2.1077957,3.9664998,2.5610485,4.173204,2.7268376,4.5887923,4.6794276,2.7793875,3.8721776,3.9112713,3.4271426,3.9133754,3.0647342,3.579902,2.9478886,2.280224,1.8347462,2.6083574,3.315688,2.4103885,3.3376706,2.2413456,2.3950827,3.9592304,2.8633149,2.3042614,2.9096723,4.0111337,3.2020676,2.7214243,2.3599646,3.5528386,1.9944258,2.821022,4.181024,3.8782845,2.1819174,2.5420384,2.843541,2.2998953,3.7053354
COc1ccc(-c2ccc3ncnc(Nc4cccc(O)c4)c3c2)cc1,4.059096,3.0425968,3.0580814,2.3571935,2.606982,2.5280993,3.3628478,3.5699558,1.6344694,2.1327395,2.8212788,3.7529075,3.4696052,3.0425367,4.8146744,5.501068,3.698664,3.8482575,4.3914137,2.8061767,3.295996,3.3989618,2.1442213,3.937877,3.4137154,4.2955737,3.8557808,2.0109634,3.1154969,2.3685677,3.668434,2.5046153,2.9514503,2.2010767,3.5490732,3.2347739,1.5367603,3.8046794,2.6815462,4.971635,2.322606,2.2672012,3.8009324,2.4715428,2.7071068,2.23296,3.1856322,3.027365,3.7344954,2.1472373,4.9481997,3.2432692,3.6193967,1.6866342,3.4784718,4.102951,5.0121155,4.163237,4.6494107,2.9718146,2.8697648,4.4034643,4.28466,4.4452677,3.70741,3.6306655,2.956278,3.504003,2.5558248,3.756378,4.41303,1.9559772,1.9503553,2.5215354,3.470562,4.22057,2.77255,2.6470652,2.1958027,3.5084345,2.1189053,4.387029,3.0071673,4.3491673,6.434257,4.505796,2.6495519,3.3821177,2.566191,3.7943537,3.212955,4.4885216,2.9256036,2.5457544,2.4268188,3.9301891,3.535749,6.258056,4.69705,3.4926398,2.0944004,2.8472996,3.4811509,2.568267,2.926081,2.1496472,4.1685166,1.5452796,2.8863864,2.2843025,2.0700421,4.60189,2.5854418,3.7995083,2.6443608,3.1756184,5.2932305,2.0617182,4.505481,2.3554919,2.8732631,2.7471855,2.785977,2.729798,3.8758366,2.7742462,2.8519213,2.818736,4.291153,2.7130089,3.8849876,2.172337,2.7773054,3.6657605,2.8344045,4.9995656,1.3576541,3.8360775,4.627219,4.120625,3.6240964,2.7200656,4.69972,2.7366054,3.2421534,3.4882238,3.0034406,5.1464796,2.8367233,1.9165808,2.182973,2.0432715,2.8530152,3.2265007,2.2247908,1.8288959,3.597152,1.9621778,4.5683846,5.2032323,2.4145427,2.3306758,3.495977,4.599971,2.3092234,2.882064,4.5410194,4.5828824,3.188793,3.4119794,5.0687304,1.9420072,4.291405,3.001315,3.979959,4.4307513,3.5550344,3.5992305,2.780927,3.1157038,2.2922935,3.4802022,3.2292066,2.975794,4.6346393,3.1125932,3.4722562,4.998715,3.4085836,3.6126802,3.7192929,3.067834,2.5033786,4.800879,2.296523,2.9652603,2.8095622,1.5561868,3.2163846,3.9047308,3.4530509,4.092041,2.5097594,2.3493967,3.1229854,-0.29188484,4.0465927,2.4539084,3.4489179,3.4218688,3.3127332,3.4814475,3.6504474,3.7787533,3.0137773,1.0907758,3.9404585,4.3861575,2.1765845,2.425863,1.8780628,2.804414,3.256079,2.814145,2.7136621,2.7085614,3.3131738,2.5062206,4.628446,2.1692927,3.3114626,2.164277,5.4708166,3.2884092,4.5209694,3.222019,2.488894,3.0047452,2.8462455,3.067233,4.4352207,1.971421,2.0827048,4.78647,1.7770777,2.9553163,3.0105832,3.5359638,2.4155262,2.1434584,3.9963658,3.1696825,3.5547974,3.6891682,4.5467067,3.4740567,2.9757729,1.9655505,2.8983614,3.091412,2.2041461,1.8939112,3.2831078,2.3653665,3.5672083,2.295469,4.505561,3.1066878,2.7743242,3.3228772,2.8250353,2.1551685,3.9751594,2.4323378,2.8353481,2.9802039,3.1273804,2.4748335,3.4197464,3.3583183,2.344189,2.6561975,4.5565696,4.3162503,3.1939,2.3803082,3.768059,1.833454,2.9676447,3.446826,3.1877499,3.0746968,3.137302,3.111138,2.6474676,3.3975923,3.595486,4.2884808,3.9001794,2.9466522,3.7295823,2.414285,1.6216955,2.12155,1.9242995,2.9413047,4.0424438,2.5414655,3.3259754,4.365588,3.2633219,4.7864685,4.9187064,2.933108,4.2221007,2.7688584,2.2082157,3.5328918,2.3490214,2.3841794,2.753004,3.2535782,0.34514254,3.6000116,3.656943,2.7524436,2.6894648,2.0139525,1.7918223,3.6349227,4.9304957,3.4089117,4.491435,3.2583039,2.8124158,2.0943835,2.3382065,3.4255018,3.8768866,4.5106177,2.7971613,4.382835,5.3574524,3.0913372,4.2583127,3.0029113,3.9734147,3.7207694,2.267171,3.801874,2.9479,2.6442802,2.874643,3.6205246,2.5038393,2.6233847,3.2009692,3.8241262,2.8581445,2.5904706,3.3500242,3.4796832,2.9251244,3.6471453,2.2295222,3.165471,3.5413883,4.600415,3.455823,2.0549052,4.9127607,4.2965198,3.8866742,3.3880384,2.139415,2.910216,3.0929496,3.7221565,3.6929276,4.127705,2.6718168,2.4445508,3.7587779,4.2249727,1.7644786,3.5524063,4.4650407,2.0517836,1.8072627,4.643295,3.487237,3.2437758,2.3867629,2.119894,2.6390162,2.7458112,4.162872,2.9523094,2.9718707,3.5141172,4.364621,4.6433024,3.837278,3.7500086,1.784886,3.0074825,2.151034,2.1650896,3.300248,1.8311214,5.0413327,3.963836,2.2378109,3.6115873,2.452481,2.033153,5.099585,4.1006207,2.1114085,2.7012277,3.058918,4.3731003,2.0955796,2.9323418,2.281906,3.1343532,3.7986503,3.3177822,4.356274,2.2607362,2.5082455,3.0746593,3.361494,2.382556,5.4535456,3.4127226,2.4486017,2.4915652,2.5652032,2.369416,4.8786883,5.8817644,2.849806,2.648418,2.7008765,4.8005495,2.2299294,1.8228861,4.168155,2.6421258,2.9553082,2.374319,3.1193194,1.9847579,2.784632,2.2933154,-0.31149688,3.8874652,3.7449079,3.9870942,2.5368385,2.8816903,3.603015,3.1116557,3.5297885,2.7464433,2.4344654,3.1484478,4.6033006,2.892217,5.065503,4.699513,3.6684706,2.5610485,3.1965454,2.7268376,4.5887923,4.474521,3.4666693,3.8721776,3.5270073,3.4271426,3.9133754,3.0647342,3.5420446,2.982439,1.9724056,4.4709215,2.8579366,3.315688,2.2515202,3.3376706,3.4409456,2.3950827,3.758898,2.7269542,3.476252,3.690578,3.6700013,2.802349,2.7214243,3.1749792,3.5528386,2.6560714,2.587105,4.181024,3.535454,2.2624865,2.5326502,2.843541,3.55022,3.7053354
CS(=O)(=O)Nc1ccc(-c2ccc3ncnc(Nc4cccc5[nH]ncc45)c3c2)cc1,4.083128,2.264608,2.9532633,3.3323693,2.5754313,2.9093037,3.1347234,3.5699558,2.3287342,2.4470701,2.8212788,3.7364805,3.5310678,2.0239458,4.982946,2.1148899,2.754117,3.861438,4.403743,2.8061767,3.295996,3.3991082,2.1442213,2.9954004,2.137744,4.315836,3.8557808,1.9958587,3.3131037,2.5518525,2.0120258,2.2024736,2.0637698,2.2431538,3.5490732,3.2347739,3.8487353,3.8046794,2.151183,4.823295,2.5781775,2.9025292,3.7761965,2.7267606,2.7196312,2.3731143,3.3704515,3.027365,3.3506925,2.1472373,4.9467883,3.2513485,3.6193967,1.9984761,2.0063906,4.09913,1.4463477,4.1680603,4.420606,2.972142,2.2790902,4.42075,4.28466,1.8480194,3.70741,3.6486824,3.0048354,3.504003,2.7766037,3.7485228,3.530788,2.1675444,1.9503553,2.9731505,3.7138,4.22057,2.8520381,2.6737552,2.407077,2.134803,2.1189053,4.246064,3.0287116,4.3544726,1.3259,4.4460263,2.4797525,1.3649771,2.8417892,3.7943537,3.212955,4.4885216,3.6527789,2.6846757,2.4317243,3.9181864,3.5393708,5.6009173,4.5550585,1.4280845,2.1189017,2.8472996,3.2246928,2.6302125,2.114409,2.1496472,4.1685166,3.561856,2.2366245,2.2923498,1.683959,4.599325,2.2983625,3.7995083,2.6443608,3.1756184,5.266717,1.863606,4.77851,3.1063504,3.0088036,2.7471855,2.785977,2.572006,3.4919438,2.65387,2.695324,2.8734133,3.592222,2.8282006,3.8849876,3.0082147,2.7552173,2.2201061,3.1101258,4.9995656,2.8930244,3.830237,4.6509833,3.3659158,3.6330762,2.7200656,4.635863,3.7775173,3.3627422,4.7448826,3.0623176,2.2089531,2.7888374,1.9165808,2.3199992,2.0432715,2.8530152,3.1912098,2.2247908,1.8288959,3.566213,1.9621778,1.3828046,3.9608774,2.4145427,2.3306758,3.1976001,4.599971,2.3330622,2.882064,4.1979322,1.5648061,3.200486,3.509985,5.1405787,2.379128,4.291405,2.4324234,3.979959,3.9819152,3.6641276,4.298377,3.5386431,2.447111,2.3301797,3.807443,3.2292066,3.0503988,4.6346393,2.9377623,3.4722562,3.5746646,3.482372,3.6126802,3.7192929,3.3019502,2.421122,4.800879,2.4552062,3.1793237,2.8082042,1.8443933,2.9492285,3.8902237,2.6737745,4.106082,1.2428741,2.502686,3.1278987,3.5613363,4.0465927,2.4539084,3.453037,3.3829694,3.5004737,3.4814475,3.6504474,3.1363387,3.0137773,2.7684748,3.9404585,4.3956895,2.1765845,2.6692443,1.8892528,2.804414,3.5346568,2.879291,2.7136621,2.727385,3.3212142,2.5198495,4.6205087,2.1692927,3.3114626,2.2071207,4.7354865,0.22567122,4.189527,3.222019,2.7186668,3.0047452,2.8462455,3.024801,4.4352207,1.944131,2.1029723,4.006527,1.7770777,2.9766464,3.017265,3.5359638,2.4155262,2.5922537,3.7995996,3.1696825,4.877582,3.7022238,4.5467067,3.637532,2.9757729,2.246472,2.1784484,3.647414,2.216251,3.9461405,3.6394649,2.3653665,3.7188582,3.3257174,3.4174287,2.9010198,3.1537066,3.2630289,2.1712885,2.1551685,3.9751594,2.4220347,2.243032,2.9802039,2.8885798,2.7066126,1.9289701,3.3583183,2.3725193,2.650345,4.586824,4.303107,3.1939,2.5455234,3.774909,2.0081804,2.9676447,3.4708993,3.2864785,3.1291811,3.0851743,2.2717497,2.6474676,3.4142997,3.5883698,4.2765245,3.9001794,3.1170218,3.0305998,2.414285,2.8283272,3.0608118,2.2894325,3.0032775,4.055888,2.5414655,3.3259754,4.5843306,3.2633219,4.88077,4.9187064,2.933108,2.9408429,2.7688584,2.2082157,3.5718148,2.3490214,2.2722192,2.6968725,3.2535782,3.0910137,3.5792866,3.64453,2.4922884,3.588637,2.1413212,2.1673894,1.8791746,4.6153784,3.6013396,4.673123,3.329196,2.7254877,2.854978,2.8663297,3.9833932,2.972914,4.5106177,2.7971613,4.382835,6.3218217,3.1230736,4.2518153,3.0029113,3.9867241,3.7207694,2.267171,3.8103547,2.9324257,3.113296,2.874643,3.6205246,2.923099,2.3273811,3.2865117,1.76852,2.8581445,2.5904706,3.3500242,3.4796832,2.9251244,3.467228,2.2295222,3.165471,3.580915,4.600415,3.483734,2.4066982,4.9127607,4.2990932,3.8866742,2.084622,2.796439,3.0200346,3.11424,3.4766014,3.6929276,3.8941038,2.6718168,2.4812558,3.7587779,3.549561,2.1753628,1.8355227,4.4650407,2.140889,2.2683227,4.952559,3.4725032,3.2880619,2.4185684,2.0980482,2.683624,2.74511,4.1972203,3.7641828,2.9663284,3.540188,4.355625,4.4183774,4.6403418,3.7500086,3.054483,2.937288,2.2048135,2.1650896,3.300248,1.8311214,5.0579443,3.665541,2.2378109,3.5786748,2.7241936,2.0060956,6.4702177,3.8892832,2.7260323,2.7012277,3.058918,1.2287123,2.1144738,3.2517214,2.301077,3.1343532,3.002463,2.7956893,4.3666816,2.183189,2.4561462,3.114661,3.3446832,3.0453904,4.4917784,3.4127226,2.4424078,2.4915652,2.592786,2.369416,4.8786883,1.8364879,2.8224049,2.7341719,3.4349878,4.8110857,2.2299294,1.8228861,4.303696,2.2948675,3.151434,2.3391562,3.1193194,1.9847579,2.8112147,1.2915057,4.9472895,2.4713044,2.5147216,3.638632,2.5368385,3.0056872,2.7592733,3.1116557,2.03049,2.9775848,2.4344654,3.3349245,4.6033006,3.4141357,5.0788126,1.5378062,3.6684706,2.8328538,3.1965454,2.9023128,4.6007314,4.474521,4.091876,3.8721776,3.8577166,3.4271426,3.9133754,3.1920018,3.605147,2.8209765,2.289261,3.4836416,2.8178122,3.3138664,2.9740615,3.3388212,2.3879635,2.3781195,3.758898,2.7269542,3.7820039,1.8289341,3.6700013,3.3249702,2.7214243,3.4861283,3.5528386,2.4958236,2.6267636,4.172064,3.535454,1.7741234,2.2789345,2.850856,2.5563915,3.6969445
Clc1ccc(-c2ccc3ncnc(Nc4cccc5[nH]ncc45)c3c2)cc1,4.083128,2.264608,2.9532633,3.3323693,2.5754313,2.9093037,3.1347234,3.5699558,1.6832836,2.4470701,2.8212788,3.7364805,3.347895,2.0239458,4.982946,2.122322,2.754117,3.861438,4.403743,2.8061767,3.295996,3.3991082,2.1442213,3.7676606,2.137744,4.315836,3.8557808,1.9958587,2.885897,2.5518525,2.0120258,2.2024736,0.8195188,2.2431538,3.5490732,3.2347739,3.8721569,3.8046794,3.4238522,4.823295,2.5781775,2.6728487,3.7761965,2.7267606,2.7196312,3.1973584,3.3704515,3.027365,3.3506925,2.1472373,3.5734713,3.2580154,3.6193967,1.9984761,2.0063906,4.09913,4.1397104,4.1680603,4.420606,2.972142,2.2790902,4.42075,4.28466,4.3048058,3.70741,3.616012,3.0048354,3.504003,2.6828675,3.7485228,3.530788,2.3076406,1.9503553,2.6808925,3.7138,4.22057,2.8520381,2.5798485,2.407077,2.134803,2.1189053,4.246064,3.0287116,4.3544726,3.2773914,4.4460263,2.4648538,1.3649771,2.8417892,3.7943537,3.212955,4.4885216,3.6527789,2.6846757,2.4317243,3.9181864,3.5393708,5.007079,4.5550585,1.3587683,2.1189017,2.8472996,3.2246928,2.6302125,2.114409,2.1496472,4.1685166,3.561856,2.345234,2.2923498,1.683959,4.599325,2.1538486,3.7995083,2.6443608,3.1756184,5.266717,1.8570176,4.77851,3.1063504,2.7988136,2.7471855,2.785977,2.572006,3.4919438,2.65387,2.695324,2.8734133,3.592222,2.7690241,3.8849876,3.0082147,2.7552173,2.2201061,3.1101258,4.9995656,2.8930244,3.7282856,4.6509833,3.3659158,3.6330762,2.7200656,4.635863,2.5403156,3.3627422,4.7448826,3.0623176,3.832069,2.7888374,1.9165808,2.4358091,2.0432715,2.8530152,3.1912098,2.2247908,1.8288959,3.566213,1.9621778,1.3828046,3.9608774,2.4145427,2.3306758,3.1976001,4.599971,2.3330622,2.882064,4.1979322,1.6588911,3.200486,3.6812937,4.99613,2.379128,4.291405,2.4324234,3.979959,3.9819152,3.6641276,4.298377,3.5386431,2.447111,2.3301797,3.807443,3.2292066,3.0503988,4.6346393,2.9377623,3.4722562,3.7945592,3.380718,3.6126802,3.7192929,3.067834,2.421122,4.800879,2.4552062,3.1793237,2.8082042,1.5561868,2.9492285,3.8902237,2.6737745,4.106082,1.2428741,2.502686,3.117615,4.562383,4.0465927,2.4539084,3.453037,3.3829694,3.5004737,3.4814475,3.6504474,2.4673676,3.0137773,2.7684748,3.9404585,4.3956895,2.1765845,2.6692443,1.8892528,2.804414,3.5346568,2.879291,2.7136621,2.6574876,3.3212142,2.5198495,4.6205087,2.1692927,3.3114626,2.2071207,4.7354865,4.814765,4.189527,3.222019,2.7186668,3.0047452,2.8462455,3.024801,4.4352207,1.8402222,2.1029723,4.006527,1.7770777,2.9766464,3.017265,3.5359638,2.4155262,5.0242457,3.7995996,3.1696825,4.877582,3.6891682,4.5467067,2.6883001,2.9757729,2.246472,1.9894841,3.647414,2.216251,3.9461405,3.6394649,2.3653665,3.6049125,2.4586778,3.4174287,2.9010198,3.1537066,3.3630083,2.1712885,2.1551685,3.9751594,2.4220347,2.243032,2.9802039,2.8885798,2.7066126,1.9289701,3.3583183,2.3725193,2.650345,4.586824,4.303107,3.1939,2.5455234,3.774909,1.833454,2.9676447,3.4708993,3.2864785,3.1291811,3.0851743,2.2717497,2.6474676,3.4142997,3.5807743,4.2765245,3.9001794,3.1170218,3.0305998,2.414285,2.3753002,3.0608118,2.4494414,3.0032775,4.055888,2.5414655,3.3259754,4.5843306,3.2633219,4.88077,4.9187064,2.933108,2.9408429,2.7688584,2.2082157,3.4341624,2.3490214,2.2722192,2.6968725,3.2535782,3.0910137,3.5792866,3.64453,2.4922884,3.588637,2.1413212,2.1673894,3.6100962,4.6153784,3.6013396,4.673123,3.1893096,2.7254877,2.854978,2.8663297,3.9833932,2.972914,4.5106177,2.7971613,4.382835,4.594814,3.1230736,4.2518153,3.0029113,3.7605095,3.7207694,2.267171,3.5600042,2.9324257,3.113296,2.874643,3.6205246,2.923099,3.7066605,3.2865117,1.76852,2.8581445,2.5904706,3.3500242,3.5093598,2.9251244,3.467228,2.2295222,3.165471,3.5481744,4.600415,3.5695698,2.4066982,4.9127607,4.2990932,3.8866742,2.084622,2.796439,3.0200346,3.11424,3.4766014,3.6929276,3.8941038,2.6718168,2.4812558,3.7587779,3.712708,2.1753628,1.8355227,4.4650407,3.2665665,2.2683227,4.952559,3.4725032,3.0787046,2.4185684,2.0980482,2.683624,2.74511,4.1972203,3.7641828,2.9663284,3.540188,4.355625,4.4183774,4.0215907,3.7500086,3.6976712,2.937288,2.2048135,2.1650896,3.300248,1.8311214,5.0579443,3.665541,2.2757065,3.5978558,2.7052698,2.100144,5.1561856,3.8892832,2.7260323,2.7012277,3.058918,1.2287123,2.1144738,3.2517214,2.301077,3.1343532,3.002463,4.597263,4.3666816,2.183189,2.4561462,3.114661,3.3446832,3.0453904,4.4917784,3.4127226,2.4424078,2.4915652,2.592786,2.369416,4.8786883,0.79694545,2.8224049,2.7341719,3.4349878,4.8110857,2.2299294,1.8228861,4.303696,2.2948675,3.151434,2.3391562,3.1193194,1.9847579,2.8112147,1.2915057,4.9472895,2.3691506,4.1436014,3.638632,2.5368385,3.0056872,2.7592733,3.1116557,2.089871,2.9775848,2.4344654,3.0376098,4.6033006,3.4141357,5.0788126,1.5378062,3.6684706,2.8328538,3.1965454,2.9023128,4.6007314,4.474521,4.091876,3.8721776,3.0978105,3.4271426,3.9133754,3.1920018,3.605147,2.8209765,2.289261,3.4836416,2.8178122,3.3138664,2.9740615,3.3388212,2.3879635,2.3781195,3.758898,2.7269542,3.7820039,1.8289341,3.6700013,3.3249702,2.7214243,3.4861283,3.5528386,2.5471716,2.6267636,4.172064,3.535454,1.7741234,2.2789345,2.850856,2.5563915,3.6969445
NC(=O)c1cccc(-c2ccc3ncnc(Nc4cccc5[nH]ncc45)c3c2)c1,4.083128,2.264608,2.9532633,3.3323693,2.5754313,2.9093037,3.1347234,3.5699558,3.1545641,2.8328207,3.2773304,3.7364805,3.6636295,2.0239458,4.982946,4.661443,4.504627,3.861438,4.403743,2.6038625,3.295996,3.3991082,2.2757297,3.86564,3.7474048,4.315836,3.8557808,2.2666337,2.885897,2.5518525,2.0120258,2.2024736,2.8503482,2.2431538,3.5490732,4.14376,3.658008,3.9710956,3.1052563,4.823295,2.5781775,2.6728487,3.7761965,2.7267606,2.7196312,2.306,3.3704515,3.027365,3.3506925,2.4826906,2.700776,3.6014953,3.6193967,1.9984761,2.0063906,4.09913,2.5071962,4.1680603,4.420606,2.972142,3.5052593,4.42075,4.28466,3.2481682,3.70741,3.9172246,3.0048354,3.504003,4.282279,3.7485228,3.530788,2.1675444,1.9503553,2.6808925,3.7138,4.3295555,2.8520381,2.6870947,2.407077,3.9434328,2.1189053,4.246064,3.0287116,4.3544726,1.5397477,4.4460263,2.4648538,3.0408127,2.8417892,3.7943537,3.321639,4.4885216,3.6527789,2.6846757,2.4317243,3.9181864,3.5393708,4.075375,4.5550585,2.7761323,2.1189017,2.8472996,3.2246928,2.6302125,2.114409,2.1496472,4.1685166,4.4058857,2.6972804,2.2923498,1.683959,4.599325,2.1538486,3.7995083,2.6443608,3.359491,5.266717,3.0333276,4.77851,3.1063504,3.049445,3.497895,2.785977,2.572006,3.4919438,2.65387,2.695324,2.8734133,3.592222,2.82107,3.8849876,3.0082147,2.7552173,3.2341557,3.1101258,4.9995656,2.8930244,3.4701393,4.6509833,3.3659158,3.6330762,2.7200656,4.635863,3.258283,3.3627422,4.7448826,3.0623176,2.5580761,2.7888374,1.7214224,3.4460578,2.5012653,2.9501147,3.1912098,2.2247908,1.8288959,3.566213,1.9621778,4.3280888,5.585208,2.4145427,2.3306758,3.1976001,4.599971,2.3330622,2.882064,4.1979322,1.5648061,3.200486,3.2798944,4.3310723,2.379128,4.291405,2.6019354,3.979959,3.9819152,3.6641276,5.953043,3.5386431,2.7439241,2.3301797,3.807443,3.2292066,3.0503988,4.6346393,2.9377623,3.4722562,3.5746646,3.6238537,3.6126802,3.7192929,3.067834,2.421122,4.800879,2.4552062,3.1793237,2.8082042,1.8144519,2.9492285,3.8902237,2.6737745,4.106082,2.384237,2.502686,3.530531,2.9721045,4.0465927,2.4539084,3.453037,3.3829694,3.5004737,3.659682,3.8003044,4.479066,3.0137773,2.7684748,3.9404585,4.3956895,2.1765845,2.6692443,2.1498053,2.804414,3.5346568,2.879291,2.7136621,3.2983181,3.3212142,2.5198495,4.6205087,2.1692927,3.3114626,2.2071207,4.7354865,3.193019,4.189527,4.1378565,2.7186668,3.0047452,2.8462455,3.024801,4.4352207,1.813884,2.1029723,4.006527,1.7770777,2.9766464,3.017265,3.5359638,2.4155262,1.7888899,3.7995996,3.943374,4.877582,3.8893511,4.5467067,2.6883001,2.9757729,2.246472,2.6930907,3.647414,2.216251,3.9461405,3.6394649,2.3653665,3.045404,2.4586778,3.4174287,2.9010198,3.1537066,3.522729,2.1712885,2.1551685,3.9751594,2.629606,2.8109689,2.9802039,4.251906,2.7066126,3.5317533,3.3583183,2.3725193,2.650345,4.586824,4.303107,3.1939,2.5845194,3.774909,1.7872989,2.9676447,3.4708993,3.2864785,3.1291811,3.0851743,3.50943,2.6474676,3.4142997,4.12317,4.2765245,3.9001794,3.1170218,3.0305998,3.1110773,2.3753002,3.0608118,4.201333,3.0032775,4.055888,2.5414655,3.3259754,4.5843306,3.6746767,4.88077,4.9187064,3.604346,2.9408429,2.785614,2.2664976,3.5487885,2.414821,2.2722192,2.6968725,3.2981195,3.0910137,3.5792866,3.64453,3.1042058,3.588637,2.1413212,2.1673894,3.3684528,4.6153784,3.6013396,4.673123,3.511303,2.7254877,2.854978,2.8663297,3.9833932,2.972914,4.5106177,3.1683898,4.382835,2.627442,3.1230736,4.2518153,3.0029113,4.011781,3.7207694,2.267171,3.7219687,2.9324257,3.113296,3.3993025,3.6205246,2.923099,2.540169,3.2865117,1.76852,2.8581445,2.5904706,3.6845014,3.5076964,2.9251244,3.467228,2.2295222,3.8279102,3.641247,4.600415,4.0034757,2.4066982,4.9127607,4.2990932,3.8866742,4.7691126,2.796439,3.0200346,3.11424,3.4766014,3.6929276,3.8941038,2.7551594,2.4812558,4.142389,3.6339645,2.1753628,5.0321484,4.4650407,2.3806155,2.9698262,4.952559,3.4725032,3.7040794,2.4185684,2.3248773,2.683624,2.74511,4.1972203,3.7641828,2.9663284,3.540188,4.355625,4.4183774,4.0215907,3.7500086,3.054483,2.937288,2.9645693,2.3698251,3.300248,1.8311214,5.0579443,3.665541,2.2378109,3.7930508,2.7052698,2.436403,3.6862252,3.8892832,2.7260323,2.7012277,3.058918,3.6171038,2.1144738,3.2517214,2.301077,3.1343532,6.453101,2.7956893,4.3666816,2.183189,2.4561462,3.114661,3.3446832,3.0453904,4.4917784,3.4127226,2.4424078,2.4915652,2.592786,2.369416,4.8786883,3.452353,2.8224049,2.7341719,3.4349878,4.8110857,2.2299294,1.8228861,4.303696,2.2948675,3.151434,4.8318853,3.301164,1.9847579,2.8112147,2.6205537,5.3770247,2.3691506,5.5013776,3.638632,2.5368385,3.0056872,2.7592733,3.1116557,3.2184813,2.9775848,2.5126605,3.5725727,4.6033006,3.4141357,5.0788126,2.763457,4.256704,2.8328538,3.1965454,2.9023128,4.6007314,4.474521,4.091876,3.8721776,3.0904474,3.4271426,3.9133754,3.1920018,3.605147,2.8209765,2.289261,4.9216785,2.8178122,3.3138664,2.9740615,3.3388212,4.4410334,2.3781195,3.9873989,3.614732,3.7820039,3.3062088,3.6700013,3.3249702,2.7214243,3.7347684,3.5528386,2.443484,2.6267636,4.172064,3.535454,1.7741234,2.2789345,2.850856,2.5563915,3.6969445
COc1cc(-c2ccc3nccc(Nc4cccc5[nH]ncc45)c3c2)ccc1O,3.9748516,2.165153,3.1099212,3.435094,1.8853171,2.9093037,3.1347234,3.4153152,2.6951168,3.2681744,3.2277622,3.6179903,3.6811957,2.127988,4.7263036,1.72787,2.754117,3.780939,4.2574153,2.6531198,3.076428,3.4344304,2.2510474,2.9954004,2.137744,4.327937,3.7734292,2.271282,2.6484303,1.9922078,2.0120258,2.2008379,4.106407,2.2874916,3.5273705,3.391249,1.3708715,4.0255556,2.8731873,4.362142,2.3273895,2.6728487,3.9001596,2.7267606,2.7273693,2.0746956,3.3704515,2.895081,3.3506925,2.422661,2.700776,3.4338865,3.6753416,1.9984761,2.0063906,4.110319,1.9284767,4.1258783,4.4147396,2.967738,2.9610074,4.2834616,4.440276,2.4509342,3.689372,3.825722,3.0048354,3.5680535,2.928696,3.6928418,3.5164464,1.2885531,2.3038087,2.4419284,3.7138,4.401844,2.848891,2.7227411,2.140298,0.81769526,2.1075613,3.882937,3.0553536,4.218534,5.4074807,4.203155,2.7282333,2.6773334,2.8417892,3.7404633,3.314664,4.335512,3.6527789,2.8419137,2.3779924,3.7294188,3.5157213,4.075375,4.3343573,2.07732,1.8714622,2.8537545,3.2854815,2.3271515,2.4481301,2.2187746,4.191311,3.5650234,1.4763469,2.5354686,1.8977752,4.5025,2.3079174,3.7787676,2.7972522,3.6080139,5.049264,2.8156154,4.9423337,3.1063504,2.5148385,2.9083622,2.6137958,2.3069654,3.4919438,2.4548235,2.4633455,2.9837575,3.592222,2.7758982,3.8861613,2.140439,2.949705,0.93118185,3.1101258,4.9472413,3.0598376,3.833041,4.4983563,3.3659158,3.6062217,2.61833,4.609706,3.2155383,3.0510428,4.7448826,2.8851423,3.218677,2.9278245,2.0891976,2.6417615,2.8625813,2.9387903,3.1247194,2.3432734,1.9325746,3.6687214,1.8842887,3.1402185,3.0710592,2.3844624,2.434582,3.1309307,4.5419106,2.1628366,2.8883479,3.702485,1.5209682,3.0754683,2.8635242,5.0810094,2.379128,4.3357663,2.6721048,4.0628834,3.632031,3.6641276,4.298377,2.884638,2.447111,2.0453324,3.807443,3.0260556,2.6284344,4.65177,2.2686136,3.4718094,3.5746646,3.8779328,3.654764,3.6526792,2.9851043,2.3696504,4.5754128,2.3568392,2.8860564,2.9200912,2.27675,2.9862704,3.732953,1.9087392,4.044188,2.5023346,2.64814,3.2974617,-0.29188484,2.9415672,2.5029082,3.305676,3.2337396,3.2371953,3.5915048,3.7328272,2.4673676,3.0621839,2.633022,3.684765,4.559802,3.0136983,2.613253,1.9535016,2.7425077,3.5346568,2.3641248,2.5917656,2.881969,3.268202,2.4698973,4.665983,2.0795588,3.0461047,2.219742,4.7354865,3.186671,4.3569007,3.4707665,2.7337203,2.7741063,2.935077,3.1107771,4.467143,2.0686622,2.3926375,1.4502774,1.8204728,3.0771735,3.0478516,3.656172,2.4671762,3.2051876,3.858598,3.442257,4.877582,4.1944146,4.590247,2.183925,3.0170534,2.2356415,1.9113868,3.647414,2.1772015,3.9461405,3.6394649,2.5181344,3.691635,3.801456,3.4174287,3.1639185,3.1537066,3.4664888,2.1712885,2.4236968,3.9495542,2.2362368,2.8337674,3.025002,2.8885798,2.4121115,2.7021084,3.302464,2.1781533,2.694167,4.517856,4.2352467,3.3028448,2.5455234,3.8004632,1.8707516,2.9005754,3.4240682,2.8940487,3.1693907,3.2434,1.7472891,2.6223938,3.236506,4.1114807,4.077015,3.8051078,3.1170218,3.1096768,2.6433015,2.4041362,3.3843358,3.0272124,3.0581348,3.9071362,2.395974,3.3577185,4.839458,3.6537294,4.3742495,4.980978,2.95433,2.8129325,2.6897895,2.4531522,3.7173176,2.427663,2.2888896,2.2643423,3.213622,4.684224,3.4042861,3.4872253,3.2575917,3.588637,1.8727411,2.1673894,1.3316478,4.2116785,3.6013396,4.4714365,3.528855,2.961766,2.641229,2.8663297,3.9833932,3.0849342,4.538101,2.8539145,4.1048646,3.3136203,2.788892,4.11882,2.9470425,4.1988387,3.713805,2.4241636,3.7218494,2.6477568,3.113296,3.0755231,3.5892425,2.923099,3.2155905,3.2865117,1.945327,2.8623452,2.4287117,3.5946388,3.5417364,2.9291375,3.41407,1.9369342,3.2563975,3.744683,4.6587353,3.8856685,2.4348714,4.7935023,4.362481,3.8980064,2.084622,2.796439,2.8424604,2.924226,3.2634022,3.6832051,4.013088,2.6783724,2.6664186,4.139437,3.7320628,2.169231,1.2677721,4.4220347,2.6685917,2.2683227,4.952559,3.4995956,3.302676,2.6289706,2.161831,2.5550427,2.727985,4.281915,3.7641828,2.844505,3.320136,4.1857734,4.2910013,4.3162355,3.7476737,3.1624846,2.9799998,2.6149943,2.1752782,3.2720146,1.7520066,4.8860245,3.7751985,2.7062666,3.9587715,2.7052698,2.1707067,4.335448,3.8892832,2.4627154,2.8014476,3.03517,2.9577348,2.1144738,3.2517214,2.5190642,3.417251,3.002463,2.7956893,4.2348614,2.183189,2.6634202,3.160277,3.3553638,3.0453904,4.4917784,3.3615637,2.6187642,2.3329644,3.0685155,2.5194783,4.6874757,4.685615,2.6664321,2.7341719,3.3151798,4.7221737,2.0145922,1.8942744,4.3812447,2.2948675,3.151434,2.001898,3.291788,2.5435147,2.9256449,2.3666296,4.9472895,2.41634,6.2072473,3.358898,2.4548264,2.907902,2.4571524,3.0059435,1.054508,2.9775848,2.0632899,3.3445714,4.522883,3.4141357,4.9894266,2.1077957,3.9664998,2.8328538,3.2513955,2.7404697,4.456783,4.528485,4.091876,3.795275,3.9112713,3.4315965,3.857034,3.1920018,3.54374,2.7236032,2.289261,2.2476103,2.8178122,3.296779,2.4103885,3.2438452,2.3879635,2.3811915,3.9592304,2.9579678,3.7820039,2.9096723,3.5912466,3.3249702,2.6893938,1.6988268,3.5786517,1.9944258,2.686742,3.9969227,3.3746936,2.1819174,2.2789345,2.5926023,2.5563915,3.8430228
Cc1ccc(F)cc1-c1ccc2ncnc(Nc3cccc4[nH]ncc34)c2c1,4.100776,2.285395,2.9532633,3.4921741,2.5754313,2.9093037,3.1347234,3.5699558,1.9815762,3.6587524,3.1101353,3.7227476,3.4001737,2.0239458,4.982946,1.72787,2.754117,3.8401575,4.4238663,2.6473749,3.295996,3.3991039,2.3852441,5.1442175,2.137744,4.3082814,3.8557808,2.0807652,2.885897,2.5518525,2.0120258,2.2024736,1.5394797,2.2431538,3.5490732,3.1525652,3.658008,4.0948005,2.151183,4.823295,2.5781775,2.6728487,3.8070378,2.7267606,2.7196312,2.4675558,3.3704515,3.027365,3.3506925,2.3534038,2.700776,3.5186954,3.6193967,1.9984761,2.0063906,4.0961123,2.1366937,4.1693325,4.420606,2.972142,2.3076756,4.4575486,4.28466,1.923256,3.70741,3.247285,3.0048354,3.504003,2.178761,3.7248638,4.779256,2.1675444,1.9503553,2.6808925,3.7138,4.1751432,2.8520381,3.1336017,2.407077,2.134803,2.1189053,4.246064,3.0287116,4.3655334,0.06380004,4.4460263,2.4648538,1.4742745,2.8417892,3.7943537,3.2856252,4.4885216,3.6527789,2.6846757,2.4317243,3.8826597,3.539203,4.075375,4.5550585,1.2682639,2.1189017,2.8472996,3.2246928,2.6302125,2.114409,2.212257,4.1685166,3.561856,1.873156,2.2923498,1.683959,4.593113,2.1538486,3.7995083,2.6443608,3.2578082,5.290631,2.232531,4.77851,3.1063504,2.778528,2.6120996,2.785977,2.572006,3.4919438,2.65387,2.695324,2.8828292,3.592222,2.5011914,3.8849876,3.0082147,2.7158387,3.079283,3.1101258,4.9995656,2.8930244,3.4061275,4.6349783,3.3659158,3.6299863,2.7200656,4.635863,3.5694149,3.3627422,4.7448826,3.0623176,5.6249585,2.7888374,1.9883453,2.039658,2.4662187,3.0137346,3.1858976,2.2247908,1.8288959,3.566213,1.9621778,1.590584,3.9608774,2.4145427,2.3306758,3.1976001,4.599971,2.3535352,2.882064,4.1979322,1.5648061,3.172046,3.608296,3.5946639,2.379128,4.291405,2.426261,3.979959,3.9819152,3.6641276,4.298377,3.5386431,2.447111,2.3301797,3.807443,3.2292066,3.0503988,4.6346393,2.9377623,3.4722562,4.1206436,3.7509823,3.6126802,3.7192929,3.067834,2.421122,4.800879,2.4552062,3.1793237,2.8082042,1.9912331,2.9492285,3.8768678,2.6737745,4.087039,1.230658,2.502686,3.329139,4.3689885,4.0465927,2.5053394,3.4879165,3.3829694,3.5004737,4.078926,3.6618068,2.4673676,3.0137773,2.7684748,3.9404585,4.413246,2.2625694,2.6692443,1.8892528,2.804414,3.5346568,2.879291,2.7136621,2.582511,3.316382,2.5198495,4.644564,2.1692927,3.3114626,2.2346332,4.7354865,4.977383,4.189527,3.1366343,2.7186668,3.0047452,2.8462455,3.024801,4.474857,1.813884,2.1029723,4.006527,1.7770777,2.9766464,3.020585,3.5359638,2.4057362,3.4389732,3.7995996,3.1276908,4.877582,3.7325923,4.5467067,2.6883001,2.9757729,2.246472,3.629113,3.647414,2.216251,3.9461405,3.6394649,2.3653665,3.3105428,2.4586778,3.4174287,2.9010198,3.1537066,3.1341836,2.1712885,2.1551685,3.9751594,2.4220347,2.2260127,2.9802039,2.8885798,2.7066126,2.4902298,3.3583183,2.3725193,2.695851,4.5851884,4.296187,3.1939,2.5455234,3.7526498,1.480306,2.9676447,3.4864151,3.2864785,3.1291811,3.0596912,2.2717497,2.6474676,3.396849,4.0024753,4.2815523,3.9001794,3.1170218,3.0305998,2.5778422,2.3753002,3.0608118,1.735504,3.0032775,4.0606484,2.5414655,3.3259754,4.5843306,3.5407233,4.88077,4.9187064,3.0673351,2.9408429,2.5934076,2.3066702,3.5661614,2.3751392,2.2722192,2.7632961,3.0351672,3.0910137,3.6050043,3.6665947,2.8200142,3.588637,2.1413212,2.1673894,2.273431,4.6153784,3.6013396,4.673123,3.2393332,2.7254877,2.854978,2.8663297,3.9833932,2.972914,4.5106177,2.525315,4.382835,4.0475564,3.1230736,4.223255,3.0029113,3.5324097,3.7207694,2.267171,3.8405707,2.9324257,3.113296,2.7498639,3.6205246,2.923099,3.731115,3.2865117,1.76852,2.8581445,2.5904706,3.4328475,3.5321217,2.9251244,3.467228,2.2295222,3.0741954,3.4702444,4.600415,3.8507707,2.4066982,4.9127607,4.280919,3.8866742,2.28892,2.796439,3.0200346,3.105675,3.4766014,3.6929276,3.8941038,2.5241115,2.4812558,3.765088,3.7028787,2.1753628,3.435749,4.4650407,2.775762,2.2683227,4.952559,3.442726,3.656909,2.4185684,2.0980482,2.683624,2.7358246,4.1972203,3.7641828,2.9508874,3.527693,4.3479323,4.4183774,4.0215907,3.7500086,3.054483,2.937288,2.6323416,2.2547646,3.300248,1.8311214,5.0626,3.665541,2.7204924,3.4324377,3.302218,1.5088032,3.8815231,3.8892832,2.7260323,2.7012277,3.058918,1.5332102,2.1144738,3.2517214,2.301077,3.1343532,3.2269125,2.7956893,4.3613253,2.9593956,2.4473295,3.1180425,3.7505555,3.0453904,4.4917784,3.4127226,2.4424078,2.4915652,2.592786,2.369416,4.8786883,2.4967108,2.8224049,2.7341719,3.4349878,4.827624,2.2299294,1.7766541,4.303696,2.2948675,3.151434,2.9196978,2.9958153,1.975099,2.8079536,1.4389008,4.9472895,2.3691506,3.7164428,3.638632,2.5368385,3.0056872,2.7592733,3.1116557,2.03049,2.9775848,2.2047586,3.6968758,4.6033006,3.4141357,5.067127,2.7494044,3.3689523,2.8328538,3.1901655,2.9023128,4.567901,4.474521,4.091876,3.8721776,3.6502495,3.4271426,3.9133754,3.1920018,3.605147,2.8209765,2.289261,3.4836416,2.8178122,3.2852032,2.9740615,3.3180819,2.3879635,2.3786027,3.8322155,2.9158201,3.7820039,1.8870299,3.6700013,3.3249702,2.7214243,3.4861283,3.5528386,1.9713653,2.6267636,4.1495757,3.535454,1.7741234,2.2789345,2.8252463,2.5563915,3.6740217
COc1cccc(-c2ccc3nccc(Nc4cccc5[nH]ncc45)c3c2)c1F,4.003205,2.1832635,3.1099212,3.435094,1.8853171,2.9093037,3.1347234,3.4153152,1.9083885,2.4470701,2.9342363,3.606952,3.6505897,3.4399838,4.7263036,4.5960274,2.754117,3.7619898,4.282158,2.728182,3.076428,3.4376953,2.3301623,2.9954004,3.2209084,4.3303022,3.7734292,2.2403185,2.6484303,3.2170613,3.4199455,2.2008379,1.694892,2.2874916,3.5273705,3.121042,1.3708715,4.292494,2.1771102,4.362142,2.3273895,2.6728487,3.9214597,2.7267606,2.7273693,1.5129333,3.3704515,2.895081,3.3506925,2.6696384,3.1604273,3.7152267,3.6753416,1.9984761,3.930426,4.109293,4.5112853,4.1392465,4.4147396,2.967738,1.3868566,4.315603,4.440276,5.771159,3.689372,3.381715,3.0048354,3.5680535,2.3347332,3.6732974,3.5164464,2.5893633,2.3038087,2.4419284,3.7138,4.2738714,3.4796462,2.7666972,2.140298,2.6130836,2.103165,3.882937,3.0553536,4.2279644,6.405256,4.203155,2.7282333,1.7538537,2.8417892,3.7404633,3.1684468,4.335512,3.6527789,2.8419137,2.3779924,3.6870408,3.517626,4.075375,4.3343573,2.8491752,1.8714622,2.8537545,3.2854815,2.3271515,2.4928265,2.274038,4.191311,4.9484434,2.914752,2.5354686,1.8977752,4.500396,2.3079174,3.7787676,2.7972522,2.8373816,5.081997,4.5083027,4.9423337,3.5464034,2.8595762,2.6749723,2.6137958,2.3069654,3.4919438,2.4548235,2.4633455,2.9950817,3.592222,3.1089275,3.8861613,2.2602751,2.9078953,2.2289188,3.1101258,4.9472413,3.0598376,3.7931104,4.4768157,3.3659158,3.5926347,2.61833,4.609706,3.5440786,3.0510428,4.7448826,2.8851423,6.51466,2.9278245,2.0891976,3.1057675,2.8625813,3.098938,3.109167,2.3432734,1.9858205,3.6687214,1.9303932,2.4853282,3.0710592,2.3844624,2.434582,3.1309307,4.5419106,2.2367587,2.8883479,3.702485,3.69692,3.0411603,2.8635242,5.0810094,2.379128,4.3357663,2.666206,4.0628834,3.632031,3.6641276,4.298377,2.884638,2.5653768,2.0453324,3.807443,3.0260556,2.6284344,4.65177,2.2686136,3.4718094,3.5746646,3.928601,3.654764,3.6526792,3.0436485,2.3696504,4.5754128,2.3568392,2.8860564,2.9200912,1.9949329,2.9862704,3.720733,1.9087392,4.0245485,1.571666,2.64814,3.1661499,-0.249247,2.9415672,3.1277878,3.335137,3.2337396,3.2371953,3.914724,3.6628408,2.4673676,3.0621839,2.633022,3.684765,4.5764384,3.0136983,2.613253,1.9535016,2.7425077,3.5346568,2.3641248,2.5917656,2.4101114,3.270771,2.4698973,4.6794176,2.0795588,3.0461047,2.219742,4.7354865,4.954339,4.3569007,3.3005505,2.7337203,2.7741063,2.935077,3.1107771,4.500994,1.3524778,2.3926375,3.9035544,1.8204728,3.0771735,3.045114,3.656172,2.4671762,3.2051876,3.858598,3.325923,4.877582,3.7501998,4.590247,2.3683865,3.0170534,2.2356415,1.9113868,3.647414,2.1772015,4.0783734,5.2792892,2.5181344,3.654897,3.801456,3.4174287,3.1639185,3.1537066,2.6923993,2.1712885,2.4236968,3.9495542,2.2362368,2.8337674,3.025002,2.8885798,2.4121115,2.1269245,3.302464,2.1781533,2.7527785,4.5145955,4.222181,3.3028448,2.5455234,3.782663,1.8707516,2.9005754,3.4445248,2.8940487,3.1693907,3.215363,2.7330337,2.6223938,3.2255993,3.8680248,4.0991187,3.8051078,3.1170218,3.1096768,2.8486564,2.4041362,3.3843358,2.1256175,3.0581348,3.909154,2.395974,3.3577185,4.839458,3.767469,4.3742495,4.980978,3.0281713,3.6131666,2.5140488,2.387051,3.634559,2.467228,2.2888896,2.3320599,2.9367015,6.234516,3.431619,3.503415,2.9053457,3.588637,1.8727411,2.1673894,3.001052,4.2116785,3.6013396,4.4714365,3.0595067,2.961766,2.641229,2.8663297,3.9833932,3.0849342,4.538101,2.4790552,4.1048646,3.3136203,2.788892,4.1033754,2.9312706,3.5940666,3.713805,2.4241636,3.8322816,2.6477568,3.113296,2.9196427,3.5892425,2.923099,2.5847015,3.2865117,3.8725662,2.8623452,2.4287117,3.5299296,3.22452,2.9291375,3.41407,1.9369342,3.086145,3.302553,4.6587353,3.484785,2.4348714,4.7935023,4.3416185,3.8980064,2.5051863,2.796439,2.8424604,2.921874,3.2634022,3.6832051,4.013088,2.5484123,2.6664186,3.9955711,3.7320628,2.169231,3.8811061,4.4220347,2.216738,2.6611578,4.952559,3.4794521,3.6787853,2.6289706,2.161831,2.5550427,2.727985,4.281915,3.7641828,2.8341007,3.3224885,4.1879716,4.2910013,4.3162355,3.7476737,3.1624846,2.9799998,2.2048135,1.9221426,3.2720146,1.7520066,4.904089,3.7751985,2.7062666,3.5158207,2.7052698,1.4009401,4.335448,3.8892832,2.4627154,2.8014476,3.03517,2.3550382,2.1144738,3.2517214,2.5190642,3.417251,3.002463,2.7956893,4.228835,2.183189,2.6680274,3.1572816,3.3553638,3.0453904,4.4917784,3.3615637,2.6187642,2.3329644,3.0685155,2.5194783,4.6874757,4.685615,2.6664321,2.7341719,3.3151798,4.751012,2.0145922,1.8942744,4.3812447,2.2948675,3.151434,3.357948,3.034192,2.3638425,2.9309492,1.6601738,4.9472895,3.220106,6.2072473,3.358898,2.4576905,2.907902,2.4571524,3.0059435,3.667077,2.9775848,2.2284098,3.7490778,4.522883,3.4141357,4.9740963,4.2719803,3.2112398,2.8328538,3.2472117,2.7404697,4.4247212,4.528485,4.091876,3.795275,3.8031564,3.4315965,3.857034,3.1920018,3.54374,2.7236032,2.2961679,4.054533,2.8178122,3.2761621,2.4886277,3.2274532,3.698578,2.3840234,3.828962,3.0792863,3.7820039,1.9108243,3.5912466,3.3249702,2.6893938,2.1010652,3.5786517,1.8512828,2.686742,3.972893,3.3746936,1.9689854,2.2789345,2.578534,2.5563915,3.8125713
COc1ccc(-c2ccc3nccc(Nc4cccc5[nH]ncc45)c3c2)cc1C=O,3.9748516,2.165153,3.1099212,3.435094,1.8853171,2.9093037,3.1347234,3.4153152,2.8290875,2.4470701,3.35505,3.6179903,3.5676677,2.256132,4.7263036,7.412241,4.096098,3.780939,4.2574153,2.6531198,3.076428,3.4344304,2.2463527,2.9954004,3.3526087,4.327937,3.7734292,2.271198,2.6484303,3.4933157,2.1310794,2.2008379,1.1253698,2.2874916,3.5273705,3.5776067,1.3708715,4.0255556,2.1019218,4.362142,2.3273895,2.6728487,3.9001596,2.7267606,2.7273693,2.5697708,3.3704515,2.895081,3.3506925,2.5253315,3.1014094,3.441486,3.6753416,1.9984761,2.0063906,4.110319,3.5935993,4.1258783,4.4147396,2.967738,2.054823,4.2834616,4.440276,3.4531403,3.689372,3.8304186,3.0048354,3.5680535,3.5099401,3.6928418,3.5164464,1.5129665,2.3038087,2.4419284,3.7138,4.401844,2.848891,2.6992307,2.140298,3.9093406,2.1075613,3.882937,3.0553536,4.218534,5.4074807,4.203155,2.7282333,2.9809277,2.8417892,3.7404633,3.30394,4.335512,3.6527789,2.8419137,2.3779924,3.7294188,3.5157213,4.075375,4.3343573,3.0598454,1.8714622,2.8537545,3.2854815,2.3271515,3.008055,2.2187746,4.191311,4.237549,2.665854,2.5354686,1.8977752,4.5025,2.3079174,3.7787676,2.7972522,3.4667823,5.049264,4.287877,4.9423337,3.1063504,3.1283007,3.282765,2.6137958,2.3069654,3.4919438,2.4548235,2.4633455,2.9837575,3.592222,2.7794154,3.8861613,2.090841,2.949705,1.8700525,3.1101258,4.9472413,3.0598376,3.703982,4.4983563,3.3659158,3.6062217,2.61833,4.609706,3.1953413,3.0510428,4.7448826,2.8851423,3.2186918,2.9278245,2.0891976,2.8991313,2.8625813,3.001433,3.1247194,2.3432734,1.9325746,3.6687214,1.8842887,4.0197053,5.0244055,2.3844624,2.434582,3.1309307,4.5419106,2.1628366,2.8883479,3.702485,1.5112246,3.0754683,2.8635242,5.0810094,2.379128,4.3357663,2.6721048,4.0628834,3.632031,3.6641276,4.298377,2.884638,2.447111,2.0453324,3.807443,3.0260556,2.6284344,4.65177,2.2686136,3.4718094,3.5746646,3.6999602,3.654764,3.6526792,2.9310944,2.3696504,4.5754128,2.3568392,2.8860564,2.9200912,2.168058,2.9862704,3.732953,1.9087392,4.044188,2.57198,2.64814,3.289021,2.6413379,2.9415672,2.5029082,3.305676,3.2337396,3.2371953,3.623247,3.7328267,2.4673676,3.0621839,2.633022,3.684765,4.559802,3.0136983,2.613253,1.9535016,2.7425077,3.5346568,2.3641248,2.5917656,3.06923,3.268202,2.4698973,4.665983,2.0795588,3.0461047,2.219742,4.7354865,3.596414,4.3569007,3.9913507,2.7337203,2.7741063,2.935077,3.1107771,4.467143,2.0038836,2.3926375,3.6936443,1.8204728,3.0771735,3.0478516,3.656172,2.4671762,3.5417924,3.858598,4.4078965,4.877582,4.034231,4.590247,2.183925,3.0170534,2.2356415,1.9312153,3.647414,2.1772015,3.9461405,3.6394649,2.5181344,3.8472376,3.801456,3.4174287,3.1639185,3.1537066,3.454049,2.1712885,2.4236968,3.9495542,2.2362368,3.3403194,3.025002,2.8885798,2.4121115,3.445533,3.302464,2.1781533,2.694167,4.517856,4.2352467,3.3028448,2.5455234,3.8004632,1.8707516,2.9005754,3.4240682,2.8940487,3.1693907,3.2434,2.9583797,2.6223938,3.236506,4.0954123,4.077015,3.8051078,3.1170218,3.1096768,2.8020194,2.4041362,3.3843358,3.6039548,3.0581348,3.9071362,2.395974,3.3577185,4.839458,3.664161,4.3742495,4.980978,3.794994,2.8129325,2.6897898,2.625162,3.503352,2.427663,2.2888896,2.2643423,3.213622,5.2936926,3.4042861,3.4872253,2.4922884,3.588637,1.8727411,2.1673894,1.3316478,4.2116785,3.6013396,4.4714365,3.459934,2.961766,2.641229,2.8663297,3.9833932,3.0849342,4.538101,3.059375,4.1048646,3.3136203,2.788892,4.11882,2.9470425,4.1566577,3.713805,2.4241636,3.6848443,2.6477568,3.113296,3.075522,3.5892425,2.923099,2.4915712,3.2865117,1.9415265,2.8623452,2.4287117,3.6239052,3.610412,2.9291375,3.41407,1.9369342,3.8417811,3.7355754,4.6587353,4.034684,2.4348714,4.7935023,4.362481,3.8980064,4.583367,2.796439,2.8424604,2.924226,3.2634022,3.6832051,4.013088,2.6697688,2.6664186,4.420963,3.7320628,2.169231,3.9905384,4.4220347,2.927299,2.2683227,4.952559,3.4995956,3.1398957,2.6289706,2.161831,2.5550427,2.727985,4.281915,3.7641828,2.844505,3.320136,4.1857734,4.2910013,4.3162355,3.7476737,3.1624846,2.9799998,2.5790706,2.1779518,3.2720146,1.7520066,4.8860245,3.7751985,2.7062666,3.8634586,2.7052698,1.9088081,4.335448,3.8892832,2.4627154,2.8014476,3.03517,3.8908784,2.1144738,3.2517214,2.5190642,3.417251,4.8032317,4.0778117,4.2348614,2.183189,2.6634202,3.160277,3.3553638,3.0453904,4.4917784,3.3615637,2.6187642,2.3329644,3.0685155,2.5194783,4.6874757,4.685615,2.6664321,2.7341719,3.3151798,4.7221737,2.0145922,1.8942744,4.3812447,2.2948675,3.151434,4.023895,3.291787,2.3548577,2.9256449,2.5071688,4.9472895,2.41634,6.3057837,3.358898,2.4548264,2.907902,2.4571524,3.0059435,2.7312794,2.9775848,2.3832679,3.3345332,4.522883,3.4141357,4.9894266,4.213359,4.163259,2.8328538,3.2513955,2.7404697,4.456783,4.528485,4.091876,3.795275,3.8645933,3.4315965,3.857034,3.1920018,3.54374,2.7236032,2.289261,6.96092,2.8178122,3.296779,1.7729917,3.2438452,5.297947,2.3811915,3.8718188,3.2691622,3.7820039,3.1740897,3.5912466,3.3249702,2.6893938,2.4994566,3.5786517,1.9877919,2.686742,3.9969227,3.3746936,1.9689854,2.2789345,2.5926023,2.5563915,3.8430228
Fc1ccccc1-c1ccc2nccc(Nc3cccc4[nH]ncc34)c2c1,4.003205,2.1832635,3.1099212,3.435094,1.8853171,2.9093037,3.1347234,3.4153152,1.8749362,2.909738,2.8568463,3.606952,3.2945209,2.127988,4.7263036,3.8669806,2.754117,3.7619898,4.282158,2.728182,3.076428,3.4376953,2.1929364,2.9954004,2.137744,4.3303022,3.7734292,2.2403185,2.6484303,1.5633807,2.0120258,2.2008379,2.3903255,2.2874916,3.5273705,3.0304093,3.8591313,4.165233,1.0495709,4.362142,2.3273895,2.6728487,3.9214597,2.7267606,2.7273693,1.8000542,3.3704515,2.895081,3.3506925,2.5294492,4.875813,3.4323545,3.6753416,2.2224915,2.8137314,4.109293,2.829508,4.1392465,4.4147396,2.967738,0.5647388,4.315603,4.440276,3.1600683,3.689372,3.13226,3.0048354,3.5680535,2.262459,3.6732974,3.5164464,2.3102098,2.3038087,2.4419284,3.7138,4.13132,2.848891,2.8657923,2.140298,1.3428389,2.103165,3.882937,3.0553536,4.2279644,6.2147565,4.203155,2.7282333,1.7493728,2.8417892,3.7404633,2.968733,4.335512,3.6527789,2.8419137,2.3779924,3.6870408,3.517626,4.075375,4.3343573,3.33374,1.8714622,2.8537545,3.2854815,2.3271515,2.114409,2.274038,4.191311,3.667745,2.8036852,2.5354686,1.8977752,4.500396,2.3079174,3.7787676,2.7972522,2.9409113,5.081997,1.6056135,4.9423337,3.1063504,2.9801283,2.888915,2.6137958,2.3069654,3.4919438,2.4548235,2.4633455,2.9950817,3.592222,3.0930133,3.8861613,2.090841,2.9078953,1.3200182,3.1101258,4.9472413,3.0598376,3.6490836,4.4768157,3.3659158,3.5926347,2.61833,4.609706,3.9331973,3.0510428,4.7448826,2.8851423,3.993565,2.9278245,2.0891976,2.4466672,2.8625813,3.003351,3.109167,2.3432734,1.970853,3.6687214,1.8842887,2.4853282,3.0710592,2.3844624,2.434582,3.1309307,4.5419106,2.195806,2.8883479,3.702485,2.737669,3.0411603,2.8635242,6.1885285,2.379128,4.3357663,2.666206,4.0628834,3.632031,3.6641276,4.298377,2.884638,2.447111,2.0453324,3.807443,3.0260556,2.6284344,4.65177,2.2686136,3.4718094,5.764512,3.7605724,3.654764,3.6526792,2.394867,2.3696504,4.5754128,2.3568392,2.8860564,2.9200912,1.4134644,2.9862704,3.720733,1.9087392,4.0245485,1.5290346,2.64814,2.9733994,3.0502443,2.9415672,2.5552661,3.335137,3.2337396,3.2371953,3.668121,3.5264063,2.4673676,3.0621839,2.633022,3.684765,4.5764384,3.0136983,2.613253,1.9535016,2.7425077,3.5346568,2.3641248,2.5917656,2.3538635,3.270771,2.4698973,4.6794176,2.0795588,3.0461047,2.219742,5.37998,2.953731,4.3569007,3.2468643,2.7337203,2.7741063,2.935077,3.1107771,4.500994,1.3524778,2.3926375,1.6562911,1.8204728,3.0771735,3.045114,3.656172,2.4671762,3.2051876,3.858598,3.313062,4.877582,3.6569927,4.590247,2.5178277,3.0170534,2.2356415,2.9769723,3.647414,2.1772015,4.35273,3.6394649,2.5181344,1.9465644,3.801456,3.4174287,3.1639185,3.1537066,3.369612,2.1712885,2.4236968,3.9495542,2.2362368,2.8337674,3.025002,2.8885798,2.4121115,2.05916,3.302464,2.1781533,2.7527785,4.5145955,4.222181,3.3028448,2.5455234,3.782663,1.8707516,2.9005754,3.4445248,2.8940487,3.1693907,3.215363,1.9983869,2.6223938,3.2255993,3.7471142,4.0991187,3.8051078,3.1170218,3.1096768,2.7582908,2.4041362,3.3843358,2.5198598,3.0581348,3.909154,2.395974,3.3577185,4.839458,3.6176696,4.3742495,4.980978,2.9397027,2.8129325,2.5165908,2.3632848,3.5134254,2.417687,2.2888896,2.3320599,2.9299424,4.684224,3.431619,3.503415,2.4922884,3.588637,1.8727411,2.1673894,2.6447535,4.2116785,3.6013396,4.4714365,2.8876998,2.961766,2.641229,2.8663297,3.9833932,3.0849342,4.538101,2.4790552,4.1048646,3.3136203,2.788892,4.1033754,2.9312706,3.5126936,3.713805,2.4241636,3.590991,2.6477568,3.113296,2.8043306,3.5892425,2.923099,2.225253,3.2865117,1.9016255,2.8623452,2.4287117,3.4232254,3.2396266,2.9291375,3.41407,1.9369342,2.9975626,3.3151069,4.6587353,3.3019967,2.4348714,4.7935023,4.3416185,3.8980064,2.5015361,2.796439,2.8424604,2.921874,3.2634022,3.6832051,4.013088,2.476361,2.6664186,3.8885787,3.7320628,2.169231,3.4798863,4.4220347,2.2578397,2.2683227,4.952559,3.4794521,3.6379979,2.6289706,2.161831,2.5550427,2.727985,4.281915,3.7641828,2.8341007,3.3224885,4.1879716,4.2910013,4.3162355,3.7476737,3.1624846,2.9799998,2.3301191,2.0073,3.2720146,1.7520066,4.904089,3.7751985,2.7062666,3.2508857,2.7052698,1.3806822,4.335448,3.8892832,2.4627154,2.8014476,3.03517,2.3550382,2.388804,3.2517214,2.5190642,3.417251,3.002463,2.7956893,4.228835,2.183189,2.6680274,3.1572816,3.3553638,3.0453904,4.4917784,3.3615637,2.6187642,2.3329644,3.0685155,2.5194783,4.6874757,4.74799,2.6664321,2.7341719,3.3151798,4.751012,2.0145922,1.8942744,4.3812447,2.2948675,3.151434,2.576858,2.9105628,1.9454046,2.9309492,1.6601738,5.3892,2.41634,6.2072473,3.358898,2.4576905,2.907902,2.4571524,3.0059435,0.7135209,2.9775848,2.291295,3.542495,4.522883,3.4141357,4.9740963,1.6830096,3.4443922,2.8328538,3.2472117,2.7404697,4.4247212,4.528485,4.091876,3.795275,3.003549,3.4315965,3.857034,3.1920018,3.54374,2.7236032,2.289261,2.2860482,2.8178122,3.2761621,1.9417301,3.2274532,2.7073293,2.3840234,3.7643654,2.9906867,3.7820039,1.9108243,3.5912466,3.3249702,2.6893938,0.4058032,3.5786517,2.3441463,2.686742,3.972893,3.3746936,1.9689854,2.2789345,2.578534,2.5563915,3.8125713
COc1cccc(-c2ccc3ncnc(Nc4cccc5[nH]ncc45)c3c2)c1,4.083128,2.264608,2.9532633,3.3323693,2.5754313,2.9093037,3.1347234,3.5699558,2.0984707,2.4470701,2.9914565,3.7364805,3.7066498,2.0239458,4.982946,1.72787,2.754117,3.861438,4.403743,2.5883453,3.295996,3.3991082,2.3045561,2.9954004,2.5253785,4.315836,3.8557808,2.2220964,2.885897,2.5518525,2.0120258,2.2024736,1.831728,2.2431538,3.5490732,3.418097,3.658008,3.9312563,2.151183,4.823295,2.5781775,2.6728487,3.7761965,2.7267606,2.7196312,1.2775933,3.3704515,3.027365,3.3506925,2.2439556,3.8843193,3.4717348,3.6193967,1.9984761,2.3997025,4.09913,1.4463477,4.1680603,4.420606,2.972142,2.2790902,4.42075,4.28466,1.0308071,3.70741,3.868209,3.0048354,3.504003,2.3517258,3.7485228,3.530788,2.1675444,1.9503553,2.6808925,3.7138,4.3295555,2.8520381,2.649232,2.407077,2.134803,2.1189053,4.246064,3.0287116,4.3544726,1.1030966,4.4460263,2.4648538,1.9682115,2.8417892,3.7943537,3.3186984,4.4885216,3.6527789,2.6846757,2.4317243,3.9181864,3.5393708,4.075375,4.5550585,1.4322782,2.1189017,2.8472996,3.2246928,2.6302125,2.2695465,2.1496472,4.1685166,3.561856,1.8875029,2.2923498,1.683959,4.599325,2.1538486,3.7995083,2.6443608,3.3779364,5.266717,1.3780077,4.77851,3.6442454,2.132616,2.7955337,2.785977,2.572006,3.4919438,2.65387,2.695324,2.8734133,3.592222,2.8056068,3.8849876,3.0082147,2.7552173,2.2201061,3.1101258,4.9995656,2.8930244,3.5828462,4.6509833,3.3659158,3.6330762,2.7200656,4.635863,2.6666887,3.3627422,4.7448826,3.0623176,2.5221663,2.7888374,1.6717179,1.8900077,2.4386563,2.9447234,3.1912098,2.2247908,1.8288959,3.566213,1.9621778,2.7715805,3.9608774,2.4145427,2.3306758,3.1976001,4.599971,2.3330622,2.882064,4.1979322,2.9268239,3.200486,3.2798944,2.708608,2.379128,4.291405,2.4324234,3.979959,3.9819152,3.6641276,4.298377,3.5386431,2.447111,2.3301797,3.807443,3.2292066,3.0503988,4.6346393,2.9377623,3.4722562,5.1026216,3.700848,3.6126802,3.7192929,3.067834,2.421122,4.800879,2.4552062,3.1793237,2.8082042,1.4806079,2.9492285,3.8902237,2.6737745,4.106082,1.2523057,2.502686,3.3061666,2.77425,4.0465927,2.4539084,3.453037,3.3829694,3.5004737,3.6265144,3.8003044,2.4673676,3.0137773,2.7684748,3.9404585,4.3956895,2.1765845,2.6692443,1.8892528,2.804414,3.5346568,2.879291,2.7136621,2.597156,3.3212142,2.5198495,4.6205087,2.1692927,3.3114626,2.2071207,4.831918,0.11524891,4.189527,3.3378775,2.7186668,3.0047452,2.8462455,3.024801,4.4352207,2.280837,2.1029723,4.006527,1.7770777,2.9766464,3.017265,3.5359638,2.4155262,1.6585562,3.7995996,3.2398264,4.877582,3.8399115,4.5467067,2.7850611,2.9757729,2.246472,1.9327126,3.647414,2.216251,3.9461405,3.6394649,2.3653665,3.5251722,2.4586778,3.4174287,2.9010198,3.1537066,3.371425,2.1712885,2.1551685,3.9751594,2.4220347,2.243032,2.9802039,2.8885798,2.7066126,2.4014866,3.3583183,2.3725193,2.650345,4.586824,4.303107,3.1939,2.5455234,3.774909,1.7872989,2.9676447,3.4708993,3.2864785,3.1291811,3.0851743,2.2717497,2.6474676,3.4142997,4.0507126,4.2765245,3.9001794,3.1170218,3.0305998,2.507447,2.3753002,3.0608118,2.5806286,3.0032775,4.055888,2.5414655,3.3259754,4.5843306,3.6366765,4.88077,4.9187064,3.018764,2.9408429,2.785614,2.2664976,3.575963,2.414821,2.2722192,2.6968725,3.2981195,3.0910137,3.5792866,3.64453,2.4922884,3.588637,2.1413212,2.1673894,3.5062644,4.6153784,3.6013396,4.673123,3.5129147,2.7254877,2.854978,2.8663297,3.9833932,2.972914,4.5106177,2.7535038,4.382835,7.20426,3.1230736,4.2518153,3.0029113,4.014675,3.7207694,2.267171,3.7495892,2.9324257,3.113296,2.9853218,3.6205246,2.923099,1.8288221,3.2865117,1.76852,2.8581445,2.5904706,3.6434157,3.3928351,2.9251244,3.467228,2.2295222,3.2926974,3.6073194,4.600415,3.8496692,2.4066982,4.9127607,4.2990932,3.8866742,2.3216002,2.796439,3.0200346,3.11424,3.4766014,3.6929276,3.8941038,2.7954993,2.4812558,3.9134524,3.549561,2.1753628,2.2611332,4.4650407,1.8739314,2.322331,4.952559,3.4725032,3.0320833,2.4185684,2.0980482,2.683624,2.74511,4.1972203,3.7641828,2.9663284,3.540188,4.355625,4.4183774,4.0215907,3.7500086,3.054483,2.937288,2.2048135,2.223635,3.300248,1.8311214,5.0579443,3.665541,2.2378109,3.7638893,2.7052698,2.2557874,4.1932054,3.8892832,2.7260323,2.7012277,3.058918,2.2027311,2.1144738,3.2517214,2.301077,3.1343532,3.3992116,2.7956893,4.3666816,2.183189,2.4561462,3.114661,3.3446832,3.0453904,4.4917784,3.4127226,2.4424078,2.4915652,2.592786,2.369416,4.8786883,2.4147232,2.8224049,2.7341719,3.4349878,4.8110857,2.2299294,1.8228861,4.303696,2.2948675,3.151434,2.3391562,3.301164,1.9847579,2.8112147,1.7815019,4.9472895,2.3691506,2.5147216,3.638632,2.5368385,3.0056872,2.7592733,3.1116557,2.03049,2.9775848,2.5852823,3.6982183,4.6033006,3.4141357,5.0788126,1.8325865,3.9342215,2.8328538,3.1965454,2.9023128,4.6007314,4.474521,4.091876,3.8721776,3.4716508,3.4271426,3.9133754,3.1920018,3.605147,2.8209765,2.289261,3.4836416,2.8178122,3.3138664,2.9740615,3.3388212,2.3879635,2.3781195,3.9946854,2.8633146,3.7820039,2.184913,3.6700013,3.3249702,2.7214243,3.4861283,3.5528386,1.4965471,2.6267636,4.172064,3.535454,1.9759809,2.2789345,2.850856,2.5563915,3.6969445
COc1cc(-c2ccc3ncnc(Nc4cccc(O)c4)c3c2)ccc1O,4.059096,3.0425968,3.0580814,2.3622236,2.606982,2.5280993,3.3628478,3.5699558,2.6951168,3.2681744,3.2277622,3.7529075,3.6811957,3.0425367,4.8146744,5.501068,3.698664,3.8482575,4.3914137,2.6483498,3.295996,3.3989618,2.2845824,3.937877,3.4137154,4.2955737,3.8557808,2.269548,3.1154969,2.3685677,3.668434,2.5046153,4.106407,2.2010767,3.5490732,3.4180973,0.7209022,3.931256,2.8731873,4.971635,2.322606,2.0479434,3.8009324,2.4715428,2.7071068,2.23296,3.1856322,3.027365,3.7344954,2.2439556,-0.07350202,3.4495637,3.6193967,1.6866342,3.4784718,4.102951,5.0121155,4.163237,4.6494107,2.9718146,2.9610074,4.4034643,4.28466,4.4452677,3.70741,3.8974802,2.956278,3.504003,2.928696,3.756378,4.41303,1.9559772,1.9503553,2.5215354,3.470562,4.329556,2.8004014,2.7436397,2.1958027,3.5084345,2.1189053,4.387029,3.0071673,4.3491673,6.434257,4.505796,2.6495519,3.3821177,2.566191,3.7943537,3.324818,4.4885216,2.9256036,2.5457544,2.4268188,3.9301891,3.535749,6.258056,4.69705,3.4926398,2.0944004,2.8472996,3.4811509,2.568267,2.926081,2.1496472,4.1685166,2.8397639,2.8863864,2.2843025,2.0700421,4.60189,2.5854418,3.7995083,2.6443608,3.6080139,5.2932305,2.8156154,4.505481,2.2279005,2.8732631,2.7955337,2.785977,2.729798,3.8758366,2.7742462,2.8519213,2.818736,4.291153,2.7758982,3.8849876,2.140439,2.7773054,3.6657605,2.8344045,4.9995656,1.4917023,3.833041,4.627219,4.120625,3.6240964,2.7200656,4.69972,3.2155383,3.2421534,3.4882238,3.0034406,5.1464796,2.8367233,1.7912813,2.6417615,2.5300558,2.9447234,3.2265007,2.2247908,1.8288959,3.597152,1.9621778,4.5683846,5.2032323,2.4145427,2.3306758,3.495977,4.599971,2.3092234,2.882064,4.5410194,4.5828824,3.188793,3.4119794,-0.14012268,1.9420072,4.291405,3.001315,3.979959,4.4307513,3.5550344,3.5992305,2.780927,3.1157038,2.2922935,3.4802022,3.2292066,2.975794,4.6346393,3.1125932,3.4722562,-0.3456186,3.8779328,3.6126802,3.7192929,3.067834,2.5033786,4.800879,2.296523,2.9652603,2.8095622,2.27675,3.2163846,3.9047308,3.4530509,4.092041,2.5097594,2.3493967,3.320062,-0.29188484,4.0465927,2.4539084,3.4489179,3.4218688,3.3127332,3.6653514,3.8003051,3.7787533,3.0137773,1.7937632,3.9404585,4.3861575,2.1765845,2.425863,1.8780628,2.804414,3.256079,2.7420902,2.7136621,2.881969,3.3131738,2.5062206,4.628446,2.1692927,3.3114626,2.164277,-0.11901132,3.2884092,4.5209694,3.3378775,2.488894,3.0047452,2.8462455,3.067233,4.4352207,2.0686622,2.0827048,4.78647,1.7770777,2.9553163,3.0105832,3.5359638,2.4155262,2.806313,3.9963658,3.2398264,3.5547974,4.1944146,4.5467067,3.4740567,2.9757729,1.9655505,2.8983614,3.091412,2.2041461,0.04479906,3.2831078,2.3653665,3.691635,2.9500718,4.505561,3.1066878,2.93582,3.502014,2.8250353,2.1551685,3.9751594,2.4323378,2.8353481,2.9802039,3.1273804,2.4748335,3.4197464,3.3583183,2.344189,2.6561975,4.5565696,4.3162503,3.1939,2.3803082,3.768059,1.7872984,2.9676447,3.446826,3.1877499,3.0746968,3.137302,3.111138,2.6474676,3.3975923,4.181731,4.2884808,3.9001794,2.9466522,3.7295823,2.5074472,1.6216955,2.12155,3.0272124,2.9413047,4.0424438,2.5414655,3.3259754,4.365588,3.6537294,4.7864685,4.9187064,3.0187633,4.2221007,2.7856154,2.2664971,3.7173176,2.4148216,2.3841794,2.753004,3.2981195,3.5185637,3.6000116,3.656943,3.2575917,2.8769531,1.9187227,1.7918223,3.6349227,4.9304957,3.4089117,4.491435,3.528855,2.8124158,2.0943835,2.3382065,3.4255018,3.8768866,4.5106177,2.841136,4.382835,3.2248757,3.0913372,4.2583127,3.0029113,4.1988387,3.7207694,2.267171,3.8067436,2.9479,2.6442802,2.985322,3.6205246,2.7437432,3.2155905,3.2009692,3.8241262,2.8581445,2.5904706,3.6321921,3.5294175,2.9251244,3.6471453,2.2295222,3.292697,3.744683,4.600415,3.9078202,2.0549052,4.9127607,4.2965198,3.8866742,3.3880384,2.139415,2.910216,3.0929496,3.7221565,3.6929276,4.127705,2.700211,2.4445508,3.9134521,4.2249727,1.7644786,3.5524063,4.4650407,2.6685917,1.6509837,4.643295,3.487237,3.302676,2.3867629,2.119894,2.6390162,2.7458112,4.162872,2.9523094,2.9718707,3.5141172,4.364621,4.6433024,3.837278,3.7500086,2.1290412,3.0074825,2.6149943,2.1796649,3.300248,1.8311214,5.0413327,3.963836,2.2378109,3.9587715,2.452481,2.1707067,2.4266448,4.1006207,2.1114085,2.7012277,3.058918,4.3731003,2.0967913,3.1736696,2.281906,3.1343532,3.7986503,3.3177822,4.356274,2.2607362,2.5082455,3.0746593,3.361494,2.382556,5.4535456,3.4127226,2.4486017,2.4915652,2.5652032,2.369416,4.8786883,5.8817644,2.849806,2.648418,1.778902,4.8005495,2.2299294,1.8228861,4.168155,2.6421258,2.9553082,2.374319,3.301164,2.5435147,2.784632,2.3666296,-0.31149688,3.8874652,3.7449079,3.9870942,2.5368385,2.8816903,3.603015,3.1116557,3.5297885,2.7464433,2.300817,3.415641,4.6033006,2.892217,5.065503,4.699513,3.9664998,2.5610485,3.1965454,2.7268376,4.5887923,4.474521,3.4666693,3.8721776,3.9112713,3.4271426,3.9133754,3.0647342,3.5420446,2.982439,2.280224,4.4709215,2.8579366,3.315688,2.4103885,3.3376706,3.4409456,2.3950827,3.9592304,2.8633149,3.476252,3.690578,3.6700013,2.802349,2.7214243,3.1749792,3.5528386,2.6560714,2.587105,4.181024,3.535454,2.2624865,2.5326502,2.843541,3.55022,3.7053354
COc1cc(-c2ccc3ncnc(Nc4ccc(F)cc4)c3c2)ccc1O,4.059096,2.264608,3.2382174,2.4876728,2.5242887,2.5280993,1.7843916,3.5699558,2.6951168,3.2681744,3.2277622,3.7529075,4.0013723,1.8274224,5.12644,3.4410167,1.2406417,3.8482575,4.3914137,2.6483498,3.295996,3.3989618,2.2845824,2.7172291,1.3229562,4.2955737,3.8557808,2.269548,3.3592498,1.9922078,1.8893791,2.3124456,4.106407,2.2010767,3.5490732,3.4180973,4.527365,3.931256,2.8731873,4.9598684,2.334894,2.4875844,3.8009324,1.7847862,2.7071068,2.6253586,3.1856322,3.027365,1.0859684,2.2439556,3.4390416,3.4495637,3.6193967,1.6633675,1.7721453,4.102951,2.2263634,4.163237,4.7159142,2.9718146,2.9610074,4.4034643,4.28466,2.4509342,3.897664,3.8974802,2.066972,3.504003,2.928696,3.756378,2.0345998,2.2171457,1.9503553,2.6626709,2.1189423,4.329556,2.8004014,2.7436397,2.0498772,2.134803,2.1189053,4.5670533,3.0071673,4.3491673,2.2793157,4.08888,2.6013672,2.6773334,2.677586,3.7943537,3.324818,4.4885216,2.9256036,2.5494502,2.44764,3.9301891,3.535749,3.0326216,4.3013124,2.07732,2.0944004,2.8472996,1.7486955,2.5730424,2.4481301,2.1496472,4.1685166,2.8397639,2.1164386,2.2843025,1.8216605,4.60189,0.93243223,3.7995083,2.6443608,3.6080139,5.2932305,2.8156154,4.9306436,2.111365,2.9276762,2.7955337,2.785977,2.6753812,1.5686262,2.7635794,2.7972791,2.818736,1.5310723,2.7758982,3.8849876,2.3465028,2.7773054,1.8448249,2.8344045,4.9995656,1.4917023,3.833041,4.627219,1.6519016,3.6240964,2.7200656,4.7253265,3.2155383,3.2519522,2.1050045,3.0220075,2.6334915,2.8479817,1.7912813,2.6417615,2.5300558,2.9447234,3.2265007,2.2247908,1.8288959,2.6476145,1.9621778,3.1402185,0.893167,2.4145427,2.3306758,2.6487913,4.599971,2.3092234,2.882064,4.057184,1.5209682,3.188793,3.064618,3.1630344,1.9218919,4.291405,2.4312365,3.979959,4.4778023,1.6854182,1.149867,2.9043908,2.0887387,1.8638427,1.5803735,3.3369613,2.9717283,4.6346393,3.0408814,3.4722562,5.6843004,3.8779328,3.6126802,3.7192929,3.067834,2.5403473,4.800879,2.3223524,2.0931482,2.8095622,2.27675,1.7292259,3.9047308,1.3919339,4.092041,2.5023346,2.3493967,3.320062,4.951327,4.0465927,2.4539084,3.4489179,3.6456878,3.3239124,3.6653514,3.8003051,1.9446677,3.0137773,2.0055487,3.9404585,4.3861575,2.5699704,2.4376898,1.8780628,2.804414,2.6926296,2.8522732,2.7136621,2.881969,3.3131738,2.5062206,4.628446,2.1692927,3.3114626,2.164277,4.578465,3.186671,4.5205154,3.3378775,2.5118165,3.0047452,2.8462455,3.0782206,4.4352207,2.6930037,2.0827048,3.2405019,1.7770777,2.9553163,3.0105832,3.5359638,2.4155262,3.4760556,3.7682786,3.2398264,3.0470514,4.1944146,4.5467067,2.3184938,2.9757729,1.9655505,3.2430375,3.091412,2.2041461,5.7379646,1.7610409,2.3653665,3.691635,2.9500718,1.3993376,3.0258355,2.93582,3.502014,1.6656628,2.1551685,3.9751594,2.4323378,2.732084,2.9802039,1.4657897,2.4748335,2.7021084,3.3583183,2.344189,2.6561975,4.5565696,4.3162503,3.1939,2.3803082,3.768059,1.7872984,2.9676447,3.446826,3.154007,3.0658126,3.137302,1.7472891,2.6474676,3.3975923,4.181731,4.2884808,3.9001794,2.9466522,1.8817921,2.5074472,2.465953,2.0638263,3.0272124,2.9413047,4.0424438,2.5414655,3.3259754,4.9693995,3.6537294,5.1273293,4.9187064,3.0187633,2.163708,2.7856154,2.2664971,3.7173176,2.4148216,2.2557445,2.753004,3.2981195,3.5185637,3.6000116,3.656943,3.2575917,2.8769531,1.9187227,1.6404046,2.9685698,4.7067633,3.4089117,4.65998,3.528855,2.9256542,2.0943835,2.3382065,2.1435196,1.4789299,4.5106177,2.841136,4.382835,4.0718055,3.0861468,4.2583127,3.0029113,4.1988387,3.7207694,2.267171,3.8067436,2.942609,2.6442802,2.985322,3.6205246,2.7437432,3.7007232,3.2009692,1.945327,2.8581445,2.5904706,3.6321921,3.5294175,2.9251244,3.855488,2.2295222,3.292697,3.744683,4.600415,3.9078202,2.0549052,4.9127607,4.2965198,3.8866742,2.2454956,2.139415,2.8888645,3.0929496,2.5271726,3.6929276,3.7994905,2.700211,2.4445508,3.9134521,3.192971,1.7644786,2.6366582,4.4650407,2.7208443,2.3962157,0.9780947,3.487237,3.302676,2.3867629,2.119894,2.6456218,2.8264146,4.2069182,2.9523094,2.9718707,3.5141172,4.364621,4.439189,3.858464,3.7500086,3.088734,1.571539,2.6149943,2.1796649,3.300248,1.8311214,5.0413327,1.2056562,2.2378109,3.9587715,2.5099473,2.1707067,5.8877187,1.6603361,2.0922117,2.7012277,3.058918,2.9577348,2.0967913,3.1736696,2.281906,3.1343532,2.1409168,1.7510605,4.356274,2.058567,2.5082455,3.0746593,3.6912875,2.382556,1.6119407,3.4127226,2.4776795,2.4915652,2.5652032,2.369416,4.8786883,3.320224,2.857233,2.648418,4.07685,4.8005495,2.2299294,1.8228861,4.3480186,2.5103369,2.08415,1.6548488,3.301164,2.5435147,2.784632,2.3666296,3.5508564,1.5822766,3.2401342,3.3675976,2.5368385,2.8881204,3.324363,3.1116557,2.0747385,2.7464433,2.0632899,3.415641,4.6033006,2.892217,5.065503,2.1077957,3.9664998,2.5610485,3.1965454,2.7452435,4.5887923,4.474521,3.0692484,3.8721776,3.9112713,3.4271426,3.9133754,3.0647342,4.2885513,3.240859,2.280224,1.5541995,1.9243867,3.315688,2.4103885,3.3376706,1.5119785,2.3950827,3.9592304,2.8633149,1.7296196,2.9096723,3.6700013,2.802349,2.7214243,1.8283874,3.5528386,2.0004547,2.587105,4.181024,3.535454,2.1819174,2.0405555,2.843541,1.3822463,3.7053354
COc1cc(-c2ccc3ncnc(Nc4ccc(S(N)(=O)=O)cc4)c3c2)ccc1O,4.059096,2.264608,3.2382174,2.571954,2.5242887,2.5280993,1.7843916,3.5699558,2.6951168,3.7551458,3.2277622,3.7529075,4.013196,3.0633314,5.12644,3.879378,1.2406417,3.8482575,4.3914137,2.6483498,3.295996,3.3989618,2.2845824,5.1744933,1.3229562,4.2955737,3.8557808,2.269548,3.3592498,1.9959034,1.8893791,2.102527,4.3738127,2.2010767,3.5490732,3.4180973,4.567178,3.931256,3.6465695,4.9598684,2.334894,2.5197947,3.8009324,3.2534192,2.7071068,2.8512473,3.1856322,3.027365,1.2379653,2.2439556,3.8283582,3.4495637,3.6193967,1.6633675,3.2784038,4.102951,1.9284767,4.163237,4.7159142,2.9718146,3.024488,4.4034643,4.28466,2.4509342,3.8751643,3.8974802,1.4592274,3.504003,2.928696,3.756378,2.2513092,2.2171457,1.9503553,2.7071326,2.1189423,4.329556,2.8004014,2.7436397,2.0498772,2.134803,2.1189053,4.5670533,3.0071673,4.3491673,2.2793157,4.08888,2.8031442,2.6773334,2.677586,3.7943537,3.324818,4.4885216,2.9256036,2.5494502,2.44764,3.9301891,3.535749,4.1853976,4.3013124,2.5262089,2.0944004,2.8472996,1.7486955,2.5730424,3.3231068,2.1496472,4.1685166,2.8397639,2.5396645,2.2843025,1.8216605,4.60189,2.7075748,3.7995083,2.6443608,3.6080139,5.2932305,2.8156154,4.9306436,2.111365,2.7684891,2.7955337,2.785977,2.6753812,1.9076161,2.7635794,2.7972791,2.818736,2.2865703,2.7758982,3.8849876,2.461027,2.7773054,1.8779122,2.8344045,4.9995656,1.4917023,3.833041,4.627219,1.6519016,3.6240964,2.7200656,4.7253265,4.205684,3.2519522,3.5379725,3.0220075,2.1612513,2.8479817,1.7912813,2.6417615,2.5300558,2.9447234,3.2265007,2.2247908,1.8288959,2.6476145,1.9621778,3.1402185,0.893167,2.4145427,2.3306758,2.6487913,4.599971,2.3092234,2.882064,4.057184,2.9338627,3.188793,3.064618,4.904671,1.9218919,4.291405,2.4312365,3.979959,4.4778023,1.6854182,0.84952825,2.9526198,2.0887387,1.8638427,2.3349469,3.3093348,2.9717283,4.6346393,3.0408814,3.4722562,4.013338,3.8779328,3.6126802,3.7192929,3.5505242,2.5403473,4.800879,2.3956602,2.6309595,2.8095622,2.27675,1.7292259,3.9047308,2.501071,4.092041,2.5023346,2.3493967,3.320062,2.321627,4.0465927,2.4539084,3.4489179,3.6456878,3.3239124,3.6653514,3.8003051,4.0508833,3.0137773,1.7937632,3.9404585,4.3861575,2.1765845,2.4376898,1.8780628,2.804414,2.6926296,2.8940136,2.7136621,2.881969,3.3131738,2.5062206,4.628446,2.1692927,3.3114626,2.164277,4.7716265,3.186671,4.5205154,3.3378775,2.5118165,3.0047452,2.8462455,3.0782206,4.4352207,2.6537745,2.0827048,3.7758162,1.7770777,2.9553163,3.0105832,3.5359638,2.4155262,2.806313,3.7682786,3.2398264,3.0446784,4.1944146,4.5467067,2.3771827,2.9757729,1.9655505,2.892131,3.091412,2.2041461,6.458629,1.7610409,2.3653665,3.953084,2.9500718,1.3993376,3.0258355,3.1410625,3.502014,1.680355,2.1551685,3.9751594,2.4323378,2.732084,2.9802039,1.4657897,2.4748335,2.7021084,3.3583183,2.344189,2.6561975,4.5565696,4.3162503,3.1939,2.3803082,3.768059,2.2300904,2.9676447,3.446826,3.154007,3.0658126,3.137302,3.3139343,2.6474676,3.3975923,4.181731,4.2884808,3.9001794,2.9466522,1.8817921,2.5074472,2.3292794,2.0638263,3.0272124,2.9413047,4.0424438,2.5414655,3.3259754,4.9693995,3.6537294,5.1273293,4.9187064,3.0187633,3.630512,2.7856154,2.2664971,3.7173176,2.4148216,2.2557445,2.753004,3.2981195,3.5185637,3.6000116,3.656943,3.2575917,2.917626,1.9187227,1.6404046,4.442418,4.7067633,3.4089117,4.65998,3.528855,2.9321623,2.0943835,2.3382065,2.0800648,1.8349245,4.5106177,2.841136,4.382835,4.3448343,3.2561297,4.2583127,3.0029113,4.1988387,3.7207694,2.267171,3.8067436,2.942609,2.6442802,2.985322,3.6205246,2.9713185,3.2155905,3.2009692,2.3647206,2.8581445,2.5904706,3.6321921,3.5294175,2.9251244,3.855488,2.2295222,3.292697,3.744683,4.600415,3.9078202,2.0549052,4.9127607,4.2965198,3.8866742,2.4657512,2.139415,2.8888645,3.0929496,2.5271726,3.6929276,3.7994905,2.700211,2.4445508,3.9134521,3.3434422,1.7644786,4.1779914,4.4650407,2.7572944,1.8358089,4.530782,3.487237,3.302676,2.3867629,2.119894,2.6456218,2.8264146,4.2069182,2.9523094,2.9718707,3.5141172,4.364621,4.439189,3.858464,3.7500086,2.4152935,1.5313278,2.6149943,2.1796649,3.300248,1.8311214,5.0413327,1.2056562,2.2378109,3.9587715,3.1563728,2.1707067,5.923309,2.000243,2.0922117,2.7012277,3.058918,2.9577348,2.2630203,3.8004262,2.281906,3.1343532,1.5097967,0.42619878,4.356274,2.058567,2.5082455,3.0746593,3.5953093,2.382556,2.253532,3.4127226,2.4776795,2.4915652,2.5652032,2.369416,4.8786883,3.320224,2.857233,2.648418,3.9852688,4.8005495,2.2299294,1.8228861,4.3480186,2.5103369,1.8713758,2.5016243,3.301164,2.6722646,2.784632,2.3666296,3.614733,3.776848,3.2401342,3.3675976,2.5368385,2.8881204,3.324363,3.1116557,3.336204,2.7464433,2.0632899,3.415641,4.6033006,2.892217,5.065503,3.1299016,3.9664998,2.5610485,3.1965454,2.7452435,4.5887923,4.474521,2.885797,3.8721776,3.9112713,3.4271426,3.9133754,3.0647342,4.44911,3.240859,2.280224,3.9359326,1.9243867,3.315688,2.4103885,3.3376706,1.5119785,2.3950827,3.9592304,2.8633149,2.1222317,2.9096723,3.6700013,2.802349,2.7214243,3.320908,3.5528386,1.9944258,2.587105,4.181024,3.535454,2.1819174,3.2479181,2.843541,1.4042269,3.7053354
c1cc(Nc2ncnc3ccc(-c4ccc5[nH]ncc5c4)cc23)c2cn[nH]c2c1,4.083128,2.264608,2.9532633,3.3323693,2.5754313,2.9093037,3.1648238,3.5699558,3.8002264,3.4601285,3.3169703,3.7364805,3.6023161,2.0239458,4.982946,1.72787,2.754117,3.861438,4.403743,2.6547036,3.295996,3.3991082,2.2764223,2.9954004,2.137744,4.315836,3.8557808,3.3678637,2.885897,2.5518525,2.0120258,2.2024736,5.261106,2.2431538,3.5490732,4.728283,3.658008,4.7054167,2.151183,4.823295,2.5781775,3.0419543,4.900612,2.7267606,2.7196312,1.2775933,3.3704515,3.1682103,3.827248,3.17002,2.700776,3.465177,3.6193967,1.9984761,2.0063906,4.09913,1.4463477,4.1680603,4.420606,2.972142,2.2790902,4.42075,4.28466,1.0308071,3.70741,3.8627007,3.0048354,3.504003,3.6490579,3.7485228,3.530788,2.208871,2.2288954,2.6808925,3.7530553,4.3295555,2.8520381,2.7578926,2.407077,4.446317,2.1189053,4.246064,3.0287116,4.3544726,0.3019386,4.4460263,2.4648538,3.7403607,2.8417892,3.7943537,3.3249793,4.4885216,3.8728595,2.6846757,2.4317243,3.9181864,3.5393708,4.075375,4.5550585,1.2682639,2.1189017,2.8472996,3.2246928,2.6302125,2.114409,2.1496472,4.1685166,4.0270095,1.873156,2.2923498,1.683959,4.599325,2.1538486,3.7995083,2.6443608,3.4862697,5.266717,1.8495939,4.77851,3.1063504,2.3168638,4.517933,2.785977,2.572006,3.4919438,2.65387,2.695324,2.8734133,3.592222,2.8171139,3.8849876,3.0082147,2.7552173,2.2201061,3.1392016,4.9995656,2.8930244,3.683621,4.6509833,3.3659158,3.6330762,2.7200656,4.635863,2.5403156,3.3627422,4.7448826,3.0623176,1.5268539,2.7888374,1.8532928,3.2659743,2.4979706,3.3688066,3.1912098,2.2247908,1.8288959,3.566213,2.207057,4.83643,3.9608774,2.4145427,2.3306758,3.1976001,4.599971,2.3330622,2.882064,4.1979322,1.5648061,3.200486,3.2798944,1.5223603,2.379128,4.291405,3.555432,3.979959,3.9819152,3.6958182,5.0823,3.5386431,2.447111,2.3301797,3.807443,3.2292066,3.0503988,4.6346393,2.9377623,3.4722562,3.5746646,3.8262625,3.6126802,3.7192929,3.067834,2.421122,4.800879,2.4552062,3.1793237,2.8082042,1.4806079,2.9492285,3.8902237,2.6737745,4.106082,3.023614,2.502686,3.326349,2.77425,4.0465927,2.4539084,3.453037,3.3829694,3.5004737,3.7762637,3.8003044,2.4673676,3.0137773,2.7684748,3.9404585,4.3956895,2.1765845,2.6692443,1.8892528,2.804414,3.5346568,2.879291,2.7136621,3.720821,3.8580136,2.5198495,4.6205087,2.1692927,3.3114626,2.2071207,4.7354865,0.04013506,4.189527,4.4372764,2.7186668,3.0047452,2.8462455,3.024801,4.4352207,1.8498242,2.1029723,4.006527,2.2526731,2.9766464,3.017265,3.5359638,2.4155262,1.1441616,3.7995996,4.258584,4.882135,4.007864,4.5467067,2.6883001,2.9757729,2.3006809,1.9113868,3.647414,2.216251,3.9461405,3.6394649,2.3653665,2.0519314,2.4586778,3.4174287,2.9010198,3.1838114,3.5166507,2.1712885,2.1551685,3.9751594,2.4220347,2.9580123,2.9802039,3.5771365,2.7066126,3.5631893,3.3583183,2.3725193,2.650345,4.586824,4.303107,3.1939,2.8108227,3.774909,3.0193293,2.9676447,3.4708993,3.2864785,3.1291811,3.0851743,2.2717497,2.6474676,3.4142997,4.1421046,4.2765245,3.9001794,3.1170218,3.0305998,3.51473,2.3753002,3.0608118,4.256659,3.0032775,4.055888,2.556682,3.3259754,4.5843306,3.8394034,4.88077,4.9187064,4.021911,2.9408429,2.785614,2.9681587,3.620908,2.414821,2.2722192,2.6968725,3.2981195,3.674442,3.5792866,3.64453,5.7930603,3.6452856,2.1413212,2.1673894,1.4648966,4.6153784,3.6013396,4.673123,3.5281518,2.7254877,2.854978,2.9382696,3.9833932,2.972914,4.5106177,2.96006,4.382835,0.41249955,3.1230736,4.2518153,3.0029113,3.9932687,3.7277343,2.267171,3.7988234,2.9324257,3.113296,3.8759744,3.6205246,2.926523,1.9595153,3.2865117,1.76852,2.8581445,2.5904706,3.6521637,3.5962102,2.9251244,3.467228,2.2295222,4.787785,3.8265913,4.600415,4.093897,2.4066982,4.9127607,4.2990932,3.8866742,2.084622,2.9496024,3.0200346,3.11424,3.4766014,3.6929276,3.8941038,2.679499,2.4812558,5.18603,3.549561,2.1753628,1.8355227,4.4650407,1.8809061,2.2683227,4.952559,3.4725032,3.2023141,2.4185684,2.0980482,2.683624,2.74511,4.1972203,3.7641828,2.9663284,3.540188,4.355625,4.4183774,4.0215907,3.7500086,3.054483,2.937288,3.4375794,2.744066,3.300248,2.3788116,5.0579443,3.665541,2.2794068,3.8548684,2.7052698,2.622988,3.6862252,3.8892832,2.7260323,2.7012277,3.058918,4.2804894,2.1144738,3.2517214,2.301077,3.1343532,3.002463,2.7956893,4.3666816,2.183189,2.4561462,3.114661,3.3446832,3.2737796,4.4917784,3.4127226,2.4424078,2.4915652,2.592786,2.369416,4.8786883,4.810794,2.8224049,2.7341719,3.4349878,4.8110857,2.2299294,1.8228861,4.303696,2.2948675,3.151434,2.3391562,3.301164,1.9847579,2.8112147,3.2261453,4.9472895,2.3691506,2.5147216,3.638632,3.6076388,3.0056872,2.7592733,3.1116557,2.03049,2.9775848,2.7811882,3.3681192,4.6033006,3.4141357,5.0788126,1.5378062,3.983141,2.8328538,3.1965454,2.9023128,4.6007314,4.474521,4.091876,3.8721776,3.0904474,3.4271426,3.9133754,3.1920018,3.605147,2.8209765,2.289261,3.4836416,2.8178122,3.3138664,2.9740615,4.320484,2.3879635,2.3781195,3.895845,4.121081,3.7820039,4.5932627,3.6700013,3.366591,3.0041282,3.4861283,3.5528386,1.9041498,2.6267636,4.172064,3.535454,2.811703,2.2789345,2.850856,2.5563915,3.6969445
COc1cc(-c2ccc3ncnc(Nc4ccc(F)c(O)c4)c3c2)ccc1O,4.059096,2.264608,3.036446,2.8620515,2.554447,2.5280993,3.757169,3.5699558,2.6951168,3.2681744,3.2277622,3.7529075,3.6811957,2.9013405,4.6705337,5.5952644,5.03345,3.8482575,4.3914137,2.6483498,3.295996,3.3989618,2.3076143,1.7979836,4.2684693,4.2955737,3.8557808,2.6484663,3.1445155,2.9659777,3.7290554,2.6407146,5.67987,2.2010767,3.5490732,3.4180973,2.4524832,3.931256,2.8731873,4.884295,2.322606,2.0479434,3.8009324,2.3750122,2.7071068,3.077323,3.1856322,3.027365,3.4050844,2.2439556,-0.28465647,3.4495637,3.6193967,1.6866342,4.7175393,4.102951,5.1474323,4.163237,4.564584,2.9718146,4.661568,4.4034643,4.28466,5.053718,3.70741,3.8974802,4.525939,3.504003,2.928696,3.756378,5.4247274,3.0666192,1.9503553,2.5215354,3.4898582,4.329556,2.8004014,2.7436397,2.167125,4.092999,2.1189053,4.3633947,3.0071673,4.3491673,5.8558545,4.331456,2.5248923,3.255002,2.5455217,3.7943537,3.324818,4.4885216,2.9256036,2.5457544,2.4268188,3.9301891,3.535749,2.7083704,4.6313806,3.973677,2.0944004,2.8472996,3.3184106,2.568267,2.4481301,3.1215217,4.1685166,2.8397639,4.089764,2.2843025,2.0468957,4.60189,2.6367426,3.7995083,3.5332053,3.6080139,5.2932305,3.753088,4.5536203,2.111365,2.8438618,2.7955337,2.785977,2.7255933,4.9153075,2.7742462,2.8120313,2.818736,4.836468,2.7758982,3.8849876,2.140439,2.7773054,2.6806262,2.8344045,4.9995656,2.6213787,3.833041,4.627219,4.978409,3.6240964,2.7200656,4.6513824,4.3346615,3.2421534,2.778991,3.0034406,3.6443868,2.8367233,1.7912813,2.6417615,4.383009,2.9447234,3.2265007,2.3087082,1.8288959,4.2483473,1.9621778,4.2999816,1.3009925,2.4145427,2.3306758,2.6830473,4.599971,2.3092234,2.882064,4.4593525,4.488162,3.188793,3.3675,-0.010674828,1.9420072,4.291405,3.7244954,3.979959,4.3798423,3.5342693,4.1118484,2.710571,3.4926665,2.4685593,2.7849581,3.2292066,2.975794,4.6346393,2.9239767,3.4722562,0.004529499,3.8779328,3.6126802,3.7192929,3.067834,2.5033786,4.800879,2.296523,4.0940986,2.8095622,2.27675,3.248135,3.9047308,3.2210655,4.092041,2.608957,2.3493967,3.320062,0.47284532,4.0465927,2.4539084,3.4489179,3.3861833,3.3070593,3.6653514,3.8003051,4.9133515,3.0137773,4.2914486,3.9404585,4.3861575,3.9613185,2.425863,1.8780628,2.804414,3.5672984,2.7831364,2.7136621,2.881969,3.3131738,2.5062206,4.628446,2.1692927,3.3114626,2.164277,1.7731088,3.186671,4.461531,3.3378775,2.488894,3.0047452,2.8462455,3.067233,4.4352207,2.229334,2.0827048,4.315045,1.7770777,2.9553163,3.0105832,3.5359638,2.4155262,5.31489,3.911912,3.2398264,4.1737494,4.1944146,4.5467067,5.1227274,2.9757729,1.9655505,2.4359035,3.091412,2.2041461,1.3728045,3.575305,2.3653665,3.691635,5.7959604,5.642678,2.9991465,2.93582,3.502014,2.7265668,2.1551685,3.9751594,2.4323378,3.6321435,2.9802039,3.9391322,2.4748335,3.4820921,3.3583183,2.344189,2.6561975,4.5565696,4.3162503,3.1939,2.3803082,3.768059,1.7872984,2.9676447,3.446826,3.1877499,3.0746968,3.137302,4.333496,2.6474676,3.3975923,4.181731,4.2884808,3.9001794,2.9466522,3.561927,2.5074472,1.7883525,2.0710974,3.0272124,2.9413047,4.0424438,2.5414655,3.3259754,4.4500337,3.6537294,4.752233,4.9187064,3.0187633,5.0215583,2.7856154,2.2664971,3.7173176,2.4148216,2.3682432,2.753004,3.2981195,3.5185637,3.6000116,3.656943,5.2071953,2.8769531,1.9187227,1.6533012,4.6858664,4.8165607,3.4089117,4.403126,3.528855,2.8124158,2.0943835,2.3382065,3.583245,3.8075356,4.5106177,2.841136,4.382835,2.2829902,3.0913372,4.2583127,3.0029113,4.1988387,3.7207694,2.267171,3.8067436,2.9479,2.6442802,2.985322,3.6205246,2.7437432,4.1674433,3.2009692,3.533565,2.8581445,2.5904706,3.6321921,3.5294175,2.9251244,3.6460178,2.2295222,3.292697,3.744683,4.600415,3.9078202,2.918302,4.9127607,4.2965198,3.8866742,4.6220922,2.139415,2.910216,3.0929496,2.8628507,3.6929276,4.015867,3.122561,2.4445508,3.9134521,2.2379832,1.7644786,1.6672816,4.4650407,3.485098,1.8106246,-0.11229147,3.487237,3.302676,2.3867629,2.119894,2.5909305,2.7458112,4.1569185,2.9523094,2.9718707,3.5141172,4.364621,4.509137,3.762426,3.7500086,6.4867663,3.1048064,2.6149943,2.1796649,3.300248,1.8311214,5.0413327,3.6976717,2.2378109,3.9587715,2.1403143,2.1707067,3.2796822,3.5888486,2.9376814,2.7012277,3.058918,4.0949097,2.0967913,3.1736696,2.281906,3.1343532,4.4043097,3.977356,4.356274,2.4471512,2.5082455,3.0746593,2.8815234,2.382556,5.1003757,3.4127226,2.4486017,2.4915652,2.5652032,2.369416,4.8786883,5.441359,2.849806,2.648418,2.1533926,4.8005495,2.2299294,1.8228861,4.1389685,2.5954404,2.9767215,3.2288747,3.301164,2.5435147,2.784632,2.684349,1.4064286,3.6183598,3.0304055,3.7906497,2.5368385,2.8816903,3.4617624,3.1116557,2.0747385,2.7464433,2.8664815,3.415641,4.6033006,2.892217,5.065503,4.5785356,3.9664998,2.5610485,3.1965454,2.7268376,4.5887923,4.474521,2.7793875,3.8721776,3.9112713,3.4271426,3.9133754,3.0647342,3.5420446,2.927277,2.3986342,2.7239406,2.5286376,3.315688,2.5187824,3.3376706,4.6432385,2.3950827,3.9592304,2.8633149,3.592614,3.8056135,3.6700013,2.802349,2.7214243,2.797756,3.5528386,2.5420294,2.587105,4.181024,3.535454,2.4734457,4.2529793,2.843541,3.9052339,3.7053354
Oc1c(F)ccc(Nc2ncnc3ccc(-c4ccc(Cl)cc4)cc23)c1F,4.083128,2.264608,3.1271052,3.6964972,2.6297755,2.497037,2.141273,3.5699558,1.6832836,1.1559203,2.8212788,3.7364805,3.347895,3.163055,5.5837936,2.5596902,4.2075686,3.861438,4.403743,2.8061767,3.295996,3.3991082,2.1442213,3.7676606,4.443447,4.315836,3.8557808,1.9958587,3.3993545,3.0099874,4.1418886,2.4809728,0.8195188,2.35418,3.5490732,3.2347739,3.8721569,3.8046794,4.2988906,5.149606,2.3366525,2.0737333,3.7761965,2.1276097,2.7196312,3.2344494,3.1856322,3.027365,1.9763863,2.1472373,3.5734713,3.2580154,3.6193967,1.7441056,4.3640738,4.09913,4.656401,4.1680603,5.1219563,2.972142,4.3309274,4.42075,4.28466,5.5401425,3.70741,3.616012,3.8856745,3.504003,2.6828675,3.7485228,3.54224,2.4702296,1.9503553,2.7232192,2.1126618,4.22057,3.1655767,2.5798485,2.1857219,2.5229154,2.1189053,4.7773557,3.0287116,4.3544726,4.9947176,4.757131,2.6432574,1.3649771,2.509763,3.7943537,3.212955,4.4885216,2.9256036,2.7135437,2.4176226,3.9181864,3.5393708,5.007079,5.0403953,4.5899878,2.1189017,2.8472996,3.4380715,2.6532292,1.9137983,2.99366,4.1685166,1.1871753,3.4492722,2.2923498,1.9371562,4.599325,2.462705,3.7995083,4.2318354,3.1756184,5.266717,3.319388,5.1646523,3.0254784,3.0593305,2.7471855,2.785977,3.0411055,3.4623299,2.7179859,2.8467915,2.8734133,4.9287167,2.817778,3.8849876,2.5890396,3.6464322,3.0129187,2.8344045,4.9995656,3.6910818,3.7282856,4.6509833,3.7666972,3.6330762,2.7200656,4.9668484,4.6399016,3.4317603,4.2431707,3.1367447,4.722332,2.8899894,1.9165808,2.4358091,3.3729079,2.8530152,3.1912098,2.6236284,1.8288959,3.9477692,1.9621778,0.89267445,4.442536,2.4145427,2.741674,3.5065343,4.599971,2.3330622,2.882064,4.458833,4.236238,3.200486,4.173767,4.99613,1.9733346,4.291405,2.6314025,3.979959,4.7332506,1.020706,2.088382,3.1742592,3.5786986,2.0692983,3.493783,3.2292066,2.9596972,4.6346393,3.415344,3.4722562,3.7945592,3.380718,3.6126802,3.7192929,3.067834,2.4193594,4.800879,2.308761,3.5402014,2.8082042,1.5695164,2.9213119,3.8902237,2.8447676,4.106082,1.2428741,3.350683,3.117615,4.562383,4.0465927,2.4539084,3.453037,3.6140914,3.7008219,3.4814475,3.6504474,4.354372,3.0137773,3.7499833,3.9404585,4.3956895,3.9722033,2.5742655,1.8877581,2.804414,3.8733144,2.9155948,2.7136621,2.6574876,3.3212142,2.5198495,4.6205087,2.1692927,3.3114626,2.2071207,4.689179,5.355385,4.695439,3.222019,2.6316369,3.0047452,2.8462455,3.0266829,4.4352207,2.6081076,2.1029723,5.0166793,1.7770777,2.9766464,3.017265,3.5359638,2.4155262,5.558804,4.193121,3.1696825,3.4771311,3.6891682,4.5467067,4.6979876,2.9757729,2.1418717,2.7405102,3.091412,2.216251,3.5539124,2.8740163,2.3653665,4.115025,5.527098,4.1642756,3.2313216,1.7917813,3.3630083,2.2243736,2.4593968,3.9751594,2.4220347,2.573595,2.9802039,2.5979514,2.4748335,1.5721757,3.3583183,2.3725193,2.650345,4.586824,4.303107,3.1939,2.383989,3.774909,1.833454,2.9676447,3.4708993,3.321313,3.1048343,3.0851743,3.7982554,2.6474676,3.4142997,3.5807743,4.2765245,3.9001794,2.9466522,3.326634,2.414285,1.5744349,4.043583,2.4494414,3.0032775,4.055888,2.5414655,3.3259754,5.039393,3.2633219,5.3144965,4.9187064,2.933108,2.730346,2.7688584,2.2082157,3.4341624,2.3490214,2.5004508,2.6968725,3.2535782,0.2784617,3.5792866,3.64453,0.86674106,1.6304035,2.0139525,1.6813072,4.6808734,5.1105027,3.4089117,5.18941,3.1893096,2.7290473,3.166613,2.3382065,2.9536335,2.9789102,4.5106177,2.7971613,4.382835,4.594814,3.1180995,4.2518153,3.0029113,3.7605095,3.7207694,2.267171,3.5600042,2.9785287,2.6442802,2.874643,3.6205246,2.1537206,4.6039433,3.2009692,4.4328985,2.8581445,2.5904706,3.3500242,3.5093598,2.9251244,3.8143833,2.2295222,3.165471,3.5481744,4.600415,3.5695698,2.7894957,4.9127607,4.2990932,3.8866742,4.0792136,2.139415,3.0228443,3.11424,2.356355,3.6929276,4.4732633,4.320055,2.7069151,3.7587779,3.712708,1.7644786,3.487334,4.4650407,3.7032418,1.6933117,4.8839536,3.4725032,3.0787046,2.4185684,2.0980482,2.9433305,2.74511,4.2946906,2.9523094,2.9663284,3.540188,4.355625,5.0694885,4.1575184,3.7500086,5.0142555,3.083623,1.5992295,2.1650896,3.300248,1.8311214,5.0579443,4.1994314,2.2757065,3.5978558,2.4883804,2.100144,5.449514,3.4424002,3.156899,2.7012277,3.058918,0.95796174,2.0955796,2.7201426,2.301077,3.1343532,4.178916,4.597263,4.3666816,2.0566738,2.4561462,3.114661,3.4790647,2.382556,3.852884,3.4127226,2.4424078,2.4915652,2.592786,2.369416,4.8786883,0.79694545,2.85538,2.648418,3.423238,4.8110857,2.2299294,1.8228861,4.8181458,2.6730316,3.0007362,2.6601257,3.1193194,1.9847579,2.8112147,1.3444906,4.0265293,4.058114,4.1436014,4.049268,2.5368385,3.023605,3.6962647,3.1116557,4.179466,2.7464433,2.4344654,3.0376098,4.6033006,2.8449879,5.0788126,4.393247,3.6684706,2.5610485,3.1965454,2.9310575,4.6007314,4.474521,3.5826135,3.8721776,3.0978105,3.4271426,3.9133754,3.0647342,3.6911469,3.2931654,2.5309649,3.7085063,1.9243867,3.3138664,4.0871167,3.3388212,4.2564335,2.3781195,3.758898,2.7269542,4.5115895,0.74906343,3.6700013,2.802349,2.7214243,3.7623198,3.5528386,2.5471716,2.7008374,4.172064,3.535454,1.0338532,3.236916,2.850856,4.071556,3.6969445
NC(=O)c1cccc(-c2ccc3nccc(Nc4cccc5[nH]ncc45)c3c2)c1,3.9748516,2.165153,3.1099212,3.435094,1.8853171,2.9093037,3.1347234,3.4153152,3.1545641,2.8328207,3.2773304,3.6179903,3.627915,2.127988,4.7263036,4.661443,4.504627,3.780939,4.2574153,2.6531198,3.076428,3.4344304,2.238611,3.86564,3.7474048,4.327937,3.7734292,2.271198,2.6484303,2.4976308,2.0120258,2.2008379,2.8503482,2.2874916,3.5273705,4.14376,1.3708715,4.0255556,3.1052563,4.362142,2.3273895,2.6728487,3.9001596,2.7267606,2.7273693,2.306,3.3704515,2.895081,3.3506925,2.4826906,2.700776,3.6014953,3.6753416,1.9984761,2.0063906,4.110319,2.5071962,4.1258783,4.4147396,2.967738,3.5052593,4.2834616,4.440276,3.2481682,3.689372,3.8476112,3.0048354,3.5680535,4.282279,3.6928418,3.5164464,1.7707229,2.3038087,2.4419284,3.7138,4.401844,2.848891,2.6469235,2.140298,3.9434328,2.1075613,3.882937,3.0553536,4.218534,5.4074807,4.203155,2.7282333,3.0408127,2.8417892,3.7404633,3.3102462,4.335512,3.6527789,2.8419137,2.3779924,3.7294188,3.5157213,4.075375,4.3343573,2.7761323,1.8714622,2.8537545,3.2854815,2.3271515,2.114409,2.2187746,4.191311,4.4058857,2.6972804,2.5354686,1.8977752,4.5025,2.3079174,3.7787676,2.7972522,3.359491,5.049264,3.0333276,4.9423337,3.1063504,3.049445,3.497895,2.6137958,2.3069654,3.4919438,2.4548235,2.4633455,2.9837575,3.592222,2.82107,3.8861613,2.090841,2.949705,3.2341557,3.1101258,4.9472413,3.0598376,3.4701393,4.4983563,3.3659158,3.6062217,2.61833,4.609706,3.258283,3.0510428,4.7448826,2.8851423,3.218677,2.9278245,2.0891976,3.4460578,2.8625813,2.9501147,3.1247194,2.3432734,1.9325746,3.6687214,1.8842887,4.3280888,5.585208,2.3844624,2.434582,3.1309307,4.5419106,2.1628366,2.8883479,3.702485,1.5112246,3.0754683,2.8635242,5.0810094,2.379128,4.3357663,2.6721048,4.0628834,3.632031,3.6641276,5.953043,2.884638,2.7439241,2.0453324,3.807443,3.0260556,2.6284344,4.65177,2.2686136,3.4718094,3.5746646,3.5801327,3.654764,3.6526792,2.394867,2.3696504,4.5754128,2.3568392,2.8860564,2.9200912,1.8144519,2.9862704,3.732953,1.9087392,4.044188,2.384237,2.64814,3.530531,2.9721045,2.9415672,2.5029082,3.305676,3.2337396,3.2371953,3.5834541,3.7328267,4.479066,3.0621839,2.633022,3.684765,4.559802,3.0136983,2.613253,2.1498053,2.7425077,3.5346568,2.3641248,2.5917656,3.2983181,3.268202,2.4698973,4.665983,2.0795588,3.0461047,2.219742,4.7354865,3.193019,4.3569007,4.1378565,2.7337203,2.7741063,2.935077,3.1107771,4.467143,1.6689377,2.3926375,2.6940954,1.8204728,3.0771735,3.0478516,3.656172,2.4671762,3.2051876,3.858598,3.943374,4.877582,3.8739247,4.590247,2.183925,3.0170534,2.2356415,2.6930907,3.647414,2.1772015,3.9461405,3.6394649,2.5181344,3.045404,3.801456,3.4174287,3.1639185,3.1537066,3.522729,2.1712885,2.4236968,3.9495542,2.629606,2.8337674,3.025002,4.251906,2.4121115,3.5317533,3.302464,2.1781533,2.694167,4.517856,4.2352467,3.3028448,2.5845194,3.8004632,1.8707516,2.9005754,3.4240682,2.8940487,3.1693907,3.2434,3.50943,2.6223938,3.236506,4.058162,4.077015,3.8051078,3.1170218,3.1096768,3.1110773,2.4041362,3.3843358,4.201333,3.0581348,3.9071362,2.395974,3.3577185,4.839458,3.632571,4.3742495,4.980978,3.604346,2.8129325,2.6897898,2.4531517,3.4866679,2.427663,2.2888896,2.2643423,3.213622,4.684224,3.4042861,3.4872253,3.1042058,3.588637,1.8727411,2.1673894,3.3684528,4.2116785,3.6013396,4.4714365,3.4656045,2.961766,2.641229,2.8663297,3.9833932,3.0849342,4.538101,3.1683898,4.1048646,3.3136203,2.788892,4.11882,2.9470425,3.9494286,3.713805,2.4241636,3.6340206,2.6477568,3.113296,3.3993025,3.5892425,2.923099,2.540169,3.2865117,1.9016255,2.8623452,2.4287117,3.646887,3.5076964,2.9291375,3.41407,1.9369342,3.8279102,3.6016169,4.6587353,4.0034757,2.4348714,4.7935023,4.362481,3.8980064,4.7691126,2.796439,2.8424604,2.924226,3.2634022,3.6832051,4.013088,2.7341475,2.6664186,4.142389,3.7320628,2.169231,5.0321484,4.4220347,2.3806155,2.9698262,4.952559,3.4995956,3.7040794,2.6289706,2.3248773,2.5550427,2.727985,4.281915,3.7641828,2.844505,3.320136,4.1857734,4.2910013,4.3162355,3.7476737,3.1624846,2.9799998,2.9645693,2.3698251,3.2720146,1.7520066,4.8860245,3.7751985,2.7062666,3.7623682,2.7052698,2.436403,4.335448,3.8892832,2.4627154,2.8014476,3.03517,3.6171038,2.1144738,3.2517214,2.5190642,3.417251,6.453101,2.7956893,4.2348614,2.183189,2.6634202,3.160277,3.3553638,3.0453904,4.4917784,3.3615637,2.6187642,2.3329644,3.0685155,2.5194783,4.6874757,4.685615,2.6664321,2.7341719,3.3151798,4.7221737,2.0145922,1.8942744,4.3812447,2.2948675,3.151434,4.8318853,3.291787,1.956076,2.9256449,2.6205537,5.3770247,2.41634,6.2072473,3.358898,2.4548264,2.907902,2.4571524,3.0059435,3.2184813,2.9775848,2.5126605,3.505358,4.522883,3.4141357,4.9894266,2.763457,4.256704,2.8328538,3.2513955,2.7404697,4.456783,4.528485,4.091876,3.795275,3.003549,3.4315965,3.857034,3.1920018,3.54374,2.7236032,2.289261,4.9216785,2.8178122,3.296779,2.6862433,3.2438452,4.4410334,2.3811915,3.9603214,3.614732,3.7820039,3.3062088,3.5912466,3.3249702,2.6893938,3.7347684,3.5786517,2.443484,2.686742,3.9969227,3.3746936,1.9689854,2.2789345,2.5926023,2.5563915,3.8430228
COc1cc(-c2ccc3ncnc(Nc4cccc(N)c4)c3c2)ccc1O,4.059096,2.264608,3.0524776,2.9386039,2.8304408,2.5280993,1.7843916,3.5699558,2.6951168,3.2681744,3.2277622,3.7529075,3.6811957,2.3036857,4.8298407,0.9155852,1.2406417,3.8482575,4.3914137,2.6483498,3.295996,3.3989618,2.2845824,6.340221,1.3229562,4.2955737,3.8557808,2.269548,3.0818741,1.9922078,1.8893791,1.3766721,4.106407,2.2010767,3.5490732,3.4180973,4.049583,3.931256,2.9364386,4.995899,2.322606,2.0479434,3.8009324,2.4199274,2.7071068,2.3847854,3.1856322,3.027365,1.4391437,2.2439556,6.3942757,3.4495637,3.6193967,1.6866342,2.2407598,4.102951,1.9284767,4.163237,4.6202145,2.9718146,2.9610074,4.4034643,4.28466,2.4509342,3.70741,3.8974802,1.4592274,3.504003,2.928696,3.756378,2.368024,1.9280121,1.9503553,2.5215354,2.1568942,4.329556,2.8004014,2.7436397,2.0311716,2.134803,2.1189053,4.350539,3.0071673,4.3491673,2.5369778,4.4329348,2.5991166,2.6773334,2.5723975,3.7943537,3.324818,4.4885216,2.9256036,2.6537209,2.4268188,3.9301891,3.535749,2.4349904,4.654316,2.07732,2.0944004,2.8472996,1.7486955,2.568267,2.9928622,2.1496472,4.1685166,2.8397639,1.3814828,2.2843025,2.0551121,4.60189,1.0261956,3.7995083,2.6443608,3.6080139,5.2932305,2.8156154,4.535092,2.3893971,2.5148385,2.7955337,2.785977,2.7287438,1.5686262,2.7742462,2.826839,2.818736,1.2520151,2.7758982,3.8849876,2.140439,2.7773054,3.768909,2.8344045,4.9995656,1.4917023,3.833041,4.627219,1.6519016,3.6240964,2.7200656,4.6878467,3.2155383,3.2421534,3.801321,3.0034406,3.2642283,2.8367233,1.7912813,2.6417615,2.5300558,2.9447234,3.2265007,2.2247908,1.8288959,2.6476145,1.9621778,3.1402185,2.3279488,2.4145427,2.3306758,3.08698,4.599971,2.3092234,2.882064,4.497432,1.5209682,3.188793,4.9987946,3.6984098,1.9420072,4.291405,2.4312365,3.979959,4.432207,1.6854182,1.3167479,3.341787,2.0887387,2.3093328,1.5803735,3.2292066,2.975794,4.6346393,3.0758445,3.4722562,3.9245214,3.8779328,3.6126802,3.7192929,3.067834,2.5033786,4.800879,2.296523,2.0931482,2.8095622,2.27675,1.5788052,3.9047308,1.2474841,4.092041,2.5023346,2.3493967,3.320062,2.777241,4.0465927,2.4539084,3.4489179,3.436546,3.3116353,3.6653514,3.8003051,1.4848429,3.0137773,1.7937632,3.9404585,4.3861575,2.1765845,2.425863,2.40337,2.804414,3.4510882,2.7420902,2.7136621,2.881969,3.3131738,2.5062206,4.628446,2.1692927,3.3114626,2.164277,3.7814195,5.71207,4.4976974,3.3378775,2.488894,3.0047452,2.8462455,3.067233,4.4352207,2.4313016,2.0827048,4.3685412,1.7770777,2.9553163,3.0105832,3.5359638,2.4155262,2.806313,3.9484978,3.2398264,4.2737103,4.1944146,4.5467067,1.6146151,2.9757729,1.9655505,2.7096786,3.091412,2.2041461,4.470333,1.7610409,2.3653665,3.774128,2.9500718,1.8189611,3.0751348,3.1196063,3.502014,1.2241293,3.6594899,3.9751594,2.4323378,2.4541795,2.9802039,1.4657897,2.4748335,2.7021084,3.3583183,2.344189,2.6561975,4.5565696,4.3162503,3.1939,2.3803082,3.768059,1.7872984,2.9676447,3.446826,3.1877499,3.0746968,3.137302,1.7472891,2.6474676,3.3975923,4.181731,4.2884808,3.9001794,2.9466522,1.8889488,2.5074472,1.6216955,2.059884,3.0272124,2.9413047,4.0424438,2.5414655,3.3259754,4.3811665,3.6537294,4.8215065,4.9187064,3.0187633,2.163708,2.7856154,2.2664971,3.7173176,2.4148216,2.346725,2.753004,3.2981195,3.5185637,3.6000116,3.656943,3.2575917,2.8769531,1.9187227,1.6533012,1.7781943,4.8836246,3.4089117,4.4860926,3.528855,2.8124158,2.0943835,2.3382065,3.7876112,1.4789299,4.5106177,2.841136,4.382835,3.707049,3.0913372,4.2583127,3.0029113,4.1988387,3.7207694,2.267171,3.8067436,2.9479,2.6442802,2.985322,3.6205246,2.7437432,3.2155905,3.2009692,1.945327,2.8581445,2.5904706,3.6321921,3.5294175,2.9251244,3.6568193,2.2295222,3.292697,3.744683,4.600415,3.9078202,2.0549052,4.9127607,4.2965198,3.8866742,1.3974334,2.139415,2.910216,3.0929496,2.5868926,3.6929276,4.0645413,2.700211,2.4445508,3.9134521,2.4093192,1.7644786,2.128659,4.4650407,2.6685917,1.895818,5.150771,3.487237,3.302676,2.3867629,2.119894,2.6292083,2.7458112,4.1755934,2.9523094,2.9718707,3.5141172,4.364621,4.5885553,3.8123512,3.7500086,2.1290412,1.6625957,2.6149943,2.1796649,3.300248,1.8311214,5.0413327,1.2056562,2.2378109,3.9587715,2.5624313,2.1707067,3.4046297,3.8946612,2.1114085,2.7012277,3.058918,2.9577348,2.0967913,3.869476,2.281906,3.1343532,1.7052145,1.8460977,4.356274,2.4630213,2.5082455,3.0746593,4.193851,2.382556,1.6119407,3.4127226,2.4486017,2.4915652,2.5652032,2.369416,4.8786883,3.320224,2.849806,2.648418,2.969063,4.8005495,2.2299294,1.8228861,4.146268,2.613848,2.0503604,1.6568134,3.301164,2.5435147,2.784632,2.3666296,5.806182,1.6066103,0.8826398,3.9214494,2.5368385,2.8816903,3.5322175,3.1116557,3.3614318,2.7464433,2.0632899,3.415641,4.6033006,2.892217,5.065503,2.1580145,3.9664998,2.5610485,3.1965454,2.7268376,4.5887923,4.474521,2.7793875,3.8721776,4.2778783,3.4271426,3.9133754,3.0647342,3.5420446,3.0031352,2.280224,3.0846822,1.9243867,3.315688,2.4103885,3.3376706,1.5559448,2.3950827,3.9592304,2.8633149,3.6307805,2.9096723,3.6700013,2.802349,2.7214243,3.7255795,3.5528386,1.9944258,2.587105,4.181024,3.535454,2.1819174,1.9205923,2.843541,1.3822463,3.7053354
