,0,1,2,3,4,5,6,7,8,9,10,11,12,13,14,15,16,17,18,19,20,21,22,23,24,25,26,27,28,29,30,31,32,33,34,35,36,37,38,39,40,41,42,43,44,45,46,47,48,49,50,51,52,53,54,55,56,57,58,59,60,61,62,63,64,65,66,67,68,69,70,71,72,73,74,75,76,77,78,79,80,81,82,83,84,85,86,87,88,89,90,91,92,93,94,95,96,97,98,99,100,101,102,103,104,105,106,107,108,109,110,111,112,113,114,115,116,117,118,119,120,121,122,123,124,125,126,127,128,129,130,131,132,133,134,135,136,137,138,139,140,141,142,143,144,145,146,147,148,149,150,151,152,153,154,155,156,157,158,159,160,161,162,163,164,165,166,167,168,169,170,171,172,173,174,175,176,177,178,179,180,181,182,183,184,185,186,187,188,189,190,191,192,193,194,195,196,197,198,199,200,201,202,203,204,205,206,207,208,209,210,211,212,213,214,215,216,217,218,219,220,221,222,223,224,225,226,227,228,229,230,231,232,233,234,235,236,237,238,239,240,241,242,243,244,245,246,247,248,249,250,251,252,253,254,255,256,257,258,259,260,261,262,263,264,265,266,267,268,269,270,271,272,273,274,275,276,277,278,279,280,281,282,283,284,285,286,287,288,289,290,291,292,293,294,295,296,297,298,299,300,301,302,303,304,305,306,307,308,309,310,311,312,313,314,315,316,317,318,319,320,321,322,323,324,325,326,327,328,329,330,331,332,333,334,335,336,337,338,339,340,341,342,343,344,345,346,347,348,349,350,351,352,353,354,355,356,357,358,359,360,361,362,363,364,365,366,367,368,369,370,371,372,373,374,375,376,377,378,379,380,381,382,383,384,385,386,387,388,389,390,391,392,393,394,395,396,397,398,399,400,401,402,403,404,405,406,407,408,409,410,411,412,413,414,415,416,417,418,419,420,421,422,423,424,425,426,427,428,429,430,431,432,433,434,435,436,437,438,439,440,441,442,443,444,445,446,447,448,449,450,451,452,453,454,455,456,457,458,459,460,461,462,463,464,465,466,467,468,469,470,471,472,473,474,475,476,477,478,479,480,481,482,483,484,485,486,487,488,489,490,491,492,493,494,495,496,497,498,499,500,501,502,503,504,505,506,507,508,509,510,511
COc1cc(-c2ccc3ncnc(Nc4ccc5nc[nH]c5c4)c3c2)ccc1O,4.059096,3.5292044,3.0202253,3.565719,2.5248778,2.5280976,1.7843916,3.5699565,2.6951177,3.2681746,3.2277646,3.7529063,3.6811972,1.8274221,4.6677246,2.7211776,2.550352,3.848259,4.3914123,2.6483498,3.5234795,3.3989618,2.2845838,1.4608549,2.5595691,4.2955728,3.9414587,2.269551,3.135536,1.9922063,1.8893776,1.5199697,4.106406,2.4930406,3.5490751,3.418097,5.573498,3.9312556,2.873186,4.836179,2.322607,2.0479424,3.8009305,2.3910413,3.15314,2.074694,3.1856327,3.0273645,1.650942,2.2439544,1.6516688,3.4495633,3.619397,2.0668008,1.6472849,4.1029506,1.9284767,4.1632347,4.5374846,2.9718158,2.9610102,4.4034653,4.284661,2.450934,4.078028,3.8974817,1.4592265,3.89296,2.9286952,3.7563787,2.6071677,1.9499317,1.9503562,2.521536,2.1189423,4.3295555,2.8004,2.743641,2.0311713,2.1348038,2.338649,4.335657,3.1020062,4.349168,2.2793186,4.287866,2.4850674,2.677334,2.4823158,3.7943547,3.3248184,5.261468,2.9256039,2.7949183,2.4268203,3.9301887,3.5357475,2.0197902,4.6332784,2.0773194,2.0944004,3.224697,1.7486947,2.5682664,2.7778256,2.5962586,4.168517,2.8397646,1.3814789,2.4740493,1.981049,4.601889,1.918152,3.7995067,2.64436,3.608015,5.293232,2.815617,4.591483,2.1113648,2.5148373,2.7955325,2.7859774,2.6866477,3.0402458,2.774245,2.7928894,2.8187373,3.035913,2.775899,4.5663114,2.4373708,2.777304,2.5988684,2.834405,5.3441176,2.9742815,3.8330374,4.6272206,2.8500788,3.6240983,3.3162637,4.56802,3.2155375,3.242152,2.0986955,3.0034382,2.161249,2.8367229,1.7912804,2.6417603,2.5300586,2.944725,3.2265012,2.2247913,1.8288981,2.647615,1.9621767,3.140219,2.187949,2.4145422,2.3306756,2.6830456,4.599972,2.309224,2.8820662,4.4042726,1.5496595,3.1887915,3.372804,1.0601358,1.9420068,4.2914057,2.4312353,3.979961,4.347305,2.63892,3.951821,3.391642,2.0887392,2.5063305,1.580372,3.2292078,2.9757938,4.6346393,2.9454682,3.4722567,4.5930033,3.8779316,3.6126797,3.719293,3.0678327,2.5033793,5.608481,2.3195906,2.4941862,2.8314767,2.27675,1.6823158,3.904729,1.4499855,4.0920405,2.5023332,2.349396,3.3200629,4.968454,4.0465918,2.4539087,3.4489179,3.3682477,3.2799673,3.6653519,3.8003037,2.670722,3.0137763,1.7937617,4.8204947,4.386159,3.2546334,2.425863,2.1899447,2.804414,2.6926303,2.7420902,2.7629495,2.8819716,3.3131726,2.506221,4.6284447,2.2094,3.3114626,2.1642783,5.669344,3.186673,4.4318385,3.3378751,2.4888952,3.1081886,3.3619087,3.0672328,5.16311,2.6407487,2.266331,4.105651,1.9751289,3.1562753,3.0105827,3.535964,2.8618164,2.8063128,3.8651092,3.239827,5.00921,4.194414,4.5467086,2.0311368,3.573732,2.354847,2.021204,3.091416,2.3142679,4.090993,1.7610396,2.3653665,3.691637,2.950068,3.3083215,2.9425917,2.935821,3.5020149,2.124467,2.1551697,3.975159,2.5369372,2.4452066,3.4716845,3.4407723,2.4748335,2.7021074,3.5989268,2.542666,2.6561956,4.556571,4.316248,3.704588,2.4583695,3.7680585,2.3983767,2.9676433,3.4468255,3.1877472,3.0746949,3.137303,1.7747246,2.6474679,3.3975909,4.1817317,4.2884808,4.156518,3.1883318,1.9153143,2.5074487,1.9382259,2.059885,3.0272129,3.3632898,4.0424447,2.5414648,3.3259745,4.4192324,3.6537337,4.6819572,4.918708,3.0187626,2.8431926,2.7856154,2.266496,3.7173173,2.41482,2.355159,2.7530046,3.2981205,3.5185664,3.6000128,3.656943,4.103506,2.876952,1.9187222,2.1536236,1.4969525,4.7399096,3.4089124,4.384715,3.528855,2.8124163,2.0943816,2.3382077,3.850832,1.4789312,4.5106177,2.841137,5.1399813,5.318041,3.0913358,4.258314,3.063997,4.1988397,3.8190632,2.6084237,3.8067455,2.947901,2.6442797,2.985322,3.6205246,2.7437441,3.215591,3.2009695,1.9453261,2.8581467,2.59047,3.6321926,3.5294166,2.9251242,3.6396396,2.4620304,3.2926958,3.7446852,6.0930233,3.9078217,2.0549045,4.9127593,4.2965193,3.8866718,1.3630289,2.1394167,2.9102166,3.0929506,2.5153122,3.6929271,3.9213097,2.7002096,2.4445539,3.9134514,3.418152,1.7644774,1.5387744,4.465039,2.6685905,1.7507856,5.295465,3.4872365,3.3026748,2.6186478,2.1206198,2.550542,2.7458112,4.100354,2.9523118,2.971872,3.5141158,4.36462,4.4170794,3.7776067,3.7500052,2.1290405,1.7689897,2.6149964,2.1796663,3.3980737,1.9223143,5.041334,2.0952065,2.2378078,3.958772,2.404333,2.1707067,4.10294,3.48553,2.1114087,3.275525,3.0589178,2.9577343,2.197655,3.1736698,2.2819064,3.1343539,3.1814241,2.9364216,4.356275,2.876062,2.5082455,3.0746624,3.8086185,2.3825562,3.660377,3.6274898,2.729311,2.5166056,2.565204,2.3694186,6.21804,3.3202238,2.8498049,2.6484177,3.021284,4.800549,2.2299287,2.156898,4.0870795,2.5506916,2.5008464,2.0267544,3.3011627,2.659547,2.784632,2.3666298,4.736701,1.7409745,1.0622555,3.6985688,2.5368404,2.88169,3.4055738,3.111656,2.0747373,2.7464442,2.0632894,3.4156435,4.603301,2.8922162,5.065506,2.1077943,3.966499,2.561049,4.1732054,2.7268386,4.588794,4.6794267,2.7793868,3.872178,3.9112732,3.4271398,3.9133754,3.0647354,3.579902,2.947889,2.2802246,1.834747,2.6083584,3.315687,2.410386,3.3376696,2.2413442,2.3950822,3.9592302,2.8633134,2.3042612,2.9096727,4.011132,3.2020693,2.7214253,2.3599627,3.5528367,1.9944258,2.82102,4.181024,3.8782842,2.1819174,2.542038,2.843541,2.2998953,3.705334
COc1ccc(-c2ccc3ncnc(Nc4cccc(O)c4)c3c2)cc1,4.059096,3.0425966,3.0580819,2.3571935,2.6069827,2.5280976,3.3628466,3.5699565,1.6344694,2.1327395,2.8212786,3.7529063,3.4696033,3.0425372,4.814676,5.501066,3.698662,3.848259,4.3914123,2.8061757,3.2959955,3.3989618,2.144222,3.9378786,3.413714,4.2955728,3.8557813,2.0109613,3.115498,2.3685677,3.6684346,2.5046172,2.9514496,2.201078,3.5490751,3.2347732,1.5367591,3.804679,2.681549,4.971638,2.322607,2.267203,3.8009305,2.4715433,2.7071087,2.2329597,3.1856327,3.0273645,3.734495,2.1472375,4.9481997,3.2432697,3.619397,1.6866313,3.4784722,4.1029506,5.0121164,4.1632347,4.6494117,2.9718158,2.869766,4.4034653,4.284661,4.4452667,3.7074094,3.630666,2.956279,3.504003,2.555825,3.7563787,4.413028,1.9559762,1.9503562,2.521536,3.4705606,4.2205696,2.7725492,2.6470637,2.1958039,3.5084324,2.1189053,4.3870287,3.0071678,4.349168,6.434256,4.5057974,2.6495535,3.382119,2.5661898,3.7943547,3.2129574,4.48852,2.9256039,2.5457535,2.4268203,3.9301887,3.5357475,6.258057,4.69705,3.492638,2.0944004,2.8472996,3.4811509,2.5682664,2.92608,2.1496458,4.168517,1.5452791,2.8863866,2.284303,2.0700428,4.601889,2.5854435,3.7995067,2.64436,3.175619,5.293232,2.06172,4.5054827,2.3554907,2.873264,2.7471843,2.7859774,2.729798,3.875835,2.774245,2.8519216,2.8187373,4.2911534,2.7130077,3.884987,2.1723359,2.777304,3.665759,2.834405,4.999567,1.3576518,3.8360753,4.6272206,4.120625,3.6240983,2.720063,4.6997204,2.7366037,3.242152,3.4882238,3.0034382,5.1464777,2.8367229,1.9165802,2.1829722,2.043273,2.853015,3.2265012,2.2247913,1.8288981,3.5971541,1.9621767,4.568386,5.2032313,2.4145422,2.3306756,3.4959805,4.599972,2.309224,2.8820662,4.541018,4.5828834,3.1887915,3.411977,5.068728,1.9420068,4.2914057,3.0013173,3.979961,4.430751,3.5550344,3.5992317,2.780927,3.1157043,2.2922916,3.4802024,3.2292078,2.9757938,4.6346393,3.1125963,3.4722567,4.998713,3.4085796,3.6126797,3.719293,3.0678327,2.5033793,4.800879,2.2965207,2.9652607,2.8095624,1.5561875,3.2163825,3.904729,3.4530542,4.0920405,2.5097604,2.349396,3.122986,-0.29188484,4.0465918,2.4539087,3.4489179,3.4218683,3.3127346,3.4814482,3.6504486,3.7787538,3.0137763,1.0907758,3.9404604,4.386159,2.176585,2.425863,1.8780621,2.804414,3.256078,2.814146,2.7136629,2.7085621,3.3131726,2.506221,4.6284447,2.1692927,3.3114626,2.1642783,5.4708176,3.2884083,4.5209684,3.2220173,2.4888952,3.004747,2.8462446,3.0672328,4.435219,1.9714196,2.0827053,4.786468,1.7770762,2.955318,3.0105827,3.535964,2.4155269,2.1434581,3.9963663,3.1696835,3.5547931,3.689167,4.5467086,3.4740543,2.9757712,1.9655513,2.8983607,3.091416,2.204147,1.8939099,3.2831097,2.3653665,3.5672095,2.2954693,4.505558,3.1066887,2.7743256,3.3228745,2.8250358,2.1551697,3.975159,2.4323363,2.8353484,2.9802034,3.1273785,2.4748335,3.4197464,3.35832,2.3441887,2.6561956,4.556571,4.316248,3.1939003,2.3803082,3.7680585,1.8334563,2.9676433,3.4468255,3.1877472,3.0746949,3.137303,3.111138,2.6474679,3.3975909,3.5954866,4.2884808,3.9001787,2.9466531,3.729583,2.4142842,1.6216955,2.12155,1.9242989,2.9413052,4.0424447,2.5414648,3.3259745,4.3655887,3.2633212,4.786469,4.918708,2.9331062,4.2220993,2.768857,2.2082155,3.5328915,2.349021,2.3841796,2.7530046,3.2535777,0.3451417,3.6000128,3.656943,2.7524424,2.6894653,2.0139518,1.7918236,3.634925,4.9304976,3.4089124,4.491434,3.2583058,2.8124163,2.0943816,2.3382077,3.4254987,3.8768892,4.5106177,2.7971637,4.3828354,5.357453,3.0913358,4.258314,3.0029104,3.973412,3.7207701,2.2671707,3.801873,2.947901,2.6442797,2.8746445,3.6205246,2.5038393,2.6233854,3.2009695,3.8241262,2.8581467,2.59047,3.3500254,3.4796803,2.9251242,3.6471448,2.2295227,3.1654696,3.5413876,4.6004157,3.455823,2.0549045,4.9127593,4.2965193,3.8866718,3.3880394,2.1394167,2.9102166,3.0929506,3.7221558,3.6929271,4.1277065,2.6718152,2.4445539,3.7587779,4.224974,1.7644774,3.55241,4.465039,2.0517833,1.8072627,4.643298,3.4872365,3.2437763,2.3867643,2.119894,2.6390157,2.7458112,4.1628723,2.9523118,2.971872,3.5141158,4.36462,4.643305,3.8372772,3.7500052,1.7848843,3.0074832,2.1510334,2.1650922,3.3002496,1.8311192,5.041334,3.9638374,2.2378078,3.6115873,2.4524786,2.033154,5.0995846,4.1006193,2.1114087,2.7012281,3.0589178,4.3731008,2.0955782,2.9323416,2.2819064,3.1343539,3.7986472,3.3177824,4.356275,2.2607355,2.5082455,3.0746624,3.361494,2.3825562,5.453546,3.412723,2.4486022,2.4915638,2.565204,2.3694186,4.8786902,5.881766,2.8498049,2.6484177,2.7008774,4.800549,2.2299287,1.8228865,4.168154,2.6421273,2.9553084,2.3743193,3.1193194,1.9847579,2.784632,2.2933168,-0.31149688,3.8874648,3.7449095,3.9870937,2.5368404,2.88169,3.6030154,3.111656,3.5297863,2.7464442,2.4344635,3.148446,4.603301,2.8922162,5.065506,4.699514,3.6684682,2.561049,3.1965468,2.7268386,4.588794,4.474521,3.4666698,3.872178,3.5270083,3.4271398,3.9133754,3.0647354,3.542043,2.9824393,1.9724061,4.4709187,2.8579373,3.315687,2.2515194,3.3376696,3.440944,2.3950822,3.7588968,2.7269542,3.476252,3.6905801,3.670002,2.8023505,2.7214253,3.1749787,3.5528367,2.656071,2.5871036,4.181024,3.5354543,2.2624876,2.5326514,2.843541,3.55022,3.705334
CS(=O)(=O)Nc1ccc(-c2ccc3ncnc(Nc4cccc5[nH]ncc45)c3c2)cc1,4.083129,2.2646072,2.953264,3.3323672,2.5754318,2.909306,3.1347244,3.5699565,2.3287349,2.4470696,2.8212786,3.7364812,3.5310667,2.0239463,4.982945,2.1148844,2.754118,3.8614402,4.4037433,2.8061757,3.2959955,3.3991053,2.144222,2.9954011,2.1377451,4.315836,3.8557813,1.9958575,3.3131044,2.5518541,2.0120256,2.2024746,2.063773,2.2431543,3.5490751,3.2347732,3.8487341,3.804679,2.151184,4.8232965,2.578176,2.9025297,3.776199,2.7267625,2.719632,2.3731134,3.370452,3.0273645,3.3506925,2.1472375,4.946787,3.2513483,3.619397,1.9984764,2.0063908,4.099132,1.4463464,4.168061,4.420605,2.9721425,2.279091,4.4207506,4.284661,1.84802,3.7074094,3.6486804,3.0048347,3.504003,2.7766027,3.7485218,3.530788,2.1675432,1.9503562,2.9731483,3.7138,4.2205696,2.852037,2.6737554,2.4070752,2.1348038,2.1189053,4.2460628,3.0287123,4.3544736,1.3258986,4.4460254,2.4797523,1.3649774,2.841789,3.7943547,3.2129574,4.48852,3.6527789,2.6846752,2.4317253,3.9181883,3.5393708,5.600916,4.5550585,1.4280831,2.1189022,2.8472996,3.2246926,2.6302145,2.114409,2.1496458,4.168517,3.561853,2.236623,2.2923498,1.6839592,4.5993285,2.298362,3.7995067,2.64436,3.175619,5.266718,1.8636066,4.7785106,3.1063488,3.0088007,2.7471843,2.7859774,2.572005,3.4919434,2.6538694,2.6953225,2.8734138,3.5922215,2.8282003,3.884987,3.0082154,2.7552166,2.2201052,3.110126,4.999567,2.8930259,3.8302329,4.6509852,3.3659155,3.6330767,2.720063,4.635864,3.7775178,3.36274,4.744883,3.0623174,2.208957,2.788838,1.9165802,2.3199997,2.043273,2.853015,3.1912086,2.2247913,1.8288981,3.5662115,1.9621767,1.3828049,3.960876,2.4145422,2.3306756,3.1976013,4.599972,2.3330622,2.8820662,4.1979313,1.5648068,3.2004848,3.5099874,5.140576,2.3791275,4.2914057,2.4324224,3.979961,3.9819162,3.6641285,4.298377,3.5386455,2.4471111,2.3301811,3.8074422,3.2292078,3.0504007,4.6346393,2.9377654,3.4722567,3.5746644,3.4823682,3.6126797,3.719293,3.3019474,2.4211235,4.800879,2.4552052,3.1793218,2.8082056,1.8443921,2.9492285,3.8902254,2.673773,4.106083,1.2428722,2.5026853,3.1278994,3.5613332,4.0465918,2.4539087,3.453037,3.3829696,3.5004733,3.4814482,3.6504486,3.136338,3.0137763,2.7684748,3.9404604,4.395688,2.176585,2.6692445,1.8892524,2.804414,3.5346563,2.8792896,2.7136629,2.7273827,3.3212144,2.5198498,4.6205072,2.1692927,3.3114626,2.2071211,4.73549,0.22566931,4.189527,3.2220173,2.7186687,3.004747,2.8462446,3.0248,4.435219,1.9441297,2.1029723,4.0065317,1.7770762,2.9766476,3.0172668,3.535964,2.4155269,2.5922549,3.7996008,3.1696835,4.8775783,3.7022214,4.5467086,3.6375315,2.9757712,2.2464724,2.17845,3.6474147,2.2162523,3.946139,3.6394649,2.3653665,3.718857,3.3257174,3.4174285,2.9010193,3.1537066,3.2630274,2.171289,2.1551697,3.975159,2.4220343,2.2430315,2.9802034,2.888582,2.7066114,1.9289697,3.35832,2.3725202,2.650343,4.586824,4.303107,3.1939003,2.545522,3.7749085,2.0081804,2.9676433,3.4709003,3.286477,3.1291802,3.0851753,2.2717483,2.6474679,3.414297,3.5883694,4.276523,3.9001787,3.1170192,3.0306,2.4142842,2.8283274,3.0608118,2.289432,3.0032794,4.055888,2.5414648,3.3259745,4.5843306,3.2633212,4.8807716,4.918708,2.9331062,2.9408448,2.768857,2.2082155,3.5718138,2.349021,2.27222,2.6968725,3.2535777,3.0910065,3.57929,3.6445305,2.492291,3.5886369,2.1413238,2.167388,1.8791741,4.615381,3.6013408,4.673123,3.3291967,2.7254877,2.8549783,2.8663316,3.9833918,2.9729166,4.5106177,2.7971637,4.3828354,6.3218203,3.1230726,4.2518153,3.0029104,3.9867222,3.7207701,2.2671707,3.8103526,2.9324245,3.113296,2.8746445,3.6205246,2.9230998,2.3273816,3.2865117,1.7685196,2.8581467,2.59047,3.3500254,3.4796803,2.9251242,3.4672272,2.2295227,3.1654696,3.5809135,4.6004157,3.483734,2.4066982,4.9127593,4.2990913,3.8866718,2.0846229,2.79644,3.0200355,3.1142392,3.4766006,3.6929271,3.8941042,2.6718152,2.4812584,3.7587779,3.5495625,2.175363,1.8355222,4.465039,2.140888,2.268327,4.952558,3.4725034,3.288062,2.41857,2.0980484,2.6836247,2.7451084,4.1972203,3.7641835,2.9663255,3.5401876,4.355626,4.418379,4.640344,3.7500052,3.054483,2.9372873,2.2048123,2.1650922,3.3002496,1.8311192,5.0579443,3.6655426,2.2378078,3.5786736,2.7241921,2.0060968,6.47022,3.8892796,2.7260334,2.7012281,3.0589178,1.2287128,2.114473,3.25172,2.3010798,3.1343539,3.0024657,2.7956898,4.36668,2.1831884,2.456145,3.1146646,3.3446822,3.0453892,4.4917784,3.412723,2.4424064,2.4915638,2.5927877,2.3694186,4.8786902,1.8364867,2.822403,2.7341723,3.4349866,4.811084,2.2299287,1.8228865,4.303696,2.294868,3.151431,2.3391545,3.1193194,1.9847579,2.811215,1.2915057,4.9472895,2.4713018,2.5147195,3.638631,2.5368404,3.005685,2.7592728,3.111656,2.030489,2.9775836,2.4344635,3.334922,4.603301,3.4141347,5.078814,1.537805,3.6684682,2.8328536,3.1965468,2.902312,4.6007323,4.474521,4.0918736,3.872178,3.857712,3.4271398,3.9133754,3.1920037,3.605147,2.8209765,2.289261,3.4836428,2.8178134,3.313865,2.9740605,3.3388195,2.3879652,2.3781183,3.7588968,2.7269542,3.782006,1.8289338,3.670002,3.3249702,2.7214253,3.4861262,3.5528367,2.4958181,2.6267638,4.1720634,3.5354543,1.7741228,2.278935,2.8508554,2.5563927,3.6969438
Clc1ccc(-c2ccc3ncnc(Nc4cccc5[nH]ncc45)c3c2)cc1,4.083129,2.2646072,2.953264,3.3323672,2.5754318,2.909306,3.1347244,3.5699565,1.6832827,2.4470696,2.8212786,3.7364812,3.3478968,2.0239463,4.982945,2.1223202,2.754118,3.8614402,4.4037433,2.8061757,3.2959955,3.3991053,2.144222,3.7676637,2.1377451,4.315836,3.8557813,1.9958575,2.8858974,2.5518541,2.0120256,2.2024746,0.8195159,2.2431543,3.5490751,3.2347732,3.8721561,3.804679,3.4238513,4.8232965,2.578176,2.6728497,3.776199,2.7267625,2.719632,3.197359,3.370452,3.0273645,3.3506925,2.1472375,3.57347,3.2580154,3.619397,1.9984764,2.0063908,4.099132,4.1397114,4.168061,4.420605,2.9721425,2.279091,4.4207506,4.284661,4.3048058,3.7074094,3.616012,3.0048347,3.504003,2.6828675,3.7485218,3.530788,2.3076432,1.9503562,2.6808918,3.7138,4.2205696,2.852037,2.579847,2.4070752,2.1348038,2.1189053,4.2460628,3.0287123,4.3544736,3.2773933,4.4460254,2.4648552,1.3649774,2.841789,3.7943547,3.2129574,4.48852,3.6527789,2.6846752,2.4317253,3.9181883,3.5393708,5.0070796,4.5550585,1.3587673,2.1189022,2.8472996,3.2246926,2.6302145,2.114409,2.1496458,4.168517,3.561853,2.3452344,2.2923498,1.6839592,4.5993285,2.1538491,3.7995067,2.64436,3.175619,5.266718,1.8570185,4.7785106,3.1063488,2.7988122,2.7471843,2.7859774,2.572005,3.4919434,2.6538694,2.6953225,2.8734138,3.5922215,2.7690244,3.884987,3.0082154,2.7552166,2.2201052,3.110126,4.999567,2.8930259,3.7282789,4.6509852,3.3659155,3.6330767,2.720063,4.635864,2.5403185,3.36274,4.744883,3.0623174,3.8320715,2.788838,1.9165802,2.4358091,2.043273,2.853015,3.1912086,2.2247913,1.8288981,3.5662115,1.9621767,1.3828049,3.960876,2.4145422,2.3306756,3.1976013,4.599972,2.3330622,2.8820662,4.1979313,1.6588908,3.2004848,3.6812925,4.9961257,2.3791275,4.2914057,2.4324224,3.979961,3.9819162,3.6641285,4.298377,3.5386455,2.4471111,2.3301811,3.8074422,3.2292078,3.0504007,4.6346393,2.9377654,3.4722567,3.7945564,3.3807158,3.6126797,3.719293,3.0678327,2.4211235,4.800879,2.4552052,3.1793218,2.8082056,1.5561875,2.9492285,3.8902254,2.673773,4.106083,1.2428722,2.5026853,3.1176143,4.562384,4.0465918,2.4539087,3.453037,3.3829696,3.5004733,3.4814482,3.6504486,2.4673681,3.0137763,2.7684748,3.9404604,4.395688,2.176585,2.6692445,1.8892524,2.804414,3.5346563,2.8792896,2.7136629,2.6574872,3.3212144,2.5198498,4.6205072,2.1692927,3.3114626,2.2071211,4.73549,4.8147645,4.189527,3.2220173,2.7186687,3.004747,2.8462446,3.0248,4.435219,1.8402207,2.1029723,4.0065317,1.7770762,2.9766476,3.0172668,3.535964,2.4155269,5.024246,3.7996008,3.1696835,4.8775783,3.689167,4.5467086,2.6883025,2.9757712,2.2464724,1.9894832,3.6474147,2.2162523,3.946139,3.6394649,2.3653665,3.604913,2.4586794,3.4174285,2.9010193,3.1537066,3.3630068,2.171289,2.1551697,3.975159,2.4220343,2.2430315,2.9802034,2.888582,2.7066114,1.9289697,3.35832,2.3725202,2.650343,4.586824,4.303107,3.1939003,2.545522,3.7749085,1.8334563,2.9676433,3.4709003,3.286477,3.1291802,3.0851753,2.2717483,2.6474679,3.414297,3.5807762,4.276523,3.9001787,3.1170192,3.0306,2.4142842,2.3753,3.0608118,2.4494417,3.0032794,4.055888,2.5414648,3.3259745,4.5843306,3.2633212,4.8807716,4.918708,2.9331062,2.9408448,2.768857,2.2082155,3.4341624,2.349021,2.27222,2.6968725,3.2535777,3.0910065,3.57929,3.6445305,2.492291,3.5886369,2.1413238,2.167388,3.6100955,4.615381,3.6013408,4.673123,3.1893115,2.7254877,2.8549783,2.8663316,3.9833918,2.9729166,4.5106177,2.7971637,4.3828354,4.594814,3.1230726,4.2518153,3.0029104,3.7605076,3.7207701,2.2671707,3.560003,2.9324245,3.113296,2.8746445,3.6205246,2.9230998,3.7066596,3.2865117,1.7685196,2.8581467,2.59047,3.3500254,3.5093584,2.9251242,3.4672272,2.2295227,3.1654696,3.5481715,4.6004157,3.5695686,2.4066982,4.9127593,4.2990913,3.8866718,2.0846229,2.79644,3.0200355,3.1142392,3.4766006,3.6929271,3.8941042,2.6718152,2.4812584,3.7587779,3.7127059,2.175363,1.8355222,4.465039,3.266567,2.268327,4.952558,3.4725034,3.0787046,2.41857,2.0980484,2.6836247,2.7451084,4.1972203,3.7641835,2.9663255,3.5401876,4.355626,4.418379,4.0215898,3.7500052,3.6976714,2.9372873,2.2048123,2.1650922,3.3002496,1.8311192,5.0579443,3.6655426,2.2757106,3.5978546,2.705269,2.100144,5.156187,3.8892796,2.7260334,2.7012281,3.0589178,1.2287128,2.114473,3.25172,2.3010798,3.1343539,3.0024657,4.5972624,4.36668,2.1831884,2.456145,3.1146646,3.3446822,3.0453892,4.4917784,3.412723,2.4424064,2.4915638,2.5927877,2.3694186,4.8786902,0.79694664,2.822403,2.7341723,3.4349866,4.811084,2.2299287,1.8228865,4.303696,2.294868,3.151431,2.3391545,3.1193194,1.9847579,2.811215,1.2915057,4.9472895,2.3691506,4.143603,3.638631,2.5368404,3.005685,2.7592728,3.111656,2.0898712,2.9775836,2.4344635,3.0376089,4.603301,3.4141347,5.078814,1.537805,3.6684682,2.8328536,3.1965468,2.902312,4.6007323,4.474521,4.0918736,3.872178,3.0978103,3.4271398,3.9133754,3.1920037,3.605147,2.8209765,2.289261,3.4836428,2.8178134,3.313865,2.9740605,3.3388195,2.3879652,2.3781183,3.7588968,2.7269542,3.782006,1.8289338,3.670002,3.3249702,2.7214253,3.4861262,3.5528367,2.5471656,2.6267638,4.1720634,3.5354543,1.7741228,2.278935,2.8508554,2.5563927,3.6969438
NC(=O)c1cccc(-c2ccc3ncnc(Nc4cccc5[nH]ncc45)c3c2)c1,4.083129,2.2646072,2.953264,3.3323672,2.5754318,2.909306,3.1347244,3.5699565,3.154566,2.8328214,3.2773287,3.7364812,3.6636295,2.0239463,4.982945,4.6614385,4.504627,3.8614402,4.4037433,2.6038625,3.2959955,3.3991053,2.2757316,3.8656404,3.7474058,4.315836,3.8557813,2.266635,2.8858974,2.5518541,2.0120256,2.2024746,2.8503466,2.2431543,3.5490751,4.1437607,3.6580079,3.971095,3.1052563,4.8232965,2.578176,2.6728497,3.776199,2.7267625,2.719632,2.3059995,3.370452,3.0273645,3.3506925,2.4826925,2.7007763,3.601494,3.619397,1.9984764,2.0063908,4.099132,2.507196,4.168061,4.420605,2.9721425,3.5052586,4.4207506,4.284661,3.2481678,3.7074094,3.9172242,3.0048347,3.504003,4.282278,3.7485218,3.530788,2.1675432,1.9503562,2.6808918,3.7138,4.329556,2.852037,2.6870956,2.4070752,3.9434319,2.1189053,4.2460628,3.0287123,4.3544736,1.5397466,4.4460254,2.4648552,3.040815,2.841789,3.7943547,3.3216398,4.48852,3.6527789,2.6846752,2.4317253,3.9181883,3.5393708,4.075378,4.5550585,2.7761323,2.1189022,2.8472996,3.2246926,2.6302145,2.114409,2.1496458,4.168517,4.405886,2.6972818,2.2923498,1.6839592,4.5993285,2.1538491,3.7995067,2.64436,3.35949,5.266718,3.0333276,4.7785106,3.1063488,3.0494454,3.4978938,2.7859774,2.572005,3.4919434,2.6538694,2.6953225,2.8734138,3.5922215,2.8210695,3.884987,3.0082154,2.7552166,3.2341547,3.110126,4.999567,2.8930259,3.470138,4.6509852,3.3659155,3.6330767,2.720063,4.635864,3.2582848,3.36274,4.744883,3.0623174,2.5580747,2.788838,1.7214209,3.446059,2.50127,2.9501157,3.1912086,2.2247913,1.8288981,3.5662115,1.9621767,4.3280916,5.585209,2.4145422,2.3306756,3.1976013,4.599972,2.3330622,2.8820662,4.1979313,1.5648068,3.2004848,3.2798939,4.331066,2.3791275,4.2914057,2.6019366,3.979961,3.9819162,3.6641285,5.953043,3.5386455,2.7439237,2.3301811,3.8074422,3.2292078,3.0504007,4.6346393,2.9377654,3.4722567,3.5746644,3.623854,3.6126797,3.719293,3.0678327,2.4211235,4.800879,2.4552052,3.1793218,2.8082056,1.8144523,2.9492285,3.8902254,2.673773,4.106083,2.3842378,2.5026853,3.5305314,2.9721017,4.0465918,2.4539087,3.453037,3.3829696,3.5004733,3.659682,3.8003037,4.479065,3.0137763,2.7684748,3.9404604,4.395688,2.176585,2.6692445,2.1498048,2.804414,3.5346563,2.8792896,2.7136629,3.2983181,3.3212144,2.5198498,4.6205072,2.1692927,3.3114626,2.2071211,4.73549,3.1930215,4.189527,4.137859,2.7186687,3.004747,2.8462446,3.0248,4.435219,1.8138814,2.1029723,4.0065317,1.7770762,2.9766476,3.0172668,3.535964,2.4155269,1.7888908,3.7996008,3.943371,4.8775783,3.889351,4.5467086,2.6883025,2.9757712,2.2464724,2.6930904,3.6474147,2.2162523,3.946139,3.6394649,2.3653665,3.0454018,2.4586794,3.4174285,2.9010193,3.1537066,3.5227282,2.171289,2.1551697,3.975159,2.6296039,2.810968,2.9802034,4.2519073,2.7066114,3.5317552,3.35832,2.3725202,2.650343,4.586824,4.303107,3.1939003,2.5845194,3.7749085,1.7872984,2.9676433,3.4709003,3.286477,3.1291802,3.0851753,3.5094295,2.6474679,3.414297,4.1231723,4.276523,3.9001787,3.1170192,3.0306,3.1110759,2.3753,3.0608118,4.201333,3.0032794,4.055888,2.5414648,3.3259745,4.5843306,3.6746752,4.8807716,4.918708,3.6043468,2.9408448,2.7856147,2.266496,3.5487885,2.4148204,2.27222,2.6968725,3.2981205,3.0910065,3.57929,3.6445305,3.1042066,3.5886369,2.1413238,2.167388,3.3684552,4.615381,3.6013408,4.673123,3.5113025,2.7254877,2.8549783,2.8663316,3.9833918,2.9729166,4.5106177,3.1683903,4.3828354,2.6274445,3.1230726,4.2518153,3.0029104,4.0117774,3.7207701,2.2671707,3.721972,2.9324245,3.113296,3.3993042,3.6205246,2.9230998,2.5401716,3.2865117,1.7685196,2.8581467,2.59047,3.6845,3.5076947,2.9251242,3.4672272,2.2295227,3.8279102,3.6412487,4.6004157,4.003476,2.4066982,4.9127593,4.2990913,3.8866718,4.7691135,2.79644,3.0200355,3.1142392,3.4766006,3.6929271,3.8941042,2.7551575,2.4812584,4.142388,3.6339605,2.175363,5.032148,4.465039,2.3806155,2.9698262,4.952558,3.4725034,3.7040803,2.41857,2.324878,2.6836247,2.7451084,4.1972203,3.7641835,2.9663255,3.5401876,4.355626,4.418379,4.0215898,3.7500052,3.054483,2.9372873,2.964571,2.369828,3.3002496,1.8311192,5.0579443,3.6655426,2.2378078,3.7930512,2.705269,2.436405,3.6862283,3.8892796,2.7260334,2.7012281,3.0589178,3.6171052,2.114473,3.25172,2.3010798,3.1343539,6.4530997,2.7956898,4.36668,2.1831884,2.456145,3.1146646,3.3446822,3.0453892,4.4917784,3.412723,2.4424064,2.4915638,2.5927877,2.3694186,4.8786902,3.4523537,2.822403,2.7341723,3.4349866,4.811084,2.2299287,1.8228865,4.303696,2.294868,3.151431,4.831884,3.3011637,1.9847579,2.811215,2.6205554,5.3770227,2.3691506,5.5013776,3.638631,2.5368404,3.005685,2.7592728,3.111656,3.2184813,2.9775836,2.5126615,3.5725749,4.603301,3.4141347,5.078814,2.763456,4.256702,2.8328536,3.1965468,2.902312,4.6007323,4.474521,4.0918736,3.872178,3.0904503,3.4271398,3.9133754,3.1920037,3.605147,2.8209765,2.289261,4.921674,2.8178134,3.313865,2.9740605,3.3388195,4.441032,2.3781183,3.9873984,3.6147323,3.782006,3.3062096,3.670002,3.3249702,2.7214253,3.7347667,3.5528367,2.443485,2.6267638,4.1720634,3.5354543,1.7741228,2.278935,2.8508554,2.5563927,3.6969438
COc1cc(-c2ccc3nccc(Nc4cccc5[nH]ncc45)c3c2)ccc1O,3.9748507,2.1651525,3.1099205,3.4350939,1.8853167,2.909306,3.1347244,3.4153137,2.6951177,3.2681746,3.2277646,3.61799,3.6811972,2.1279888,4.7263036,1.7278711,2.754118,3.780939,4.2574143,2.6531188,3.0764282,3.43443,2.25105,2.9954011,2.1377451,4.3279376,3.7734282,2.2712834,2.6484303,1.9922063,2.0120256,2.2008376,4.106406,2.2874918,3.5273714,3.3912492,1.3708696,4.025557,2.873186,4.36214,2.3273885,2.6728497,3.9001617,2.7267625,2.7273698,2.074694,3.370452,2.8950818,3.3506925,2.4226608,2.7007763,3.433886,3.6753423,1.9984764,2.0063908,4.11032,1.9284767,4.125877,4.4147387,2.9677377,2.9610102,4.2834644,4.440277,2.450934,3.6893728,3.825724,3.0048347,3.5680535,2.9286952,3.692841,3.5164468,1.2885522,2.3038092,2.4419296,3.7138,4.4018445,2.848888,2.7227414,2.1402957,0.81769526,2.1075606,3.8829355,3.0553555,4.2185364,5.4074807,4.203154,2.7282326,2.677334,2.841789,3.7404633,3.314666,4.335512,3.6527789,2.8419135,2.3779945,3.7294197,3.5157208,4.075378,4.3343563,2.0773194,1.8714608,2.853756,3.2854807,2.3271523,2.448131,2.218775,4.191311,3.5650194,1.4763464,2.5354679,1.8977743,4.502503,2.307919,3.7787676,2.7972515,3.608015,5.049268,2.815617,4.9423313,3.1063488,2.5148373,2.9083602,2.613794,2.3069646,3.4919434,2.454824,2.4633448,2.9837563,3.5922215,2.775899,3.8861609,2.140439,2.9497037,0.9311827,3.110126,4.94724,3.059836,3.8330374,4.498357,3.3659155,3.6062229,2.6183271,4.609705,3.2155375,3.0510433,4.744883,2.8851438,3.2186804,2.9278247,2.0891979,2.6417603,2.8625805,2.9387903,3.1247206,2.3432739,1.9325762,3.668722,1.8842888,3.140219,3.0710597,2.3844633,2.4345827,3.1309319,4.541911,2.1628373,2.8883452,3.7024834,1.5209687,3.075467,2.863523,5.0810084,2.3791275,4.3357635,2.672104,4.062884,3.6320293,3.6641285,4.298377,2.8846395,2.4471111,2.045332,3.8074422,3.026058,2.6284351,4.651769,2.2686117,3.4718103,3.5746644,3.8779316,3.6547656,3.6526814,2.9851034,2.369648,4.575414,2.3568377,2.886056,2.9200904,2.27675,2.9862723,3.7329545,1.908735,4.0441885,2.5023332,2.6481407,3.2974606,-0.29188484,2.941568,2.5029094,3.305674,3.2337415,3.2371945,3.591505,3.7328286,2.4673681,3.062184,2.6330218,3.6847658,4.559801,3.0136967,2.6132534,1.9535025,2.7425082,3.5346563,2.364126,2.5917647,2.8819716,3.2682004,2.469899,4.6659856,2.079562,3.0461059,2.219746,4.73549,3.186673,4.3568993,3.4707646,2.73372,2.7741075,2.9350755,3.110776,4.4671392,2.0686612,2.3926382,1.4502788,1.8204746,3.077172,3.0478537,3.656174,2.467177,3.20519,3.858597,3.4422555,4.8775783,4.194414,4.5902505,2.1839259,3.0170543,2.2356422,1.911386,3.6474147,2.1772013,3.946139,3.6394649,2.5181348,3.691637,3.8014555,3.4174285,3.163919,3.1537066,3.4664905,2.171289,2.4236987,3.9495528,2.2362363,2.8337696,3.0250003,2.888582,2.412113,2.7021074,3.3024647,2.1781542,2.6941662,4.5178566,4.2352486,3.3028452,2.545522,3.8004644,1.8707529,2.9005747,3.4240675,2.894051,3.169391,3.243403,1.747288,2.6223943,3.2365065,4.1114826,4.077016,3.805107,3.1170192,3.1096773,2.643301,2.4041355,3.3843381,3.0272129,3.0581353,3.907134,2.3959734,3.3577158,4.8394594,3.6537337,4.374253,4.9809775,2.954328,2.8129323,2.6897902,2.4531527,3.7173173,2.427662,2.2888887,2.2643418,3.2136238,4.684221,3.404287,3.4872258,3.25759,3.5886369,1.8727432,2.167388,1.3316499,4.2116785,3.6013408,4.4714346,3.528855,2.9617667,2.6412284,2.8663316,3.9833918,3.0849352,4.5381017,2.8539166,4.1048636,3.3136222,2.7888918,4.11882,2.9470427,4.1988397,3.7138042,2.4241655,3.7218516,2.647756,3.113296,3.0755212,3.5892415,2.9230998,3.215591,3.2865117,1.9453261,2.8623443,2.428712,3.5946376,3.541733,2.9291372,3.4140675,1.9369338,3.2563946,3.7446852,4.6587358,3.8856692,2.4348722,4.7935004,4.36248,3.898005,2.0846229,2.79644,2.8424587,2.9242246,3.2634017,3.6832054,4.0130844,2.6783721,2.666418,4.1394362,3.7320642,2.1692305,1.2677695,4.4220347,2.6685905,2.268327,4.952558,3.4995956,3.3026748,2.62897,2.1618304,2.5550427,2.7279856,4.281914,3.7641835,2.8445036,3.3201356,4.1857734,4.2910013,4.316235,3.7476726,3.162486,2.9799995,2.6149964,2.1752787,3.272013,1.7520026,4.886023,3.7751985,2.7062664,3.958772,2.705269,2.1707067,4.335453,3.8892796,2.4627151,2.801448,3.0351713,2.9577343,2.114473,3.25172,2.5190647,3.417251,3.0024657,2.7956898,4.2348614,2.1831884,2.663419,3.1602774,3.3553643,3.0453892,4.4917784,3.3615632,2.618764,2.3329635,3.0685155,2.51948,4.6874743,4.6856165,2.6664312,2.7341723,3.315181,4.7221756,2.014592,1.8942748,4.3812437,2.294868,3.151431,2.0018985,3.2917879,2.5435147,2.9256432,2.3666298,4.9472895,2.416342,6.2072487,3.3588967,2.4548278,2.9079015,2.457154,3.005946,1.054507,2.9775836,2.0632894,3.3445714,4.522882,3.4141347,4.9894295,2.1077943,3.966499,2.8328536,3.2513957,2.7404687,4.456783,4.5284843,4.0918736,3.795274,3.9112732,3.431598,3.8570335,3.1920037,3.5437384,2.723603,2.289261,2.247606,2.8178134,3.2967765,2.410386,3.2438443,2.3879652,2.3811908,3.9592302,2.9579666,3.782006,2.9096727,3.5912466,3.3249702,2.6893957,1.6988271,3.578652,1.9944258,2.686741,3.9969244,3.3746948,2.1819174,2.278935,2.592601,2.5563927,3.843022
Cc1ccc(F)cc1-c1ccc2ncnc(Nc3cccc4[nH]ncc34)c2c1,4.100776,2.2853954,2.953264,3.4921749,2.5754318,2.909306,3.1347244,3.5699565,1.9815754,3.6587512,3.1101348,3.7227466,3.4001727,2.0239463,4.982945,1.7278711,2.754118,3.8401577,4.423866,2.647373,3.2959955,3.3991039,2.3852458,5.1442175,2.1377451,4.308281,3.8557813,2.0807657,2.8858974,2.5518541,2.0120256,2.2024746,1.5394813,2.2431543,3.5490751,3.152566,3.6580079,4.0947995,2.151184,4.8232965,2.578176,2.6728497,3.8070383,2.7267625,2.719632,2.4675558,3.370452,3.0273645,3.3506925,2.3534029,2.7007763,3.5186944,3.619397,1.9984764,2.0063908,4.096112,2.1366916,4.1693344,4.420605,2.9721425,2.3076768,4.457548,4.284661,1.9232552,3.7074094,3.247285,3.0048347,3.504003,2.1787598,3.7248628,4.779251,2.1675432,1.9503562,2.6808918,3.7138,4.175143,2.852037,3.1336014,2.4070752,2.1348038,2.1189053,4.2460628,3.0287123,4.365533,0.06380034,4.4460254,2.4648552,1.4742736,2.841789,3.7943547,3.285628,4.48852,3.6527789,2.6846752,2.4317253,3.8826604,3.5392025,4.075378,4.5550585,1.2682644,2.1189022,2.8472996,3.2246926,2.6302145,2.114409,2.212257,4.168517,3.561853,1.8731563,2.2923498,1.6839592,4.5931144,2.1538491,3.7995067,2.64436,3.257807,5.290632,2.2325304,4.7785106,3.1063488,2.7785273,2.612099,2.7859774,2.572005,3.4919434,2.6538694,2.6953225,2.8828313,3.5922215,2.5011907,3.884987,3.0082154,2.7158375,3.0792854,3.110126,4.999567,2.8930259,3.4061267,4.634977,3.3659155,3.6299858,2.720063,4.635864,3.569414,3.36274,4.744883,3.0623174,5.6249576,2.788838,1.9883435,2.039657,2.4662209,3.0137331,3.1858988,2.2247913,1.8288981,3.5662115,1.9621767,1.5905851,3.960876,2.4145422,2.3306756,3.1976013,4.599972,2.3535354,2.8820662,4.1979313,1.5648068,3.1720457,3.6082957,3.5946596,2.3791275,4.2914057,2.4262586,3.979961,3.9819162,3.6641285,4.298377,3.5386455,2.4471111,2.3301811,3.8074422,3.2292078,3.0504007,4.6346393,2.9377654,3.4722567,4.120642,3.7509823,3.6126797,3.719293,3.0678327,2.4211235,4.800879,2.4552052,3.1793218,2.8082056,1.991231,2.9492285,3.8768678,2.673773,4.0870385,1.2306585,2.5026853,3.3291385,4.3689847,4.0465918,2.5053408,3.4879167,3.3829696,3.5004733,4.0789266,3.6618066,2.4673681,3.0137763,2.7684748,3.9404604,4.413245,2.2625713,2.6692445,1.8892524,2.804414,3.5346563,2.8792896,2.7136629,2.58251,3.3163812,2.5198498,4.6445637,2.1692927,3.3114626,2.2346342,4.73549,4.9773808,4.189527,3.1366353,2.7186687,3.004747,2.8462446,3.0248,4.474854,1.8138814,2.1029723,4.0065317,1.7770762,2.9766476,3.0205832,3.535964,2.4057364,3.4389722,3.7996008,3.1276891,4.8775783,3.7325933,4.5467086,2.6883025,2.9757712,2.2464724,3.6291118,3.6474147,2.2162523,3.946139,3.6394649,2.3653665,3.3105392,2.4586794,3.4174285,2.9010193,3.1537066,3.1341825,2.171289,2.1551697,3.975159,2.4220343,2.2260125,2.9802034,2.888582,2.7066114,2.4902296,3.35832,2.3725202,2.6958497,4.58519,4.2961884,3.1939003,2.545522,3.7526498,1.4803053,2.9676433,3.486414,3.286477,3.1291802,3.0596898,2.2717483,2.6474679,3.396847,4.0024743,4.281553,3.9001787,3.1170192,3.0306,2.577843,2.3753,3.0608118,1.7355033,3.0032794,4.060649,2.5414648,3.3259745,4.5843306,3.5407238,4.8807716,4.918708,3.0673337,2.9408448,2.5934117,2.306672,3.5661607,2.375141,2.27222,2.7632957,3.035169,3.0910065,3.6050065,3.6665964,2.820014,3.5886369,2.1413238,2.167388,2.2734296,4.615381,3.6013408,4.673123,3.239332,2.7254877,2.8549783,2.8663316,3.9833918,2.9729166,4.5106177,2.5253165,4.3828354,4.0475535,3.1230726,4.2232556,3.0029104,3.5324104,3.7207701,2.2671707,3.8405724,2.9324245,3.113296,2.7498631,3.6205246,2.9230998,3.731117,3.2865117,1.7685196,2.8581467,2.59047,3.432847,3.5321193,2.9251242,3.4672272,2.2295227,3.074195,3.4702456,4.6004157,3.8507721,2.4066982,4.9127593,4.2809196,3.8866718,2.2889209,2.79644,3.0200355,3.1056745,3.4766006,3.6929271,3.8941042,2.5241108,2.4812584,3.7650862,3.7028756,2.175363,3.4357479,4.465039,2.7757604,2.268327,4.952558,3.442725,3.6569076,2.41857,2.0980484,2.6836247,2.735824,4.1972203,3.7641835,2.9508858,3.5276916,4.3479323,4.418379,4.0215898,3.7500052,3.054483,2.9372873,2.6323419,2.2547657,3.3002496,1.8311192,5.0626,3.6655426,2.7204957,3.4324386,3.3022184,1.5088041,3.881522,3.8892796,2.7260334,2.7012281,3.0589178,1.5332121,2.114473,3.25172,2.3010798,3.1343539,3.2269094,2.7956898,4.361326,2.9593928,2.44733,3.118044,3.7505534,3.0453892,4.4917784,3.412723,2.4424064,2.4915638,2.5927877,2.3694186,4.8786902,2.4967093,2.822403,2.7341723,3.4349866,4.8276234,2.2299287,1.776655,4.303696,2.294868,3.151431,2.919698,2.9958148,1.9750992,2.807956,1.4389005,4.9472895,2.3691506,3.7164416,3.638631,2.5368404,3.005685,2.7592728,3.111656,2.030489,2.9775836,2.2047572,3.6968758,4.603301,3.4141347,5.067131,2.749403,3.3689504,2.8328536,3.1901667,2.902312,4.567901,4.474521,4.0918736,3.872178,3.6502485,3.4271398,3.9133754,3.1920037,3.605147,2.8209765,2.289261,3.4836428,2.8178134,3.2852008,2.9740605,3.3180814,2.3879652,2.3786023,3.8322134,2.9158204,3.782006,1.8870288,3.670002,3.3249702,2.7214253,3.4861262,3.5528367,1.971363,2.6267638,4.149575,3.5354543,1.7741228,2.278935,2.8252473,2.5563927,3.6740217
COc1cccc(-c2ccc3nccc(Nc4cccc5[nH]ncc45)c3c2)c1F,4.003204,2.1832643,3.1099205,3.4350939,1.8853167,2.909306,3.1347244,3.4153137,1.9083877,2.4470696,2.9342349,3.6069536,3.6505892,3.439983,4.7263036,4.5960274,2.754118,3.7619898,4.282159,2.7281797,3.0764282,3.4376943,2.3301635,2.9954011,3.2209074,4.3303022,3.7734282,2.240319,2.6484303,3.217062,3.419946,2.2008376,1.6948963,2.2874918,3.5273714,3.121043,1.3708696,4.2924933,2.1771111,4.36214,2.3273885,2.6728497,3.9214613,2.7267625,2.7273698,1.5129323,3.370452,2.8950818,3.3506925,2.6696362,3.1604273,3.715224,3.6753423,1.9984764,3.9304268,4.109295,4.5112834,4.1392446,4.4147387,2.9677377,1.3868573,4.315606,4.440277,5.7711616,3.6893728,3.3817155,3.0048347,3.5680535,2.3347325,3.673296,3.5164468,2.589364,2.3038092,2.4419296,3.7138,4.2738705,3.479647,2.7666981,2.1402957,2.6130834,2.1031632,3.8829355,3.0553555,4.227966,6.4052534,4.203154,2.7282326,1.7538527,2.841789,3.7404633,3.168447,4.335512,3.6527789,2.8419135,2.3779945,3.6870432,3.517625,4.075378,4.3343563,2.8491747,1.8714608,2.853756,3.2854807,2.3271523,2.4928277,2.2740378,4.191311,4.948444,2.9147518,2.5354679,1.8977743,4.500396,2.307919,3.7787676,2.7972515,2.8373814,5.081998,4.508307,4.9423313,3.546403,2.859574,2.6749716,2.613794,2.3069646,3.4919434,2.454824,2.4633448,2.9950852,3.5922215,3.1089268,3.8861609,2.2602737,2.9078932,2.2289205,3.110126,4.94724,3.059836,3.7931118,4.4768167,3.3659155,3.5926352,2.6183271,4.609705,3.5440805,3.0510433,4.744883,2.8851438,6.514656,2.9278247,2.0891979,3.1057665,2.8625805,3.0989377,3.109167,2.3432739,1.9858202,3.668722,1.930394,2.4853275,3.0710597,2.3844633,2.4345827,3.1309319,4.541911,2.2367594,2.8883452,3.7024834,3.696923,3.0411592,2.863523,5.0810084,2.3791275,4.3357635,2.666204,4.062884,3.6320293,3.6641285,4.298377,2.8846395,2.5653765,2.045332,3.8074422,3.026058,2.6284351,4.651769,2.2686117,3.4718103,3.5746644,3.928599,3.6547656,3.6526814,3.0436463,2.369648,4.575414,2.3568377,2.886056,2.9200904,1.9949317,2.9862723,3.7207341,1.908735,4.0245495,1.5716656,2.6481407,3.1661494,-0.24924657,2.941568,3.1277857,3.335137,3.2337415,3.2371945,3.9147258,3.6628392,2.4673681,3.062184,2.6330218,3.6847658,4.576435,3.0136967,2.6132534,1.9535025,2.7425082,3.5346563,2.364126,2.5917647,2.4101105,3.27077,2.469899,4.679417,2.079562,3.0461059,2.219746,4.73549,4.9543395,4.3568993,3.3005488,2.73372,2.7741075,2.9350755,3.110776,4.500992,1.3524765,2.3926382,3.9035552,1.8204746,3.077172,3.0451145,3.656174,2.467177,3.20519,3.858597,3.3259218,4.8775783,3.7501988,4.5902505,2.368387,3.0170543,2.2356422,1.911386,3.6474147,2.1772013,4.0783763,5.279294,2.5181348,3.6548977,3.8014555,3.4174285,3.163919,3.1537066,2.6923966,2.171289,2.4236987,3.9495528,2.2362363,2.8337696,3.0250003,2.888582,2.412113,2.126924,3.3024647,2.1781542,2.7527769,4.5145984,4.2221828,3.3028452,2.545522,3.7826636,1.8707529,2.9005747,3.4445233,2.894051,3.169391,3.2153652,2.7330325,2.6223943,3.2255964,3.8680258,4.0991163,3.805107,3.1170192,3.1096773,2.8486557,2.4041355,3.3843381,2.1256163,3.0581353,3.9091535,2.3959734,3.3577158,4.8394594,3.7674687,4.374253,4.9809775,3.0281696,3.6131687,2.514048,2.3870509,3.634559,2.4672282,2.2888887,2.3320591,2.936702,6.234516,3.4316213,3.5034158,2.9053469,3.5886369,1.8727432,2.167388,3.0010545,4.2116785,3.6013408,4.4714346,3.0595067,2.9617667,2.6412284,2.8663316,3.9833918,3.0849352,4.5381017,2.4790545,4.1048636,3.3136222,2.7888918,4.103376,2.9312718,3.5940666,3.7138042,2.4241655,3.8322845,2.647756,3.113296,2.919641,3.5892415,2.9230998,2.5847027,3.2865117,3.8725662,2.8623443,2.428712,3.5299284,3.2245176,2.9291372,3.4140675,1.9369338,3.0861444,3.302552,4.6587358,3.4847865,2.4348722,4.7935004,4.3416176,3.898005,2.5051863,2.79644,2.8424587,2.921873,3.2634017,3.6832054,4.0130844,2.5484126,2.666418,3.9955707,3.7320642,2.1692305,3.8811076,4.4220347,2.2167375,2.661159,4.952558,3.4794521,3.6787822,2.62897,2.1618304,2.5550427,2.7279856,4.281914,3.7641835,2.8340988,3.322489,4.1879725,4.2910013,4.316235,3.7476726,3.162486,2.9799995,2.2048123,1.922144,3.272013,1.7520026,4.9040895,3.7751985,2.7062664,3.5158212,2.705269,1.4009413,4.335453,3.8892796,2.4627151,2.801448,3.0351713,2.3550386,2.114473,3.25172,2.5190647,3.417251,3.0024657,2.7956898,4.2288346,2.1831884,2.668027,3.1572819,3.3553643,3.0453892,4.4917784,3.3615632,2.618764,2.3329635,3.0685155,2.51948,4.6874743,4.6856165,2.6664312,2.7341723,3.315181,4.751013,2.014592,1.8942748,4.3812437,2.294868,3.151431,3.3579466,3.0341916,2.3638394,2.930949,1.6601721,4.9472895,3.220107,6.2072487,3.3588967,2.4576914,2.9079015,2.457154,3.005946,3.6670806,2.9775836,2.2284093,3.7490788,4.522882,3.4141347,4.974098,4.27198,3.2112389,2.8328536,3.2472126,2.7404687,4.4247203,4.5284843,4.0918736,3.795274,3.803156,3.431598,3.8570335,3.1920037,3.5437384,2.723603,2.2961688,4.0545325,2.8178134,3.2761605,2.48863,3.227453,3.6985798,2.3840234,3.8289597,3.0792854,3.782006,1.910825,3.5912466,3.3249702,2.6893957,2.1010659,3.578652,1.8512808,2.686741,3.9728951,3.3746948,1.9689854,2.278935,2.5785325,2.5563927,3.8125708
COc1ccc(-c2ccc3nccc(Nc4cccc5[nH]ncc45)c3c2)cc1C=O,3.9748507,2.1651525,3.1099205,3.4350939,1.8853167,2.909306,3.1347244,3.4153137,2.8290892,2.4470696,3.355049,3.61799,3.5676692,2.2561324,4.7263036,7.41224,4.0960994,3.780939,4.2574143,2.6531188,3.0764282,3.43443,2.2463539,2.9954011,3.35261,4.3279376,3.7734282,2.2711985,2.6484303,3.4933155,2.1310787,2.2008376,1.1253701,2.2874918,3.5273714,3.5776083,1.3708696,4.0255566,2.1019237,4.36214,2.3273885,2.6728497,3.9001617,2.7267625,2.7273698,2.56977,3.370452,2.8950818,3.3506925,2.5253327,3.1014118,3.4414845,3.6753423,1.9984764,2.0063908,4.11032,3.5935986,4.125877,4.4147387,2.9677377,2.0548215,4.2834644,4.440277,3.453141,3.6893728,3.8304205,3.0048347,3.5680535,3.5099392,3.692841,3.5164468,1.5129669,2.3038092,2.4419296,3.7138,4.4018445,2.848888,2.699231,2.1402957,3.9093406,2.1075606,3.8829355,3.0553555,4.2185364,5.4074807,4.203154,2.7282326,2.9809282,2.841789,3.7404633,3.3039422,4.335512,3.6527789,2.8419135,2.3779945,3.7294197,3.5157208,4.075378,4.3343563,3.0598462,1.8714608,2.853756,3.2854807,2.3271523,3.0080554,2.218775,4.191311,4.2375503,2.6658525,2.5354679,1.8977743,4.502503,2.307919,3.7787676,2.7972515,3.4667819,5.049268,4.287878,4.9423313,3.1063488,3.1283002,3.2827673,2.613794,2.3069646,3.4919434,2.454824,2.4633448,2.9837563,3.5922215,2.779418,3.8861609,2.090841,2.9497037,1.8700513,3.110126,4.94724,3.059836,3.7039785,4.498357,3.3659155,3.6062229,2.6183271,4.609705,3.19534,3.0510433,4.744883,2.8851438,3.2186918,2.9278247,2.0891979,2.8991303,2.8625805,3.0014334,3.1247206,2.3432739,1.9325762,3.668722,1.8842888,4.0197043,5.0244055,2.3844633,2.4345827,3.1309319,4.541911,2.1628373,2.8883452,3.7024834,1.5112258,3.075467,2.863523,5.0810084,2.3791275,4.3357635,2.672104,4.062884,3.6320293,3.6641285,4.298377,2.8846395,2.4471111,2.045332,3.8074422,3.026058,2.6284351,4.651769,2.2686117,3.4718103,3.5746644,3.6999574,3.6547656,3.6526814,2.9310951,2.369648,4.575414,2.3568377,2.886056,2.9200904,2.1680582,2.9862723,3.7329545,1.908735,4.0441885,2.5719793,2.6481407,3.2890213,2.6413379,2.941568,2.5029094,3.305674,3.2337415,3.2371945,3.6232476,3.7328277,2.4673681,3.062184,2.6330218,3.6847658,4.559801,3.0136967,2.6132534,1.9535025,2.7425082,3.5346563,2.364126,2.5917647,3.0692298,3.2682004,2.469899,4.6659856,2.079562,3.0461059,2.219746,4.73549,3.596413,4.3568993,3.9913516,2.73372,2.7741075,2.9350755,3.110776,4.4671392,2.0038843,2.3926382,3.6936443,1.8204746,3.077172,3.0478537,3.656174,2.467177,3.5417933,3.858597,4.4078965,4.8775783,4.034231,4.5902505,2.1839259,3.0170543,2.2356422,1.9312161,3.6474147,2.1772013,3.946139,3.6394649,2.5181348,3.8472366,3.8014555,3.4174285,3.163919,3.1537066,3.4540508,2.171289,2.4236987,3.9495528,2.2362363,3.3403184,3.0250003,2.888582,2.412113,3.445533,3.3024647,2.1781542,2.6941662,4.5178566,4.2352486,3.3028452,2.545522,3.8004644,1.8707529,2.9005747,3.4240675,2.894051,3.169391,3.243403,2.9583805,2.6223943,3.2365065,4.095415,4.077016,3.805107,3.1170192,3.1096773,2.8020186,2.4041355,3.3843381,3.6039531,3.0581353,3.907134,2.3959734,3.3577158,4.8394594,3.6641586,4.374253,4.9809775,3.794994,2.8129323,2.6897895,2.625161,3.5033536,2.427662,2.2888887,2.2643418,3.2136238,5.2936893,3.404287,3.4872258,2.492291,3.5886369,1.8727432,2.167388,1.3316499,4.2116785,3.6013408,4.4714346,3.4599352,2.9617667,2.6412284,2.8663316,3.9833918,3.0849352,4.5381017,3.059376,4.1048636,3.3136222,2.7888918,4.11882,2.9470427,4.1566544,3.7138042,2.4241655,3.6848476,2.647756,3.113296,3.0755217,3.5892415,2.9230998,2.4915721,3.2865117,1.9415265,2.8623443,2.428712,3.6239052,3.6104097,2.9291372,3.4140675,1.9369338,3.8417795,3.735577,4.6587358,4.0346856,2.4348722,4.7935004,4.36248,3.898005,4.5833654,2.79644,2.8424587,2.9242246,3.2634017,3.6832054,4.0130844,2.6697679,2.666418,4.420963,3.7320642,2.1692305,3.9905436,4.4220347,2.9272985,2.268327,4.952558,3.4995956,3.1398938,2.62897,2.1618304,2.5550427,2.7279856,4.281914,3.7641835,2.8445036,3.3201356,4.1857734,4.2910013,4.316235,3.7476726,3.162486,2.9799995,2.579072,2.1779547,3.272013,1.7520026,4.886023,3.7751985,2.7062664,3.8634593,2.705269,1.9088088,4.335453,3.8892796,2.4627151,2.801448,3.0351713,3.8908784,2.114473,3.25172,2.5190647,3.417251,4.803235,4.0778146,4.2348614,2.1831884,2.663419,3.1602774,3.3553643,3.0453892,4.4917784,3.3615632,2.618764,2.3329635,3.0685155,2.51948,4.6874743,4.6856165,2.6664312,2.7341723,3.315181,4.7221756,2.014592,1.8942748,4.3812437,2.294868,3.151431,4.0238957,3.291788,2.3548567,2.9256432,2.5071688,4.9472895,2.416342,6.3057885,3.3588967,2.4548278,2.9079015,2.457154,3.005946,2.731277,2.9775836,2.383267,3.3345337,4.522882,3.4141347,4.9894295,4.21336,4.163257,2.8328536,3.2513957,2.7404687,4.456783,4.5284843,4.0918736,3.795274,3.8645928,3.431598,3.8570335,3.1920037,3.5437384,2.723603,2.289261,6.9609194,2.8178134,3.2967765,1.7729912,3.2438443,5.297948,2.3811908,3.871818,3.2691627,3.782006,3.1740885,3.5912466,3.3249702,2.6893957,2.4994571,3.578652,1.9877915,2.686741,3.9969244,3.3746948,1.9689854,2.278935,2.592601,2.5563927,3.843022
Fc1ccccc1-c1ccc2nccc(Nc3cccc4[nH]ncc34)c2c1,4.003204,2.1832643,3.1099205,3.4350939,1.8853167,2.909306,3.1347244,3.4153137,1.8749374,2.9097393,2.8568444,3.6069536,3.2945201,2.1279888,4.7263036,3.8669827,2.754118,3.7619898,4.282159,2.7281797,3.0764282,3.4376943,2.1929367,2.9954011,2.1377451,4.3303022,3.7734282,2.240319,2.6484303,1.563381,2.0120256,2.2008376,2.3903253,2.2874918,3.5273714,3.0304096,3.8591325,4.1652336,1.0495698,4.36214,2.3273885,2.6728497,3.9214613,2.7267625,2.7273698,1.8000542,3.370452,2.8950818,3.3506925,2.5294483,4.875813,3.432355,3.6753423,2.2224884,2.8137329,4.109295,2.8295078,4.1392446,4.4147387,2.9677377,0.5647417,4.315606,4.440277,3.1600666,3.6893728,3.1322603,3.0048347,3.5680535,2.2624574,3.673296,3.5164468,2.3102102,2.3038092,2.4419296,3.7138,4.131319,2.848888,2.8657923,2.1402957,1.3428401,2.1031632,3.8829355,3.0553555,4.227966,6.214756,4.203154,2.7282326,1.7493721,2.841789,3.7404633,2.9687352,4.335512,3.6527789,2.8419135,2.3779945,3.6870432,3.517625,4.075378,4.3343563,3.333741,1.8714608,2.853756,3.2854807,2.3271523,2.114409,2.2740378,4.191311,3.667745,2.8036866,2.5354679,1.8977743,4.500396,2.307919,3.7787676,2.7972515,2.9409099,5.081998,1.6056153,4.9423313,3.1063488,2.9801261,2.8889148,2.613794,2.3069646,3.4919434,2.454824,2.4633448,2.9950852,3.5922215,3.093012,3.8861609,2.090841,2.9078932,1.3200159,3.110126,4.94724,3.059836,3.6490808,4.4768167,3.3659155,3.5926352,2.6183271,4.609705,3.9331975,3.0510433,4.744883,2.8851438,3.993564,2.9278247,2.0891979,2.446666,2.8625805,3.0033498,3.109167,2.3432739,1.9708526,3.668722,1.8842888,2.4853275,3.0710597,2.3844633,2.4345827,3.1309319,4.541911,2.1958053,2.8883452,3.7024834,2.737669,3.0411592,2.863523,6.1885214,2.3791275,4.3357635,2.666204,4.062884,3.6320293,3.6641285,4.298377,2.8846395,2.4471111,2.045332,3.8074422,3.026058,2.6284351,4.651769,2.2686117,3.4718103,5.764514,3.7605693,3.6547656,3.6526814,2.3948689,2.369648,4.575414,2.3568377,2.886056,2.9200904,1.4134636,2.9862723,3.7207341,1.908735,4.0245495,1.529035,2.6481407,2.973398,3.0502403,2.941568,2.5552664,3.335137,3.2337415,3.2371945,3.6681216,3.5264049,2.4673681,3.062184,2.6330218,3.6847658,4.576435,3.0136967,2.6132534,1.9535025,2.7425082,3.5346563,2.364126,2.5917647,2.3538635,3.27077,2.469899,4.679417,2.079562,3.0461059,2.219746,5.3799825,2.95373,4.3568993,3.2468624,2.73372,2.7741075,2.9350755,3.110776,4.500992,1.3524765,2.3926382,1.6562933,1.8204746,3.077172,3.0451145,3.656174,2.467177,3.20519,3.858597,3.3130608,4.8775783,3.6569927,4.5902505,2.517828,3.0170543,2.2356422,2.9769735,3.6474147,2.1772013,4.35273,3.6394649,2.5181348,1.9465629,3.8014555,3.4174285,3.163919,3.1537066,3.369611,2.171289,2.4236987,3.9495528,2.2362363,2.8337696,3.0250003,2.888582,2.412113,2.05916,3.3024647,2.1781542,2.7527769,4.5145984,4.2221828,3.3028452,2.545522,3.7826636,1.8707529,2.9005747,3.4445233,2.894051,3.169391,3.2153652,1.9983859,2.6223943,3.2255964,3.747115,4.0991163,3.805107,3.1170192,3.1096773,2.7582908,2.4041355,3.3843381,2.5198576,3.0581353,3.9091535,2.3959734,3.3577158,4.8394594,3.6176665,4.374253,4.9809775,2.9397016,2.8129323,2.516592,2.3632836,3.5134258,2.4176872,2.2888887,2.3320591,2.929943,4.684221,3.4316213,3.5034158,2.492291,3.5886369,1.8727432,2.167388,2.6447546,4.2116785,3.6013408,4.4714346,2.8877,2.9617667,2.6412284,2.8663316,3.9833918,3.0849352,4.5381017,2.4790545,4.1048636,3.3136222,2.7888918,4.103376,2.9312718,3.5126944,3.7138042,2.4241655,3.5909934,2.647756,3.113296,2.8043294,3.5892415,2.9230998,2.2252522,3.2865117,1.9016259,2.8623443,2.428712,3.423224,3.2396255,2.9291372,3.4140675,1.9369338,2.9975612,3.3151052,4.6587358,3.3019993,2.4348722,4.7935004,4.3416176,3.898005,2.5015342,2.79644,2.8424587,2.921873,3.2634017,3.6832054,4.0130844,2.476361,2.666418,3.8885794,3.7320642,2.1692305,3.4798865,4.4220347,2.2578402,2.268327,4.952558,3.4794521,3.637997,2.62897,2.1618304,2.5550427,2.7279856,4.281914,3.7641835,2.8340988,3.322489,4.1879725,4.2910013,4.316235,3.7476726,3.162486,2.9799995,2.330118,2.0073001,3.272013,1.7520026,4.9040895,3.7751985,2.7062664,3.2508862,2.705269,1.3806828,4.335453,3.8892796,2.4627151,2.801448,3.0351713,2.3550386,2.3888044,3.25172,2.5190647,3.417251,3.0024657,2.7956898,4.2288346,2.1831884,2.668027,3.1572819,3.3553643,3.0453892,4.4917784,3.3615632,2.618764,2.3329635,3.0685155,2.51948,4.6874743,4.7479863,2.6664312,2.7341723,3.315181,4.751013,2.014592,1.8942748,4.3812437,2.294868,3.151431,2.5768604,2.910562,1.9454046,2.930949,1.6601721,5.3892035,2.416342,6.2072487,3.3588967,2.4576914,2.9079015,2.457154,3.005946,0.71352035,2.9775836,2.2912924,3.542498,4.522882,3.4141347,4.974098,1.6830096,3.4443908,2.8328536,3.2472126,2.7404687,4.4247203,4.5284843,4.0918736,3.795274,3.0035515,3.431598,3.8570335,3.1920037,3.5437384,2.723603,2.289261,2.2860484,2.8178134,3.2761605,1.9417306,3.227453,2.7073305,2.3840234,3.7643654,2.9906867,3.782006,1.910825,3.5912466,3.3249702,2.6893957,0.40580457,3.578652,2.3441432,2.686741,3.9728951,3.3746948,1.9689854,2.278935,2.5785325,2.5563927,3.8125708
COc1cccc(-c2ccc3ncnc(Nc4cccc5[nH]ncc45)c3c2)c1,4.083129,2.2646072,2.953264,3.3323672,2.5754318,2.909306,3.1347244,3.5699565,2.0984714,2.4470696,2.9914556,3.7364812,3.7066498,2.0239463,4.982945,1.7278711,2.754118,3.8614402,4.4037433,2.5883443,3.2959955,3.3991053,2.3045578,2.9954011,2.5253773,4.315836,3.8557813,2.2220972,2.8858974,2.5518541,2.0120256,2.2024746,1.8317283,2.2431543,3.5490751,3.4180965,3.6580079,3.9312553,2.151184,4.8232965,2.578176,2.6728497,3.776199,2.7267625,2.719632,1.2775928,3.370452,3.0273645,3.3506925,2.243955,3.8843186,3.4717336,3.619397,1.9984764,2.3997035,4.099132,1.4463464,4.168061,4.420605,2.9721425,2.279091,4.4207506,4.284661,1.030806,3.7074094,3.86821,3.0048347,3.504003,2.3517253,3.7485218,3.530788,2.1675432,1.9503562,2.6808918,3.7138,4.329556,2.852037,2.6492333,2.4070752,2.1348038,2.1189053,4.2460628,3.0287123,4.3544736,1.1030947,4.4460254,2.4648552,1.9682127,2.841789,3.7943547,3.3187003,4.48852,3.6527789,2.6846752,2.4317253,3.9181883,3.5393708,4.075378,4.5550585,1.4322777,2.1189022,2.8472996,3.2246926,2.6302145,2.269547,2.1496458,4.168517,3.561853,1.8875022,2.2923498,1.6839592,4.5993285,2.1538491,3.7995067,2.64436,3.3779366,5.266718,1.3780062,4.7785106,3.6442451,2.132617,2.7955322,2.7859774,2.572005,3.4919434,2.6538694,2.6953225,2.8734138,3.5922215,2.8056068,3.884987,3.0082154,2.7552166,2.2201052,3.110126,4.999567,2.8930259,3.5828443,4.6509852,3.3659155,3.6330767,2.720063,4.635864,2.6666884,3.36274,4.744883,3.0623174,2.5221639,2.788838,1.6717185,1.8900063,2.4386597,2.9447248,3.1912086,2.2247913,1.8288981,3.5662115,1.9621767,2.7715795,3.960876,2.4145422,2.3306756,3.1976013,4.599972,2.3330622,2.8820662,4.1979313,2.9268253,3.2004848,3.2798939,2.708608,2.3791275,4.2914057,2.4324224,3.979961,3.9819162,3.6641285,4.298377,3.5386455,2.4471111,2.3301811,3.8074422,3.2292078,3.0504007,4.6346393,2.9377654,3.4722567,5.1026216,3.7008488,3.6126797,3.719293,3.0678327,2.4211235,4.800879,2.4552052,3.1793218,2.8082056,1.4806079,2.9492285,3.8902254,2.673773,4.106083,1.2523042,2.5026853,3.3061664,2.7742524,4.0465918,2.4539087,3.453037,3.3829696,3.5004733,3.6265156,3.8003037,2.4673681,3.0137763,2.7684748,3.9404604,4.395688,2.176585,2.6692445,1.8892524,2.804414,3.5346563,2.8792896,2.7136629,2.5971565,3.3212144,2.5198498,4.6205072,2.1692927,3.3114626,2.2071211,4.8319187,0.11524808,4.189527,3.3378744,2.7186687,3.004747,2.8462446,3.0248,4.435219,2.2808397,2.1029723,4.0065317,1.7770762,2.9766476,3.0172668,3.535964,2.4155269,1.658556,3.7996008,3.2398264,4.8775783,3.8399107,4.5467086,2.7850595,2.9757712,2.2464724,1.9327123,3.6474147,2.2162523,3.946139,3.6394649,2.3653665,3.5251715,2.4586794,3.4174285,2.9010193,3.1537066,3.371423,2.171289,2.1551697,3.975159,2.4220343,2.2430315,2.9802034,2.888582,2.7066114,2.401485,3.35832,2.3725202,2.650343,4.586824,4.303107,3.1939003,2.545522,3.7749085,1.7872984,2.9676433,3.4709003,3.286477,3.1291802,3.0851753,2.2717483,2.6474679,3.414297,4.050714,4.276523,3.9001787,3.1170192,3.0306,2.507449,2.3753,3.0608118,2.5806277,3.0032794,4.055888,2.5414648,3.3259745,4.5843306,3.636677,4.8807716,4.918708,3.018763,2.9408448,2.7856147,2.266496,3.5759637,2.4148204,2.27222,2.6968725,3.2981205,3.0910065,3.57929,3.6445305,2.492291,3.5886369,2.1413238,2.167388,3.5062635,4.615381,3.6013408,4.673123,3.512916,2.7254877,2.8549783,2.8663316,3.9833918,2.9729166,4.5106177,2.7535045,4.3828354,7.204265,3.1230726,4.2518153,3.0029104,4.0146756,3.7207701,2.2671707,3.749591,2.9324245,3.113296,2.9853213,3.6205246,2.9230998,1.8288237,3.2865117,1.7685196,2.8581467,2.59047,3.6434157,3.3928323,2.9251242,3.4672272,2.2295227,3.2926958,3.6073196,4.6004157,3.8496692,2.4066982,4.9127593,4.2990913,3.8866718,2.3215983,2.79644,3.0200355,3.1142392,3.4766006,3.6929271,3.8941042,2.795498,2.4812584,3.9134502,3.5495625,2.175363,2.2611332,4.465039,1.8739303,2.3223324,4.952558,3.4725034,3.0320835,2.41857,2.0980484,2.6836247,2.7451084,4.1972203,3.7641835,2.9663255,3.5401876,4.355626,4.418379,4.0215898,3.7500052,3.054483,2.9372873,2.2048123,2.223636,3.3002496,1.8311192,5.0579443,3.6655426,2.2378078,3.7638905,2.705269,2.2557862,4.193206,3.8892796,2.7260334,2.7012281,3.0589178,2.202731,2.114473,3.25172,2.3010798,3.1343539,3.3992126,2.7956898,4.36668,2.1831884,2.456145,3.1146646,3.3446822,3.0453892,4.4917784,3.412723,2.4424064,2.4915638,2.5927877,2.3694186,4.8786902,2.4147205,2.822403,2.7341723,3.4349866,4.811084,2.2299287,1.8228865,4.303696,2.294868,3.151431,2.3391545,3.3011637,1.9847579,2.811215,1.7815037,4.9472895,2.3691506,2.5147195,3.638631,2.5368404,3.005685,2.7592728,3.111656,2.030489,2.9775836,2.5852835,3.6982198,4.603301,3.4141347,5.078814,1.8325877,3.9342215,2.8328536,3.1965468,2.902312,4.6007323,4.474521,4.0918736,3.872178,3.4716525,3.4271398,3.9133754,3.1920037,3.605147,2.8209765,2.289261,3.4836428,2.8178134,3.313865,2.9740605,3.3388195,2.3879652,2.3781183,3.9946868,2.8633137,3.782006,2.1849124,3.670002,3.3249702,2.7214253,3.4861262,3.5528367,1.4965463,2.6267638,4.1720634,3.5354543,1.9759825,2.278935,2.8508554,2.5563927,3.6969438
COc1cc(-c2ccc3ncnc(Nc4cccc(O)c4)c3c2)ccc1O,4.059096,3.0425966,3.0580819,2.3622224,2.6069827,2.5280976,3.3628466,3.5699565,2.6951177,3.2681746,3.2277646,3.7529063,3.6811972,3.0425372,4.814676,5.501066,3.698662,3.848259,4.3914123,2.6483498,3.2959955,3.3989618,2.2845838,3.9378786,3.413714,4.2955728,3.8557813,2.269551,3.115498,2.3685677,3.6684346,2.5046172,4.106406,2.201078,3.5490751,3.418097,0.7209008,3.9312556,2.873186,4.971638,2.322607,2.0479424,3.8009305,2.4715433,2.7071087,2.2329597,3.1856327,3.0273645,3.734495,2.2439544,-0.07350439,3.4495633,3.619397,1.6866313,3.4784722,4.1029506,5.0121164,4.1632347,4.6494117,2.9718158,2.9610102,4.4034653,4.284661,4.4452667,3.7074094,3.8974817,2.956279,3.504003,2.9286952,3.7563787,4.413028,1.9559762,1.9503562,2.521536,3.4705606,4.3295555,2.8004,2.743641,2.1958039,3.5084324,2.1189053,4.3870287,3.0071678,4.349168,6.434256,4.5057974,2.6495535,3.382119,2.5661898,3.7943547,3.3248184,4.48852,2.9256039,2.5457535,2.4268203,3.9301887,3.5357475,6.258057,4.69705,3.492638,2.0944004,2.8472996,3.4811509,2.5682664,2.92608,2.1496458,4.168517,2.8397646,2.8863866,2.284303,2.0700428,4.601889,2.5854435,3.7995067,2.64436,3.608015,5.293232,2.815617,4.5054827,2.2279012,2.873264,2.7955325,2.7859774,2.729798,3.875835,2.774245,2.8519216,2.8187373,4.2911534,2.775899,3.884987,2.140439,2.777304,3.665759,2.834405,4.999567,1.491703,3.8330374,4.6272206,4.120625,3.6240983,2.720063,4.6997204,3.2155375,3.242152,3.4882238,3.0034382,5.1464777,2.8367229,1.7912804,2.6417603,2.5300586,2.944725,3.2265012,2.2247913,1.8288981,3.5971541,1.9621767,4.568386,5.2032313,2.4145422,2.3306756,3.4959805,4.599972,2.309224,2.8820662,4.541018,4.5828834,3.1887915,3.411977,-0.14012203,1.9420068,4.2914057,3.0013173,3.979961,4.430751,3.5550344,3.5992317,2.780927,3.1157043,2.2922916,3.4802024,3.2292078,2.9757938,4.6346393,3.1125963,3.4722567,-0.3456186,3.8779316,3.6126797,3.719293,3.0678327,2.5033793,4.800879,2.2965207,2.9652607,2.8095624,2.27675,3.2163825,3.904729,3.4530542,4.0920405,2.5097604,2.349396,3.3200629,-0.29188484,4.0465918,2.4539087,3.4489179,3.4218683,3.3127346,3.6653519,3.8003037,3.7787538,3.0137763,1.7937617,3.9404604,4.386159,2.176585,2.425863,1.8780621,2.804414,3.256078,2.7420902,2.7136629,2.8819716,3.3131726,2.506221,4.6284447,2.1692927,3.3114626,2.1642783,-0.11901198,3.2884083,4.5209684,3.3378751,2.4888952,3.004747,2.8462446,3.0672328,4.435219,2.0686612,2.0827053,4.786468,1.7770762,2.955318,3.0105827,3.535964,2.4155269,2.8063128,3.9963663,3.239827,3.5547931,4.194414,4.5467086,3.4740543,2.9757712,1.9655513,2.8983607,3.091416,2.204147,0.04480023,3.2831097,2.3653665,3.691637,2.950068,4.505558,3.1066887,2.935821,3.5020149,2.8250358,2.1551697,3.975159,2.4323363,2.8353484,2.9802034,3.1273785,2.4748335,3.4197464,3.35832,2.3441887,2.6561956,4.556571,4.316248,3.1939003,2.3803082,3.7680585,1.7872989,2.9676433,3.4468255,3.1877472,3.0746949,3.137303,3.111138,2.6474679,3.3975909,4.1817317,4.2884808,3.9001787,2.9466531,3.729583,2.5074487,1.6216955,2.12155,3.0272129,2.9413052,4.0424447,2.5414648,3.3259745,4.3655887,3.6537337,4.786469,4.918708,3.0187626,4.2220993,2.7856154,2.266496,3.7173173,2.41482,2.3841796,2.7530046,3.2981205,3.5185664,3.6000128,3.656943,3.25759,2.876952,1.9187222,1.7918236,3.634925,4.9304976,3.4089124,4.491434,3.528855,2.8124163,2.0943816,2.3382077,3.4254987,3.8768892,4.5106177,2.841137,4.3828354,3.2248764,3.0913358,4.258314,3.0029104,4.1988397,3.7207701,2.2671707,3.8067455,2.947901,2.6442797,2.985322,3.6205246,2.7437441,3.215591,3.2009695,3.8241262,2.8581467,2.59047,3.6321926,3.5294166,2.9251242,3.6471448,2.2295227,3.2926958,3.7446852,4.6004157,3.9078217,2.0549045,4.9127593,4.2965193,3.8866718,3.3880394,2.1394167,2.9102166,3.0929506,3.7221558,3.6929271,4.1277065,2.7002096,2.4445539,3.9134514,4.224974,1.7644774,3.55241,4.465039,2.6685905,1.6509845,4.643298,3.4872365,3.3026748,2.3867643,2.119894,2.6390157,2.7458112,4.1628723,2.9523118,2.971872,3.5141158,4.36462,4.643305,3.8372772,3.7500052,2.1290405,3.0074832,2.6149964,2.1796663,3.3002496,1.8311192,5.041334,3.9638374,2.2378078,3.958772,2.4524786,2.1707067,2.4266465,4.1006193,2.1114087,2.7012281,3.0589178,4.3731008,2.0967908,3.1736698,2.2819064,3.1343539,3.7986472,3.3177824,4.356275,2.2607355,2.5082455,3.0746624,3.361494,2.3825562,5.453546,3.412723,2.4486022,2.4915638,2.565204,2.3694186,4.8786902,5.881766,2.8498049,2.6484177,1.7789038,4.800549,2.2299287,1.8228865,4.168154,2.6421273,2.9553084,2.3743193,3.3011627,2.5435147,2.784632,2.3666298,-0.31149688,3.8874648,3.7449095,3.9870937,2.5368404,2.88169,3.6030154,3.111656,3.5297863,2.7464442,2.300817,3.4156435,4.603301,2.8922162,5.065506,4.699514,3.966499,2.561049,3.1965468,2.7268386,4.588794,4.474521,3.4666698,3.872178,3.9112732,3.4271398,3.9133754,3.0647354,3.542043,2.9824393,2.2802246,4.4709187,2.8579373,3.315687,2.410386,3.3376696,3.440944,2.3950822,3.9592302,2.8633134,3.476252,3.6905801,3.670002,2.8023505,2.7214253,3.1749787,3.5528367,2.656071,2.5871036,4.181024,3.5354543,2.2624876,2.5326514,2.843541,3.55022,3.705334
COc1cc(-c2ccc3ncnc(Nc4ccc(F)cc4)c3c2)ccc1O,4.059096,2.2646072,3.238217,2.4876735,2.52429,2.5280976,1.7843916,3.5699565,2.6951177,3.2681746,3.2277646,3.7529063,4.0013714,1.8274221,5.12644,3.4410164,1.2406428,3.848259,4.3914123,2.6483498,3.2959955,3.3989618,2.2845838,2.7172294,1.3229573,4.2955728,3.8557813,2.269551,3.3592505,1.9922063,1.8893776,2.3124459,4.106406,2.201078,3.5490751,3.418097,4.5273657,3.9312556,2.873186,4.9598665,2.334895,2.4875827,3.8009305,1.7847861,2.7071087,2.6253588,3.1856327,3.0273645,1.0859674,2.2439544,3.4390428,3.4495633,3.619397,1.6633692,1.7721447,4.1029506,2.2263634,4.1632347,4.7159147,2.9718158,2.9610102,4.4034653,4.284661,2.450934,3.8976645,3.8974817,2.0669713,3.504003,2.9286952,3.7563787,2.0346017,2.2171435,1.9503562,2.6626701,2.1189423,4.3295555,2.8004,2.743641,2.0498784,2.1348038,2.1189053,4.56705,3.0071678,4.349168,2.2793186,4.08888,2.6013663,2.677334,2.6775854,3.7943547,3.3248184,4.48852,2.9256039,2.549449,2.4476416,3.9301887,3.5357475,3.032623,4.301311,2.0773194,2.0944004,2.8472996,1.7486947,2.5730422,2.448131,2.1496458,4.168517,2.8397646,2.1164393,2.284303,1.8216599,4.601889,0.932429,3.7995067,2.64436,3.608015,5.293232,2.815617,4.930641,2.1113648,2.9276776,2.7955325,2.7859774,2.6753798,1.5686276,2.763578,2.7972798,2.8187373,1.5310723,2.775899,3.884987,2.346503,2.777304,1.8448247,2.834405,4.999567,1.491703,3.8330374,4.6272206,1.651902,3.6240983,2.720063,4.7253265,3.2155375,3.2519524,2.1050029,3.0220058,2.63349,2.8479805,1.7912804,2.6417603,2.5300586,2.944725,3.2265012,2.2247913,1.8288981,2.647615,1.9621767,3.140219,0.8931655,2.4145422,2.3306756,2.6487916,4.599972,2.309224,2.8820662,4.0571833,1.5209687,3.1887915,3.0646152,3.1630356,1.9218899,4.2914057,2.4312353,3.979961,4.477802,1.6854162,1.1498668,2.9043896,2.0887392,1.8638422,1.580372,3.3369617,2.971727,4.6346393,3.0408847,3.4722567,5.6843014,3.8779316,3.6126797,3.719293,3.0678327,2.5403492,4.800879,2.3223522,2.093148,2.8095624,2.27675,1.7292261,3.904729,1.3919324,4.0920405,2.5023332,2.349396,3.3200629,4.9513264,4.0465918,2.4539087,3.4489179,3.6456873,3.3239117,3.6653519,3.8003037,1.9446682,3.0137763,2.0055478,3.9404604,4.386159,2.569971,2.437689,1.8780621,2.804414,2.6926303,2.8522723,2.7136629,2.8819716,3.3131726,2.506221,4.6284447,2.1692927,3.3114626,2.1642783,4.578468,3.186673,4.5205154,3.3378751,2.5118165,3.004747,2.8462446,3.0782197,4.435219,2.6930044,2.0827053,3.2405028,1.7770762,2.955318,3.0105827,3.535964,2.4155269,3.4760566,3.7682757,3.239827,3.0470514,4.194414,4.5467086,2.3184938,2.9757712,1.9655513,3.2430384,3.091416,2.204147,5.7379627,1.7610396,2.3653665,3.691637,2.950068,1.399337,3.0258355,2.935821,3.5020149,1.6656642,2.1551697,3.975159,2.4323363,2.7320836,2.9802034,1.4657894,2.4748335,2.7021074,3.35832,2.3441887,2.6561956,4.556571,4.316248,3.1939003,2.3803082,3.7680585,1.7872989,2.9676433,3.4468255,3.1540043,3.0658112,3.137303,1.747288,2.6474679,3.3975909,4.1817317,4.2884808,3.9001787,2.9466531,1.8817921,2.5074487,2.465951,2.0638258,3.0272129,2.9413052,4.0424447,2.5414648,3.3259745,4.9694,3.6537337,5.127328,4.918708,3.0187626,2.1637108,2.7856154,2.266496,3.7173173,2.41482,2.2557447,2.7530046,3.2981205,3.5185664,3.6000128,3.656943,3.25759,2.876952,1.9187222,1.6404057,2.9685678,4.706763,3.4089124,4.6599784,3.528855,2.9256542,2.0943816,2.3382077,2.1435192,1.4789312,4.5106177,2.841137,4.3828354,4.0718045,3.0861459,4.258314,3.0029104,4.1988397,3.7207701,2.2671707,3.8067455,2.9426084,2.6442797,2.985322,3.6205246,2.7437441,3.7007248,3.2009695,1.9453261,2.8581467,2.59047,3.6321926,3.5294166,2.9251242,3.8554873,2.2295227,3.2926958,3.7446852,4.6004157,3.9078217,2.0549045,4.9127593,4.2965193,3.8866718,2.2454963,2.1394167,2.8888662,3.0929506,2.527174,3.6929271,3.799492,2.7002096,2.4445539,3.9134514,3.1929703,1.7644774,2.636659,4.465039,2.7208443,2.3962145,0.9780969,3.4872365,3.3026748,2.3867643,2.119894,2.6456213,2.8264132,4.2069182,2.9523118,2.971872,3.5141158,4.36462,4.439187,3.858461,3.7500052,3.0887308,1.5715387,2.6149964,2.1796663,3.3002496,1.8311192,5.041334,1.2056564,2.2378078,3.958772,2.5099487,2.1707067,5.8877153,1.660338,2.0922112,2.7012281,3.0589178,2.9577343,2.0967908,3.1736698,2.2819064,3.1343539,2.1409173,1.7510605,4.356275,2.0585668,2.5082455,3.0746624,3.691287,2.3825562,1.6119409,3.412723,2.477678,2.4915638,2.565204,2.3694186,4.8786902,3.3202238,2.8572326,2.6484177,4.0768533,4.800549,2.2299287,1.8228865,4.348016,2.5103366,2.0841484,1.6548504,3.3011627,2.5435147,2.784632,2.3666298,3.550854,1.5822759,3.240133,3.3676002,2.5368404,2.8881195,3.3243642,3.111656,2.0747373,2.7464442,2.0632894,3.4156435,4.603301,2.8922162,5.065506,2.1077943,3.966499,2.561049,3.1965468,2.745245,4.588794,4.474521,3.069248,3.872178,3.9112732,3.4271398,3.9133754,3.0647354,4.28855,3.24086,2.2802246,1.5542003,1.9243876,3.315687,2.410386,3.3376696,1.5119777,2.3950822,3.9592302,2.8633134,1.7296196,2.9096727,3.670002,2.8023505,2.7214253,1.8283885,3.5528367,2.0004547,2.5871036,4.181024,3.5354543,2.1819174,2.040554,2.843541,1.3822473,3.705334
COc1cc(-c2ccc3ncnc(Nc4ccc(S(N)(=O)=O)cc4)c3c2)ccc1O,4.059096,2.2646072,3.238217,2.5719547,2.52429,2.5280976,1.7843916,3.5699565,2.6951177,3.7551446,3.2277646,3.7529063,4.013197,3.0633302,5.12644,3.8793836,1.2406428,3.848259,4.3914123,2.6483498,3.2959955,3.3989618,2.2845838,5.1744924,1.3229573,4.2955728,3.8557813,2.269551,3.3592505,1.9959017,1.8893776,2.1025262,4.3738146,2.201078,3.5490751,3.418097,4.5671787,3.9312556,3.6465685,4.9598665,2.334895,2.5197945,3.8009305,3.2534187,2.7071087,2.8512478,3.1856327,3.0273645,1.237966,2.2439544,3.8283627,3.4495633,3.619397,1.6633692,3.278406,4.1029506,1.9284767,4.1632347,4.7159147,2.9718158,3.024488,4.4034653,4.284661,2.450934,3.8751652,3.8974817,1.4592265,3.504003,2.9286952,3.7563787,2.2513127,2.2171435,1.9503562,2.7071323,2.1189423,4.3295555,2.8004,2.743641,2.0498784,2.1348038,2.1189053,4.56705,3.0071678,4.349168,2.2793186,4.08888,2.803144,2.677334,2.6775854,3.7943547,3.3248184,4.48852,2.9256039,2.549449,2.4476416,3.9301887,3.5357475,4.185399,4.301311,2.5262098,2.0944004,2.8472996,1.7486947,2.5730422,3.323107,2.1496458,4.168517,2.8397646,2.5396638,2.284303,1.8216599,4.601889,2.707574,3.7995067,2.64436,3.608015,5.293232,2.815617,4.930641,2.1113648,2.7684896,2.7955325,2.7859774,2.6753798,1.90762,2.763578,2.7972798,2.8187373,2.286571,2.775899,3.884987,2.461028,2.777304,1.8779143,2.834405,4.999567,1.491703,3.8330374,4.6272206,1.651902,3.6240983,2.720063,4.7253265,4.205686,3.2519524,3.5379736,3.0220058,2.161249,2.8479805,1.7912804,2.6417603,2.5300586,2.944725,3.2265012,2.2247913,1.8288981,2.647615,1.9621767,3.140219,0.8931655,2.4145422,2.3306756,2.6487916,4.599972,2.309224,2.8820662,4.0571833,2.933861,3.1887915,3.0646152,4.9046745,1.9218899,4.2914057,2.4312353,3.979961,4.477802,1.6854162,0.84953034,2.95262,2.0887392,1.8638422,2.334947,3.3093336,2.971727,4.6346393,3.0408847,3.4722567,4.0133405,3.8779316,3.6126797,3.719293,3.5505252,2.5403492,4.800879,2.3956594,2.630962,2.8095624,2.27675,1.7292261,3.904729,2.501072,4.0920405,2.5023332,2.349396,3.3200629,2.3216255,4.0465918,2.4539087,3.4489179,3.6456873,3.3239117,3.6653519,3.8003037,4.0508842,3.0137763,1.7937617,3.9404604,4.386159,2.176585,2.437689,1.8780621,2.804414,2.6926303,2.8940122,2.7136629,2.8819716,3.3131726,2.506221,4.6284447,2.1692927,3.3114626,2.1642783,4.7716274,3.186673,4.5205154,3.3378751,2.5118165,3.004747,2.8462446,3.0782197,4.435219,2.6537745,2.0827053,3.7758138,1.7770762,2.955318,3.0105827,3.535964,2.4155269,2.8063128,3.7682757,3.239827,3.0446784,4.194414,4.5467086,2.3771827,2.9757712,1.9655513,2.892131,3.091416,2.204147,6.4586277,1.7610396,2.3653665,3.9530828,2.950068,1.399337,3.0258355,3.1410615,3.5020149,1.680355,2.1551697,3.975159,2.4323363,2.7320836,2.9802034,1.4657894,2.4748335,2.7021074,3.35832,2.3441887,2.6561956,4.556571,4.316248,3.1939003,2.3803082,3.7680585,2.2300887,2.9676433,3.4468255,3.1540043,3.0658112,3.137303,3.3139343,2.6474679,3.3975909,4.1817317,4.2884808,3.9001787,2.9466531,1.8817921,2.5074487,2.329278,2.0638258,3.0272129,2.9413052,4.0424447,2.5414648,3.3259745,4.9694,3.6537337,5.127328,4.918708,3.0187626,3.6305158,2.7856154,2.266496,3.7173173,2.41482,2.2557447,2.7530046,3.2981205,3.5185664,3.6000128,3.656943,3.25759,2.9176264,1.9187222,1.6404057,4.4424167,4.706763,3.4089124,4.6599784,3.528855,2.9321635,2.0943816,2.3382077,2.0800645,1.8349245,4.5106177,2.841137,4.3828354,4.344832,3.2561305,4.258314,3.0029104,4.1988397,3.7207701,2.2671707,3.8067455,2.9426084,2.6442797,2.985322,3.6205246,2.9713187,3.215591,3.2009695,2.3647196,2.8581467,2.59047,3.6321926,3.5294166,2.9251242,3.8554873,2.2295227,3.2926958,3.7446852,4.6004157,3.9078217,2.0549045,4.9127593,4.2965193,3.8866718,2.46575,2.1394167,2.8888662,3.0929506,2.527174,3.6929271,3.799492,2.7002096,2.4445539,3.9134514,3.3434412,1.7644774,4.1779947,4.465039,2.7572947,1.8358094,4.530777,3.4872365,3.3026748,2.3867643,2.119894,2.6456213,2.8264132,4.2069182,2.9523118,2.971872,3.5141158,4.36462,4.439187,3.858461,3.7500052,2.4152913,1.5313276,2.6149964,2.1796663,3.3002496,1.8311192,5.041334,1.2056564,2.2378078,3.958772,3.1563728,2.1707067,5.9233046,2.0002437,2.0922112,2.7012281,3.0589178,2.9577343,2.2630217,3.8004286,2.2819064,3.1343539,1.5097961,0.4262008,4.356275,2.0585668,2.5082455,3.0746624,3.5953085,2.3825562,2.2535357,3.412723,2.477678,2.4915638,2.565204,2.3694186,4.8786902,3.3202238,2.8572326,2.6484177,3.98527,4.800549,2.2299287,1.8228865,4.348016,2.5103366,1.8713744,2.501627,3.3011627,2.6722639,2.784632,2.3666298,3.6147316,3.7768488,3.240133,3.3676002,2.5368404,2.8881195,3.3243642,3.111656,3.3362021,2.7464442,2.0632894,3.4156435,4.603301,2.8922162,5.065506,3.1299016,3.966499,2.561049,3.1965468,2.745245,4.588794,4.474521,2.8857954,3.872178,3.9112732,3.4271398,3.9133754,3.0647354,4.4491105,3.24086,2.2802246,3.935932,1.9243876,3.315687,2.410386,3.3376696,1.5119777,2.3950822,3.9592302,2.8633134,2.1222308,2.9096727,3.670002,2.8023505,2.7214253,3.3209074,3.5528367,1.9944258,2.5871036,4.181024,3.5354543,2.1819174,3.2479181,2.843541,1.4042277,3.705334
c1cc(Nc2ncnc3ccc(-c4ccc5[nH]ncc5c4)cc23)c2cn[nH]c2c1,4.083129,2.2646072,2.953264,3.3323672,2.5754318,2.909306,3.1648228,3.5699565,3.800229,3.46013,3.3169708,3.7364812,3.6023164,2.0239463,4.982945,1.7278711,2.754118,3.8614402,4.4037433,2.6547053,3.2959955,3.3991053,2.2764237,2.9954011,2.1377451,4.315836,3.8557813,3.3678656,2.8858974,2.5518541,2.0120256,2.2024746,5.2611084,2.2431543,3.5490751,4.7282853,3.6580079,4.705417,2.151184,4.8232965,2.578176,3.0419564,4.9006157,2.7267625,2.719632,1.2775928,3.370452,3.1682096,3.8272467,3.17002,2.7007763,3.465176,3.619397,1.9984764,2.0063908,4.099132,1.4463464,4.168061,4.420605,2.9721425,2.279091,4.4207506,4.284661,1.030806,3.7074094,3.8627007,3.0048347,3.504003,3.649057,3.7485218,3.530788,2.208874,2.2288957,2.6808918,3.7530544,4.329556,2.852037,2.757893,2.4070752,4.446318,2.1189053,4.2460628,3.0287123,4.3544736,0.30193588,4.4460254,2.4648552,3.7403622,2.841789,3.7943547,3.3249807,4.48852,3.8728607,2.6846752,2.4317253,3.9181883,3.5393708,4.075378,4.5550585,1.2682644,2.1189022,2.8472996,3.2246926,2.6302145,2.114409,2.1496458,4.168517,4.027012,1.8731563,2.2923498,1.6839592,4.5993285,2.1538491,3.7995067,2.64436,3.4862711,5.266718,1.8495955,4.7785106,3.1063488,2.3168628,4.5179343,2.7859774,2.572005,3.4919434,2.6538694,2.6953225,2.8734138,3.5922215,2.8171124,3.884987,3.0082154,2.7552166,2.2201052,3.1392024,4.999567,2.8930259,3.683618,4.6509852,3.3659155,3.6330767,2.720063,4.635864,2.5403185,3.36274,4.744883,3.0623174,1.5268523,2.788838,1.8532916,3.265975,2.4979737,3.3688087,3.1912086,2.2247913,1.8288981,3.5662115,2.2070606,4.8364305,3.960876,2.4145422,2.3306756,3.1976013,4.599972,2.3330622,2.8820662,4.1979313,1.5648068,3.2004848,3.2798939,1.52236,2.3791275,4.2914057,3.5554361,3.979961,3.9819162,3.6958206,5.0822988,3.5386455,2.4471111,2.3301811,3.8074422,3.2292078,3.0504007,4.6346393,2.9377654,3.4722567,3.5746644,3.8262587,3.6126797,3.719293,3.0678327,2.4211235,4.800879,2.4552052,3.1793218,2.8082056,1.4806079,2.9492285,3.8902254,2.673773,4.106083,3.0236115,2.5026853,3.3263485,2.7742524,4.0465918,2.4539087,3.453037,3.3829696,3.5004733,3.776266,3.8003037,2.4673681,3.0137763,2.7684748,3.9404604,4.395688,2.176585,2.6692445,1.8892524,2.804414,3.5346563,2.8792896,2.7136629,3.720823,3.8580146,2.5198498,4.6205072,2.1692927,3.3114626,2.2071211,4.73549,0.040133316,4.189527,4.437279,2.7186687,3.004747,2.8462446,3.0248,4.435219,1.8498235,2.1029723,4.0065317,2.2526731,2.9766476,3.0172668,3.535964,2.4155269,1.1441616,3.7996008,4.258583,4.8821297,4.007864,4.5467086,2.6883025,2.9757712,2.3006823,1.911386,3.6474147,2.2162523,3.946139,3.6394649,2.3653665,2.0519319,2.4586794,3.4174285,2.9010193,3.1838121,3.5166507,2.171289,2.1551697,3.975159,2.4220343,2.9580152,2.9802034,3.577137,2.7066114,3.5631907,3.35832,2.3725202,2.650343,4.586824,4.303107,3.1939003,2.8108234,3.7749085,3.0193324,2.9676433,3.4709003,3.286477,3.1291802,3.0851753,2.2717483,2.6474679,3.414297,4.1421075,4.276523,3.9001787,3.1170192,3.0306,3.5147314,2.3753,3.0608118,4.25666,3.0032794,4.055888,2.5566852,3.3259745,4.5843306,3.839401,4.8807716,4.918708,4.021912,2.9408448,2.7856147,2.9681587,3.6209092,2.4148204,2.27222,2.6968725,3.2981205,3.6744428,3.57929,3.6445305,5.793062,3.6452868,2.1413238,2.167388,1.4648988,4.615381,3.6013408,4.673123,3.5281518,2.7254877,2.8549783,2.9382699,3.9833918,2.9729166,4.5106177,2.960062,4.3828354,0.4125038,3.1230726,4.2518153,3.0029104,3.9932663,3.7277334,2.2671707,3.798826,2.9324245,3.113296,3.8759744,3.6205246,2.9265246,1.9595153,3.2865117,1.7685196,2.8581467,2.59047,3.6521661,3.5962086,2.9251242,3.4672272,2.2295227,4.787785,3.8265922,4.6004157,4.093895,2.4066982,4.9127593,4.2990913,3.8866718,2.0846229,2.9496024,3.0200355,3.1142392,3.4766006,3.6929271,3.8941042,2.6794984,2.4812584,5.186029,3.5495625,2.175363,1.8355222,4.465039,1.8809052,2.268327,4.952558,3.4725034,3.2023137,2.41857,2.0980484,2.6836247,2.7451084,4.1972203,3.7641835,2.9663255,3.5401876,4.355626,4.418379,4.0215898,3.7500052,3.054483,2.9372873,3.4375782,2.7440662,3.3002496,2.3788142,5.0579443,3.6655426,2.2794092,3.8548684,2.705269,2.6229908,3.6862283,3.8892796,2.7260334,2.7012281,3.0589178,4.2804904,2.114473,3.25172,2.3010798,3.1343539,3.0024657,2.7956898,4.36668,2.1831884,2.456145,3.1146646,3.3446822,3.2737794,4.4917784,3.412723,2.4424064,2.4915638,2.5927877,2.3694186,4.8786902,4.8107924,2.822403,2.7341723,3.4349866,4.811084,2.2299287,1.8228865,4.303696,2.294868,3.151431,2.3391545,3.3011637,1.9847579,2.811215,3.226148,4.9472895,2.3691506,2.5147195,3.638631,3.6076398,3.005685,2.7592728,3.111656,2.030489,2.9775836,2.7811904,3.3681211,4.603301,3.4141347,5.078814,1.537805,3.983139,2.8328536,3.1965468,2.902312,4.6007323,4.474521,4.0918736,3.872178,3.0904503,3.4271398,3.9133754,3.1920037,3.605147,2.8209765,2.289261,3.4836428,2.8178134,3.313865,2.9740605,4.320486,2.3879652,2.3781183,3.895848,4.121081,3.782006,4.5932646,3.670002,3.3665898,3.0041287,3.4861262,3.5528367,1.9041485,2.6267638,4.1720634,3.5354543,2.8117037,2.278935,2.8508554,2.5563927,3.6969438
COc1cc(-c2ccc3ncnc(Nc4ccc(F)c(O)c4)c3c2)ccc1O,4.059096,2.2646072,3.0364459,2.862052,2.5544467,2.5280976,3.7571695,3.5699565,2.6951177,3.2681746,3.2277646,3.7529063,3.6811972,2.9013412,4.6705356,5.5952616,5.0334477,3.848259,4.3914123,2.6483498,3.2959955,3.3989618,2.307614,1.797988,4.268468,4.2955728,3.8557813,2.6484692,3.144516,2.965976,3.729055,2.6407156,5.6798663,2.201078,3.5490751,3.418097,2.4524815,3.9312556,2.873186,4.884296,2.322607,2.0479424,3.8009305,2.3750124,2.7071087,3.0773232,3.1856327,3.0273645,3.4050834,2.2439544,-0.28465733,3.4495633,3.619397,1.6866313,4.7175403,4.1029506,5.1474304,4.1632347,4.5645843,2.9718158,4.6615653,4.4034653,4.284661,5.053717,3.7074094,3.8974817,4.525942,3.504003,2.9286952,3.7563787,5.424722,3.0666194,1.9503562,2.521536,3.4898596,4.3295555,2.8004,2.743641,2.1671262,4.093,2.1189053,4.363394,3.0071678,4.349168,5.855858,4.331458,2.5248928,3.2550035,2.545521,3.7943547,3.3248184,4.48852,2.9256039,2.5457535,2.4268203,3.9301887,3.5357475,2.7083733,4.631379,3.9736772,2.0944004,2.8472996,3.3184106,2.5682664,2.448131,3.1215222,4.168517,2.8397646,4.0897636,2.284303,2.0468957,4.601889,2.6367433,3.7995067,3.5332036,3.608015,5.293232,3.7530878,4.5536203,2.1113648,2.8438613,2.7955325,2.7859774,2.725593,4.915309,2.774245,2.8120325,2.8187373,4.836469,2.775899,3.884987,2.140439,2.777304,2.6806247,2.834405,4.999567,2.6213765,3.8330374,4.6272206,4.9784107,3.6240983,2.720063,4.6513834,4.3346615,3.242152,2.7789903,3.0034382,3.644389,2.8367229,1.7912804,2.6417603,4.383009,2.944725,3.2265012,2.3087068,1.8288981,4.248348,1.9621767,4.2999816,1.3009961,2.4145422,2.3306756,2.6830456,4.599972,2.309224,2.8820662,4.459351,4.4881625,3.1887915,3.3674972,-0.010676573,1.9420068,4.2914057,3.7244964,3.979961,4.3798385,3.5342689,4.1118507,2.7105703,3.4926636,2.4685583,2.7849598,3.2292078,2.9757938,4.6346393,2.9239795,3.4722567,0.0045267115,3.8779316,3.6126797,3.719293,3.0678327,2.5033793,4.800879,2.2965207,4.0940976,2.8095624,2.27675,3.2481356,3.904729,3.2210667,4.0920405,2.6089568,2.349396,3.3200629,0.4728434,4.0465918,2.4539087,3.4489179,3.3861828,3.307059,3.6653519,3.8003037,4.9133506,3.0137763,4.2914495,3.9404604,4.386159,3.9613173,2.425863,1.8780621,2.804414,3.5672977,2.7831354,2.7136629,2.8819716,3.3131726,2.506221,4.6284447,2.1692927,3.3114626,2.1642783,1.773106,3.186673,4.4615273,3.3378751,2.4888952,3.004747,2.8462446,3.0672328,4.435219,2.2293315,2.0827053,4.3150463,1.7770762,2.955318,3.0105827,3.535964,2.4155269,5.3148923,3.9119115,3.239827,4.173748,4.194414,4.5467086,5.1227255,2.9757712,1.9655513,2.4359028,3.091416,2.204147,1.3727994,3.5753067,2.3653665,3.691637,5.795962,5.6426754,2.9991465,2.935821,3.5020149,2.7265685,2.1551697,3.975159,2.4323363,3.6321435,2.9802034,3.9391308,2.4748335,3.4820929,3.35832,2.3441887,2.6561956,4.556571,4.316248,3.1939003,2.3803082,3.7680585,1.7872989,2.9676433,3.4468255,3.1877472,3.0746949,3.137303,4.3334947,2.6474679,3.3975909,4.1817317,4.2884808,3.9001787,2.9466531,3.5619273,2.5074487,1.788354,2.0710993,3.0272129,2.9413052,4.0424447,2.5414648,3.3259745,4.4500337,3.6537337,4.752237,4.918708,3.0187626,5.021559,2.7856154,2.266496,3.7173173,2.41482,2.3682444,2.7530046,3.2981205,3.5185664,3.6000128,3.656943,5.2071953,2.876952,1.9187222,1.653303,4.6858706,4.8165603,3.4089124,4.403126,3.528855,2.8124163,2.0943816,2.3382077,3.5832427,3.807537,4.5106177,2.841137,4.3828354,2.282987,3.0913358,4.258314,3.0029104,4.1988397,3.7207701,2.2671707,3.8067455,2.947901,2.6442797,2.985322,3.6205246,2.7437441,4.1674457,3.2009695,3.5335677,2.8581467,2.59047,3.6321926,3.5294166,2.9251242,3.6460185,2.2295227,3.2926958,3.7446852,4.6004157,3.9078217,2.9183035,4.9127593,4.2965193,3.8866718,4.6220922,2.1394167,2.9102166,3.0929506,2.8628507,3.6929271,4.015867,3.122561,2.4445539,3.9134514,2.2379854,1.7644774,1.6672841,4.465039,3.4850996,1.8106267,-0.112289295,3.4872365,3.3026748,2.3867643,2.119894,2.5909312,2.7458112,4.1569195,2.9523118,2.971872,3.5141158,4.36462,4.509137,3.7624245,3.7500052,6.486765,3.1048071,2.6149964,2.1796663,3.3002496,1.8311192,5.041334,3.6976733,2.2378078,3.958772,2.1403136,2.1707067,3.279684,3.5888464,2.9376814,2.7012281,3.0589178,4.09491,2.0967908,3.1736698,2.2819064,3.1343539,4.4043074,3.977356,4.356275,2.4471498,2.5082455,3.0746624,2.881525,2.3825562,5.1003757,3.412723,2.4486022,2.4915638,2.565204,2.3694186,4.8786902,5.441358,2.8498049,2.6484177,2.153394,4.800549,2.2299287,1.8228865,4.1389675,2.5954413,2.976721,3.2288725,3.3011627,2.5435147,2.784632,2.6843512,1.4064243,3.6183605,3.0304048,3.790653,2.5368404,2.88169,3.4617624,3.111656,2.0747373,2.7464442,2.8664832,3.4156435,4.603301,2.8922162,5.065506,4.578536,3.966499,2.561049,3.1965468,2.7268386,4.588794,4.474521,2.7793868,3.872178,3.9112732,3.4271398,3.9133754,3.0647354,3.542043,2.9272778,2.398634,2.7239406,2.528638,3.315687,2.5187817,3.3376696,4.643236,2.3950822,3.9592302,2.8633134,3.5926125,3.8056135,3.670002,2.8023505,2.7214253,2.797756,3.5528367,2.5420294,2.5871036,4.181024,3.5354543,2.473446,4.25298,2.843541,3.9052339,3.705334
Oc1c(F)ccc(Nc2ncnc3ccc(-c4ccc(Cl)cc4)cc23)c1F,4.083129,2.2646072,3.1271055,3.6964967,2.629778,2.497038,2.1412735,3.5699565,1.6832827,1.1559199,2.8212786,3.7364812,3.3478968,3.1630566,5.583795,2.5596952,4.207569,3.8614402,4.4037433,2.8061757,3.2959955,3.3991053,2.144222,3.7676637,4.4434476,4.315836,3.8557813,1.9958575,3.3993545,3.0099883,4.1418886,2.480972,0.8195159,2.3541818,3.5490751,3.2347732,3.8721561,3.804679,4.2988954,5.1496067,2.3366518,2.0737355,3.776199,2.1276093,2.719632,3.2344503,3.1856327,3.0273645,1.9763875,2.1472375,3.57347,3.2580154,3.619397,1.7441058,4.3640733,4.099132,4.6563993,4.168061,5.1219597,2.9721425,4.3309264,4.4207506,4.284661,5.540144,3.7074094,3.616012,3.8856728,3.504003,2.6828675,3.7485218,3.5422432,2.47023,1.9503562,2.7232184,2.1126614,4.2205696,3.1655767,2.579847,2.1857224,2.522917,2.1189053,4.7773557,3.0287123,4.3544736,4.994716,4.757131,2.6432574,1.3649774,2.5097618,3.7943547,3.2129574,4.48852,2.9256039,2.7135437,2.4176238,3.9181883,3.5393708,5.0070796,5.0403953,4.5899897,2.1189022,2.8472996,3.4380732,2.6532302,1.9137977,2.99366,4.168517,1.1871747,3.4492705,2.2923498,1.9371562,4.5993285,2.4627054,3.7995067,4.2318344,3.175619,5.266718,3.3193865,5.16465,3.0254757,3.0593297,2.7471843,2.7859774,3.0411077,3.46233,2.7179868,2.846792,2.8734138,4.928718,2.81778,3.884987,2.5890396,3.646433,3.012919,2.834405,4.999567,3.691083,3.7282789,4.6509852,3.7666936,3.6330767,2.720063,4.966848,4.639904,3.431759,4.2431703,3.136744,4.7223315,2.8899887,1.9165802,2.4358091,3.3729072,2.853015,3.1912086,2.6236293,1.8288981,3.9477677,1.9621767,0.892674,4.4425344,2.4145422,2.741675,3.506537,4.599972,2.3330622,2.8820662,4.458832,4.236237,3.2004848,4.1737647,4.9961257,1.973335,4.2914057,2.631403,3.979961,4.7332525,1.020706,2.0883813,3.1742604,3.5786982,2.0692983,3.4937801,3.2292078,2.9596953,4.6346393,3.4153457,3.4722567,3.7945564,3.3807158,3.6126797,3.719293,3.0678327,2.4193606,4.800879,2.3087597,3.5402002,2.8082056,1.5695148,2.9213107,3.8902254,2.8447664,4.106083,1.2428722,3.3506846,3.1176143,4.562384,4.0465918,2.4539087,3.453037,3.614091,3.7008224,3.4814482,3.6504486,4.354375,3.0137763,3.7499852,3.9404604,4.395688,3.9722033,2.5742652,1.8877567,2.804414,3.8733137,2.915594,2.7136629,2.6574872,3.3212144,2.5198498,4.6205072,2.1692927,3.3114626,2.2071211,4.68918,5.355384,4.6954365,3.2220173,2.631637,3.004747,2.8462446,3.0266843,4.435219,2.6081057,2.1029723,5.01668,1.7770762,2.9766476,3.0172668,3.535964,2.4155269,5.5588036,4.1931186,3.1696835,3.4771302,3.689167,4.5467086,4.697986,2.9757712,2.1418731,2.74051,3.091416,2.2162523,3.5539117,2.8740163,2.3653665,4.1150265,5.5270996,4.164277,3.231322,1.7917827,3.3630068,2.2243752,2.4593961,3.975159,2.4220343,2.573597,2.9802034,2.5979521,2.4748335,1.5721743,3.35832,2.3725202,2.650343,4.586824,4.303107,3.1939003,2.383988,3.7749085,1.8334563,2.9676433,3.4709003,3.3213122,3.104834,3.0851753,3.7982585,2.6474679,3.414297,3.5807762,4.276523,3.9001787,2.9466531,3.3266344,2.4142842,1.5744357,4.0435824,2.4494417,3.0032794,4.055888,2.5414648,3.3259745,5.0393925,3.2633212,5.3144965,4.918708,2.9331062,2.7303483,2.768857,2.2082155,3.4341624,2.349021,2.5004516,2.6968725,3.2535777,0.27845526,3.57929,3.6445305,0.8667419,1.6304046,2.0139518,1.6813082,4.6808734,5.110502,3.4089124,5.1894097,3.1893115,2.729047,3.166614,2.3382077,2.9536366,2.9789093,4.5106177,2.7971637,4.3828354,4.594814,3.1180985,4.2518153,3.0029104,3.7605076,3.7207701,2.2671707,3.560003,2.978528,2.6442797,2.8746445,3.6205246,2.1537213,4.603945,3.2009695,4.4328957,2.8581467,2.59047,3.3500254,3.5093584,2.9251242,3.8143842,2.2295227,3.1654696,3.5481715,4.6004157,3.5695686,2.7894967,4.9127593,4.2990913,3.8866718,4.0792155,2.1394167,3.0228457,3.1142392,2.3563583,3.6929271,4.4732637,4.320058,2.7069168,3.7587779,3.7127059,1.7644774,3.4873343,4.465039,3.7032423,1.6933101,4.883956,3.4725034,3.0787046,2.41857,2.0980484,2.9433305,2.7451084,4.2946897,2.9523118,2.9663255,3.5401876,4.355626,5.069489,4.1575165,3.7500052,5.0142565,3.083623,1.5992285,2.1650922,3.3002496,1.8311192,5.0579443,4.199434,2.2757106,3.5978546,2.4883802,2.100144,5.4495153,3.4424014,3.1568995,2.7012281,3.0589178,0.95795834,2.0955782,2.7201438,2.3010798,3.1343539,4.1789165,4.5972624,4.36668,2.0566747,2.456145,3.1146646,3.479065,2.3825562,3.8528826,3.412723,2.4424064,2.4915638,2.5927877,2.3694186,4.8786902,0.79694664,2.8553793,2.6484177,3.4232364,4.811084,2.2299287,1.8228865,4.8181458,2.6730309,3.000736,2.6601264,3.1193194,1.9847579,2.811215,1.3444904,4.026532,4.0581145,4.143603,4.0492697,2.5368404,3.0236053,3.6962638,3.111656,4.179466,2.7464442,2.4344635,3.0376089,4.603301,2.8449864,5.078814,4.3932457,3.6684682,2.561049,3.1965468,2.9310563,4.6007323,4.474521,3.5826106,3.872178,3.0978103,3.4271398,3.9133754,3.0647354,3.6911466,3.2931645,2.5309632,3.708509,1.9243876,3.313865,4.0871167,3.3388195,4.2564354,2.3781183,3.7588968,2.7269542,4.511589,0.74906176,3.670002,2.8023505,2.7214253,3.762321,3.5528367,2.5471656,2.7008362,4.1720634,3.5354543,1.033854,3.236916,2.8508554,4.0715566,3.6969438
NC(=O)c1cccc(-c2ccc3nccc(Nc4cccc5[nH]ncc45)c3c2)c1,3.9748507,2.1651525,3.1099205,3.4350939,1.8853167,2.909306,3.1347244,3.4153137,3.154566,2.8328214,3.2773287,3.61799,3.627916,2.1279888,4.7263036,4.6614385,4.504627,3.780939,4.2574143,2.6531188,3.0764282,3.43443,2.2386127,3.8656404,3.7474058,4.3279376,3.7734282,2.2711985,2.6484303,2.4976292,2.0120256,2.2008376,2.8503466,2.2874918,3.5273714,4.1437607,1.3708696,4.0255566,3.1052563,4.36214,2.3273885,2.6728497,3.9001617,2.7267625,2.7273698,2.3059995,3.370452,2.8950818,3.3506925,2.4826925,2.7007763,3.601494,3.6753423,1.9984764,2.0063908,4.11032,2.507196,4.125877,4.4147387,2.9677377,3.5052586,4.2834644,4.440277,3.2481678,3.6893728,3.8476098,3.0048347,3.5680535,4.282278,3.692841,3.5164468,1.7707235,2.3038092,2.4419296,3.7138,4.4018445,2.848888,2.646925,2.1402957,3.9434319,2.1075606,3.8829355,3.0553555,4.2185364,5.4074807,4.203154,2.7282326,3.040815,2.841789,3.7404633,3.3102474,4.335512,3.6527789,2.8419135,2.3779945,3.7294197,3.5157208,4.075378,4.3343563,2.7761323,1.8714608,2.853756,3.2854807,2.3271523,2.114409,2.218775,4.191311,4.405886,2.6972818,2.5354679,1.8977743,4.502503,2.307919,3.7787676,2.7972515,3.35949,5.049268,3.0333276,4.9423313,3.1063488,3.0494454,3.4978938,2.613794,2.3069646,3.4919434,2.454824,2.4633448,2.9837563,3.5922215,2.8210695,3.8861609,2.090841,2.9497037,3.2341547,3.110126,4.94724,3.059836,3.470138,4.498357,3.3659155,3.6062229,2.6183271,4.609705,3.2582848,3.0510433,4.744883,2.8851438,3.2186804,2.9278247,2.0891979,3.446059,2.8625805,2.9501157,3.1247206,2.3432739,1.9325762,3.668722,1.8842888,4.3280916,5.585209,2.3844633,2.4345827,3.1309319,4.541911,2.1628373,2.8883452,3.7024834,1.5112258,3.075467,2.863523,5.0810084,2.3791275,4.3357635,2.672104,4.062884,3.6320293,3.6641285,5.953043,2.8846395,2.7439237,2.045332,3.8074422,3.026058,2.6284351,4.651769,2.2686117,3.4718103,3.5746644,3.5801303,3.6547656,3.6526814,2.3948689,2.369648,4.575414,2.3568377,2.886056,2.9200904,1.8144523,2.9862723,3.7329545,1.908735,4.0441885,2.3842378,2.6481407,3.5305314,2.9721017,2.941568,2.5029094,3.305674,3.2337415,3.2371945,3.5834568,3.7328277,4.479065,3.062184,2.6330218,3.6847658,4.559801,3.0136967,2.6132534,2.1498048,2.7425082,3.5346563,2.364126,2.5917647,3.2983181,3.2682004,2.469899,4.6659856,2.079562,3.0461059,2.219746,4.73549,3.1930215,4.3568993,4.137859,2.73372,2.7741075,2.9350755,3.110776,4.4671392,1.6689385,2.3926382,2.6940925,1.8204746,3.077172,3.0478537,3.656174,2.467177,3.20519,3.858597,3.943371,4.8775783,3.8739262,4.5902505,2.1839259,3.0170543,2.2356422,2.6930904,3.6474147,2.1772013,3.946139,3.6394649,2.5181348,3.0454018,3.8014555,3.4174285,3.163919,3.1537066,3.5227282,2.171289,2.4236987,3.9495528,2.6296039,2.8337696,3.0250003,4.2519073,2.412113,3.5317552,3.3024647,2.1781542,2.6941662,4.5178566,4.2352486,3.3028452,2.5845194,3.8004644,1.8707529,2.9005747,3.4240675,2.894051,3.169391,3.243403,3.5094295,2.6223943,3.2365065,4.058163,4.077016,3.805107,3.1170192,3.1096773,3.1110759,2.4041355,3.3843381,4.201333,3.0581353,3.907134,2.3959734,3.3577158,4.8394594,3.6325698,4.374253,4.9809775,3.6043468,2.8129323,2.6897895,2.4531522,3.48667,2.427662,2.2888887,2.2643418,3.2136238,4.684221,3.404287,3.4872258,3.1042066,3.5886369,1.8727432,2.167388,3.3684552,4.2116785,3.6013408,4.4714346,3.4656045,2.9617667,2.6412284,2.8663316,3.9833918,3.0849352,4.5381017,3.1683903,4.1048636,3.3136222,2.7888918,4.11882,2.9470427,3.9494271,3.7138042,2.4241655,3.6340232,2.647756,3.113296,3.3993042,3.5892415,2.9230998,2.5401716,3.2865117,1.9016259,2.8623443,2.428712,3.6468883,3.5076947,2.9291372,3.4140675,1.9369338,3.8279102,3.6016183,4.6587358,4.003476,2.4348722,4.7935004,4.36248,3.898005,4.7691135,2.79644,2.8424587,2.9242246,3.2634017,3.6832054,4.0130844,2.7341487,2.666418,4.142388,3.7320642,2.1692305,5.032148,4.4220347,2.3806155,2.9698262,4.952558,3.4995956,3.7040803,2.62897,2.324878,2.5550427,2.7279856,4.281914,3.7641835,2.8445036,3.3201356,4.1857734,4.2910013,4.316235,3.7476726,3.162486,2.9799995,2.964571,2.369828,3.272013,1.7520026,4.886023,3.7751985,2.7062664,3.7623677,2.705269,2.436405,4.335453,3.8892796,2.4627151,2.801448,3.0351713,3.6171052,2.114473,3.25172,2.5190647,3.417251,6.4530997,2.7956898,4.2348614,2.1831884,2.663419,3.1602774,3.3553643,3.0453892,4.4917784,3.3615632,2.618764,2.3329635,3.0685155,2.51948,4.6874743,4.6856165,2.6664312,2.7341723,3.315181,4.7221756,2.014592,1.8942748,4.3812437,2.294868,3.151431,4.831884,3.291788,1.9560757,2.9256432,2.6205554,5.3770227,2.416342,6.2072487,3.3588967,2.4548278,2.9079015,2.457154,3.005946,3.2184813,2.9775836,2.5126615,3.5053604,4.522882,3.4141347,4.9894295,2.763456,4.256702,2.8328536,3.2513957,2.7404687,4.456783,4.5284843,4.0918736,3.795274,3.0035515,3.431598,3.8570335,3.1920037,3.5437384,2.723603,2.289261,4.921674,2.8178134,3.2967765,2.6862442,3.2438443,4.441032,2.3811908,3.9603214,3.6147323,3.782006,3.3062096,3.5912466,3.3249702,2.6893957,3.7347667,3.578652,2.443485,2.686741,3.9969244,3.3746948,1.9689854,2.278935,2.592601,2.5563927,3.843022
COc1cc(-c2ccc3ncnc(Nc4cccc(N)c4)c3c2)ccc1O,4.059096,2.2646072,3.0524762,2.9386027,2.8304415,2.5280976,1.7843916,3.5699565,2.6951177,3.2681746,3.2277646,3.7529063,3.6811972,2.3036878,4.829842,0.9155873,1.2406428,3.848259,4.3914123,2.6483498,3.2959955,3.3989618,2.2845838,6.3402267,1.3229573,4.2955728,3.8557813,2.269551,3.0818748,1.9922063,1.8893776,1.3766726,4.106406,2.201078,3.5490751,3.418097,4.0495834,3.9312556,2.936439,4.9959006,2.322607,2.0479424,3.8009305,2.4199274,2.7071087,2.384785,3.1856327,3.0273645,1.4391453,2.2439544,6.3942757,3.4495633,3.619397,1.6866313,2.24076,4.1029506,1.9284767,4.1632347,4.620214,2.9718158,2.9610102,4.4034653,4.284661,2.450934,3.7074094,3.8974817,1.4592265,3.504003,2.9286952,3.7563787,2.3680239,1.9280119,1.9503562,2.521536,2.1568944,4.3295555,2.8004,2.743641,2.0311713,2.1348038,2.1189053,4.350537,3.0071678,4.349168,2.5369782,4.4329357,2.5991178,2.677334,2.5723968,3.7943547,3.3248184,4.48852,2.9256039,2.6537201,2.4268203,3.9301887,3.5357475,2.4349937,4.654316,2.0773194,2.0944004,2.8472996,1.7486947,2.5682664,2.992864,2.1496458,4.168517,2.8397646,1.3814789,2.284303,2.0551114,4.601889,1.0261954,3.7995067,2.64436,3.608015,5.293232,2.815617,4.5350924,2.3893967,2.5148373,2.7955325,2.7859774,2.7287428,1.5686276,2.774245,2.8268406,2.8187373,1.2520156,2.775899,3.884987,2.140439,2.777304,3.7689092,2.834405,4.999567,1.491703,3.8330374,4.6272206,1.651902,3.6240983,2.720063,4.6878495,3.2155375,3.242152,3.801323,3.0034382,3.2642307,2.8367229,1.7912804,2.6417603,2.5300586,2.944725,3.2265012,2.2247913,1.8288981,2.647615,1.9621767,3.140219,2.327949,2.4145422,2.3306756,3.086982,4.599972,2.309224,2.8820662,4.497432,1.5209687,3.1887915,4.9987955,3.6984103,1.9420068,4.2914057,2.4312353,3.979961,4.4322066,1.6854162,1.3167495,3.341787,2.0887392,2.309331,1.580372,3.2292078,2.9757938,4.6346393,3.0758467,3.4722567,3.9245205,3.8779316,3.6126797,3.719293,3.0678327,2.5033793,4.800879,2.2965207,2.093148,2.8095624,2.27675,1.5788037,3.904729,1.247483,4.0920405,2.5023332,2.349396,3.3200629,2.7772439,4.0465918,2.4539087,3.4489179,3.436546,3.311637,3.6653519,3.8003037,1.4848423,3.0137763,1.7937617,3.9404604,4.386159,2.176585,2.425863,2.4033706,2.804414,3.4510877,2.7420902,2.7136629,2.8819716,3.3131726,2.506221,4.6284447,2.1692927,3.3114626,2.1642783,3.7814207,5.71207,4.4976945,3.3378751,2.4888952,3.004747,2.8462446,3.0672328,4.435219,2.431302,2.0827053,4.36854,1.7770762,2.955318,3.0105827,3.535964,2.4155269,2.8063128,3.9484973,3.239827,4.2737117,4.194414,4.5467086,1.6146154,2.9757712,1.9655513,2.7096782,3.091416,2.204147,4.4703336,1.7610396,2.3653665,3.7741303,2.950068,1.8189595,3.0751362,3.1196072,3.5020149,1.2241298,3.6594892,3.975159,2.4323363,2.4541795,2.9802034,1.4657894,2.4748335,2.7021074,3.35832,2.3441887,2.6561956,4.556571,4.316248,3.1939003,2.3803082,3.7680585,1.7872989,2.9676433,3.4468255,3.1877472,3.0746949,3.137303,1.747288,2.6474679,3.3975909,4.1817317,4.2884808,3.9001787,2.9466531,1.8889489,2.5074487,1.6216955,2.059885,3.0272129,2.9413052,4.0424447,2.5414648,3.3259745,4.381168,3.6537337,4.821507,4.918708,3.0187626,2.1637108,2.7856154,2.266496,3.7173173,2.41482,2.3467255,2.7530046,3.2981205,3.5185664,3.6000128,3.656943,3.25759,2.876952,1.9187222,1.653303,1.7781956,4.883626,3.4089124,4.4860916,3.528855,2.8124163,2.0943816,2.3382077,3.7876089,1.4789312,4.5106177,2.841137,4.3828354,3.7070487,3.0913358,4.258314,3.0029104,4.1988397,3.7207701,2.2671707,3.8067455,2.947901,2.6442797,2.985322,3.6205246,2.7437441,3.215591,3.2009695,1.9453261,2.8581467,2.59047,3.6321926,3.5294166,2.9251242,3.6568186,2.2295227,3.2926958,3.7446852,4.6004157,3.9078217,2.0549045,4.9127593,4.2965193,3.8866718,1.3974339,2.1394167,2.9102166,3.0929506,2.5868948,3.6929271,4.064541,2.7002096,2.4445539,3.9134514,2.4093194,1.7644774,2.1286602,4.465039,2.6685905,1.8958185,5.150772,3.4872365,3.3026748,2.3867643,2.119894,2.629209,2.7458112,4.1755934,2.9523118,2.971872,3.5141158,4.36462,4.5885572,3.81235,3.7500052,2.1290405,1.6625968,2.6149964,2.1796663,3.3002496,1.8311192,5.041334,1.2056564,2.2378078,3.958772,2.5624309,2.1707067,3.4046314,3.8946607,2.1114087,2.7012281,3.0589178,2.9577343,2.0967908,3.8694787,2.2819064,3.1343539,1.7052135,1.8460978,4.356275,2.463022,2.5082455,3.0746624,4.193853,2.3825562,1.6119409,3.412723,2.4486022,2.4915638,2.565204,2.3694186,4.8786902,3.3202238,2.8498049,2.6484177,2.969063,4.800549,2.2299287,1.8228865,4.146267,2.6138492,2.0503604,1.6568115,3.3011627,2.5435147,2.784632,2.3666298,5.806183,1.6066107,0.88264126,3.921449,2.5368404,2.88169,3.5322173,3.111656,3.361429,2.7464442,2.0632894,3.4156435,4.603301,2.8922162,5.065506,2.1580153,3.966499,2.561049,3.1965468,2.7268386,4.588794,4.474521,2.7793868,3.872178,4.277879,3.4271398,3.9133754,3.0647354,3.542043,3.0031357,2.2802246,3.0846817,1.9243876,3.315687,2.410386,3.3376696,1.5559452,2.3950822,3.9592302,2.8633134,3.630781,2.9096727,3.670002,2.8023505,2.7214253,3.7255797,3.5528367,1.9944258,2.5871036,4.181024,3.5354543,2.1819174,1.920595,2.843541,1.3822473,3.705334
